{"learner":{"attributes":{"best_iteration":"99","best_ntree_limit":"100","scikit_learn":"{\"n_estimators\": 100, \"objective\": \"reg:squarederror\", \"max_depth\": null, \"max_leaves\": null, \"max_bin\": null, \"grow_policy\": null, \"learning_rate\": null, \"verbosity\": null, \"booster\": null, \"tree_method\": null, \"gamma\": null, \"min_child_weight\": null, \"max_delta_step\": null, \"subsample\": null, \"sampling_method\": null, \"colsample_bytree\": null, \"colsample_bylevel\": null, \"colsample_bynode\": null, \"reg_alpha\": null, \"reg_lambda\": null, \"scale_pos_weight\": null, \"base_score\": null, \"missing\": NaN, \"num_parallel_tree\": null, \"random_state\": null, \"n_jobs\": null, \"monotone_constraints\": null, \"interaction_constraints\": null, \"importance_type\": null, \"gpu_id\": null, \"validate_parameters\": null, \"predictor\": null, \"enable_categorical\": false, \"feature_types\": null, \"max_cat_to_onehot\": null, \"max_cat_threshold\": null, \"eval_metric\": null, \"early_stopping_rounds\": null, \"callbacks\": null, \"_estimator_type\": \"regressor\"}"},"feature_names":["SALE TYPE","PROPERTY TYPE","STATE OR PROVINCE","BEDS","BATHS","STATUS","NEXT OPEN HOUSE START TIME","SOURCE","FAVORITE","INTERESTED","SQUARE FEET","LOT SIZE","YEAR BUILT","DAYS ON MARKET","$-SQUARE FEET","HOA-MONTH"],"feature_types":["int","int","int","int","int","int","int","int","int","int","float","float","float","float","float","float"],"gradient_booster":{"model":{"gbtree_model_param":{"num_parallel_tree":"1","num_trees":"100","size_leaf_vector":"0"},"tree_info":[0,0,0,0,0,0,0,0,0,0,0,0,0,0,0,0,0,0,0,0,0,0,0,0,0,0,0,0,0,0,0,0,0,0,0,0,0,0,0,0,0,0,0,0,0,0,0,0,0,0,0,0,0,0,0,0,0,0,0,0,0,0,0,0,0,0,0,0,0,0,0,0,0,0,0,0,0,0,0,0,0,0,0,0,0,0,0,0,0,0,0,0,0,0,0,0,0,0,0,0],"trees":[{"base_weights":[1.5523915E6,1.0944009E6,6.00213E6,7.675734E5,1.918966E6,2.8574932E6,1.07478E7,5.9531875E5,1.0916962E6,1.6753871E6,3.9414282E6,1.8474876E6,3.5499995E6,7.1471425E6,1.4362E7,5.3078906E5,9.93687E5,6.4766144E5,1.2831622E6,1.2823312E6,2.732882E6,1.1316664E6,4.8389995E6,4.794655E5,7.773172E5,1.3991662E6,6.8218125E5,1.16666336E5,6.974153E5,1.3236092E6,3.0266634E5,4.125996E5,1.3489905E6,2.8477495E6,4.4749975E5,3.046934E5,5.122505E5,2.19666E5,7.605551E5,4.91544E5,8.0245406E5,1.5262995E6,1.0791812E6,1.1942518E6,1.852444E6,6.7499975E5,2.9475995E6],"categories":[],"categories_nodes":[],"categories_segments":[],"categories_sizes":[],"default_left":[1,1,1,1,1,1,1,1,1,1,1,0,0,0,0,1,1,1,1,1,1,0,0,1,0,0,1,0,1,1,0,0,1,1,0,0,0,0,0,0,0,0,0,0,0,0,0],"id":0,"left_children":[1,3,5,7,9,11,13,15,17,19,21,-1,-1,-1,-1,23,25,27,29,31,33,-1,-1,35,-1,-1,37,-1,39,41,-1,-1,43,45,-1,-1,-1,-1,-1,-1,-1,-1,-1,-1,-1,-1,-1],"loss_changes":[5.66092E14,6.7516617E13,3.5729685E14,9.67896E12,2.8865871E13,5.331816E12,2.7487656E13,2.6344717E12,4.5250416E12,2.3928756E13,1.21776E13,0E0,0E0,0E0,0E0,9.937942E11,1.06646156E12,4.734352E11,1.3046886E12,2.3421916E12,3.1884092E12,0E0,0E0,3.7107217E11,0E0,0E0,2.3167186E11,0E0,1.6423846E10,3.8411436E11,0E0,0E0,1.3712857E12,1.481554E12,0E0,0E0,0E0,0E0,0E0,0E0,0E0,0E0,0E0,0E0,0E0,0E0,0E0],"parents":[2147483647,0,0,1,1,2,2,3,3,4,4,5,5,6,6,7,7,8,8,9,9,10,10,15,15,16,16,17,17,18,18,19,19,20,20,23,23,26,26,28,28,29,29,32,32,33,33],"right_children":[2,4,6,8,10,12,14,16,18,20,22,-1,-1,-1,-1,24,26,28,30,32,34,-1,-1,36,-1,-1,38,-1,40,42,-1,-1,44,46,-1,-1,-1,-1,-1,-1,-1,-1,-1,-1,-1,-1,-1],"split_conditions":[1.3942119E0,3.5E0,5.5E0,2.5E0,2.7906046E0,-6.009614E-1,1.5864661E0,-2.5236953E-2,-5.011497E-1,-1.3561519E-2,-8.8497186E-1,5.542463E5,1.0649999E6,2.1441428E6,4.3086E6,3.7601456E-2,-1.8749115E-1,-1.130894E0,3.9905145E0,3.5E0,1.1418455E0,3.3949994E5,1.4516999E6,-9.730748E-1,2.3319517E5,4.197499E5,-5.063382E-1,3.4999902E4,-4.3707994E-1,-5.336691E-1,9.079991E4,1.2377988E5,1.1041863E0,-4.6322292E-1,1.3424994E5,9.140802E4,1.5367516E5,6.5899805E4,2.2816655E5,1.474632E5,2.4073623E5,4.5788988E5,3.2375438E5,3.5827553E5,5.5573325E5,2.0249994E5,8.842799E5],"split_indices":[14,4,4,4,10,10,10,15,14,15,14,0,0,0,0,14,12,14,11,3,11,0,0,14,0,0,14,0,10,12,0,0,10,10,0,0,0,0,0,0,0,0,0,0,0,0,0],"split_type":[0,0,0,0,0,0,0,0,0,0,0,0,0,0,0,0,0,0,0,0,0,0,0,0,0,0,0,0,0,0,0,0,0,0,0,0,0,0,0,0,0,0,0,0,0,0,0],"sum_hessian":[2.8E2,2.55E2,2.5E1,1.84E2,7.1E1,1.6E1,9E0,1.22E2,6.2E1,6.5E1,6E0,8E0,8E0,6E0,3E0,1.07E2,1.5E1,2E1,4.2E1,4.9E1,1.6E1,2E0,4E0,9.1E1,1.6E1,5E0,1E1,2E0,1.8E1,4E1,2E0,4E0,4.5E1,1.5E1,1E0,1.6E1,7.5E1,2E0,8E0,8E0,1E1,1.9E1,2.1E1,3.7E1,8E0,1E0,1.4E1],"tree_param":{"num_deleted":"0","num_feature":"16","num_nodes":"47","size_leaf_vector":"0"}},{"base_weights":[1.138666E6,7.916187E5,4.511952E6,5.5074856E5,1.3995264E6,2.4173752E6,8.922578E6,4.9033738E5,1.2027199E6,1.2069955E6,3.0148852E6,1.6218012E6,3.5495302E6,5.3716855E6,1.113055E7,4.198091E5,8.6752175E5,1.4382542E6,6.097093E5,9.529452E5,2.1694358E6,1.1648246E6,4.1112245E6,3.7724978E5,6.844291E5,4.0787878E5,1.01539656E6,1.2154984E5,6.8303125E5,5.7746975E5,1.0699249E6,3.073598E5,2.2989955E6,2.4536473E5,4.2618997E5,9.199306E5,5.603E5,1.6831453E5,6.2746944E5,8.102418E5,1.3735995E6,3.8037478E5,2.438836E6],"categories":[],"categories_nodes":[],"categories_segments":[],"categories_sizes":[],"default_left":[1,1,1,1,1,1,1,1,1,1,1,0,0,0,0,1,1,0,1,1,1,0,0,1,1,0,0,0,0,1,1,0,1,0,0,0,0,0,0,0,0,0,0],"id":1,"left_children":[1,3,5,7,9,11,13,15,17,19,21,-1,-1,-1,-1,23,25,-1,27,29,31,-1,-1,33,35,-1,-1,-1,-1,37,39,-1,41,-1,-1,-1,-1,-1,-1,-1,-1,-1,-1],"loss_changes":[3.2539216E14,3.6714454E13,2.1862904E14,6.696739E12,1.8753522E13,1.13569E13,2.932389E12,4.1847787E12,1.2181978E12,1.4070195E13,9.409204E12,0E0,0E0,0E0,0E0,1.3860581E12,1.353051E12,0E0,1.31734176E11,1.7539908E12,2.4296303E12,0E0,0E0,7.2160064E11,3.9982203E10,0E0,0E0,0E0,0E0,2.0125214E11,2.0414181E12,0E0,2.2919397E12,0E0,0E0,0E0,0E0,0E0,0E0,0E0,0E0,0E0,0E0],"parents":[2147483647,0,0,1,1,2,2,3,3,4,4,5,5,6,6,7,7,8,8,9,9,10,10,15,15,16,16,18,18,19,19,20,20,23,23,24,24,29,29,30,30,32,32],"right_children":[2,4,6,8,10,12,14,16,18,20,22,-1,-1,-1,-1,24,26,-1,28,30,32,-1,-1,34,36,-1,-1,-1,-1,38,40,-1,42,-1,-1,-1,-1,-1,-1,-1,-1,-1,-1],"split_conditions":[1.3942119E0,3.5E0,8.205153E-1,2.2975293E-1,2.7906046E0,4E0,1.5864661E0,1.5004566E-1,1.33044E-1,8.709543E-1,-6.405821E-1,4.865404E5,1.0648591E6,1.6115058E6,3.3391652E6,5.5E0,-8.553679E-1,4.3147628E5,-5.3008765E-1,-7.96869E-1,-5.68032E-1,3.494474E5,1.2333674E6,-8.24449E-1,-6.3747615E-1,1.2236364E5,3.0461897E5,3.6464953E4,2.0490939E5,-1.1370227E0,7.485456E-2,9.2207945E4,4E0,7.360942E4,1.2785699E5,2.759792E5,1.6809E5,5.0494363E4,1.8824084E5,2.4307255E5,4.1207988E5,1.1411244E5,7.316508E5],"split_indices":[14,4,10,15,10,4,10,14,12,15,14,0,0,0,0,3,10,0,14,14,11,0,0,14,11,0,0,0,0,14,10,0,3,0,0,0,0,0,0,0,0,0,0],"split_type":[0,0,0,0,0,0,0,0,0,0,0,0,0,0,0,0,0,0,0,0,0,0,0,0,0,0,0,0,0,0,0,0,0,0,0,0,0,0,0,0,0,0,0],"sum_hessian":[2.8E2,2.55E2,2.5E1,1.84E2,7.1E1,1.8E1,7E0,1.7E2,1.4E1,6.5E1,6E0,1.2E1,6E0,4E0,3E0,1.45E2,2.5E1,9E0,5E0,5.3E1,1.2E1,3E0,3E0,1.27E2,1.8E1,7E0,1.8E1,1E0,4E0,1.4E1,3.9E1,1E0,1.1E1,3.6E1,9.1E1,4E0,1.4E1,2E0,1.2E1,2.3E1,1.6E1,1E0,1E1],"tree_param":{"num_deleted":"0","num_feature":"16","num_nodes":"43","size_leaf_vector":"0"}},{"base_weights":[8.385684E5,5.791372E5,3.4719782E6,5.0048084E5,1.7326182E6,1.6233148E6,6.5781225E6,3.8529903E5,1.2182899E6,8.297774E5,2.3426302E6,7.607538E5,2.0246431E6,3.70081E6,8.1398105E6,2.4144173E5,4.9758356E5,7.933074E5,1.6202521E6,1.3898126E6,3.186199E6,1.2506089E5,3.0530653E5,9.5506794E5,4.5061662E5,1.1895116E6,6.3476575E5,2.6125584E5,1.6934348E6,2.4574445E4,1.642725E5,1.9753578E5,3.4679075E5,4.6473675E5,1.0988189E6,4.0533397E5,7.791001E5,1.03317375E5,6.6534656E5,4.522135E5,1.7497925E6],"categories":[],"categories_nodes":[],"categories_segments":[],"categories_sizes":[],"default_left":[1,1,1,1,1,1,1,1,1,0,1,0,0,0,0,1,1,1,1,0,0,1,1,1,1,0,1,0,1,0,0,0,0,0,0,0,0,0,0,0,0],"id":2,"left_children":[1,3,5,7,9,11,13,15,17,-1,19,-1,-1,-1,-1,21,23,25,27,-1,-1,29,31,33,35,-1,37,-1,39,-1,-1,-1,-1,-1,-1,-1,-1,-1,-1,-1,-1],"loss_changes":[1.8996526E14,2.2450104E13,1.3287699E14,1.9538809E13,6.8680386E12,4.3446404E12,1.0317283E13,3.2719828E12,4.3519301E12,0E0,2.8056832E12,0E0,0E0,0E0,0E0,6.6048596E11,2.0835666E12,3.756062E11,1.1488576E12,0E0,0E0,1.3387127E11,1.9974324E11,1.9419418E11,1.2906586E12,0E0,1.7503932E11,0E0,2.5800842E11,0E0,0E0,0E0,0E0,0E0,0E0,0E0,0E0,0E0,0E0,0E0,0E0],"parents":[2147483647,0,0,1,1,2,2,3,3,4,4,5,5,6,6,7,7,8,8,10,10,15,15,16,16,17,17,18,18,21,21,22,22,23,23,24,24,26,26,28,28],"right_children":[2,4,6,8,10,12,14,16,18,-1,20,-1,-1,-1,-1,22,24,26,28,-1,-1,30,32,34,36,-1,38,-1,40,-1,-1,-1,-1,-1,-1,-1,-1,-1,-1,-1,-1],"split_conditions":[1.4869114E0,1.1041863E0,5.192855E-1,7.1953505E-2,-6.382837E-1,-6.844629E-1,1.3340106E0,1.5E0,4E0,2.4893322E5,2.4804003E0,2.2822616E5,6.0739294E5,1.110243E6,2.4419432E6,2.5E0,-1.290132E0,-8.285614E-1,-5.68032E-1,4.169438E5,9.5585975E5,-6.134575E-1,1.5E0,2.5E0,2.4887413E-1,3.568535E5,-9.669459E-1,7.837676E4,-2.671781E-1,7.372334E3,4.9281754E4,5.926074E4,1.0403723E5,1.3942103E5,3.296457E5,1.21600195E5,2.3373005E5,3.0995213E4,1.9960398E5,1.3566406E5,5.2493775E5],"split_indices":[14,10,10,15,14,10,10,4,3,0,10,0,0,0,0,7,12,12,11,0,0,15,3,7,14,0,14,0,10,0,0,0,0,0,0,0,0,0,0,0,0],"split_type":[0,0,0,0,0,0,0,0,0,0,0,0,0,0,0,0,0,0,0,0,0,0,0,0,0,0,0,0,0,0,0,0,0,0,0,0,0,0,0,0,0],"sum_hessian":[2.8E2,2.56E2,2.4E1,2.41E2,1.5E1,1.6E1,8E0,2.09E2,3.2E1,7E0,8E0,6E0,1E1,4E0,4E0,9.3E1,1.16E2,1.7E1,1.5E1,5E0,3E0,3.4E1,5.9E1,9E0,1.07E2,3E0,1.4E1,1E0,1.4E1,1E1,2.4E1,1.8E1,4.1E1,3E0,6E0,9.6E1,1.1E1,1E0,1.3E1,1E0,1.3E1],"tree_param":{"num_deleted":"0","num_feature":"16","num_nodes":"41","size_leaf_vector":"0"}},{"base_weights":[6.1682106E5,5.348887E5,6.1569135E6,4.150071E5,2.1472222E6,2.835774E5,7.4779844E5,9.340993E5,3.3913478E6,2.4009289E5,6.007746E5,6.037618E5,1.4296714E6,4.1698997E5,1.0758915E6,1.9513225E5,4.4731488E5,3.315978E4,6.262249E5,5.262075E5,1.0614774E6,6.945019E5,1.7104434E6,1.7019505E5,4.9980262E5,3.6452422E5,8.736254E5,8.7819766E4,6.487541E5,4.0187634E5,8.969791E5,6.260983E5,2.0545655E6],"categories":[],"categories_nodes":[],"categories_segments":[],"categories_sizes":[],"default_left":[1,1,0,1,1,1,1,1,0,1,1,1,1,0,0,1,1,0,1,1,1,0,0,0,0,0,0,0,0,0,0,0,0],"id":3,"left_children":[1,3,-1,5,7,9,11,13,-1,15,17,19,21,-1,-1,23,25,-1,27,29,31,-1,-1,-1,-1,-1,-1,-1,-1,-1,-1,-1,-1],"loss_changes":[1.2425622E14,5.2843273E13,0E0,1.1159994E13,2.5508423E13,2.4488748E12,6.3064884E12,3.579073E11,0E0,1.4686261E12,2.970448E11,1.642307E12,1.2890753E12,0E0,0E0,9.71006E11,7.05084E11,0E0,1.977541E11,2.1749406E12,2.1725981E12,0E0,0E0,0E0,0E0,0E0,0E0,0E0,0E0,0E0,0E0,0E0,0E0],"parents":[2147483647,0,0,1,1,3,3,4,4,5,5,6,6,7,7,9,9,10,10,11,11,12,12,15,15,16,16,18,18,19,19,20,20],"right_children":[2,4,-1,6,8,10,12,14,-1,16,18,20,22,-1,-1,24,26,-1,28,30,32,-1,-1,-1,-1,-1,-1,-1,-1,-1,-1,-1,-1],"split_conditions":[4.655732E0,2.0247223E0,1.8470741E6,3.5E0,-1.5280247E-2,4.3233365E-2,6.288315E-2,1.5E0,1.0174044E6,6.2708884E-2,9E0,1.0410162E0,1.6889131E-1,1.2509699E5,3.2276747E5,1.8996179E-1,-4.4917595E-1,9.947935E3,-6.229615E-1,1.1041863E0,1.1074709E0,2.0835058E5,5.1313303E5,5.1058516E4,1.499408E5,1.0935727E5,2.6208762E5,2.6345932E4,1.9462625E5,1.2056291E5,2.6909375E5,1.878295E5,6.163697E5],"split_indices":[10,14,0,4,10,15,14,4,0,14,6,15,10,0,0,10,10,0,14,10,12,0,0,0,0,0,0,0,0,0,0,0,0],"split_type":[0,0,0,0,0,0,0,0,0,0,0,0,0,0,0,0,0,0,0,0,0,0,0,0,0,0,0,0,0,0,0,0,0],"sum_hessian":[2.8E2,2.77E2,3E0,2.59E2,1.8E1,1.87E2,7.2E1,1E1,8E0,1.66E2,2.1E1,6.1E1,1.1E1,3E0,7E0,1.38E2,2.8E1,1E0,2E1,5.4E1,7E0,4E0,7E0,1.29E2,9E0,2.5E1,3E0,1E0,1.9E1,4.2E1,1.2E1,6E0,1E0],"tree_param":{"num_deleted":"0","num_feature":"16","num_nodes":"33","size_leaf_vector":"0"}},{"base_weights":[4.5323753E5,3.8947234E5,4.771608E6,3.009615E5,1.5801749E6,1.00599925E6,5.691478E6,2.3220711E5,6.62547E5,6.9458444E5,2.4869882E6,1.792873E5,6.201747E5,3.412337E5,1.143272E6,3.2316722E5,7.9347E5,1.4725855E5,3.8181034E5,5.0527122E5,1.7463806E6,3.8656712E5,1.256944E5,9.326024E5,1.7453061E6,2.010934E5,7.4701266E4,2.1680625E5,5.8710625E5,7.7519044E5,4.1694422E5,1.242725E5,4.2337888E5,1.3876928E5,3.016E4],"categories":[],"categories_nodes":[],"categories_segments":[],"categories_sizes":[],"default_left":[1,1,1,1,1,0,0,1,1,1,0,1,1,1,1,0,0,1,1,1,0,1,1,0,0,0,0,0,0,0,0,0,0,0,0],"id":4,"left_children":[1,3,5,7,9,-1,-1,11,13,15,-1,17,19,21,23,-1,-1,25,27,29,-1,31,33,-1,-1,-1,-1,-1,-1,-1,-1,-1,-1,-1,-1],"loss_changes":[7.5518225E13,2.8822871E13,8.1298614E12,6.309907E12,1.3530816E13,0E0,0E0,4.4056697E12,5.9428737E12,1.4758183E11,0E0,1.2086542E12,2.4821325E12,2.0546008E11,4.016067E11,0E0,0E0,6.4901716E11,7.534527E11,2.7281746E11,0E0,1.5015163E11,3.3093304E9,0E0,0E0,0E0,0E0,0E0,0E0,0E0,0E0,0E0,0E0,0E0,0E0],"parents":[2147483647,0,0,1,1,2,2,3,3,4,4,7,7,8,8,9,9,11,11,12,12,13,13,14,14,17,17,18,18,19,19,21,21,22,22],"right_children":[2,4,6,8,10,-1,-1,12,14,16,-1,18,20,22,24,-1,-1,26,28,30,-1,32,34,-1,-1,-1,-1,-1,-1,-1,-1,-1,-1,-1,-1],"split_conditions":[4.655732E0,2.0247223E0,5E0,2.590261E-1,-1.5280247E-2,3.0179978E5,1.7074435E6,1.5101457E-1,-5.808253E-1,1.5E0,7.460965E5,2.2818911E-1,1.6203271E0,1.586868E-1,2.4804003E0,9.695017E4,2.3804102E5,-6.235607E-3,-6.16179E-1,-8.285614E-1,5.2391422E5,-1.0948865E0,8.5E0,2.7978072E5,5.2359184E5,6.0328023E4,2.241038E4,6.504188E4,1.7613188E5,2.3255714E5,1.2508327E5,3.728175E4,1.27013664E5,4.1630785E4,9.048E3],"split_indices":[10,14,1,10,10,0,0,15,14,4,0,14,12,12,10,0,0,11,10,12,0,14,4,0,0,0,0,0,0,0,0,0,0,0,0],"split_type":[0,0,0,0,0,0,0,0,0,0,0,0,0,0,0,0,0,0,0,0,0,0,0,0,0,0,0,0,0,0,0,0,0,0,0],"sum_hessian":[2.8E2,2.77E2,3E0,2.59E2,1.8E1,1E0,2E0,2.19E2,4E1,1E1,8E0,1.94E2,2.5E1,2.5E1,1.5E1,3E0,7E0,1.69E2,2.5E1,2.4E1,1E0,2E1,5E0,1.3E1,2E0,9.6E1,7.3E1,1.5E1,1E1,4E0,2E1,3E0,1.7E1,4E0,1E0],"tree_param":{"num_deleted":"0","num_feature":"16","num_nodes":"35","size_leaf_vector":"0"}},{"base_weights":[3.361778E5,5.652887E6,2.970007E5,2.1821297E5,1.1678804E6,1.5600266E5,5.855771E5,5.720381E5,2.21358E6,1.2516433E5,5.20514E5,4.7076075E5,1.22625E6,7.9153456E5,1.7675206E5,-6.9919196E2,1.5004839E5,3.1274078E5,7.726556E5,3.7252138E5,7.824325E5,1.895913E5,4.9858312E4,-5.941887E4,9.162453E4,1.306696E5,3.1905094E5,2.9890375E4,3.3803678E5,6.209969E5,2.8782253E5],"categories":[],"categories_nodes":[],"categories_segments":[],"categories_sizes":[],"default_left":[1,0,1,1,1,1,1,1,0,1,1,1,0,0,1,1,1,1,0,1,0,0,0,0,0,0,0,0,0,0,0],"id":5,"left_children":[1,-1,3,5,7,9,11,13,-1,15,17,19,-1,-1,21,23,25,27,-1,29,-1,-1,-1,-1,-1,-1,-1,-1,-1,-1,-1],"loss_changes":[5.6851534E13,0E0,1.895725E13,5.804941E12,1.3064401E13,2.4303344E12,2.1444396E12,1.2483171E12,0E0,6.45296E11,6.4896E11,7.189362E11,0E0,0E0,1.9518259E9,1.9518692E11,5.2162095E11,6.860079E10,0E0,3.8949408E11,0E0,0E0,0E0,0E0,0E0,0E0,0E0,0E0,0E0,0E0,0E0],"parents":[2147483647,0,0,2,2,3,3,4,4,5,5,6,6,7,7,9,9,10,10,11,11,14,14,15,15,16,16,17,17,19,19],"right_children":[2,-1,4,6,8,10,12,14,-1,16,18,20,-1,-1,22,24,26,28,-1,30,-1,-1,-1,-1,-1,-1,-1,-1,-1,-1,-1],"split_conditions":[-2.6876652E0,1.6958661E6,1.0128809E0,9.0992704E-2,9.081028E-3,7.797899E-1,1.4792917E0,-7.003474E-1,6.64074E5,-9.3170476E-1,-6.16179E-1,2.1532439E-1,3.67875E5,2.3746038E5,1.15E1,-4.5580924E-1,7.5E0,-1.02042E0,2.317967E5,-8.285614E-1,2.3472977E5,5.687739E4,1.4957494E4,-1.7825662E4,2.7487361E4,3.9200883E4,9.571528E4,8.967113E3,1.0141104E5,1.8629906E5,8.6346766E4],"split_indices":[12,0,10,15,14,14,12,12,0,14,10,10,0,0,3,10,3,10,0,12,0,0,0,0,0,0,0,0,0,0,0],"split_type":[0,0,0,0,0,0,0,0,0,0,0,0,0,0,0,0,0,0,0,0,0,0,0,0,0,0,0,0,0,0,0],"sum_hessian":[2.8E2,1E0,2.79E2,2.57E2,2.2E1,2.21E2,3.6E1,1.5E1,7E0,2.05E2,1.6E1,3.2E1,4E0,9E0,6E0,3.4E1,1.71E2,1E1,6E0,2.6E1,6E0,5E0,1E0,2.1E1,1.3E1,1.55E2,1.6E1,1E0,9E0,5E0,2.1E1],"tree_param":{"num_deleted":"0","num_feature":"16","num_nodes":"31","size_leaf_vector":"0"}},{"base_weights":[2.4967052E5,4.804954E6,2.162411E5,1.5802816E5,8.598366E5,1.1555343E5,4.6532525E5,4.197576E5,1.6325152E6,8.825051E4,3.6719666E5,3.9413703E5,1.300486E6,5.778201E5,1.3398858E5,1.9654445E6,8.0822475E5,2.5178867E5,7.0383414E4,6.444012E5,2.2296989E5,3.0844153E5,6.855122E5,1.6177556E5,6.0607225E5,1.7039083E5,6.4089188E4,2.6215874E3,3.139166E5,5.5624195E4,2.255685E5,4.1593344E4,2.6162653E5,-4.787604E3,3.35887E5,1.92505E5,7.456126E5,1.6445375E5,6.407179E5],"categories":[],"categories_nodes":[],"categories_segments":[],"categories_sizes":[],"default_left":[1,0,1,1,1,1,1,1,1,1,1,1,0,1,1,0,0,1,1,0,1,1,1,0,1,0,0,0,0,0,0,0,0,0,0,0,0,0,0],"id":6,"left_children":[1,-1,3,5,7,9,11,13,15,17,19,21,-1,23,25,-1,-1,27,29,-1,31,33,35,-1,37,-1,-1,-1,-1,-1,-1,-1,-1,-1,-1,-1,-1,-1,-1],"loss_changes":[4.1751784E13,0E0,1.0354487E13,3.3137398E12,7.135651E12,1.5340903E12,1.3304914E12,6.452887E11,6.069221E11,5.871222E11,7.358849E11,5.3764633E11,0E0,1.9493552E10,6.8912497E9,0E0,0E0,3.0878165E11,4.1805015E11,0E0,1.0130057E11,2.1652596E11,3.4245181E10,0E0,3.2332579E10,0E0,0E0,0E0,0E0,0E0,0E0,0E0,0E0,0E0,0E0,0E0,0E0,0E0,0E0],"parents":[2147483647,0,0,2,2,3,3,4,4,5,5,6,6,7,7,8,8,9,9,10,10,11,11,13,13,14,14,17,17,18,18,20,20,21,21,22,22,24,24],"right_children":[2,-1,4,6,8,10,12,14,16,18,20,22,-1,24,26,-1,-1,28,30,-1,32,34,36,-1,38,-1,-1,-1,-1,-1,-1,-1,-1,-1,-1,-1,-1,-1,-1],"split_conditions":[-2.6876652E0,1.4414862E6,1.0128809E0,4.0110567E-1,9.081028E-3,5.698751E-1,1.7613626E0,-7.003474E-1,2.3561525E-1,-1.2132037E0,-8.7984705E-1,1.2785289E0,3.901458E5,-6.6555834E-1,-4.952049E-1,5.896334E5,2.4246744E5,-1.6106672E0,7.5E0,1.9332036E5,-9.5603794E-1,-5.164719E-1,4E0,4.853267E4,1.6E1,5.111725E4,1.9226758E4,7.8647626E2,9.4174984E4,1.668726E4,6.7670555E4,1.2478004E4,7.848796E4,-1.4362812E3,1.007661E5,5.7751504E4,2.236838E5,4.933613E4,1.9221538E5],"split_indices":[12,0,10,15,14,14,12,12,12,12,12,14,0,11,12,0,0,12,3,0,10,14,4,0,6,0,0,0,0,0,0,0,0,0,0,0,0,0,0],"split_type":[0,0,0,0,0,0,0,0,0,0,0,0,0,0,0,0,0,0,0,0,0,0,0,0,0,0,0,0,0,0,0,0,0,0,0,0,0,0,0],"sum_hessian":[2.8E2,1E0,2.79E2,2.57E2,2.2E1,2.27E2,3E1,1.5E1,7E0,2.06E2,2.1E1,2.9E1,1E0,9E0,6E0,4E0,3E0,1.9E1,1.87E2,6E0,1.5E1,2.4E1,5E0,1E0,8E0,3E0,3E0,4E0,1.5E1,1.72E2,1.5E1,3E0,1.2E1,2E0,2.2E1,1E0,4E0,1E0,7E0],"tree_param":{"num_deleted":"0","num_feature":"16","num_nodes":"39","size_leaf_vector":"0"}},{"base_weights":[1.8853639E5,4.084211E6,1.600368E5,1.15404664E5,6.5373475E5,7.1428734E4,2.9249466E5,3.16357E5,1.2467732E6,5.3457766E4,2.9909134E5,2.5412802E5,1.1054131E6,4.334824E5,1.0384115E5,7.224793E5,1.5904475E6,-1.1357226E4,7.727281E4,6.10792E5,1.7026688E5,2.0090284E5,4.7427562E5,2.686272E5,5.446122E5,1.3205289E5,4.9669125E4,-5.7320664E4,8.934892E4,-4.3318766E4,9.512739E4,1.8831945E5,-1.415575E4,3.453407E5,1.5104584E5,2.4555894E5,5.477075E5,1.43346E5,6.0909225E5,1.24403125E4,5.7931957E4],"categories":[],"categories_nodes":[],"categories_segments":[],"categories_sizes":[],"default_left":[1,0,1,1,1,1,1,1,1,1,1,1,0,1,1,0,0,1,1,0,1,1,1,0,1,0,1,0,0,0,0,0,0,0,0,0,0,0,0,0,0],"id":7,"left_children":[1,-1,3,5,7,9,11,13,15,17,19,21,-1,23,25,-1,-1,27,29,-1,31,33,35,-1,37,-1,39,-1,-1,-1,-1,-1,-1,-1,-1,-1,-1,-1,-1,-1,-1],"loss_changes":[3.054444E13,0E0,6.0942964E12,1.9883331E12,4.2073682E12,8.350056E11,1.3097194E12,3.532427E11,2.9242478E11,3.0033052E11,4.9832237E11,4.9058624E11,0E0,3.690581E10,4.1390653E9,0E0,0E0,2.5044797E11,3.098626E11,0E0,4.261747E10,2.5028985E11,1.6661217E10,0E0,4.2057335E10,0E0,5.0976973E8,0E0,0E0,0E0,0E0,0E0,0E0,0E0,0E0,0E0,0E0,0E0,0E0,0E0,0E0],"parents":[2147483647,0,0,2,2,3,3,4,4,5,5,6,6,7,7,8,8,9,9,10,10,11,11,13,13,14,14,17,17,18,18,20,20,21,21,22,22,24,24,26,26],"right_children":[2,-1,4,6,8,10,12,14,16,18,20,22,-1,24,26,-1,-1,28,30,-1,32,34,36,-1,38,-1,40,-1,-1,-1,-1,-1,-1,-1,-1,-1,-1,-1,-1,-1,-1],"split_conditions":[-2.6876652E0,1.2252634E6,1.0128809E0,-2.5236953E-2,9.081028E-3,7.797899E-1,1.7613626E0,-7.003474E-1,1.5864661E0,-8.24449E-1,-4.8171428E-1,1.8801081E-1,3.3162394E5,1.05E1,-4.952049E-1,2.167438E5,4.7713428E5,1.0802105E-1,1.5E0,1.8323761E5,-2.2202456E-1,-8.285614E-1,8.1503105E-1,8.058816E4,2.4804003E0,3.9615867E4,9.5E0,-1.71962E4,2.6804678E4,-1.299563E4,2.8538219E4,5.649584E4,-4.246725E3,1.0360221E5,4.5313754E4,7.366769E4,1.6431225E5,4.30038E4,1.8272769E5,3.732094E3,1.7379588E4],"split_indices":[12,0,10,15,14,14,12,12,10,14,11,10,0,4,12,0,0,10,3,0,15,12,14,0,10,0,3,0,0,0,0,0,0,0,0,0,0,0,0,0,0],"split_type":[0,0,0,0,0,0,0,0,0,0,0,0,0,0,0,0,0,0,0,0,0,0,0,0,0,0,0,0,0,0,0,0,0,0,0,0,0,0,0,0,0],"sum_hessian":[2.8E2,1E0,2.79E2,2.57E2,2.2E1,2.07E2,5E1,1.5E1,7E0,1.93E2,1.4E1,4.9E1,1E0,9E0,6E0,4E0,3E0,5.2E1,1.41E2,3E0,1.1E1,4.1E1,8E0,5E0,4E0,3E0,3E0,3.6E1,1.6E1,1.8E1,1.23E2,1E1,1E0,9E0,3.2E1,3E0,5E0,1E0,3E0,1E0,2E0],"tree_param":{"num_deleted":"0","num_feature":"16","num_nodes":"41","size_leaf_vector":"0"}},{"base_weights":[1.435959E5,3.471579E6,1.1931176E5,1.06401414E5,1.2758994E6,8.135988E4,3.9409566E5,5.4992836E4,2.7181016E5,1.2226525E5,5.406941E5,3.5084945E4,1.5005947E5,2.1823042E5,9.3960125E5,1.5670036E5,4.004628E4,6.857281E5,2.9769897E5,1.5971548E5,2.1031932E4,4.8735027E4,1.9884727E5,1.5879566E5,4.2950353E5,4.4767625E4,1.7013338E5,1.057425E4,4.6345543E4,1.25551875E5,7.478173E5,3.7127944E5,1.4969375E5],"categories":[],"categories_nodes":[],"categories_segments":[],"categories_sizes":[],"default_left":[1,0,1,1,0,1,1,1,1,1,1,1,1,1,0,1,1,1,1,0,0,0,0,0,0,0,0,0,0,0,0,0,0],"id":8,"left_children":[1,-1,3,5,-1,7,9,11,13,15,17,19,21,23,-1,25,27,29,31,-1,-1,-1,-1,-1,-1,-1,-1,-1,-1,-1,-1,-1,-1],"loss_changes":[2.2295444E13,0E0,4.0451852E12,1.9707338E12,0E0,1.2756063E12,8.105899E11,4.2435012E11,9.041328E11,1.9205702E10,2.892552E11,3.2766204E11,1.8310169E11,3.0850574E11,0E0,1.4051082E9,2.5253786E8,1.8435722E11,2.0653801E10,0E0,0E0,0E0,0E0,0E0,0E0,0E0,0E0,0E0,0E0,0E0,0E0,0E0,0E0],"parents":[2147483647,0,0,2,2,3,3,5,5,6,6,7,7,8,8,9,9,10,10,11,11,12,12,13,13,15,15,16,16,17,17,18,18],"right_children":[2,-1,4,6,-1,8,10,12,14,16,18,20,22,24,-1,26,28,30,32,-1,-1,-1,-1,-1,-1,-1,-1,-1,-1,-1,-1,-1,-1],"split_conditions":[-2.6876652E0,1.04147375E6,3.6527107E0,1.0128809E0,3.827698E5,4.0110567E-1,-6.382837E-1,1.707307E-1,1.7613626E0,-4.952049E-1,6.5E0,-1.2132037E0,-7.636723E-1,1.2785289E0,2.8188038E5,7.5E0,9.5E0,-6.574565E-1,-6.25628E-1,4.791465E4,6.3095796E3,1.4620509E4,5.9654184E4,4.76387E4,1.2885106E5,1.3430288E4,5.1040016E4,3.1722751E3,1.3903663E4,3.7665562E4,2.243452E5,1.11383836E5,4.4908125E4],"split_indices":[12,0,14,10,0,15,14,14,12,12,3,12,10,14,0,4,3,11,11,0,0,0,0,0,0,0,0,0,0,0,0,0,0],"split_type":[0,0,0,0,0,0,0,0,0,0,0,0,0,0,0,0,0,0,0,0,0,0,0,0,0,0,0,0,0,0,0,0,0],"sum_hessian":[2.8E2,1E0,2.79E2,2.77E2,2E0,2.56E2,2.1E1,2.26E2,3E1,8E0,1.3E1,1.88E2,3.8E1,2.9E1,1E0,5E0,3E0,7E0,6E0,1.8E1,1.7E2,1.3E1,2.5E1,2.4E1,5E0,1E0,4E0,1E0,2E0,1E0,6E0,3E0,3E0],"tree_param":{"num_deleted":"0","num_feature":"16","num_nodes":"33","size_leaf_vector":"0"}},{"base_weights":[1.0945294E5,2.950842E6,8.87664E4,8.000506E4,1.2665895E6,4.5908434E4,2.1803666E5,3.501867E4,2.5458031E5,7.101583E4,3.6787247E5,1.3007793E4,1.05543695E5,7.632316E4,7.044917E5,1.4508975E4,9.571846E4,3.0751656E5,6.380399E5,1.5795589E5,1.6286696E3,8.009533E4,2.5406264E5,1.1289443E5,-3.4450855E4,-2.5520225E4,4.544848E4,2.00008E4,1.1339783E5,2.2200856E5,4.8346328E5],"categories":[],"categories_nodes":[],"categories_segments":[],"categories_sizes":[],"default_left":[1,0,1,1,0,1,1,1,1,1,1,1,1,1,0,1,1,1,0,0,0,0,0,0,0,0,0,0,0,0,0],"id":9,"left_children":[1,-1,3,5,-1,7,9,11,13,15,17,19,21,23,-1,25,27,29,-1,-1,-1,-1,-1,-1,-1,-1,-1,-1,-1,-1,-1],"loss_changes":[1.6254824E13,0E0,2.788071E12,1.3030793E12,0E0,5.0237207E11,1.1854694E12,3.3237543E11,8.2842996E11,3.909137E10,2.4405947E11,2.7189084E11,1.724085E11,4.034963E10,0E0,1.3544693E10,2.4504762E10,2.537436E11,0E0,0E0,0E0,0E0,0E0,0E0,0E0,0E0,0E0,0E0,0E0,0E0,0E0],"parents":[2147483647,0,0,2,2,3,3,5,5,6,6,7,7,8,8,9,9,10,10,11,11,12,12,13,13,15,15,16,16,17,17],"right_children":[2,-1,4,6,-1,8,10,12,14,16,18,20,22,24,-1,26,28,30,-1,-1,-1,-1,-1,-1,-1,-1,-1,-1,-1,-1,-1],"split_conditions":[-2.6876652E0,8.852526E5,4.214271E0,1.9698527E-1,3.7997688E5,1.1039424E0,-5.953815E-1,2.8408106E-2,5.5E0,-9.9988866E-1,3.6802468E0,-1.2132037E0,-3.0207282E-1,4.0202242E-1,2.1134752E5,4E0,-1.0080612E0,2.2108874E0,1.9141197E5,4.738677E4,4.886009E2,2.40286E4,7.62188E4,3.3868332E4,-1.0335257E4,-7.656068E3,1.3634545E4,6.00024E3,3.401935E4,6.660257E4,1.4503898E5],"split_indices":[12,0,14,10,0,15,14,14,3,14,10,12,10,11,0,1,12,14,0,0,0,0,0,0,0,0,0,0,0,0,0],"split_type":[0,0,0,0,0,0,0,0,0,0,0,0,0,0,0,0,0,0,0,0,0,0,0,0,0,0,0,0,0,0,0],"sum_hessian":[2.8E2,1E0,2.79E2,2.78E2,1E0,2.24E2,5.4E1,2.14E2,1E1,2.8E1,2.6E1,1.64E2,5E1,8E0,2E0,9E0,1.9E1,2.3E1,3E0,1.1E1,1.53E2,4.4E1,6E0,6E0,2E0,4E0,5E0,4E0,1.5E1,1.7E1,6E0],"tree_param":{"num_deleted":"0","num_feature":"16","num_nodes":"31","size_leaf_vector":"0"}},{"base_weights":[8.40807E4,2.508216E6,6.6465164E4,5.898582E4,1.076601E6,3.6219965E4,1.865879E5,2.190937E5,2.381226E4,3.642725E4,2.8724006E5,-7.744205E4,3.339651E5,-1.893437E4,4.9109457E4,-1.4246728E4,1.0155056E5,3.58157E4,3.4830538E5,-2.5356719E4,-1.4289169E5,4.1879612E5,8.081172E4,-3.3055525E3,-1.6699494E5,-2.693516E4,6.990471E4,-4.7228395E4,3.477695E4,2.8454541E4,1.2117348E5,-9.519519E4,8.1056914E4,4.281378E5,1.3888256E5],"categories":[],"categories_nodes":[],"categories_segments":[],"categories_sizes":[],"default_left":[1,0,1,1,0,1,1,1,1,1,1,1,1,1,1,1,1,1,1,0,0,0,0,0,0,0,0,0,0,0,0,0,0,0,0],"id":10,"left_children":[1,-1,3,5,-1,7,9,11,13,15,17,19,21,23,25,27,29,31,33,-1,-1,-1,-1,-1,-1,-1,-1,-1,-1,-1,-1,-1,-1,-1,-1],"loss_changes":[1.183268E13,0E0,2.0519386E12,8.0372846E11,0E0,5.3481524E11,6.243244E11,5.3681494E11,2.4315671E11,6.0847796E10,3.7135778E11,1.3421568E10,2.0238434E11,1.9382493E11,2.2485572E11,1.9428168E10,8.026923E9,4.327878E10,2.7491382E11,0E0,0E0,0E0,0E0,0E0,0E0,0E0,0E0,0E0,0E0,0E0,0E0,0E0,0E0,0E0,0E0],"parents":[2147483647,0,0,2,2,3,3,5,5,6,6,7,7,8,8,9,9,10,10,11,11,12,12,13,13,14,14,15,15,16,16,17,17,18,18],"right_children":[2,-1,4,6,-1,8,10,12,14,16,18,20,22,24,26,28,30,32,34,-1,-1,-1,-1,-1,-1,-1,-1,-1,-1,-1,-1,-1,-1,-1,-1],"split_conditions":[-2.6876652E0,7.524648E5,4.214271E0,6.5E0,3.229803E5,-1.2644892E0,-5.953815E-1,2E0,2.5E0,9.14552E-1,1.6E1,-4.1596618E-1,5.5E0,5.5E0,-4.574813E-1,-7.930384E-1,-1.0948865E0,-1.1619179E0,4.5E0,-7.607016E3,-4.2867508E4,1.2563884E5,2.4243516E4,-9.916658E2,-5.0098484E4,-8.0805483E3,2.0971414E4,-1.4168519E4,1.0433085E4,8.536362E3,3.6352043E4,-2.8558557E4,2.4317074E4,1.2844135E5,4.166477E4],"split_indices":[12,0,14,4,0,12,14,4,7,10,6,15,4,4,14,14,14,12,1,0,0,0,0,0,0,0,0,0,0,0,0,0,0,0,0],"split_type":[0,0,0,0,0,0,0,0,0,0,0,0,0,0,0,0,0,0,0,0,0,0,0,0,0,0,0,0,0,0,0,0,0,0,0],"sum_hessian":[2.8E2,1E0,2.79E2,2.78E2,1E0,2.37E2,4.1E1,1.4E1,2.23E2,1.7E1,2.4E1,4E0,1E1,8.3E1,1.4E2,1E1,7E0,5E0,1.9E1,3E0,1E0,7E0,3E0,7.6E1,7E0,3E1,1.1E2,6E0,4E0,2E0,5E0,1E0,4E0,1.3E1,6E0],"tree_param":{"num_deleted":"0","num_feature":"16","num_nodes":"35","size_leaf_vector":"0"}},{"base_weights":[6.363824E4,2.131984E6,4.8637062E4,4.2251453E4,9.15111E5,-1.3752756E4,7.4602766E4,6.175181E4,-2.2535525E4,2.1232773E5,5.8642438E4,3.204238E5,3.842228E3,-6.160054E4,5.574858E3,1.5113706E5,4.67902E5,3.9277258E4,1.8495116E5,-7.31879E4,6.739363E4,-7.522939E4,2.5896396E4,1.6659207E4,-1.0860048E5,2.1417646E4,2.0815339E5,4.8351363E4,-9.817378E4,1.1887601E5,5.417767E5],"categories":[],"categories_nodes":[],"categories_segments":[],"categories_sizes":[],"default_left":[1,0,1,1,0,1,1,1,1,1,1,0,1,1,1,1,0,1,1,0,0,0,0,0,0,0,0,0,0,0,0],"id":11,"left_children":[1,-1,3,5,-1,7,9,11,13,15,17,-1,19,21,23,25,-1,27,29,-1,-1,-1,-1,-1,-1,-1,-1,-1,-1,-1,-1],"loss_changes":[8.615069E12,0E0,1.510565E12,5.0652086E11,0E0,6.969494E10,3.766185E11,1.635443E11,1.0246973E11,2.1078029E11,3.8409418E11,0E0,5.3886124E10,4.845501E10,7.141496E10,1.1387981E11,0E0,1.793612E11,4.3071898E11,0E0,0E0,0E0,0E0,0E0,0E0,0E0,0E0,0E0,0E0,0E0,0E0],"parents":[2147483647,0,0,2,2,3,3,5,5,6,6,7,7,8,8,9,9,10,10,12,12,13,13,14,14,15,15,17,17,18,18],"right_children":[2,-1,4,6,-1,8,10,12,14,16,18,-1,20,22,24,26,-1,28,30,-1,-1,-1,-1,-1,-1,-1,-1,-1,-1,-1,-1],"split_conditions":[-2.6876652E0,6.3959525E5,4.214271E0,1.5E0,2.745333E5,-8.4354126E-1,-1.2644892E0,-2.0926094E-1,-5.047082E-1,3.8300815E0,9.8034894E-1,9.612715E4,1.5E0,3.766507E-1,3.6302727E-1,-1.1119859E-1,1.4037061E5,-1.3313843E-1,1.6331484E0,-2.1956371E4,2.021809E4,-2.2568818E4,7.7689194E3,4.997762E3,-3.2580145E4,6.4252944E3,6.244602E4,1.4505409E4,-2.9452135E4,3.5662805E4,1.6253302E5],"split_indices":[12,0,14,4,0,15,12,14,15,10,15,0,3,12,15,14,0,13,12,0,0,0,0,0,0,0,0,0,0,0,0],"split_type":[0,0,0,0,0,0,0,0,0,0,0,0,0,0,0,0,0,0,0,0,0,0,0,0,0,0,0,0,0,0,0],"sum_hessian":[2.8E2,1E0,2.79E2,2.78E2,1E0,1.02E2,1.76E2,1E1,9.2E1,1.7E1,1.59E2,1E0,9E0,3.8E1,5.4E1,1.5E1,2E0,1.39E2,2E1,4E0,5E0,3.3E1,5E0,5E1,4E0,5E0,1E1,1.31E2,8E0,1.8E1,2E0],"tree_param":{"num_deleted":"0","num_feature":"16","num_nodes":"31","size_leaf_vector":"0"}},{"base_weights":[4.938173E4,1.812186E6,3.661391E4,3.1169195E4,7.778445E5,2.510846E4,2.3333803E5,1.7670275E4,1.8479661E5,3.5798418E4,2.9321816E5,-4.1813213E3,4.818059E4,2.1440153E5,7.198641E4,4.3489312E4,1.02083125E4,1.24125664E5,3.46733E5,-8.892261E4,2.366479E3,3.729923E4,2.67053E5],"categories":[],"categories_nodes":[],"categories_segments":[],"categories_sizes":[],"default_left":[1,0,1,1,0,1,1,1,1,1,1,1,1,0,0,0,0,0,0,0,0,0,0],"id":12,"left_children":[1,-1,3,5,-1,7,9,11,13,15,17,19,21,-1,-1,-1,-1,-1,-1,-1,-1,-1,-1],"loss_changes":[6.258164E12,0E0,1.1057758E12,3.3599763E11,0E0,3.1981352E11,8.4132856E10,1.7420993E11,2.4642814E10,1.4647987E8,1.1255284E10,8.51054E10,2.4963665E11,0E0,0E0,0E0,0E0,0E0,0E0,0E0,0E0,0E0,0E0],"parents":[2147483647,0,0,2,2,3,3,5,5,6,6,7,7,8,8,9,9,10,10,11,11,12,12],"right_children":[2,-1,4,6,-1,8,10,12,14,16,18,20,22,-1,-1,-1,-1,-1,-1,-1,-1,-1,-1],"split_conditions":[-2.6876652E0,5.436558E5,4.214271E0,2.7906046E0,2.3335336E5,2.6284187E0,-8.8497186E-1,3.5E0,2.538981E0,8.5E0,3.793013E0,-1.0381943E0,1.7613626E0,6.432046E4,2.1595922E4,1.3046794E4,3.062494E3,3.72377E4,1.0401991E5,-2.6676783E4,7.099437E2,1.118977E4,8.011591E4],"split_indices":[12,0,14,10,0,14,14,3,11,3,10,14,12,0,0,0,0,0,0,0,0,0,0],"split_type":[0,0,0,0,0,0,0,0,0,0,0,0,0,0,0,0,0,0,0,0,0,0,0],"sum_hessian":[2.8E2,1E0,2.79E2,2.78E2,1E0,2.71E2,7E0,2.6E2,1.1E1,2E0,5E0,1.52E2,1.08E2,8E0,3E0,1E0,1E0,2E0,3E0,1E1,1.42E2,1.04E2,4E0],"tree_param":{"num_deleted":"0","num_feature":"16","num_nodes":"23","size_leaf_vector":"0"}},{"base_weights":[3.843067E4,1.540358E6,2.7565367E4,2.2924613E4,6.61168E5,1.8132012E4,1.8300747E5,1.013585E4,1.0853677E5,3.0428666E4,2.2879562E5,-5.3623105E4,1.6802863E4,2.7030605E4,2.793313E5,3.6965938E4,8.6770625E3,3.04975E5,1.1446219E5,-9.455576E4,-2.7247045E4,-9.676963E3,3.7199605E4,-9.6281625E4,6.2893555E4,4.172885E5,1.4069075E5],"categories":[],"categories_nodes":[],"categories_segments":[],"categories_sizes":[],"default_left":[1,0,1,1,0,1,1,1,1,1,1,1,1,1,1,0,0,0,0,0,0,0,0,0,0,0,0],"id":13,"left_children":[1,-1,3,5,-1,7,9,11,13,15,17,19,21,23,25,-1,-1,-1,-1,-1,-1,-1,-1,-1,-1,-1,-1],"loss_changes":[4.5431495E12,0E0,8.0815345E11,2.1073422E11,0E0,1.9552625E11,4.8928457E10,1.07596554E11,2.9870732E11,1.0583245E8,1.7350984E10,2.3335043E10,1.2350326E11,7.681293E10,7.5176575E10,0E0,0E0,0E0,0E0,0E0,0E0,0E0,0E0,0E0,0E0,0E0,0E0],"parents":[2147483647,0,0,2,2,3,3,5,5,6,6,7,7,8,8,9,9,10,10,11,11,12,12,13,13,14,14],"right_children":[2,-1,4,6,-1,8,10,12,14,16,18,20,22,24,26,-1,-1,-1,-1,-1,-1,-1,-1,-1,-1,-1,-1],"split_conditions":[-2.6876652E0,4.621074E5,4.214271E0,2.7906046E0,1.983504E5,9.8034894E-1,-8.8497186E-1,1.5E0,5.5E0,8.5E0,7E0,-6.370145E-1,2.5E0,-2.7524E-1,4.2736718E-1,1.1089781E4,2.603119E3,9.14925E4,3.4338656E4,-2.8366729E4,-8.174114E3,-2.9030889E3,1.1159882E4,-2.8884488E4,1.8868066E4,1.25186555E5,4.2207227E4],"split_indices":[12,0,14,10,0,15,14,3,3,3,3,15,7,11,10,0,0,0,0,0,0,0,0,0,0,0,0],"split_type":[0,0,0,0,0,0,0,0,0,0,0,0,0,0,0,0,0,0,0,0,0,0,0,0,0,0,0],"sum_hessian":[2.8E2,1E0,2.79E2,2.78E2,1E0,2.71E2,7E0,2.5E2,2.1E1,2E0,5E0,2.3E1,2.27E2,1.5E1,6E0,1E0,1E0,2E0,3E0,8E0,1.5E1,9.9E1,1.28E2,3E0,1.2E1,2E0,4E0],"tree_param":{"num_deleted":"0","num_feature":"16","num_nodes":"27","size_leaf_vector":"0"}},{"base_weights":[3.0207783E4,1.309304E6,2.0963496E4,1.7010012E4,5.61993E5,5.099381E3,6.5426043E4,1.0062674E5,-1.2330835E3,1.6746434E4,1.1176901E5,-2.3072373E4,4.1564262E5,6.907129E3,-1.0860168E5,-1.70312E4,3.645796E4,9.087937E4,2.14387E5,4.0944137E4,-8.3243484E4,4.7960862E5,1.1187231E5,-9.772856E2,1.1060067E5,-1.3897147E5,9.658094E3,1.1352239E4,-4.2576105E4,9.434547E4,1.8590762E4,7.0415945E4,1.8070838E5,2.4398E5,6.2804E4],"categories":[],"categories_nodes":[],"categories_segments":[],"categories_sizes":[],"default_left":[1,0,1,1,0,1,1,1,1,1,1,1,1,1,1,1,1,1,1,0,0,0,0,0,0,0,0,0,0,0,0,0,0,0,0],"id":14,"left_children":[1,-1,3,5,-1,7,9,11,13,15,17,19,21,23,25,27,29,31,33,-1,-1,-1,-1,-1,-1,-1,-1,-1,-1,-1,-1,-1,-1,-1,-1],"loss_changes":[3.2951897E12,0E0,5.8934716E11,1.6055602E11,0E0,1.3623189E11,1.22205946E11,5.551305E11,1.8603883E11,1.9263568E10,4.05389E10,4.5779722E10,2.4068948E10,1.6198553E11,5.5215063E10,8.458908E9,1.6863224E10,3.3230471E10,2.6202604E9,0E0,0E0,0E0,0E0,0E0,0E0,0E0,0E0,0E0,0E0,0E0,0E0,0E0,0E0,0E0,0E0],"parents":[2147483647,0,0,2,2,3,3,5,5,6,6,7,7,8,8,9,9,10,10,11,11,12,12,13,13,14,14,15,15,16,16,17,17,18,18],"right_children":[2,-1,4,6,-1,8,10,12,14,16,18,20,22,24,26,28,30,32,34,-1,-1,-1,-1,-1,-1,-1,-1,-1,-1,-1,-1,-1,-1,-1,-1],"split_conditions":[-2.6876652E0,3.9279122E5,4.214271E0,1.9698527E-1,1.685979E5,1.5E0,-6.084054E-1,7E0,6.5E0,-9.792037E-1,3.6802468E0,-6.3695836E-1,-2.9159762E-2,5.5E0,8.5E0,-1.0764999E0,5.5E0,2.7793427E0,8E0,1.2283241E4,-2.4973047E4,1.438826E5,3.3561695E4,-2.931857E2,3.3180203E4,-4.169144E4,2.8974282E3,3.4056719E3,-1.2772832E4,2.8303643E4,5.5772285E3,2.1124785E4,5.4212516E4,7.3194E4,1.8841201E4],"split_indices":[12,0,14,10,0,7,14,3,3,14,10,11,10,3,4,14,3,14,3,0,0,0,0,0,0,0,0,0,0,0,0,0,0,0,0],"split_type":[0,0,0,0,0,0,0,0,0,0,0,0,0,0,0,0,0,0,0,0,0,0,0,0,0,0,0,0,0,0,0,0,0,0,0],"sum_hessian":[2.8E2,1E0,2.79E2,2.78E2,1E0,2.24E2,5.4E1,1.3E1,2.11E2,2.7E1,2.7E1,1E1,3E0,1.97E2,1.4E1,1E1,1.7E1,2.4E1,3E0,5E0,5E0,2E0,1E0,1.84E2,1.3E1,1.1E1,3E0,5E0,5E0,3E0,1.4E1,2.1E1,3E0,2E0,1E0],"tree_param":{"num_deleted":"0","num_feature":"16","num_nodes":"35","size_leaf_vector":"0"}},{"base_weights":[2.4391428E4,1.112908E6,1.6529197E4,1.3164111E4,4.77694E5,5.9292437E3,6.882295E4,2.5272576E3,1.22693734E5,-1.571026E3,1.05770805E5,-2.7049746E4,1.2644644E4,2.2051625E5,6.963727E4,-4.2549668E4,4.649923E4,1.6602998E5,7.656294E4,1.8407457E4,-5.6243965E4,8.0826064E3,1.7161184E5,8.129565E4,5.6726875E3,3.2376906E4,-6.0433582E4,1.2731875E4,5.0706324E4,-7.9367915E3,1.1569343E5],"categories":[],"categories_nodes":[],"categories_segments":[],"categories_sizes":[],"default_left":[1,0,1,1,0,1,1,1,1,1,1,1,1,0,1,1,1,0,1,0,0,0,0,0,0,0,0,0,0,0,0],"id":15,"left_children":[1,-1,3,5,-1,7,9,11,13,15,17,19,21,-1,23,25,27,-1,29,-1,-1,-1,-1,-1,-1,-1,-1,-1,-1,-1,-1],"loss_changes":[2.3864497E12,0E0,4.2823208E11,1.1194086E11,0E0,9.820325E10,8.339518E10,7.27586E10,2.0974674E10,2.5616773E10,2.424914E10,8.331474E10,1.2987674E11,0E0,4.0131727E9,1.1336514E10,2.0678963E8,0E0,5.3822497E10,0E0,0E0,0E0,0E0,0E0,0E0,0E0,0E0,0E0,0E0,0E0,0E0],"parents":[2147483647,0,0,2,2,3,3,5,5,6,6,7,7,8,8,9,9,10,10,11,11,12,12,14,14,15,15,16,16,18,18],"right_children":[2,-1,4,6,-1,8,10,12,14,16,18,20,22,-1,24,26,28,-1,30,-1,-1,-1,-1,-1,-1,-1,-1,-1,-1,-1,-1],"split_conditions":[-2.6876652E0,3.338724E5,4.214271E0,8.1503105E-1,1.433082E5,2.7906046E0,-6.16179E-1,-5.253609E-1,3.5E0,2.3495538E0,8.32366E-3,-7.6512563E-1,1.7357197E0,6.6154875E4,-6.3624036E-1,8.778522E-1,-8.725364E-1,4.9808996E4,-2.9056036E-1,5.5222373E3,-1.687319E4,2.424782E3,5.1483555E4,2.4388695E4,1.7018063E3,9.713072E3,-1.8130076E4,3.8195627E3,1.5211897E4,-2.3810376E3,3.470803E4],"split_indices":[12,0,14,14,0,10,10,15,3,14,15,15,12,0,12,14,10,0,11,0,0,0,0,0,0,0,0,0,0,0,0],"split_type":[0,0,0,0,0,0,0,0,0,0,0,0,0,0,0,0,0,0,0,0,0,0,0,0,0,0,0,0,0,0,0],"sum_hessian":[2.8E2,1E0,2.79E2,2.78E2,1E0,2.47E2,3.1E1,2.41E2,6E0,1.1E1,2E1,6.1E1,1.8E2,1E0,5E0,6E0,5E0,5E0,1.5E1,2.4E1,3.7E1,1.76E2,4E0,4E0,1E0,1E0,5E0,1E0,4E0,5E0,1E1],"tree_param":{"num_deleted":"0","num_feature":"16","num_nodes":"31","size_leaf_vector":"0"}},{"base_weights":[1.958195E4,9.45972E5,1.2894942E4,1.003048E4,4.0604E5,-1.6686611E4,2.1236004E4,-3.0513764E4,7.491638E3,1.3537012E5,1.5052082E4,-5.522791E3,-7.147273E4,-1.3890121E4,2.591721E4,-5.395393E4,2.2421672E5,-5.0807223E4,3.4933168E4,-2.7984168E4,8.0008765E3,-8.3353016E4,2.363324E4,1.3044844E4,-3.908882E4,3.8010023E4,-4.3185918E4,2.1464615E4,-1.4010478E5,3.8207038E5,8.466117E4,1.3766094E5,-6.7955164E4,1.9065037E4,7.213048E4],"categories":[],"categories_nodes":[],"categories_segments":[],"categories_sizes":[],"default_left":[1,0,1,1,0,1,1,1,1,1,1,1,1,1,1,1,1,1,1,0,0,0,0,0,0,0,0,0,0,0,0,0,0,0,0],"id":16,"left_children":[1,-1,3,5,-1,7,9,11,13,15,17,19,21,23,25,27,29,31,33,-1,-1,-1,-1,-1,-1,-1,-1,-1,-1,-1,-1,-1,-1,-1,-1],"loss_changes":[1.728534E12,0E0,3.1124904E11,8.38811E10,0E0,2.797685E10,1.370043E11,5.3856305E10,1.2573099E10,1.8030536E11,2.4793349E11,1.0551743E10,2.4567628E10,1.0690799E10,1.5847565E10,2.8996784E10,1.2185892E11,1.5155574E11,8.4211335E10,0E0,0E0,0E0,0E0,0E0,0E0,0E0,0E0,0E0,0E0,0E0,0E0,0E0,0E0,0E0,0E0],"parents":[2147483647,0,0,2,2,3,3,5,5,6,6,7,7,8,8,9,9,10,10,11,11,12,12,13,13,14,14,15,15,16,16,17,17,18,18],"right_children":[2,-1,4,6,-1,8,10,12,14,16,18,20,22,24,26,28,30,32,34,-1,-1,-1,-1,-1,-1,-1,-1,-1,-1,-1,-1,-1,-1,-1,-1],"split_conditions":[-2.6876652E0,2.8379162E5,4.214271E0,-6.1913097E-1,1.2181201E5,8.109766E-2,1.5E0,2.5E0,4E0,7E0,2.5E0,-6.953883E-1,1.0868994E0,-3.157052E-1,1.5E0,4.5E0,-2.9159762E-2,-1.23456374E-1,3.5E0,-8.395251E3,2.400263E3,-2.5005906E4,7.089972E3,3.9134534E3,-1.1726646E4,1.1403008E4,-1.2955776E4,6.439385E3,-4.2031438E4,1.1462112E5,2.5398354E4,4.129828E4,-2.038655E4,5.719511E3,2.1639145E4],"split_indices":[12,0,14,14,0,10,7,7,1,3,7,10,11,12,5,3,10,14,3,0,0,0,0,0,0,0,0,0,0,0,0,0,0,0,0],"split_type":[0,0,0,0,0,0,0,0,0,0,0,0,0,0,0,0,0,0,0,0,0,0,0,0,0,0,0,0,0,0,0,0,0,0,0],"sum_hessian":[2.8E2,1E0,2.79E2,2.78E2,1E0,8.2E1,1.96E2,5.2E1,3E1,9E0,1.87E2,3.3E1,1.9E1,1.4E1,1.6E1,3E0,6E0,4.3E1,1.44E2,1.2E1,2.1E1,1.7E1,2E0,7E0,7E0,1.4E1,2E0,2E0,1E0,2E0,4E0,3E0,4E1,1.02E2,4.2E1],"tree_param":{"num_deleted":"0","num_feature":"16","num_nodes":"35","size_leaf_vector":"0"}},{"base_weights":[1.5575783E4,8.04076E5,9.888011E3,7.4493726E3,3.45134E5,1.1622373E4,-5.370483E4,-1.0506367E4,2.3861896E4,1.1081456E5,-6.990094E4,-1.5068713E4,4.0422438E4,1.0597537E5,1.3980946E4,-1.2769011E4,-1.192661E5,-5.3069293E4,-6.414852E3,6.237425E3,7.304809E4,-1.68433E4,1.422695E5,1.6969769E5,9.706799E3,9.138744E4,-8.007848E4,-3.738136E4,-1.5397825E5],"categories":[],"categories_nodes":[],"categories_segments":[],"categories_sizes":[],"default_left":[1,0,1,1,0,1,1,1,1,0,1,1,1,1,1,1,1,0,0,0,0,0,0,0,0,0,0,0,0],"id":17,"left_children":[1,-1,3,5,-1,7,9,11,13,-1,15,17,19,21,23,25,27,-1,-1,-1,-1,-1,-1,-1,-1,-1,-1,-1,-1],"loss_changes":[1.2522808E12,0E0,2.2634118E11,7.182401E10,0E0,7.121214E10,5.5708385E10,2.2450467E10,1.3563804E11,0E0,4.6422647E10,2.8269672E10,8.4668355E9,8.263308E10,9.951733E10,7.04146E10,1.982564E10,0E0,0E0,0E0,0E0,0E0,0E0,0E0,0E0,0E0,0E0,0E0,0E0],"parents":[2147483647,0,0,2,2,3,3,5,5,6,6,7,7,8,8,10,10,11,11,12,12,13,13,14,14,15,15,16,16],"right_children":[2,-1,4,6,-1,8,10,12,14,-1,16,18,20,22,24,26,28,-1,-1,-1,-1,-1,-1,-1,-1,-1,-1,-1,-1],"split_conditions":[-2.6876652E0,2.4122281E5,4.214271E0,-1.3313843E-1,1.035402E5,-4.6744075E-1,-1.2388464E0,9.5E0,-1.6200673E-2,3.324437E4,2.5E0,-7.003474E-1,-6.066222E-1,-9.9523973E-1,1.5E0,4.0475025E0,-6.3784164E-1,-1.5920788E4,-1.9244557E3,1.8712275E3,2.191443E4,-5.05299E3,4.268085E4,5.090931E4,2.9120398E3,2.7416232E4,-2.4023543E4,-1.1214408E4,-4.6193477E4],"split_indices":[12,0,14,13,0,14,12,4,14,0,4,12,11,12,7,13,11,0,0,0,0,0,0,0,0,0,0,0,0],"split_type":[0,0,0,0,0,0,0,0,0,0,0,0,0,0,0,0,0,0,0,0,0,0,0,0,0,0,0,0,0],"sum_hessian":[2.8E2,1E0,2.79E2,2.78E2,1E0,2.61E2,1.7E1,9.3E1,1.68E2,1E0,1.6E1,8.6E1,7E0,1.7E1,1.51E2,8E0,8E0,1.5E1,7.1E1,4E0,3E0,4E0,1.3E1,3E0,1.48E2,3E0,5E0,3E0,5E0],"tree_param":{"num_deleted":"0","num_feature":"16","num_nodes":"29","size_leaf_vector":"0"}},{"base_weights":[1.2402638E4,6.83465E5,7.56504E3,5.489187E3,2.93364E5,4.6553113E4,7.228803E2,-1.4931683E4,8.495669E4,3.7627144E3,-8.143296E4,-2.5763062E4,5.210675E4,-1.3943924E4,1.6547158E5,-9.1317847E2,4.6468285E4,-1.2127744E4,-1.344516E5,-4.241608E4,3.2783668E4,-6.2786137E4,6.2805375E4,2.785109E5,-3.269925E3,-5.4825845E3,4.7714883E4,1.0646366E5,3.3734854E3,-2.5068656E4,4.85575E3],"categories":[],"categories_nodes":[],"categories_segments":[],"categories_sizes":[],"default_left":[1,0,1,1,0,1,1,1,1,1,1,1,0,1,1,1,1,1,0,0,0,0,0,0,0,0,0,0,0,0,0],"id":18,"left_children":[1,-1,3,5,-1,7,9,11,13,15,17,19,-1,21,23,25,27,29,-1,-1,-1,-1,-1,-1,-1,-1,-1,-1,-1,-1,-1],"loss_changes":[9.0704826E11,0E0,1.6450712E11,5.457314E10,0E0,6.974438E10,6.2991184E10,1.0055854E10,1.456408E11,4.85663E10,3.143961E10,1.2115329E10,0E0,3.7680755E10,1.91655E11,4.91459E10,6.1692563E10,1.2206367E9,0E0,0E0,0E0,0E0,0E0,0E0,0E0,0E0,0E0,0E0,0E0,0E0,0E0],"parents":[2147483647,0,0,2,2,3,3,5,5,6,6,7,7,8,8,9,9,10,10,11,11,13,13,14,14,15,15,16,16,17,17],"right_children":[2,-1,4,6,-1,8,10,12,14,16,18,20,-1,22,24,26,28,30,-1,-1,-1,-1,-1,-1,-1,-1,-1,-1,-1,-1,-1],"split_conditions":[-2.6876652E0,2.0503952E5,4.214271E0,-1.2260251E0,8.80092E4,-1.1119859E-1,2.659464E0,9.5E0,-1.5465602E0,7.802794E-1,-3.899632E-2,9.5E0,1.5632025E4,2.5E0,5.5E0,9.8034894E-1,2.9972228E-1,-3.3634275E-2,-4.033548E4,-1.2724824E4,9.835101E3,-1.8835842E4,1.8841613E4,8.355327E4,-9.8097754E2,-1.6447754E3,1.4314466E4,3.1939098E4,1.01204565E3,-7.520597E3,1.4567251E3],"split_indices":[12,0,14,12,0,14,13,3,12,11,11,4,0,3,4,15,12,12,0,0,0,0,0,0,0,0,0,0,0,0,0],"split_type":[0,0,0,0,0,0,0,0,0,0,0,0,0,0,0,0,0,0,0,0,0,0,0,0,0,0,0,0,0,0,0],"sum_hessian":[2.8E2,1E0,2.79E2,2.78E2,1E0,2.8E1,2.5E2,1.1E1,1.7E1,2.42E2,8E0,1E1,1E0,8E0,9E0,2.19E2,2.3E1,4E0,4E0,8E0,2E0,5E0,3E0,5E0,4E0,2.01E2,1.8E1,9E0,1.4E1,2E0,2E0],"tree_param":{"num_deleted":"0","num_feature":"16","num_nodes":"31","size_leaf_vector":"0"}},{"base_weights":[1.0061165E4,5.80945E5,5.9474907E3,4.181284E3,2.493595E5,-2.3048373E4,9.104044E3,3.393094E4,-7.407087E4,3.3919984E4,-2.5942002E3,8.036682E3,8.457137E4,-1.0213113E5,1.470413E5,1.3041552E4,2.3785861E5,-3.3713273E4,1.0417188E4,-2.4191959E4,1.48558545E4,2.2458541E4,1.0492479E5,-1.4462517E5,-2.9402938E4,-4.771061E4,2.7734336E4,3.454456E5,-2.073925E4,-6.333185E4,1.0919325E4,3.8308425E5,3.7877913E3],"categories":[],"categories_nodes":[],"categories_segments":[],"categories_sizes":[],"default_left":[1,0,1,1,0,1,1,1,1,1,1,1,1,1,0,1,1,1,1,0,0,0,0,0,0,0,0,0,0,0,0,0,0],"id":19,"left_children":[1,-1,3,5,-1,7,9,11,13,15,17,19,21,23,-1,25,27,29,31,-1,-1,-1,-1,-1,-1,-1,-1,-1,-1,-1,-1,-1,-1],"loss_changes":[6.564537E11,0E0,1.1933377E11,3.7608407E10,0E0,1.27524045E11,6.888979E10,2.6857552E10,1.5772022E11,3.2049974E11,6.594538E10,3.655982E9,6.4929956E9,6.0648407E10,0E0,6.3806513E10,2.0191668E11,6.414534E10,2.8266312E11,0E0,0E0,0E0,0E0,0E0,0E0,0E0,0E0,0E0,0E0,0E0,0E0,0E0,0E0],"parents":[2147483647,0,0,2,2,3,3,5,5,6,6,7,7,8,8,9,9,10,10,11,11,12,12,13,13,15,15,16,16,17,17,18,18],"right_children":[2,-1,4,6,-1,8,10,12,14,16,18,20,22,24,-1,26,28,30,32,-1,-1,-1,-1,-1,-1,-1,-1,-1,-1,-1,-1,-1,-1],"split_conditions":[-2.6876652E0,1.742835E5,4.214271E0,1.55E1,7.480785E4,-5.25714E-2,-5.9264207E-1,2.3125356E-1,1.5320116E0,-6.062568E-1,-2.9113907E-1,-8.6551297E-1,8E0,6.5E0,4.411239E4,-4.6322292E-1,4.5155922E-1,-2.6038209E-2,-2.6372692E-1,-7.257588E3,4.4567563E3,6.7375625E3,3.1477438E4,-4.3387555E4,-8.820882E3,-1.4313184E4,8.320301E3,1.0363368E5,-6.2217754E3,-1.8999557E4,3.2757976E3,1.1492528E5,1.1363374E3],"split_indices":[12,0,14,6,0,10,11,14,11,11,11,10,6,4,0,10,10,10,11,0,0,0,0,0,0,0,0,0,0,0,0,0,0],"split_type":[0,0,0,0,0,0,0,0,0,0,0,0,0,0,0,0,0,0,0,0,0,0,0,0,0,0,0,0,0,0,0,0,0],"sum_hessian":[2.8E2,1E0,2.79E2,2.78E2,1E0,4.2E1,2.36E2,2E1,2.2E1,7.5E1,1.61E2,1.4E1,6E0,2E1,2E0,6.9E1,6E0,4.7E1,1.14E2,2E0,1.2E1,2E0,4E0,1.2E1,8E0,1.3E1,5.6E1,4E0,2E0,2.8E1,1.9E1,1E0,1.13E2],"tree_param":{"num_deleted":"0","num_feature":"16","num_nodes":"33","size_leaf_vector":"0"}},{"base_weights":[8.708891E3,4.93803E5,5.2128296E3,1.6347039E3,9.256566E4,-3.9106566E4,4.526831E3,4.1708844E4,1.7113788E5,-5.864462E4,-1.3052441E4,7.0725806E3,-4.7189688E4,5.7003812E4,2.11311E4,-2.6794863E4,-7.5411984E4,-2.5637324E4,2.1429312E3,2.8326995E3,1.30735016E5,-7.2649644E3,-8.5903586E4,2.271625E3,4.82845E4,-8.668597E4,-9.521031E3,-3.0118219E4,-3.856875E3,5.2551953E3,-5.1530625E3,3.9090598E4,-1.4766852E3,5.637673E4,3.256215E5,-2.0969104E4,3.7479938E4,-1.5367433E5,-1.3599625E4,1.05125E4,-1.12255E4],"categories":[],"categories_nodes":[],"categories_segments":[],"categories_sizes":[],"default_left":[1,0,1,1,1,1,1,1,0,1,1,1,1,0,1,0,1,1,1,1,1,1,1,1,0,0,0,0,0,0,0,0,0,0,0,0,0,0,0,0,0],"id":20,"left_children":[1,-1,3,5,7,9,11,13,-1,15,17,19,21,-1,23,-1,25,27,29,31,33,35,37,39,-1,-1,-1,-1,-1,-1,-1,-1,-1,-1,-1,-1,-1,-1,-1,-1,-1],"loss_changes":[4.7397903E11,0E0,8.736532E10,3.1990841E10,3.681729E10,8.39739E9,3.364305E10,1.3133343E9,0E0,3.3197097E9,1.776027E9,1.2651365E11,1.792361E10,0E0,2.4508104E9,0E0,3.631786E9,3.718172E8,1.4061565E8,3.6776292E10,9.757392E10,5.0782536E9,2.7310658E10,5.629206E8,0E0,0E0,0E0,0E0,0E0,0E0,0E0,0E0,0E0,0E0,0E0,0E0,0E0,0E0,0E0,0E0,0E0],"parents":[2147483647,0,0,2,2,3,3,4,4,5,5,6,6,7,7,9,9,10,10,11,11,12,12,14,14,16,16,17,17,18,18,19,19,20,20,21,21,22,22,23,23],"right_children":[2,-1,4,6,8,10,12,14,-1,16,18,20,22,-1,24,-1,26,28,30,32,34,36,38,40,-1,-1,-1,-1,-1,-1,-1,-1,-1,-1,-1,-1,-1,-1,-1,-1,-1],"split_conditions":[-2.6876652E0,1.481409E5,2.7793427E0,-1.0504521E0,3.8661954E-1,-5.9372164E-2,1.5802449E0,1.599689E0,5.1341363E4,2.5E0,4E0,9.8034894E-1,6.5E0,1.7101145E4,2.5E0,-8.0384595E3,1.5E0,1.1E1,8.5E0,-1.2260251E0,1.2485063E0,6.7034016E0,2.9972228E-1,2.5E0,1.4485351E4,-2.6005791E4,-2.8563096E3,-9.035466E3,-1.1570625E3,1.5765587E3,-1.5459188E3,1.172718E4,-4.4300558E2,1.691302E4,9.768645E4,-6.2907314E3,1.1243981E4,-4.61023E4,-4.0798877E3,3.1537502E3,-3.3676501E3],"split_indices":[12,0,14,14,10,10,15,11,0,7,1,15,4,0,3,0,5,3,3,12,12,15,12,4,0,0,0,0,0,0,0,0,0,0,0,0,0,0,0,0,0],"split_type":[0,0,0,0,0,0,0,0,0,0,0,0,0,0,0,0,0,0,0,0,0,0,0,0,0,0,0,0,0,0,0,0,0,0,0,0,0,0,0,0,0],"sum_hessian":[2.8E2,1E0,2.79E2,2.69E2,1E1,1.7E1,2.52E2,7E0,3E0,9E0,8E0,2.41E2,1.1E1,3E0,4E0,4E0,5E0,4E0,4E0,2.34E2,7E0,6E0,5E0,3E0,1E0,4E0,1E0,3E0,1E0,3E0,1E0,2.4E1,2.1E2,6E0,1E0,5E0,1E0,2E0,3E0,2E0,1E0],"tree_param":{"num_deleted":"0","num_feature":"16","num_nodes":"41","size_leaf_vector":"0"}},{"base_weights":[7.037322E3,4.19733E5,4.0643623E3,2.7435535E3,1.86285E5,5.479084E3,-3.722603E4,-2.7188752E4,8.887558E3,-1.2776245E5,-1.0601248E4,-3.926516E4,1.313225E5,-2.3252102E4,1.328357E4,3.6785094E4,-8.781161E4,-6.7956494E3,-5.829382E4,-1.8194512E4,-6.1019715E4,-1.72513E4,2.0129945E4,1.0633094E4,9.426206E4,-6.590172E3,-1.0273786E5],"categories":[],"categories_nodes":[],"categories_segments":[],"categories_sizes":[],"default_left":[1,0,1,1,0,1,1,1,1,0,1,1,0,1,1,1,1,0,0,0,0,0,0,0,0,0,0],"id":21,"left_children":[1,-1,3,5,-1,7,9,11,13,-1,15,17,-1,19,21,23,25,-1,-1,-1,-1,-1,-1,-1,-1,-1,-1],"loss_changes":[3.430607E11,0E0,6.6878935E10,3.0709268E10,0E0,2.941468E10,4.2034782E10,5.3012558E10,3.3935022E10,0E0,5.8110902E10,1.4432285E10,0E0,4.4291564E9,4.424843E10,1.4029079E10,6.5969316E9,0E0,0E0,0E0,0E0,0E0,0E0,0E0,0E0,0E0,0E0],"parents":[2147483647,0,0,2,2,3,3,5,5,6,6,7,7,8,8,10,10,11,11,13,13,14,14,15,15,16,16],"right_children":[2,-1,4,6,-1,8,10,12,14,-1,16,18,-1,20,22,24,26,-1,-1,-1,-1,-1,-1,-1,-1,-1,-1],"split_conditions":[-2.6876652E0,1.2591991E5,4.214271E0,-1.3313843E-1,5.5885504E4,1.5E0,1.8497744E0,2.1975098E0,-9.876309E-1,-3.832874E4,-3.899632E-2,-4.7476128E-1,3.939675E4,2.0491076E-1,1.55E1,6.0743606E-1,-3.381934E-1,-2.038695E3,-1.7488146E4,-5.4583535E3,-1.8305916E4,-5.1753906E3,6.038984E3,3.1899282E3,2.827862E4,-1.9770516E3,-3.082136E4],"split_indices":[12,0,14,13,0,3,13,10,14,0,11,10,0,11,6,12,10,0,0,0,0,0,0,0,0,0,0],"split_type":[0,0,0,0,0,0,0,0,0,0,0,0,0,0,0,0,0,0,0,0,0,0,0,0,0,0,0],"sum_hessian":[2.8E2,1E0,2.79E2,2.78E2,1E0,2.61E2,1.7E1,2.4E1,2.37E2,3E0,1.4E1,2.3E1,1E0,2.8E1,2.09E2,9E0,5E0,9E0,1.4E1,2.6E1,2E0,3.8E1,1.71E2,7E0,2E0,1E0,4E0],"tree_param":{"num_deleted":"0","num_feature":"16","num_nodes":"27","size_leaf_vector":"0"}},{"base_weights":[5.421191E3,3.56773E5,2.8921738E3,1.7674719E3,1.58342E5,-9.211559E4,2.4365317E3,7.7506885E3,-1.0812889E4,4.9763647E3,1.4175488E5,-3.9290125E4,1.8646602E4,1.6749174E4,-7.2118545E3,2.024635E5,-2.01855E4,-7.792873E4,-2.3782102E3,-2.5291184E4,4.8992258E4],"categories":[],"categories_nodes":[],"categories_segments":[],"categories_sizes":[],"default_left":[1,0,1,1,0,0,1,1,1,1,1,1,1,0,0,0,0,0,0,0,0],"id":22,"left_children":[1,-1,3,5,-1,-1,7,9,11,13,15,17,19,-1,-1,-1,-1,-1,-1,-1,-1],"loss_changes":[2.4865767E11,0E0,4.8673853E10,1.7749381E10,0E0,0E0,1.9657648E10,7.3277006E10,6.784662E10,2.8244748E10,4.341153E10,5.828989E10,5.4571917E10,0E0,0E0,0E0,0E0,0E0,0E0,0E0,0E0],"parents":[2147483647,0,0,2,2,3,3,6,6,7,7,8,8,9,9,10,10,11,11,12,12],"right_children":[2,-1,4,6,-1,-1,8,10,12,14,16,18,20,-1,-1,-1,-1,-1,-1,-1,-1],"split_conditions":[-2.6876652E0,1.0703191E5,4.214271E0,1.5E0,4.75026E4,-2.763468E4,4.5E0,3.5E0,-4.952049E-1,3.0313905E-2,6.5E0,1.8918139E-1,5.5E0,5.0247524E3,-2.1635564E3,6.073905E4,-6.0556504E3,-2.337862E4,-7.134631E2,-7.5873555E3,1.4697678E4],"split_indices":[12,0,14,6,0,0,4,4,12,11,1,10,3,0,0,0,0,0,0,0,0],"split_type":[0,0,0,0,0,0,0,0,0,0,0,0,0,0,0,0,0,0,0,0,0],"sum_hessian":[2.8E2,1E0,2.79E2,2.78E2,1E0,1E0,2.77E2,1.98E2,7.9E1,1.95E2,3E0,4E1,3.9E1,9.9E1,9.6E1,2E0,1E0,1.9E1,2.1E1,1.6E1,2.3E1],"tree_param":{"num_deleted":"0","num_feature":"16","num_nodes":"21","size_leaf_vector":"0"}},{"base_weights":[4.3907817E3,3.03257E5,2.2403416E3,-9.8031975E1,5.9433113E4,1.6846882E3,-3.8566906E4,3.277275E4,1.19603164E5,-3.0711038E2,1.28738625E5,-2.1424106E3,-7.4634336E4,1.9175E3,3.638997E4,4.964169E3,-2.2124064E4,-8.624475E4,2.29148E5,-1.24691875E4,2.9909125E4,-1.21907336E5,-2.0521E4,-2.9973298E3,2.5468662E4,-6.68105E4,5.099885E3,-2.549345E4,2.6326062E4,-3.4426332E4,1.05975E4],"categories":[],"categories_nodes":[],"categories_segments":[],"categories_sizes":[],"default_left":[1,0,1,1,1,1,1,1,0,1,1,1,1,0,0,1,1,0,0,1,0,0,1,0,0,0,0,0,0,0,0],"id":23,"left_children":[1,-1,3,5,7,9,11,13,-1,15,17,19,21,-1,-1,23,25,-1,-1,27,-1,-1,29,-1,-1,-1,-1,-1,-1,-1,-1],"loss_changes":[1.7991759E11,0E0,3.745248E10,1.8581367E10,1.3725987E10,6.558359E10,1.5604957E10,9.347144E8,0E0,2.9550658E10,1.0610819E11,2.6898657E9,1.2846938E10,0E0,0E0,3.3868364E10,6.116779E10,0E0,0E0,3.7028196E9,0E0,0E0,2.0956855E9,0E0,0E0,0E0,0E0,0E0,0E0,0E0,0E0],"parents":[2147483647,0,0,2,2,3,3,4,4,5,5,6,6,7,7,9,9,10,10,11,11,12,12,15,15,16,16,19,19,22,22],"right_children":[2,-1,4,6,8,10,12,14,-1,16,18,20,22,-1,-1,24,26,-1,-1,28,-1,-1,30,-1,-1,-1,-1,-1,-1,-1,-1],"split_conditions":[-2.6876652E0,9.09771E4,2.7793427E0,1.5802449E0,2.3424582E0,1.1039424E0,6.5E0,1.5E0,3.588095E4,5.5E0,4E0,5.5E0,2.9972228E-1,5.7525E2,1.0916991E4,3.5E0,6.5E0,-2.5873426E4,6.874441E4,6.7034016E0,8.972738E3,-3.6572203E4,1.1439861E0,-8.99199E2,7.640599E3,-2.004315E4,1.5299655E3,-7.648035E3,7.897819E3,-1.03279E4,3.1792502E3],"split_indices":[12,0,14,15,15,15,4,4,0,4,3,3,12,0,0,3,3,0,0,15,0,0,10,0,0,0,0,0,0,0,0],"split_type":[0,0,0,0,0,0,0,0,0,0,0,0,0,0,0,0,0,0,0,0,0,0,0,0,0,0,0,0,0,0,0],"sum_hessian":[2.8E2,1E0,2.79E2,2.69E2,1E1,2.58E2,1.1E1,8E0,2E0,2.55E2,3E0,6E0,5E0,1E0,7E0,2.06E2,4.9E1,1E0,2E0,5E0,1E0,2E0,3E0,1.49E2,5.7E1,1.8E1,3.1E1,4E0,1E0,2E0,1E0],"tree_param":{"num_deleted":"0","num_feature":"16","num_nodes":"31","size_leaf_vector":"0"}},{"base_weights":[3.55379E3,2.57768E5,1.7252822E3,8.952653E2,1.1665E5,2.8751265E3,-2.7972451E4,2.9513947E2,2.9671725E4,-9.9279125E4,-7.0925083E3,-2.5504644E3,2.8608418E4,7.583643E4,-5.210417E0,2.7448191E4,-6.3478254E4,1.3925808E3,-2.6508049E4,-6.0986168E4,4.0617184E4,1.3529319E5,1.2123812E3,-7.383405E4,2.4604836E4,-1.0753406E4,5.4708156E4,-4.0702656E3,-7.45458E4],"categories":[],"categories_nodes":[],"categories_segments":[],"categories_sizes":[],"default_left":[1,0,1,1,0,1,1,1,1,0,1,1,1,1,1,1,1,0,0,0,0,0,0,0,0,0,0,0,0],"id":24,"left_children":[1,-1,3,5,-1,7,9,11,13,-1,15,17,19,21,23,25,27,-1,-1,-1,-1,-1,-1,-1,-1,-1,-1,-1,-1],"loss_changes":[1.3017326E11,0E0,2.6604616E10,1.6026411E10,0E0,1.8104582E10,2.6095694E10,1.9409373E10,3.1511015E10,0E0,3.095641E10,2.0724935E10,2.6147336E10,3.976811E10,2.9070641E10,1.1002041E10,3.6415857E9,0E0,0E0,0E0,0E0,0E0,0E0,0E0,0E0,0E0,0E0,0E0,0E0],"parents":[2147483647,0,0,2,2,3,3,5,5,6,6,7,7,8,8,10,10,11,11,12,12,13,13,14,14,15,15,16,16],"right_children":[2,-1,4,6,-1,8,10,12,14,-1,16,18,20,22,24,26,28,-1,-1,-1,-1,-1,-1,-1,-1,-1,-1,-1,-1],"split_conditions":[-2.6876652E0,7.733041E4,4.214271E0,-1.3313843E-1,3.4995E4,7.802794E-1,1.8497744E0,5.5E0,2.9972228E-1,-2.9783738E4,-3.899632E-2,4.5E0,-1.14389524E-1,2.0327399E0,5.817932E-1,1.5E0,-3.381934E-1,4.1777426E2,-7.952415E3,-1.8295852E4,1.2185155E4,4.0587957E4,3.637144E2,-2.2150215E4,7.381451E3,-3.226022E3,1.6412447E4,-1.2210797E3,-2.236374E4],"split_indices":[12,0,14,13,0,11,13,1,12,0,11,1,10,11,12,4,10,0,0,0,0,0,0,0,0,0,0,0,0],"split_type":[0,0,0,0,0,0,0,0,0,0,0,0,0,0,0,0,0,0,0,0,0,0,0,0,0,0,0,0,0],"sum_hessian":[2.8E2,1E0,2.79E2,2.78E2,1E0,2.61E2,1.7E1,2.39E2,2.2E1,3E0,1.4E1,2.18E2,2.1E1,8E0,1.4E1,9E0,5E0,1.88E2,3E1,2E0,1.9E1,4E0,4E0,3E0,1.1E1,4E0,5E0,1E0,4E0],"tree_param":{"num_deleted":"0","num_feature":"16","num_nodes":"29","size_leaf_vector":"0"}},{"base_weights":[2.7890164E3,2.19103E5,1.2339557E3,5.276079E2,9.91525E4,-2.5822074E4,2.3358777E3,-3.660195E4,-3.653424E3,2.9213217E4,-1.2734774E2,-2.339069E4,-5.7176793E4,-1.6540709E4,4.8096313E3,-1.8030198E3,1.6923703E5,4.4712607E3,-3.3898945E4,-1.97775E3,-2.5820088E4,1.0087914E4,-8.15175E3,-1.1675453E5,1.1069538E4,2.9506838E5,2.8937125E4,3.8990867E4,1.4697148E3,-7.112479E4,5.5868335E3],"categories":[],"categories_nodes":[],"categories_segments":[],"categories_sizes":[],"default_left":[1,0,1,1,0,1,1,1,1,1,1,1,0,0,1,1,1,1,1,0,0,0,0,0,0,0,0,0,0,0,0],"id":25,"left_children":[1,-1,3,5,-1,7,9,11,13,15,17,19,-1,-1,21,23,25,27,29,-1,-1,-1,-1,-1,-1,-1,-1,-1,-1,-1,-1],"loss_changes":[9.42528E10,0E0,1.931376E10,1.3353924E10,0E0,4.1678326E9,1.7349413E10,1.9244298E9,8.430153E8,9.58514E10,3.757944E10,4.1711923E8,0E0,0E0,4.2430333E8,2.9407097E10,6.2078075E10,2.201209E10,4.302421E10,0E0,0E0,0E0,0E0,0E0,0E0,0E0,0E0,0E0,0E0,0E0,0E0],"parents":[2147483647,0,0,2,2,3,3,5,5,6,6,7,7,8,8,9,9,10,10,11,11,14,14,15,15,16,16,17,17,18,18],"right_children":[2,-1,4,6,-1,8,10,12,14,16,18,20,-1,-1,22,24,26,28,30,-1,-1,-1,-1,-1,-1,-1,-1,-1,-1,-1,-1],"split_conditions":[-2.6876652E0,6.573091E4,4.214271E0,-1.0504521E0,2.9745752E4,4E0,1.5E0,2.5E0,1.5E0,7.5E0,6.5E0,-5.54081E-1,-1.715304E4,-4.962213E3,8.5E0,1.6E1,2.2056438E-1,-1.2260251E0,1.630384E-1,-5.93325E2,-7.746027E3,3.0263743E3,-2.4455251E3,-3.502636E4,3.3208616E3,8.8520516E4,8.681138E3,1.1697261E4,4.4091446E2,-2.1337438E4,1.6760502E3],"split_indices":[12,0,14,14,0,1,7,7,4,4,3,15,0,0,3,6,10,12,10,0,0,0,0,0,0,0,0,0,0,0,0],"split_type":[0,0,0,0,0,0,0,0,0,0,0,0,0,0,0,0,0,0,0,0,0,0,0,0,0,0,0,0,0,0,0],"sum_hessian":[2.8E2,1E0,2.79E2,2.78E2,1E0,1.7E1,2.61E2,1.1E1,6E0,2.1E1,2.4E2,8E0,3E0,2E0,4E0,1.8E1,3E0,2.12E2,2.8E1,1E0,7E0,3E0,1E0,1E0,1.7E1,1E0,2E0,1.6E1,1.96E2,1.4E1,1.4E1],"tree_param":{"num_deleted":"0","num_feature":"16","num_nodes":"31","size_leaf_vector":"0"}},{"base_weights":[2.3920762E3,1.86238E5,1.0703479E3,-3.927545E4,2.555173E3,-6.003464E4,2.9174209E4,1.24290125E5,1.1880354E3,-2.563424E4,-1.088239E5,-7.326875E2,4.4494E4,3.461125E4,1.5182394E5,2.7182315E2,8.2334914E4,-3.4439906E4,-5.348604E3,-1.4701894E5,-1.6216906E4,2.1171633E3,-2.699007E4,-9.233745E3,7.006662E3,6.3043994E3,-5.728564E4],"categories":[],"categories_nodes":[],"categories_segments":[],"categories_sizes":[],"default_left":[1,0,1,1,1,1,1,1,1,1,1,0,0,0,0,1,0,0,0,0,0,1,1,0,0,0,0],"id":26,"left_children":[1,-1,3,5,7,9,11,13,15,17,19,-1,-1,-1,-1,21,-1,-1,-1,-1,-1,23,25,-1,-1,-1,-1],"loss_changes":[6.8082078E10,0E0,1.6874164E10,1.5961057E10,4.4954448E10,1.0637345E10,1.4071027E9,2.152788E9,1.9977169E10,8.875656E8,8.2271887E9,0E0,0E0,0E0,0E0,1.3489235E10,0E0,0E0,0E0,0E0,0E0,1.3995261E10,1.7508626E10,0E0,0E0,0E0,0E0],"parents":[2147483647,0,0,2,2,3,3,4,4,5,5,6,6,7,7,8,8,9,9,10,10,15,15,21,21,22,22],"right_children":[2,-1,4,6,8,10,12,14,16,18,20,-1,-1,-1,-1,22,-1,-1,-1,-1,-1,24,26,-1,-1,-1,-1],"split_conditions":[-2.6876652E0,5.5871402E4,-1.5209174E0,-6.245924E-1,-1.3798819E0,-6.3857263E-1,2E0,2.5E0,3.3500962E0,-6.533447E-1,-6.373543E-1,-2.1980626E2,1.33482E4,1.0383375E4,4.5547184E4,-1.3313843E-1,2.4700475E4,-1.0331973E4,-1.6045813E3,-4.4105684E4,-4.8650723E3,-5.045835E-1,2.5E0,-2.7701235E3,2.1019988E3,1.89132E3,-1.7185693E4],"split_indices":[12,0,12,11,12,11,3,1,14,11,11,0,0,0,0,13,0,0,0,0,0,10,4,0,0,0,0],"split_type":[0,0,0,0,0,0,0,0,0,0,0,0,0,0,0,0,0,0,0,0,0,0,0,0,0,0,0],"sum_hessian":[2.8E2,1E0,2.79E2,9E0,2.7E2,7E0,2E0,2E0,2.68E2,5E0,2E0,1E0,1E0,1E0,1E0,2.66E2,2E0,3E0,2E0,1E0,1E0,2.5E2,1.6E1,7.5E1,1.75E2,8E0,8E0],"tree_param":{"num_deleted":"0","num_feature":"16","num_nodes":"27","size_leaf_vector":"0"}},{"base_weights":[1.9333871E3,1.58302E5,8.095635E2,-2.2379652E4,3.070973E3,-2.9038117E4,6.871175E4,1.2663773E3,5.245639E4,-6.0995363E4,-1.499707E4,6.2507764E3,-1.5545394E4,-5.802857E2,1.5872317E5,-6.2278125E2,-7.0953664E4,-4.706703E4,9.580709E2,1.5605955E4,-4.525159E3,-5.782694E4,2.3651357E3,6.0140188E4,-2.0723729E4,2.3055725E5,7.5275E3,-8.320592E4,-3.0966094E4,-6.9600625E3,-5.3696414E4,1.5794283E4,-1.8983225E4,-2.7614402E4,3.6375758E4,1.8589336E4,-4.3142836E4,9.964319E4,-8.5465836E4,-4.9543496E3,5.60563E4,1.1965156E4,-5.7401E4],"categories":[],"categories_nodes":[],"categories_segments":[],"categories_sizes":[],"default_left":[1,0,1,1,1,1,0,1,1,1,1,1,1,1,1,0,1,1,1,1,1,1,1,0,1,0,0,0,0,0,0,0,0,0,0,0,0,0,0,0,0,0,0],"id":27,"left_children":[1,-1,3,5,7,9,-1,11,13,15,17,19,21,23,25,-1,27,29,31,33,35,37,39,-1,41,-1,-1,-1,-1,-1,-1,-1,-1,-1,-1,-1,-1,-1,-1,-1,-1,-1,-1],"loss_changes":[4.925218E10,0E0,1.4752014E10,1.7158482E10,2.2748471E10,9.854366E9,0E0,2.0878723E10,5.0816434E10,4.16427E9,9.255347E9,1.9426294E10,4.3302007E10,9.808165E9,3.0847492E10,0E0,3.6306534E8,1.2215767E9,4.145919E9,9.3465354E10,8.1138524E10,8.25052E10,1.6390382E10,0E0,7.880446E9,0E0,0E0,0E0,0E0,0E0,0E0,0E0,0E0,0E0,0E0,0E0,0E0,0E0,0E0,0E0,0E0,0E0,0E0],"parents":[2147483647,0,0,2,2,3,3,4,4,5,5,7,7,8,8,9,9,10,10,11,11,12,12,13,13,14,14,16,16,17,17,18,18,19,19,20,20,21,21,22,22,24,24],"right_children":[2,-1,4,6,8,10,-1,12,14,16,18,20,22,24,26,-1,28,30,32,34,36,38,40,-1,42,-1,-1,-1,-1,-1,-1,-1,-1,-1,-1,-1,-1,-1,-1,-1,-1,-1,-1],"split_conditions":[-2.6876652E0,4.74906E4,1.5E0,2.1975098E0,1.7613626E0,-5.4649055E-1,2.0613525E4,5.5E0,5.40453E-1,-5.453864E-1,-7.9836357E-1,5.0336782E-2,-2.9159762E-2,-8.199843E-1,8E0,-1.8683438E2,-2.9643872E-1,-4.8613068E-1,-4.9180025E-1,-4.542485E-1,-7.715362E-2,1.5E0,9.002346E-2,1.8042057E4,1.5E1,6.916718E4,2.25825E3,-2.4961777E4,-9.289828E3,-2.0880188E3,-1.6108925E4,4.738285E3,-5.694968E3,-8.284321E3,1.0912728E4,5.576801E3,-1.2942852E4,2.9892957E4,-2.5639752E4,-1.4863049E3,1.681689E4,3.589547E3,-1.72203E4],"split_indices":[12,0,3,10,12,12,0,4,15,10,15,11,10,15,4,0,11,11,15,10,10,7,11,0,6,0,0,0,0,0,0,0,0,0,0,0,0,0,0,0,0,0,0],"split_type":[0,0,0,0,0,0,0,0,0,0,0,0,0,0,0,0,0,0,0,0,0,0,0,0,0,0,0,0,0,0,0,0,0,0,0,0,0,0,0,0,0,0,0],"sum_hessian":[2.8E2,1E0,2.79E2,2.4E1,2.55E2,2.3E1,1E0,2.47E2,8E0,6E0,1.7E1,1.91E2,5.6E1,6E0,2E0,1E0,5E0,5E0,1.2E1,1.02E2,8.9E1,1.6E1,4E1,1E0,5E0,1E0,1E0,3E0,2E0,1E0,4E0,7E0,5E0,3.3E1,6.9E1,5.6E1,3.3E1,2E0,1.4E1,3.6E1,4E0,3E0,2E0],"tree_param":{"num_deleted":"0","num_feature":"16","num_nodes":"43","size_leaf_vector":"0"}},{"base_weights":[1.7277272E3,1.34557E5,7.727762E2,-3.367498E4,2.0410596E3,-5.9665656E4,4.248825E3,9.837146E4,9.591553E2,-1.40705625E4,-1.0057056E5,3.236375E4,-1.0870844E4,2.3963188E4,1.23594E5,-2.4113447E4,2.7462493E3,-5.29375E2,-1.8407834E4,-2.0433375E4,-1.3042247E5,-2.7605E3,-1.2654125E4,-2.8092277E4,-3.1644688E3,-7.285756E4,3.3377288E3,-1.6659756E4,-3.8778055E4,6.2146875E3,-8.362417E3,-5.8248335E3,8.860695E3],"categories":[],"categories_nodes":[],"categories_segments":[],"categories_sizes":[],"default_left":[1,0,1,1,1,1,1,1,1,1,1,0,1,0,0,1,1,0,0,0,0,0,0,1,1,0,1,0,0,0,0,0,0],"id":28,"left_children":[1,-1,3,5,7,9,11,13,15,17,19,-1,21,-1,-1,23,25,-1,-1,-1,-1,-1,-1,27,29,-1,31,-1,-1,-1,-1,-1,-1],"loss_changes":[3.5539587E10,0E0,1.2301798E10,1.0110163E10,2.814934E10,9.775294E9,2.477263E9,2.668591E9,1.2119332E10,2.2518253E8,4.5117727E9,0E0,2.2920416E7,0E0,0E0,1.4114458E9,1.1512143E10,0E0,0E0,0E0,0E0,0E0,0E0,1.1864484E9,2.4697926E8,0E0,1.2753347E10,0E0,0E0,0E0,0E0,0E0,0E0],"parents":[2147483647,0,0,2,2,3,3,4,4,5,5,6,6,7,7,8,8,9,9,10,10,12,12,15,15,16,16,23,23,24,24,26,26],"right_children":[2,-1,4,6,8,10,12,14,16,18,20,-1,22,-1,-1,24,26,-1,-1,-1,-1,-1,-1,28,30,-1,32,-1,-1,-1,-1,-1,-1],"split_conditions":[-2.6876652E0,4.03671E4,-1.5209174E0,2.5E0,-1.3798819E0,-4.1596618E-1,4E0,2.5E0,-1.0504521E0,1.5E0,1.5E0,9.709125E3,4.6973085E-1,7.1889565E3,3.7078203E4,9E0,1.5E0,-1.588125E2,-5.5223506E3,-6.1300127E3,-3.9126742E4,-8.2815E2,-3.7962375E3,2.5E0,8.5E0,-2.185727E4,2.5E0,-4.997927E3,-1.1633417E4,1.8644064E3,-2.508725E3,-1.7474501E3,2.6582087E3],"split_indices":[12,0,12,3,12,15,1,1,14,3,3,0,10,0,0,4,6,0,0,0,0,0,0,4,3,0,7,0,0,0,0,0,0],"split_type":[0,0,0,0,0,0,0,0,0,0,0,0,0,0,0,0,0,0,0,0,0,0,0,0,0,0,0,0,0,0,0,0,0],"sum_hessian":[2.8E2,1E0,2.79E2,9E0,2.7E2,5E0,4E0,2E0,2.68E2,3E0,2E0,1E0,3E0,1E0,1E0,1.7E1,2.51E2,1E0,2E0,1E0,1E0,1E0,2E0,1.4E1,3E0,1E0,2.5E2,8E0,6E0,1E0,2E0,9.4E1,1.56E2],"tree_param":{"num_deleted":"0","num_feature":"16","num_nodes":"33","size_leaf_vector":"0"}},{"base_weights":[1.2113992E3,1.14373E5,3.9877554E2,-3.190821E3,1.0434556E4,-2.1443242E4,1.3094193E3,8.01131E4,3.1083145E3,-8.379236E3,-6.6962016E4,7.098816E4,-2.6428955E3,3.7962812E3,1.8060344E5,-4.694678E3,6.2217594E4,-2.2618303E4,4.773991E4,-2.1538977E4,-8.608371E4,3.6978125E2,2.1210164E5,-5.209403E3,5.3831184E4,1.9949672E4,-5.2294844E3,-2.5695988E4,7.8110864E3,1.9464475E5,1.5493036E4,-4.286007E4,4.133819E4,6.683545E4,1.670939E4,-2.2267156E4,3.797475E4,-4.5264276E2,-3.351317E4,1.14931086E5,6.4050063E3,-1.3643541E3,-8.4124375E3,-5.50002E3,-4.0808273E4,-1.9356441E4,2.060245E4,3.1114062E4,-4.00125E3],"categories":[],"categories_nodes":[],"categories_segments":[],"categories_sizes":[],"default_left":[1,0,1,1,1,1,1,1,1,1,1,1,1,1,0,1,1,1,1,0,0,1,0,1,1,0,1,1,1,0,1,0,0,0,0,0,0,0,0,0,0,0,0,0,0,0,0,0,0],"id":29,"left_children":[1,-1,3,5,7,9,11,13,15,17,19,21,23,25,-1,27,29,31,33,-1,-1,35,-1,37,39,-1,41,43,45,-1,47,-1,-1,-1,-1,-1,-1,-1,-1,-1,-1,-1,-1,-1,-1,-1,-1,-1,-1],"loss_changes":[2.5794527E10,0E0,1.0120126E10,1.7031117E10,3.752664E10,2.381987E10,4.6178128E10,5.2998103E10,3.1655682E10,2.7449575E10,5.962932E9,8.960842E10,2.332607E10,8.333101E8,0E0,1.62216E10,4.648516E10,3.6725756E10,3.0310339E9,0E0,0E0,6.804419E9,0E0,2.0583873E10,1.9548006E10,0E0,3.773257E7,6.7953183E9,1.3951668E10,0E0,2.2561403E9,0E0,0E0,0E0,0E0,0E0,0E0,0E0,0E0,0E0,0E0,0E0,0E0,0E0,0E0,0E0,0E0,0E0,0E0],"parents":[2147483647,0,0,2,2,3,3,4,4,5,5,6,6,7,7,8,8,9,9,10,10,11,11,12,12,13,13,15,15,16,16,17,17,18,18,21,21,23,23,24,24,26,26,27,27,28,28,30,30],"right_children":[2,-1,4,6,8,10,12,14,16,18,20,22,24,26,-1,28,30,32,34,-1,-1,36,-1,38,40,-1,42,44,46,-1,48,-1,-1,-1,-1,-1,-1,-1,-1,-1,-1,-1,-1,-1,-1,-1,-1,-1,-1],"split_conditions":[-2.6876652E0,3.4311902E4,4.7922194E-1,-5.253609E-1,6.587217E-1,-5.7376564E-1,-4.9180025E-1,5.817932E-1,6.783035E-1,3.8367562E-2,-6.14228E-1,2E0,1.6779356E0,-3.1400138E-1,5.4181035E4,-2.4922894E-1,1.3259935E-1,-6.134575E-1,-6.3991874E-1,-6.4616934E3,-2.5825115E4,-5.021266E-1,6.3630496E4,8.079471E-2,1.5E0,5.984902E3,5.5615044E-1,-4.2016125E-1,-7.8123105E-1,5.8393426E4,1.593153E0,-1.2858021E4,1.2401458E4,2.0050637E4,5.0128174E3,-6.680147E3,1.1392426E4,-1.3579283E2,-1.0053952E4,3.447933E4,1.921502E3,-4.0930624E2,-2.5237314E3,-1.6500061E3,-1.2242482E4,-5.8069326E3,6.180735E3,9.334219E3,-1.200375E3],"split_indices":[12,0,12,15,12,15,15,12,15,14,10,4,11,10,0,11,14,15,15,0,0,15,0,11,4,0,12,15,10,0,15,0,0,0,0,0,0,0,0,0,0,0,0,0,0,0,0,0,0],"split_type":[0,0,0,0,0,0,0,0,0,0,0,0,0,0,0,0,0,0,0,0,0,0,0,0,0,0,0,0,0,0,0,0,0,0,0,0,0,0,0,0,0,0,0,0,0,0,0,0,0],"sum_hessian":[2.8E2,1E0,2.79E2,2.06E2,7.3E1,4E1,1.66E2,6E0,6.7E1,3.2E1,8E0,8E0,1.58E2,4E0,2E0,6E1,7E0,2.6E1,6E0,3E0,5E0,6E0,2E0,1.52E2,6E0,1E0,3E0,2.2E1,3.8E1,1E0,6E0,2E1,6E0,3E0,3E0,4E0,2E0,1.31E2,2.1E1,2E0,4E0,2E0,1E0,1E1,1.2E1,1.2E1,2.6E1,3E0,3E0],"tree_param":{"num_deleted":"0","num_feature":"16","num_nodes":"49","size_leaf_vector":"0"}},{"base_weights":[1.6715607E3,8.0312024E2,8.1879336E4,2.319402E3,-2.1311822E4,2.5602E4,9.7217E4,4.360416E3,-1.7203826E4,-7.335769E4,-6.0121377E3,-9.526699E3,7.384832E3,-3.0918228E2,-5.3066297E4,1.4359889E4,-3.1345865E4,-2.1876049E4,7.0273625E4,8.149898E4,4.2086523E3,-7.4079355E3,3.7653895E4,-7.505364E4,-2.4863162E4,3.1597215E4,-3.0647166E4,-4.1163926E4,-4.5338125E3,7.575354E3,-4.607839E4,9.881875E4,8.788917E3,-2.8834719E4,1.0138018E5,2.8090482E4,-2.5970605E3,-1.7145818E4,7.5616025E3,4.5898938E4,1.0581906E4,-4.0924082E4,-5.145208E2,6.832506E4,1.40883955E4,-5.5125E3,-4.8698656E4,-7.1505625E3,3.4984375E2],"categories":[],"categories_nodes":[],"categories_segments":[],"categories_sizes":[],"default_left":[1,1,1,1,1,0,0,1,1,0,1,1,1,1,1,1,1,1,1,1,1,1,1,0,1,1,0,1,1,0,0,0,0,0,0,0,0,0,0,0,0,0,0,0,0,0,0,0,0],"id":30,"left_children":[1,3,5,7,9,-1,-1,11,13,-1,15,17,19,21,23,25,27,29,31,33,35,37,39,-1,41,43,-1,45,47,-1,-1,-1,-1,-1,-1,-1,-1,-1,-1,-1,-1,-1,-1,-1,-1,-1,-1,-1,-1],"loss_changes":[1.9507487E10,9.404995E9,1.0053837E8,1.0514977E10,1.38921E10,0E0,0E0,1.0066451E10,1.5130683E10,0E0,8.1916134E9,4.3913036E10,4.579537E10,5.129767E9,3.094827E9,7.9505766E9,1.6560666E9,2.7435194E10,9.662024E9,2.0471804E10,3.0791668E10,2.4619955E9,1.8393114E8,0E0,1.9342515E9,3.538838E9,0E0,1.0746685E9,4.0839504E7,0E0,0E0,0E0,0E0,0E0,0E0,0E0,0E0,0E0,0E0,0E0,0E0,0E0,0E0,0E0,0E0,0E0,0E0,0E0,0E0],"parents":[2147483647,0,0,1,1,2,2,3,3,4,4,7,7,8,8,10,10,11,11,12,12,13,13,14,14,15,15,16,16,17,17,18,18,19,19,20,20,21,21,22,22,24,24,25,25,27,27,28,28],"right_children":[2,4,6,8,10,-1,-1,12,14,-1,16,18,20,22,24,26,28,30,32,34,36,38,40,-1,42,44,-1,46,48,-1,-1,-1,-1,-1,-1,-1,-1,-1,-1,-1,-1,-1,-1,-1,-1,-1,-1,-1,-1],"split_conditions":[4.967887E0,-1.3313843E-1,5E0,3.5E0,1.8497744E0,7.6806E3,2.9165102E4,-9.824183E-1,-8.45134E-1,-2.2007307E4,-1.5203771E-1,2.8170735E-1,-8.029187E-1,-8.8267356E-1,-2.6736826E-2,1.8812487E-1,5.0389595E0,-1.290132E0,-1.1362752E0,-5.7118404E-1,-5.895963E-1,-5.622146E-1,5.5E0,-2.2516094E4,4E0,2.5E0,-9.19415E3,-3.381934E-1,2.774191E-1,2.2726062E3,-1.3823518E4,2.9645627E4,2.6366753E3,-8.650416E3,3.0414055E4,8.4271455E3,-7.791182E2,-5.1437456E3,2.268481E3,1.3769682E4,3.174572E3,-1.2277225E4,-1.5435625E2,2.049752E4,4.226519E3,-1.6537501E3,-1.4609598E4,-2.145169E3,1.0495313E2],"split_indices":[10,13,1,7,13,0,0,12,14,0,11,15,12,14,12,15,13,12,12,15,11,11,3,0,3,3,0,10,11,0,0,0,0,0,0,0,0,0,0,0,0,0,0,0,0,0,0,0,0],"split_type":[0,0,0,0,0,0,0,0,0,0,0,0,0,0,0,0,0,0,0,0,0,0,0,0,0,0,0,0,0,0,0,0,0,0,0,0,0,0,0,0,0,0,0,0,0,0,0,0,0],"sum_hessian":[2.8E2,2.78E2,2E0,2.61E2,1.7E1,1E0,1E0,2.37E2,2.4E1,3E0,1.4E1,4.2E1,1.95E2,1.7E1,7E0,8E0,6E0,3.7E1,5E0,7E0,1.88E2,1.5E1,2E0,3E0,4E0,6E0,2E0,4E0,2E0,1.7E1,2E1,3E0,2E0,1E0,6E0,4.1E1,1.47E2,9E0,6E0,1E0,1E0,2E0,2E0,1E0,5E0,1E0,3E0,1E0,1E0],"tree_param":{"num_deleted":"0","num_feature":"16","num_nodes":"49","size_leaf_vector":"0"}},{"base_weights":[1.3171654E3,6.010122E1,4.420697E4,-1.1299194E4,4.0132869E3,-3.94275E3,6.0914E4,-6.1687918E4,-2.9897354E3,8.444878E4,-1.00867804E3,4.2140625E3,-1.01281875E4,9.2427836E4,2.2050125E4,3.691123E4,-9.095161E4,-4.371916E4,2.1548308E3,-6.2316438E4,1.4029456E5,-1.9643176E4,6.002932E3,1.655E3,2.8296834E4,1.09985E4,4.4368344E4,-1.4130112E5,-3.2481676E4,-5.8257523E4,-4.9155E3,4.964614E4,-6.7946816E3,-7.691796E4,-9.2559375E3,2.2266927E5,-1.834111E4,3.1363277E4,-2.6821941E4,1.658375E5,3.6767031E3,1.34874375E4,-4.7345812E4,-8.69095E4,-1.0186375E4,7.9326734E4,-3.6157293E4,3.9191167E3,-3.0626312E4,2.5499711E5,3.0515E4,1.55996875E4,-6.008175E4,-5.3135844E4,5.4302438E4,-1.3489105E3,-4.734443E4,2.8898055E4,-5.0056343E3],"categories":[],"categories_nodes":[],"categories_segments":[],"categories_sizes":[],"default_left":[1,1,1,1,1,1,1,1,1,1,1,0,0,0,1,1,1,1,1,1,1,1,1,0,0,0,0,0,1,1,0,1,1,0,0,1,1,1,1,0,1,0,0,0,0,0,0,0,0,0,0,0,0,0,0,0,0,0,0],"id":31,"left_children":[1,3,5,7,9,11,13,15,17,19,21,-1,-1,-1,23,25,27,29,31,33,35,37,39,-1,-1,-1,-1,-1,41,43,-1,45,47,-1,-1,49,51,53,55,-1,57,-1,-1,-1,-1,-1,-1,-1,-1,-1,-1,-1,-1,-1,-1,-1,-1,-1,-1],"loss_changes":[1.5147525E10,1.2349427E10,6.675679E9,2.9543485E10,8.24898E10,1.9404117E8,5.3104517E9,3.2210887E10,1.3085391E10,1.07097285E11,2.5334878E10,0E0,0E0,0E0,4.6277837E8,9.171738E7,1.8961764E10,3.66263E9,2.4138676E10,2.3871068E9,1.21692094E11,2.0247884E10,5.181573E10,0E0,0E0,0E0,0E0,0E0,4.0550292E9,6.001371E9,0E0,2.5788512E10,1.2375738E10,0E0,0E0,2.949038E10,6.6040986E9,1.6453778E10,2.4506325E10,0E0,3.0801893E10,0E0,0E0,0E0,0E0,0E0,0E0,0E0,0E0,0E0,0E0,0E0,0E0,0E0,0E0,0E0,0E0,0E0,0E0],"parents":[2147483647,0,0,1,1,2,2,3,3,4,4,5,5,6,6,7,7,8,8,9,9,10,10,14,14,15,15,16,16,17,17,18,18,19,19,20,20,21,21,22,22,28,28,29,29,31,31,32,32,35,35,36,36,37,37,38,38,40,40],"right_children":[2,4,6,8,10,12,14,16,18,20,22,-1,-1,-1,24,26,28,30,32,34,36,38,40,-1,-1,-1,-1,-1,42,44,-1,46,48,-1,-1,50,52,54,56,-1,58,-1,-1,-1,-1,-1,-1,-1,-1,-1,-1,-1,-1,-1,-1,-1,-1,-1,-1],"split_conditions":[3.2467413E0,-6.108254E-1,-8.8497186E-1,1.6E1,-5.9264207E-1,8.5E0,1.25E1,4.5E0,-1.7773454E0,-5.208477E-1,-2.9113907E-1,1.2642188E3,-3.0384563E3,2.7728352E4,1.45E1,3.5E0,6.5E0,4E0,-1.2773106E0,-6.062568E-1,7.3565006E-1,1.3E1,-2.6372692E-1,4.9650003E2,8.489051E3,3.29955E3,1.3310504E4,-4.239034E4,7E0,-6.373543E-1,-1.47465E3,3.3762258E-1,-6.2008464E-1,-2.3075389E4,-2.7767812E3,9E0,8.3807397E-1,6E0,2.5E0,4.9751254E4,-1.8749115E-1,4.0462314E3,-1.4203744E4,-2.6072852E4,-3.0559126E3,2.3798021E4,-1.0847188E4,1.1757351E3,-9.187895E3,7.649913E4,9.1545E3,4.6799062E3,-1.8024525E4,-1.5940754E4,1.6290731E4,-4.046732E2,-1.4203329E4,8.669417E3,-1.5016903E3],"split_indices":[10,11,14,6,11,3,4,4,12,12,11,0,0,0,4,1,3,1,12,11,12,6,11,0,0,0,0,0,6,11,0,10,11,0,0,4,10,6,4,0,12,0,0,0,0,0,0,0,0,0,0,0,0,0,0,0,0,0,0],"split_type":[0,0,0,0,0,0,0,0,0,0,0,0,0,0,0,0,0,0,0,0,0,0,0,0,0,0,0,0,0,0,0,0,0,0,0,0,0,0,0,0,0,0,0,0,0,0,0,0,0,0,0,0,0,0,0,0,0,0,0],"sum_hessian":[2.8E2,2.73E2,7E0,7E1,2.03E2,2E0,5E0,9E0,6.1E1,1.1E1,1.92E2,1E0,1E0,2E0,3E0,2E0,7E0,6E0,5.5E1,3E0,8E0,5.2E1,1.4E2,1E0,2E0,1E0,1E0,3E0,4E0,4E0,2E0,8E0,4.7E1,2E0,1E0,5E0,3E0,6E0,4.6E1,1E0,1.39E2,1E0,3E0,2E0,2E0,6E0,2E0,3.3E1,1.4E1,4E0,1E0,2E0,1E0,1E0,5E0,2.1E1,2.5E1,3.5E1,1.04E2],"tree_param":{"num_deleted":"0","num_feature":"16","num_nodes":"59","size_leaf_vector":"0"}},{"base_weights":[1.1442749E3,-6.0922644E2,2.8410955E4,8.8194977E2,-3.5122016E4,1.741995E4,7.3895664E4,-3.016317E2,6.012135E4,-4.744741E4,1.35615E4,2.4552273E4,-1.75515E3,1.0590287E3,-3.319945E4,6.644675E4,1.7409875E4,-5.372996E4,1.4065E3,-9.69875E2,2.7201475E4,1.5880833E4,-1.8806084E4,-6.132823E2,5.0050785E4,-2.000375E3,-6.399845E4,-3.4914074E4,-7.345175E4,1.7579465E4,3.7239625E4,3.016125E3,2.0805125E4,-2.5531625E4,-2.6775E3,-1.1866579E4,6.3278823E3,1.1340252E5,-4.1651586E4,-1.502275E4,3.155575E4,-8.6385E4,-2.0279084E4,-4.6207188E4,1.077575E4,2.167755E4,4.8895E3],"categories":[],"categories_nodes":[],"categories_segments":[],"categories_sizes":[],"default_left":[1,1,1,1,1,1,0,1,1,1,0,1,1,1,1,0,0,1,0,0,1,1,1,1,1,1,1,1,0,1,0,0,0,0,0,0,0,0,0,0,0,0,0,0,0,0,0],"id":32,"left_children":[1,3,5,7,9,11,-1,13,15,17,-1,19,21,23,25,-1,-1,27,-1,-1,29,31,33,35,37,39,41,43,-1,45,-1,-1,-1,-1,-1,-1,-1,-1,-1,-1,-1,-1,-1,-1,-1,-1,-1],"loss_changes":[1.3452526E10,1.3669109E10,7.211429E9,1.7897372E10,7.243937E9,2.0945382E9,0E0,1.1270612E10,1.9400704E8,2.8379156E9,0E0,7.701289E8,1.8022062E9,1.9857623E10,9.480983E9,0E0,0E0,4.041646E8,0E0,0E0,3.112187E8,1.2729786E8,2.5705946E8,1.8431173E10,5.1199443E10,3.0959368E9,3.1418184E9,3.5938007E9,0E0,2.5803955E8,0E0,0E0,0E0,0E0,0E0,0E0,0E0,0E0,0E0,0E0,0E0,0E0,0E0,0E0,0E0,0E0,0E0],"parents":[2147483647,0,0,1,1,2,2,3,3,4,4,5,5,7,7,8,8,9,9,11,11,12,12,13,13,14,14,17,17,20,20,21,21,22,22,23,23,24,24,25,25,26,26,27,27,29,29],"right_children":[2,4,6,8,10,12,-1,14,16,18,-1,20,22,24,26,-1,-1,28,-1,-1,30,32,34,36,38,40,42,44,-1,46,-1,-1,-1,-1,-1,-1,-1,-1,-1,-1,-1,-1,-1,-1,-1,-1,-1],"split_conditions":[2.3495538E0,1.3022784E0,1.5864661E0,9.44504E-1,6.9798803E-1,3.1317544E0,2.21687E4,1.5802449E0,5.5E0,4E0,4.0684502E3,-8.725364E-1,2.5E0,9.8034894E-1,6.5E0,1.9934025E4,5.222963E3,4E0,4.2195E2,-2.9096252E2,2.8812356E0,1E1,4E0,-4.952049E-1,1.9719288E-1,5.5E0,2.9972228E-1,2.5E0,-2.2035525E4,1.62503E0,1.1171888E4,9.048375E2,6.2415376E3,-7.659488E3,-8.0325006E2,-3.5599739E3,1.8983647E3,3.4020758E4,-1.2495477E4,-4.506825E3,9.466726E3,-2.5915502E4,-6.0837256E3,-1.3862157E4,3.232725E3,6.5032656E3,1.4668501E3],"split_indices":[14,14,10,14,15,14,0,15,4,1,0,10,4,15,4,0,0,3,0,0,14,6,1,12,11,3,12,3,0,11,0,0,0,0,0,0,0,0,0,0,0,0,0,0,0,0,0],"split_type":[0,0,0,0,0,0,0,0,0,0,0,0,0,0,0,0,0,0,0,0,0,0,0,0,0,0,0,0,0,0,0,0,0,0,0,0,0,0,0,0,0,0,0,0,0,0,0],"sum_hessian":[2.8E2,2.64E2,1.6E1,2.54E2,1E1,1.4E1,2E0,2.5E2,4E0,8E0,2E0,1E1,4E0,2.41E2,9E0,3E0,1E0,7E0,1E0,1E0,9E0,2E0,2E0,2.34E2,7E0,5E0,4E0,5E0,2E0,6E0,3E0,1E0,1E0,1E0,1E0,8.9E1,1.45E2,4E0,3E0,4E0,1E0,2E0,2E0,4E0,1E0,4E0,2E0],"tree_param":{"num_deleted":"0","num_feature":"16","num_nodes":"47","size_leaf_vector":"0"}},{"base_weights":[9.060171E2,-8.437115E1,3.4713562E4,-6.4828094E4,3.902509E2,-9.78E2,4.677375E4,-5.918075E1,6.131783E4,5.3619375E3,-6.8289375E3,6.7739664E4,1.9355875E4,-2.4664463E4,8.766063E2,1.1955E3,2.5010834E4,-4.6484324E4,-2.3705E3,6.8047836E4,1.01164604E2,-9.549875E3,-9.711106E4,-5.3988E3,6.3855E3,8.2043125E3,9.386744E4,1.4518062E3,-1.9369914E4],"categories":[],"categories_nodes":[],"categories_segments":[],"categories_sizes":[],"default_left":[1,1,1,0,1,1,1,1,0,0,0,0,1,1,1,0,0,1,1,1,1,0,0,0,0,0,0,0,0],"id":33,"left_children":[1,3,5,-1,7,9,11,13,-1,-1,-1,-1,15,17,19,-1,-1,21,23,25,27,-1,-1,-1,-1,-1,-1,-1,-1],"loss_changes":[9.411539E9,8.44499E9,3.48932E9,0E0,7.479128E9,1.4790006E8,2.1378847E9,6.2845036E9,0E0,0E0,0E0,0E0,3.8088435E8,4.754321E9,1.3692094E10,0E0,0E0,8.4219546E9,1.935688E8,3.8652908E9,6.8920166E9,0E0,0E0,0E0,0E0,0E0,0E0,0E0,0E0],"parents":[2147483647,0,0,1,1,2,2,4,4,5,5,6,6,7,7,12,12,13,13,14,14,17,17,18,18,19,19,20,20],"right_children":[2,4,6,-1,8,10,12,14,-1,-1,-1,-1,16,18,20,-1,-1,22,24,26,28,-1,-1,-1,-1,-1,-1,-1,-1],"split_conditions":[3.2467413E0,1.5E0,-8.8497186E-1,-1.944843E4,6.417158E0,8.5E0,1.25E1,-1.5209174E0,1.839535E4,1.6085813E3,-2.0486814E3,2.03219E4,1.45E1,3E0,-1.3798819E0,3.5865002E2,7.5032505E3,-4.1596618E-1,-3.8790387E-1,2.5E0,-1.3313843E-1,-2.8649626E3,-2.913332E4,-1.61964E3,1.91565E3,2.461294E3,2.8160232E4,4.3554187E2,-5.8109746E3],"split_indices":[10,6,14,0,11,3,4,12,0,0,0,0,4,4,12,0,0,15,11,1,13,0,0,0,0,0,0,0,0],"split_type":[0,0,0,0,0,0,0,0,0,0,0,0,0,0,0,0,0,0,0,0,0,0,0,0,0,0,0,0,0],"sum_hessian":[2.8E2,2.73E2,7E0,1E0,2.72E2,2E0,5E0,2.71E2,1E0,1E0,1E0,2E0,3E0,9E0,2.62E2,1E0,2E0,4E0,5E0,2E0,2.6E2,3E0,1E0,4E0,1E0,1E0,1E0,2.44E2,1.6E1],"tree_param":{"num_deleted":"0","num_feature":"16","num_nodes":"29","size_leaf_vector":"0"}},{"base_weights":[7.062209E2,-5.831913E2,2.0764338E4,5.875574E2,-2.7670256E4,1.309345E4,5.2197332E4,-3.3471164E2,4.676795E4,-3.7174367E4,1.00655E4,2.0857916E4,1.2400714E3,9.606266E2,-2.6213584E4,-4.2075164E4,1.016E3,2.3831656E4,-1.466E3,1.2478E4,-1.0307875E4,-7.078086E1,1.237335E5,1.12468955E4,-5.457777E4,-7.3605312E3,-4.5982895E4,2.6709709E4,1.0131667E4,3.6213333E3,1.9524E4,8.6925E2,-2.1919625E4,-8.606741E3,3.8096304E3,-1.2354281E4,3.8966168E4,-8.077306E4,-1.4738031E4,-6.1239668E4,-2.763225E4,-1.042125E3,2.346E3],"categories":[],"categories_nodes":[],"categories_segments":[],"categories_sizes":[],"default_left":[1,1,1,1,1,1,0,1,0,1,0,1,1,1,1,1,0,1,0,1,1,1,0,1,1,0,1,0,0,0,0,1,0,0,0,0,0,0,0,0,0,0,0],"id":34,"left_children":[1,3,5,7,9,11,-1,13,-1,15,-1,17,19,21,23,25,-1,27,-1,29,31,33,-1,35,37,-1,39,-1,-1,-1,-1,41,-1,-1,-1,-1,-1,-1,-1,-1,-1,-1,-1],"loss_changes":[7.279663E9,8.419976E9,3.4155796E9,1.0876294E10,4.3192714E9,1.3546624E9,0E0,8.439176E9,0E0,1.7272177E9,0E0,6.324068E8,1.03704666E9,3.0399683E10,1.3364263E10,7.4678374E8,0E0,4.482048E7,0E0,1.7891334E8,5.3819757E8,7.949195E9,0E0,4.406643E9,6.114857E9,0E0,2.6761114E8,0E0,0E0,0E0,0E0,1.0912694E7,0E0,0E0,0E0,0E0,0E0,0E0,0E0,0E0,0E0,0E0,0E0],"parents":[2147483647,0,0,1,1,2,2,3,3,4,4,5,5,7,7,9,9,11,11,12,12,13,13,14,14,15,15,17,17,19,19,20,20,21,21,23,23,24,24,26,26,31,31],"right_children":[2,4,6,8,10,12,-1,14,-1,16,-1,18,20,22,24,26,-1,28,-1,30,32,34,-1,36,38,-1,40,-1,-1,-1,-1,42,-1,-1,-1,-1,-1,-1,-1,-1,-1,-1,-1],"split_conditions":[2.3495538E0,1.3022784E0,1.5864661E0,9.44504E-1,6.9798803E-1,1.599689E0,1.56592E4,1.20172E0,1.4030386E4,4E0,3.0196501E3,4E0,3.0359902E0,1.1039424E0,-3.2852662E-1,1.5E0,3.0480002E2,5.5E0,-4.3980002E2,4E0,2.5E0,-6.0561717E-1,3.712005E4,5.5E0,2.9972228E-1,-2.2081594E3,1.6715446E0,8.012913E3,3.0395002E3,1.0864E3,5.8572E3,1.5E0,-6.5758877E3,-2.5820225E3,1.1428892E3,-3.7062844E3,1.1689851E4,-2.423192E4,-4.4214097E3,-1.83719E4,-8.289676E3,-3.126375E2,7.0380005E2],"split_indices":[14,14,10,14,15,11,0,15,0,1,0,1,14,15,12,3,0,3,0,4,4,11,0,4,12,0,14,0,0,0,0,4,0,0,0,0,0,0,0,0,0,0,0],"split_type":[0,0,0,0,0,0,0,0,0,0,0,0,0,0,0,0,0,0,0,0,0,0,0,0,0,0,0,0,0,0,0,0,0,0,0,0,0,0,0,0,0,0,0],"sum_hessian":[2.8E2,2.64E2,1.6E1,2.54E2,1E1,1.4E1,2E0,2.5E2,4E0,8E0,2E0,8E0,6E0,2.39E2,1.1E1,7E0,1E0,7E0,1E0,3E0,3E0,2.38E2,1E0,5E0,6E0,1E0,6E0,5E0,2E0,2E0,1E0,2E0,1E0,7.4E1,1.64E2,3E0,2E0,3E0,3E0,2E0,4E0,1E0,1E0],"tree_param":{"num_deleted":"0","num_feature":"16","num_nodes":"43","size_leaf_vector":"0"}},{"base_weights":[6.029845E2,-5.5675312E4,1.0028188E3,-5.5920593E2,1.3567443E4,-1.0442991E4,4.1534165E3,6.462276E4,-1.0256222E4,-2.593015E3,-6.016166E4,-8.0980195E3,1.1442562E4,2.9236236E4,1.9155075E5,1.1099055E4,-5.7603105E4,2.3590046E3,-5.6633062E4,6.6864836E4,-9.5819195E4,8.51295E2,-3.4999168E4,-1.8152773E4,1.6845617E4,5.0458168E4,-9.905719E3,-1.3283007E4,3.7141492E4,-9.418314E4,-6.622297E3,-4.167225E4,8.289361E3,-7.174127E4,9.454E3,1.0230444E5,-2.0071875E3,-1.4070517E5,-4.5354375E3,2.5402736E4,-4.558809E3,-4.4269547E4,1.992899E4,-9.130646E3,-8.125341E4,1.19819875E5,1.073393E4,1.43175625E4,5.4822773E4,-5.2115605E4,5.257107E3,4.5251652E4,-9.8148125E3,-2.0023938E4,1.6791312E4],"categories":[],"categories_nodes":[],"categories_segments":[],"categories_sizes":[],"default_left":[1,0,1,1,1,1,1,1,1,1,1,1,1,1,0,1,1,1,1,1,1,1,1,1,1,1,0,1,1,0,1,0,0,0,0,0,0,0,0,0,0,0,0,0,0,0,0,0,0,0,0,0,0,0,0],"id":35,"left_children":[1,-1,3,5,7,9,11,13,15,17,19,21,23,25,-1,27,29,31,33,35,37,39,41,43,45,47,-1,49,51,-1,53,-1,-1,-1,-1,-1,-1,-1,-1,-1,-1,-1,-1,-1,-1,-1,-1,-1,-1,-1,-1,-1,-1,-1,-1],"loss_changes":[6.3788923E9,0E0,5.502938E9,1.1688011E10,3.8368854E10,3.1457522E10,1.5274084E10,3.9315186E10,2.2883668E10,1.9133723E10,5.6230904E10,1.5437591E10,1.7415662E10,7.975834E9,0E0,1.0652844E10,1.2430447E10,1.7579424E10,6.6689843E9,7.5277343E9,3.623808E10,6.6242734E9,9.029526E9,8.936237E9,5.5984407E10,1.6150938E8,0E0,6.7536246E9,3.4907218E9,0E0,1.5913513E9,0E0,0E0,0E0,0E0,0E0,0E0,0E0,0E0,0E0,0E0,0E0,0E0,0E0,0E0,0E0,0E0,0E0,0E0,0E0,0E0,0E0,0E0,0E0,0E0],"parents":[2147483647,0,0,2,2,3,3,4,4,5,5,6,6,7,7,8,8,9,9,10,10,11,11,12,12,13,13,15,15,16,16,17,17,18,18,19,19,20,20,21,21,22,22,23,23,24,24,25,25,27,27,28,28,30,30],"right_children":[2,-1,4,6,8,10,12,14,16,18,20,22,24,26,-1,28,30,32,34,36,38,40,42,44,46,48,-1,50,52,-1,54,-1,-1,-1,-1,-1,-1,-1,-1,-1,-1,-1,-1,-1,-1,-1,-1,-1,-1,-1,-1,-1,-1,-1,-1],"split_conditions":[1.5E0,-1.6702594E4,7.5E0,2.5E0,1.5E0,5.5E0,-4.4371325E-1,-9.084386E-2,-5.927709E-2,6.5E0,-9.695969E-1,-1.5296715E-1,-6.374457E-1,1.2434855E0,5.7465227E4,-6.104295E-1,-5.5734134E-1,-6.8671E-1,1.1392306E0,6.5E0,7.385145E-2,1.6E1,6.318349E-1,-6.3857263E-1,-6.2282586E-1,1.1E1,-2.9717158E3,3.581354E-1,-3.5793328E-1,-2.8254943E4,8.5E0,-1.2501676E4,2.4868086E3,-2.1522383E4,2.8362002E3,3.0691332E4,-6.0215625E2,-4.2211555E4,-1.3606313E3,7.6208213E3,-1.3676428E3,-1.3280864E4,5.9786973E3,-2.739194E3,-2.4376023E4,3.5945965E4,3.220179E3,4.295269E3,1.6446832E4,-1.5634683E4,1.5771322E3,1.3575496E4,-2.9444438E3,-6.0071816E3,5.037394E3],"split_indices":[6,0,3,7,7,4,10,12,12,3,12,15,11,10,0,11,11,15,13,4,10,6,15,11,11,6,0,10,11,0,4,0,0,0,0,0,0,0,0,0,0,0,0,0,0,0,0,0,0,0,0,0,0,0,0],"split_type":[0,0,0,0,0,0,0,0,0,0,0,0,0,0,0,0,0,0,0,0,0,0,0,0,0,0,0,0,0,0,0,0,0,0,0,0,0,0,0,0,0,0,0,0,0,0,0,0,0,0,0,0,0,0,0],"sum_hessian":[2.8E2,1E0,2.79E2,2.49E2,3E1,8E1,1.69E2,9E0,2.1E1,7E1,1E1,6.3E1,1.06E2,8E0,1E0,1.5E1,6E0,6.5E1,5E0,2E0,8E0,4.8E1,1.5E1,1.6E1,9E1,5E0,3E0,8E0,7E0,3E0,3E0,7E0,5.8E1,4E0,1E0,1E0,1E0,5E0,3E0,8E0,4E1,1.3E1,2E0,1.5E1,1E0,4E0,8.6E1,1E0,4E0,2E0,6E0,6E0,1E0,2E0,1E0],"tree_param":{"num_deleted":"0","num_feature":"16","num_nodes":"55","size_leaf_vector":"0"}},{"base_weights":[4.032307E2,-1.5912052E4,1.7144097E3,9.885047E3,-4.5277367E4,3.8306562E4,-5.147268E2,1.7117746E4,-3.6642812E3,-7.984952E4,5.2647E3,-1.7275463E4,6.0088703E4,-5.2161582E4,1.4322876E3,-2.4041667E2,2.294387E4,-1.0906594E4,1.2652484E4,1.7628375E4,-8.853875E3,2.9990166E4,-5.8782605E4,1.0929906E4,7.7157016E4,1.1041875E4,-8.5603625E4,9.796002E3,-3.1635059E3,3.3034688E3,-3.6640938E3,3.1755625E3,2.6262418E4,-2.49925E3,-1.07815625E4,5.6623438E3,3.9322906E4,-7.181441E4,-1.63595E4,1.24116875E4,3.2422812E3,9.610452E4,3.4183375E4,2.03615E4,-8.4585E3,-2.7314969E4,-1.347873E5,1.4499388E3,4.8647633E4,-1.8761182E4,2.242275E3,1.101357E5,1.9989906E4,-4.0160207E4,5.610375E3,-3.3242406E4,7.682166E3,1.3238606E5,1.6680852E4,-3.0858893E4,8.738592E3,1.035635E5,4.606686E2],"categories":[],"categories_nodes":[],"categories_segments":[],"categories_sizes":[],"default_left":[1,1,1,1,1,1,1,1,1,0,1,1,1,1,1,1,1,0,0,0,1,1,1,1,1,1,1,1,1,0,0,0,0,0,0,0,0,0,0,0,0,1,0,0,0,1,0,1,1,1,1,0,0,0,0,0,0,0,0,0,0,0,0],"id":36,"left_children":[1,3,5,7,9,11,13,15,17,-1,19,21,23,25,27,29,31,-1,-1,-1,33,35,37,39,41,43,45,47,49,-1,-1,-1,-1,-1,-1,-1,-1,-1,-1,-1,-1,51,-1,-1,-1,53,-1,55,57,59,61,-1,-1,-1,-1,-1,-1,-1,-1,-1,-1,-1,-1],"loss_changes":[6.038503E9,1.6355908E10,2.13092E10,1.2387026E9,1.7893868E10,1.9198495E10,2.491233E10,8.1456256E8,7.288511E8,0E0,1.0288668E9,1.1572206E10,8.3863183E9,1.9968098E10,9.217648E9,4.8503576E7,3.1021466E8,0E0,0E0,0E0,9.80336E6,4.5847578E8,4.8370074E8,5.32336E6,3.2287662E9,8.991725E8,1.3519385E10,2.7491408E10,1.3111297E10,0E0,0E0,0E0,0E0,0E0,0E0,0E0,0E0,0E0,0E0,0E0,0E0,3.1382856E9,0E0,0E0,0E0,1.9170493E9,0E0,1.5606325E10,3.7944406E10,1.3577036E10,2.0891976E10,0E0,0E0,0E0,0E0,0E0,0E0,0E0,0E0,0E0,0E0,0E0,0E0],"parents":[2147483647,0,0,1,1,2,2,3,3,4,4,5,5,6,6,7,7,8,8,10,10,11,11,12,12,13,13,14,14,15,15,16,16,20,20,21,21,22,22,23,23,24,24,25,25,26,26,27,27,28,28,41,41,45,45,47,47,48,48,49,49,50,50],"right_children":[2,4,6,8,10,12,14,16,18,-1,20,22,24,26,28,30,32,-1,-1,-1,34,36,38,40,42,44,46,48,50,-1,-1,-1,-1,-1,-1,-1,-1,-1,-1,-1,-1,52,-1,-1,-1,54,-1,56,58,60,62,-1,-1,-1,-1,-1,-1,-1,-1,-1,-1,-1,-1],"split_conditions":[8.5E0,-2.281587E-1,1.35E1,5.5E0,5.5E0,-6.2617624E-1,1.55E1,-9.807359E-1,-6.4388275E-1,-2.3954857E4,4.5E0,4.5E0,-6.4934546E-1,-2.1840385E-1,-5.480821E-1,2.5E0,-8.838786E-1,-3.2719783E3,3.7957454E3,5.2885127E3,6E0,3.5E0,5.5E0,2.5E0,4.5E0,2.3943973E0,-3.4727198E-1,-6.062568E-1,-2.9113907E-1,9.9104065E2,-1.0992281E3,9.5266876E2,7.8787256E3,-7.49775E2,-3.234469E3,1.6987032E3,1.1796872E4,-2.1544322E4,-4.90785E3,3.7235063E3,9.726844E2,3.3728886E0,1.0255013E4,6.10845E3,-2.53755E3,4.5E0,-4.043619E4,1.5E0,-6.035765E-1,2.079107E-1,-2.6372692E-1,3.304071E4,5.996972E3,-1.20480625E4,1.6831125E3,-9.972723E3,2.30465E3,3.971582E4,5.004256E3,-9.257668E3,2.6215776E3,3.106905E4,1.3820059E2],"split_indices":[6,10,6,6,3,11,6,14,10,0,1,4,10,10,11,4,15,0,0,0,4,1,1,3,4,11,12,11,11,0,0,0,0,0,0,0,0,0,0,0,0,11,0,0,0,1,0,4,11,10,11,0,0,0,0,0,0,0,0,0,0,0,0],"split_type":[0,0,0,0,0,0,0,0,0,0,0,0,0,0,0,0,0,0,0,0,0,0,0,0,0,0,0,0,0,0,0,0,0,0,0,0,0,0,0,0,0,0,0,0,0,0,0,0,0,0,0,0,0,0,0,0,0,0,0,0,0,0,0],"sum_hessian":[2.8E2,2E1,2.6E2,1.1E1,9E0,1.4E1,2.46E2,7E0,4E0,5E0,4E0,4E0,1E1,8E0,2.38E2,2E0,5E0,3E0,1E0,2E0,2E0,2E0,2E0,3E0,7E0,3E0,5E0,8.4E1,1.54E2,1E0,1E0,1E0,4E0,1E0,1E0,1E0,1E0,1E0,1E0,2E0,1E0,4E0,3E0,2E0,1E0,3E0,2E0,7E1,1.4E1,3.9E1,1.15E2,3E0,1E0,2E0,1E0,1E1,6E1,3E0,1.1E1,2.7E1,1.2E1,1E0,1.14E2],"tree_param":{"num_deleted":"0","num_feature":"16","num_nodes":"63","size_leaf_vector":"0"}},{"base_weights":[4.3181116E2,7.452322E1,5.023622E4,3.699051E3,-5.1580522E3,1.2094025E3,1.0422747E5,7.632223E3,-2.1358244E4,-8.886655E3,1.2325448E4,8.1309688E3,1.3354931E5,-6.980528E3,2.2013695E4,1.514392E4,-3.424435E4,-1.0180571E2,-4.2068207E4,8.0036586E4,7.583811E3,-2.6917285E4,-5.7765924E2,4.14908E4,5.478417E3,1.0023054E5,-7.389729E3,-4.4263562E4,8.860637E3,-2.7627799E4,5.594983E3,-1.6312634E4,-1.0577017E5,-2.674E4,1.13415734E5,-2.0190176E4,1.8969545E4,1.6383172E4,-3.544352E4,2.8415709E4,-4.177761E3,5.323155E4,-4.1041562E3,-3.862952E3,2.6361875E4,-4.573175E4,1.047225E4,-6.0891168E4,-8.495994E3,7.598819E4,-2.6179912E4],"categories":[],"categories_nodes":[],"categories_segments":[],"categories_sizes":[],"default_left":[1,1,0,1,1,1,1,1,1,1,1,0,0,1,1,1,1,1,1,1,1,1,1,1,1,0,1,1,1,0,0,0,0,0,0,0,0,0,0,0,0,0,0,0,0,0,0,0,0,0,0],"id":37,"left_children":[1,3,-1,5,7,9,11,13,15,17,19,-1,-1,21,23,25,27,29,31,33,35,37,39,41,43,-1,45,47,49,-1,-1,-1,-1,-1,-1,-1,-1,-1,-1,-1,-1,-1,-1,-1,-1,-1,-1,-1,-1,-1,-1],"loss_changes":[4.996515E9,5.329452E9,0E0,4.1420497E10,2.3991577E10,1.8402736E10,1.0185023E10,1.3813604E10,2.4507505E10,2.5064282E10,2.4435829E10,0E0,0E0,4.1969812E9,1.0400654E10,2.7583046E10,1.680357E10,1.0974452E10,2.780686E10,2.0853293E10,2.3783815E10,3.5341952E9,2.83257E9,8.2482586E9,3.8083566E9,0E0,8.697287E9,1.7919267E10,2.0806853E10,0E0,0E0,0E0,0E0,0E0,0E0,0E0,0E0,0E0,0E0,0E0,0E0,0E0,0E0,0E0,0E0,0E0,0E0,0E0,0E0,0E0,0E0],"parents":[2147483647,0,0,1,1,3,3,4,4,5,5,6,6,7,7,8,8,9,9,10,10,13,13,14,14,15,15,16,16,17,17,18,18,19,19,20,20,21,21,22,22,23,23,24,24,26,26,27,27,28,28],"right_children":[2,4,-1,6,8,10,12,14,16,18,20,-1,-1,22,24,26,28,30,32,34,36,38,40,42,44,-1,46,48,50,-1,-1,-1,-1,-1,-1,-1,-1,-1,-1,-1,-1,-1,-1,-1,-1,-1,-1,-1,-1,-1,-1],"split_conditions":[6.417158E0,-3.3221327E-2,1.5070866E4,-5.3567223E-2,-7.715362E-2,-4.952049E-1,1.4E1,-6.844629E-1,-1.6184834E-1,-6.1059755E-1,-3.9263365E-1,2.4392908E3,4.0064797E4,-6.896143E-1,-2.4396804E-1,-5.398823E-1,1.2183864E0,-5.1890695E-1,-4.5366257E-1,-3.772128E-1,-6.1100817E-1,-1.068804E0,-6.6476655E-1,8.487488E-1,-3.9728016E-1,3.0069162E4,2.5E0,3.5100788E-1,1.5E1,-8.28834E3,1.678495E3,-4.8937905E3,-3.1731053E4,-8.0220005E3,3.4024723E4,-6.0570527E3,5.690864E3,4.9149517E3,-1.0633057E4,8.524713E3,-1.2533284E3,1.5969466E4,-1.231247E3,-1.1588856E3,7.908563E3,-1.3719525E4,3.141675E3,-1.8267352E4,-2.5487983E3,2.2796457E4,-7.853974E3],"split_indices":[11,11,0,11,10,12,6,10,12,12,12,0,0,15,15,15,11,15,11,10,11,10,15,11,10,0,3,12,6,0,0,0,0,0,0,0,0,0,0,0,0,0,0,0,0,0,0,0,0,0,0],"split_type":[0,0,0,0,0,0,0,0,0,0,0,0,0,0,0,0,0,0,0,0,0,0,0,0,0,0,0,0,0,0,0,0,0,0,0,0,0,0,0,0,0,0,0,0,0,0,0,0,0,0,0],"sum_hessian":[2.8E2,2.79E2,1E0,1.65E2,1.14E2,1.62E2,3E0,6.4E1,5E1,8.5E1,7.7E1,1E0,2E0,3.2E1,3.2E1,1.3E1,3.7E1,6.8E1,1.7E1,4E0,7.3E1,7E0,2.5E1,1.4E1,1.8E1,2E0,1.1E1,3E1,7E0,1.1E1,5.7E1,1.3E1,4E0,1E0,3E0,2.1E1,5.2E1,1E0,6E0,2E0,2.3E1,1.1E1,3E0,1.3E1,5E0,3E0,8E0,2E1,1E1,2E0,5E0],"tree_param":{"num_deleted":"0","num_feature":"16","num_nodes":"51","size_leaf_vector":"0"}},{"base_weights":[5.749929E2,-1.760029E4,1.4512148E3,7.475422E3,-2.0312885E4,9.097614E2,2.9858E4,-2.5350312E3,-2.1698596E4,5.488011E3,-2.2745635E3,3.828075E4,-1.9165E3,-2.306693E4,-4.007625E3,-1.3319952E2,3.212181E4,-2.1054547E4,9.418377E2,1.1214E4,4.3565E4,-1.3747102E4,-2.9637338E4,4.9603022E3,-1.3778457E4,-4.967882E2,5.588959E4,-3.1744107E4,6.0790562E4,2.8028266E4,-1.6870249E3,9.540083E3,-7.11178E3,-1.8218355E4,2.4853584E4,1.5058911E4,-2.370614E4,9.0818E4,3.1439188E4,-1.7422602E4,-8.825485E4,8.559266E4,5.5931875E3,1.048345E5,-9.22209E3,2.19199E3,-1.8816264E4],"categories":[],"categories_nodes":[],"categories_segments":[],"categories_sizes":[],"default_left":[1,1,1,0,1,1,1,0,1,1,1,1,0,1,0,1,1,1,1,0,0,0,0,1,1,1,1,1,1,1,1,0,0,0,0,0,0,0,0,0,0,0,0,0,0,0,0],"id":38,"left_children":[1,3,5,-1,7,9,11,-1,13,15,17,19,-1,21,-1,23,25,27,29,-1,-1,-1,-1,31,33,35,37,39,41,43,45,-1,-1,-1,-1,-1,-1,-1,-1,-1,-1,-1,-1,-1,-1,-1,-1],"loss_changes":[4.5006295E9,1.03611034E9,4.1103117E9,0E0,2.4061338E8,3.8758213E9,1.4115087E9,0E0,1.7383526E8,1.6323126E10,9.503251E9,8.357222E7,0E0,2.049234E8,0E0,6.3930404E9,1.4757927E10,2.2052172E10,9.660162E9,0E0,0E0,0E0,0E0,3.772109E9,4.7408497E9,3.606328E9,6.5389076E9,1.5458066E10,3.6282962E9,3.529951E10,8.280372E9,0E0,0E0,0E0,0E0,0E0,0E0,0E0,0E0,0E0,0E0,0E0,0E0,0E0,0E0,0E0,0E0],"parents":[2147483647,0,0,1,1,2,2,4,4,5,5,6,6,8,8,9,9,10,10,11,11,13,13,15,15,16,16,17,17,18,18,23,23,24,24,25,25,26,26,27,27,28,28,29,29,30,30],"right_children":[2,4,6,-1,8,10,12,-1,14,16,18,20,-1,22,-1,24,26,28,30,-1,-1,-1,-1,32,34,36,38,40,42,44,46,-1,-1,-1,-1,-1,-1,-1,-1,-1,-1,-1,-1,-1,-1,-1,-1],"split_conditions":[-1.0787983E0,-6.949502E-1,3.8300815E0,2.2426267E3,1.1E1,-5.25714E-2,-1.2644892E0,-7.605094E2,5.5E0,-4.07035E-1,1.6E1,5E0,-5.7495E2,2.5E0,-1.2022876E3,-1.4941746E-1,-4.4062683E-1,1.5320116E0,1.5E0,3.3642002E3,1.3069501E4,-4.124131E3,-8.891202E3,1.5305772E0,4E0,5.5E0,-3.035659E-1,8.079471E-2,1.15E1,1.1387396E-1,6.5E0,2.862025E3,-2.133534E3,-5.465507E3,7.4560757E3,4.5176733E3,-7.1118423E3,2.72454E4,9.431757E3,-5.226781E3,-2.6476457E4,2.5677799E4,1.6779563E3,3.1450352E4,-2.766627E3,6.5759705E2,-5.6448794E3],"split_indices":[14,11,10,0,6,10,12,0,1,10,6,1,0,4,0,15,14,11,7,0,0,0,0,12,4,3,11,11,6,10,3,0,0,0,0,0,0,0,0,0,0,0,0,0,0,0,0],"split_type":[0,0,0,0,0,0,0,0,0,0,0,0,0,0,0,0,0,0,0,0,0,0,0,0,0,0,0,0,0,0,0,0,0,0,0,0,0,0,0,0,0,0,0,0,0,0,0],"sum_hessian":[2.8E2,1.2E1,2.68E2,1E0,1.1E1,2.64E2,4E0,1E0,1E1,1.08E2,1.56E2,3E0,1E0,9E0,1E0,9E1,1.8E1,2.2E1,1.34E2,1E0,2E0,5E0,4E0,6.6E1,2.4E1,8E0,1E1,2E1,2E0,1.1E1,1.23E2,4.8E1,1.8E1,2.2E1,2E0,5E0,3E0,3E0,7E0,1.7E1,3E0,1E0,1E0,3E0,8E0,1.01E2,2.2E1],"tree_param":{"num_deleted":"0","num_feature":"16","num_nodes":"47","size_leaf_vector":"0"}},{"base_weights":[6.1343036E2,-3.2507056E2,1.5206919E4,6.5256274E2,-2.5319975E4,2.1691113E4,2.8450535E3,1.6577163E3,-1.9923703E4,-3.4437594E4,7.4336665E3,-2.19675E3,2.4299574E4,6.235271E3,-8.748125E3,9.689795E2,8.485475E4,7.3972085E3,-4.0495383E4,-3.889182E4,-1.629E3,1.071E3,1.00795E4,7.562125E3,3.0392465E4,1.4223125E3,6.9134E3,-4.3230522E3,4.25694E3,-8.01275E3,2.5478084E4,-4.7052625E4,-5.7596875E2,-2.21755E4,-5.3788418E4,9.811167E3,4.075E2,8.007375E3,3.278875E4,7.604E3,2.0755E3,5.0065176E3,-1.3368192E4,5.8351676E4,2.0047112E3,-1.7713041E4,1.05440625E4,-5.5551125E4,-2.0037084E4,-2.9087938E4,2.737125E3],"categories":[],"categories_nodes":[],"categories_segments":[],"categories_sizes":[],"default_left":[1,1,1,1,1,1,1,1,1,1,1,0,1,1,0,1,0,1,1,1,0,0,0,1,1,0,1,1,1,1,0,1,0,1,0,0,0,0,0,0,0,0,0,0,0,0,0,0,0,0,0],"id":39,"left_children":[1,3,5,7,9,11,13,15,17,19,21,-1,23,25,-1,27,-1,29,31,33,-1,-1,-1,35,37,-1,39,41,43,45,-1,47,-1,49,-1,-1,-1,-1,-1,-1,-1,-1,-1,-1,-1,-1,-1,-1,-1,-1,-1],"loss_changes":[3.8535201E9,6.492023E9,1.300952E9,5.3276984E9,3.2423506E9,7.38796E8,3.296707E8,1.3956488E10,7.0439967E9,1.1057398E9,3.970853E7,0E0,7.8996326E8,9.749824E6,0E0,4.2640008E9,0E0,1.8759026E9,1.805228E9,5.5032934E8,0E0,0E0,0E0,6.0366176E7,1.1293542E8,0E0,9.23168E5,7.999331E9,1.8279913E10,9.0679334E8,0E0,2.6446746E8,0E0,9.40652E8,0E0,0E0,0E0,0E0,0E0,0E0,0E0,0E0,0E0,0E0,0E0,0E0,0E0,0E0,0E0,0E0,0E0],"parents":[2147483647,0,0,1,1,2,2,3,3,4,4,5,5,6,6,7,7,8,8,9,9,10,10,12,12,13,13,15,15,17,17,18,18,19,19,23,23,24,24,26,26,27,27,28,28,29,29,31,31,33,33],"right_children":[2,4,6,8,10,12,14,16,18,20,22,-1,24,26,-1,28,-1,30,32,34,-1,-1,-1,36,38,-1,40,42,44,46,-1,48,-1,50,-1,-1,-1,-1,-1,-1,-1,-1,-1,-1,-1,-1,-1,-1,-1,-1,-1],"split_conditions":[2.3495538E0,1.3942119E0,1.6716127E0,1.20172E0,6.9798803E-1,-6.310799E-1,3.1248593E0,1.1039424E0,-3.2852662E-1,4E0,4.5E0,-6.59025E2,2.9203074E0,1.5E0,-2.6244375E3,-4.952049E-1,2.5456426E4,5.5E0,1.0558932E0,4E0,-4.887E2,3.2130002E2,3.02385E3,4.5E0,1E1,4.2669376E2,4.5E0,-8.285614E-1,-3.9263365E-1,6.7034016E0,7.6434253E3,2.9972228E-1,-1.7279063E2,2.5E0,-1.6136526E4,2.94335E3,1.2225001E2,2.4022126E3,9.836625E3,2.2812002E3,6.2265E2,1.5019553E3,-4.0104578E3,1.7505504E4,6.014134E2,-5.3139126E3,3.163219E3,-1.6665338E4,-6.0111255E3,-8.726382E3,8.211375E2],"split_indices":[14,14,12,15,15,11,14,15,12,1,3,0,14,4,0,12,0,4,11,3,0,0,0,3,6,0,3,12,12,15,0,12,0,3,0,0,0,0,0,0,0,0,0,0,0,0,0,0,0,0,0],"split_type":[0,0,0,0,0,0,0,0,0,0,0,0,0,0,0,0,0,0,0,0,0,0,0,0,0,0,0,0,0,0,0,0,0,0,0,0,0,0,0,0,0,0,0,0,0,0,0,0,0,0,0],"sum_hessian":[2.8E2,2.64E2,1.6E1,2.55E2,9E0,1E1,6E0,2.44E2,1.1E1,7E0,2E0,1E0,9E0,5E0,1E0,2.43E2,1E0,5E0,6E0,6E0,1E0,1E0,1E0,3E0,6E0,1E0,4E0,9.3E1,1.5E2,3E0,2E0,5E0,1E0,4E0,2E0,2E0,1E0,1E0,5E0,3E0,1E0,4.6E1,4.7E1,5E0,1.45E2,2E0,1E0,3E0,2E0,3E0,1E0],"tree_param":{"num_deleted":"0","num_feature":"16","num_nodes":"51","size_leaf_vector":"0"}},{"base_weights":[4.9297046E2,1.9422215E2,4.207125E4,-6.01172E3,2.0236511E3,-3.7140057E2,-3.6432305E4,3.857078E4,-3.0384323E2,-6.3496694E3,2.7165777E4,-4.942879E4,-4.580383E3,1.116611E4,1.2619765E5,9.908322E3,-2.9959858E3,4.628298E3,-2.0852441E4,7.3470016E4,1.3857526E4,-5.664983E4,-3.0512812E3,-1.1258844E4,7.7275E3,-3.4088218E3,7.845772E4,-4.6146207E4,1.3768207E4,-4.0720076E3,2.5838584E4,3.3759742E4,-7.255694E3,3.5674652E2,-3.502163E4,2.1608662E4,-2.4075781E4,-1.3332857E4,1.4810445E4,-3.22125E3,-6.599806E4,7.7542664E4,8.509448E3,4.1574956E3,-9.430202E3,2.1557E3,7.21265E4],"categories":[],"categories_nodes":[],"categories_segments":[],"categories_sizes":[],"default_left":[1,1,0,1,1,1,1,1,1,1,1,1,1,1,0,1,1,1,1,0,1,0,0,0,0,1,0,1,1,1,1,0,0,0,0,0,0,0,0,0,0,0,0,0,0,0,0],"id":40,"left_children":[1,3,-1,5,7,9,11,13,15,17,19,21,23,25,-1,27,29,31,33,-1,35,-1,-1,-1,-1,37,-1,39,41,43,45,-1,-1,-1,-1,-1,-1,-1,-1,-1,-1,-1,-1,-1,-1,-1,-1],"loss_changes":[3.4822538E9,3.191098E9,0E0,1.0967707E10,1.8470443E10,9.226849E9,3.9132273E9,2.9808867E10,5.665669E9,7.4202153E9,5.144171E9,2.1714012E9,4.1579357E8,1.1055925E10,0E0,9.939003E9,5.1625544E9,9.592291E9,6.022833E9,0E0,3.166482E9,0E0,0E0,0E0,0E0,2.0055521E9,0E0,2.343824E9,1.309051E10,7.0062607E9,6.4219044E9,0E0,0E0,0E0,0E0,0E0,0E0,0E0,0E0,0E0,0E0,0E0,0E0,0E0,0E0,0E0,0E0],"parents":[2147483647,0,0,1,1,3,3,4,4,5,5,6,6,7,7,8,8,9,9,10,10,11,11,12,12,13,13,15,15,16,16,17,17,18,18,20,20,25,25,27,27,28,28,29,29,30,30],"right_children":[2,4,-1,6,8,10,12,14,16,18,20,22,24,26,-1,28,30,32,34,-1,36,-1,-1,-1,-1,38,-1,40,42,44,46,-1,-1,-1,-1,-1,-1,-1,-1,-1,-1,-1,-1,-1,-1,-1,-1],"split_conditions":[6.417158E0,-5.253609E-1,1.2621376E4,-5.7376564E-1,-4.7921503E-1,-6.134575E-1,-5.476271E-1,2E0,2.5E0,-7.58349E-1,-6.089397E-1,8.417937E-1,2.5E0,-4.8405552E-1,3.7859297E4,-1.7901669E0,1.7613626E0,6.8436444E-1,-7.453332E-1,2.2041006E4,2.1330986E0,-1.699495E4,-9.153844E2,-3.3776533E3,2.31825E3,1.8045305E-1,2.3537316E4,1.5E0,-4.6450555E-1,-6.020536E-1,-3.7032968E-1,1.0127923E4,-2.1767083E3,1.07023964E2,-1.0506489E4,6.482599E3,-7.222735E3,-3.9998574E3,4.443134E3,-9.6637506E2,-1.979942E4,2.32628E4,2.5528345E3,1.2472488E3,-2.8290608E3,6.4671E2,2.1637951E4],"split_indices":[11,15,0,15,15,15,15,4,3,15,15,13,4,15,0,12,12,12,10,0,11,0,0,0,0,11,0,3,11,11,11,0,0,0,0,0,0,0,0,0,0,0,0,0,0,0,0],"split_type":[0,0,0,0,0,0,0,0,0,0,0,0,0,0,0,0,0,0,0,0,0,0,0,0,0,0,0,0,0,0,0,0,0,0,0,0,0,0,0,0,0,0,0,0,0,0,0],"sum_hessian":[2.8E2,2.79E2,1E0,6.3E1,2.16E2,5.4E1,9E0,1.2E1,2.04E2,4.5E1,9E0,6E0,3E0,1E1,2E0,4.2E1,1.62E2,2.6E1,1.9E1,1E0,8E0,5E0,1E0,2E0,1E0,9E0,1E0,2E0,4E1,1.57E2,5E0,7E0,1.9E1,8E0,1.1E1,7E0,1E0,6E0,3E0,1E0,1E0,2E0,3.8E1,6.2E1,9.5E1,4E0,1E0],"tree_param":{"num_deleted":"0","num_feature":"16","num_nodes":"47","size_leaf_vector":"0"}},{"base_weights":[7.012858E2,1.5239231E3,-1.1403021E4,-9.304812E3,2.6455667E3,-4.6685406E4,-1.2341843E3,-1.9078666E4,7.2638374E3,2.1913297E4,1.6243512E3,-6.95015E4,-1.5912875E4,1.931399E4,-1.343967E4,-3.8108086E4,-3.8502063E3,-1.9325709E4,1.63269375E4,4.543081E4,-9.176016E3,-1.0011921E4,3.164031E3,-4.579422E3,4.4733875E4,-2.0069393E4,8.7194795E3,-2.548254E4,9.061156E3,1.9441643E4,-2.738E3,1.3839844E4,8.293881E4,7.562922E3,-2.8435928E4,-3.4801885E3,-1.6778387E4,2.1903323E3,2.3909277E4,-1.11006875E4,7.4921875E3,5.378147E4,1.3319344E4,-1.0976419E4,-3.1565541E4,9.479375E2,-3.4608676E4,1.849313E4,-2.3765344E4,8.3804375E3,2.5642438E4,1.3553854E3,2.1711021E4,8.635542E3,2.1725312E3,-8.756885E3,8.824581E3,-2.0101436E4,9.989167E2,4.7643657E3,-5.576469E3,3.5162293E4,1.0524375E3,-2.5935938E3,-1.40574375E4,-1.3220653E4,1.22375E2],"categories":[],"categories_nodes":[],"categories_segments":[],"categories_sizes":[],"default_left":[1,1,1,1,1,1,1,1,1,1,1,0,0,1,1,0,1,0,1,1,1,1,1,1,1,1,0,1,1,1,0,1,0,1,0,1,1,1,1,1,0,0,0,1,0,0,0,0,0,0,0,0,0,0,0,0,0,0,0,0,0,0,0,0,0,0,0],"id":41,"left_children":[1,3,5,7,9,11,13,15,17,19,21,-1,-1,23,25,-1,27,-1,29,31,33,35,37,39,41,43,-1,45,47,49,-1,51,-1,53,-1,55,57,59,61,63,-1,-1,-1,65,-1,-1,-1,-1,-1,-1,-1,-1,-1,-1,-1,-1,-1,-1,-1,-1,-1,-1,-1,-1,-1,-1,-1],"loss_changes":[2.8154222E9,3.231155E9,6.400437E9,4.1870735E9,4.6867656E9,1.7024666E9,4.02158E9,4.4898954E9,2.7253668E9,9.190593E9,4.1344727E9,0E0,0E0,3.8490616E9,1.6440849E9,0E0,3.0239304E9,0E0,5.282844E8,7.146537E9,2.1494013E9,1.1349202E9,4.0481539E9,3.980571E8,1.3634458E8,4.8979686E8,0E0,9.976394E8,2.6068265E9,2.6522317E8,0E0,4.6191E8,0E0,4.366384E6,0E0,1.0512039E9,7.8805274E8,3.92501E9,2.2778685E9,3.90008E7,0E0,0E0,0E0,1.5106758E8,0E0,0E0,0E0,0E0,0E0,0E0,0E0,0E0,0E0,0E0,0E0,0E0,0E0,0E0,0E0,0E0,0E0,0E0,0E0,0E0,0E0,0E0,0E0],"parents":[2147483647,0,0,1,1,2,2,3,3,4,4,5,5,6,6,7,7,8,8,9,9,10,10,13,13,14,14,16,16,18,18,19,19,20,20,21,21,22,22,23,23,24,24,25,25,27,27,28,28,29,29,31,31,33,33,35,35,36,36,37,37,38,38,39,39,43,43],"right_children":[2,4,6,8,10,12,14,16,18,20,22,-1,-1,24,26,-1,28,-1,30,32,34,36,38,40,42,44,-1,46,48,50,-1,52,-1,54,-1,56,58,60,62,64,-1,-1,-1,66,-1,-1,-1,-1,-1,-1,-1,-1,-1,-1,-1,-1,-1,-1,-1,-1,-1,-1,-1,-1,-1,-1,-1],"split_conditions":[-1.3313843E-1,1.5E0,1.8497744E0,3.7601456E-2,-8.312788E-1,5.5E0,2.659464E0,3.73702E-2,-1.0543668E0,1.5E0,-9.876309E-1,-2.0850451E4,-4.773863E3,3.0472748E-2,4E0,-1.1432426E4,-7.9836357E-1,-5.797713E3,4.5E0,-5.1472855E-1,-9.431964E-1,2.5E0,9.5E0,2.5E0,2.5E0,2E0,2.615844E3,-4.8613068E-1,4.5E0,-9.5603794E-1,-8.214E2,-7.902187E-2,2.4881645E4,5.5E0,-8.530778E3,3.253651E-1,2.9404392E0,5.5E0,1.25E1,2.5E0,2.2476562E3,1.6134441E4,3.9958032E3,3.8841978E-1,-9.469663E3,2.8438126E2,-1.0382604E4,5.5479395E3,-7.1296035E3,2.5141313E3,7.6927314E3,4.0661563E2,6.5133066E3,2.5906626E3,6.517594E2,-2.6270654E3,2.6473745E3,-6.0304307E3,2.9967502E2,1.4293098E3,-1.6729408E3,1.0548688E4,3.1573126E2,-7.780782E2,-4.2172314E3,-3.966196E3,3.67125E1],"split_indices":[13,3,13,14,15,1,13,12,10,4,14,0,0,12,3,0,15,0,4,10,14,4,3,1,1,4,0,11,1,10,0,14,0,1,0,12,10,4,4,3,0,0,0,11,0,0,0,0,0,0,0,0,0,0,0,0,0,0,0,0,0,0,0,0,0,0,0],"split_type":[0,0,0,0,0,0,0,0,0,0,0,0,0,0,0,0,0,0,0,0,0,0,0,0,0,0,0,0,0,0,0,0,0,0,0,0,0,0,0,0,0,0,0,0,0,0,0,0,0,0,0,0,0,0,0,0,0,0,0,0,0,0,0,0,0,0,0],"sum_hessian":[2.8E2,2.63E2,1.7E1,2.4E1,2.39E2,3E0,1.4E1,1.5E1,9E0,1.1E1,2.28E2,1E0,2E0,5E0,9E0,6E0,9E0,2E0,7E0,6E0,5E0,2.6E1,2.02E2,3E0,2E0,7E0,2E0,3E0,6E0,6E0,1E0,4E0,2E0,3E0,2E0,1.4E1,1.2E1,1.94E2,8E0,2E0,1E0,1E0,1E0,5E0,2E0,1E0,2E0,5E0,1E0,3E0,3E0,2E0,2E0,2E0,1E0,1E1,4E0,1E1,2E0,1.46E2,4.8E1,5E0,3E0,1E0,1E0,4E0,1E0],"tree_param":{"num_deleted":"0","num_feature":"16","num_nodes":"67","size_leaf_vector":"0"}},{"base_weights":[4.6555966E2,2.1689447E2,3.5045906E4,-4.9515947E3,1.740242E3,-5.852344E2,-2.8471416E4,3.1845795E4,-1.7737973E2,-4.965661E3,1.9623252E4,-3.8656883E4,-3.5289922E3,8.952098E4,5.5911436E3,-6.9710166E3,2.6157407E3,3.4610693E3,-1.6093464E4,6.173486E4,8.0847554E3,-4.4364848E4,-2.2045469E3,-8.607823E3,5.85375E3,-7.145453E3,1.2412494E5,