{"learner":{"attributes":{"best_iteration":"99","best_ntree_limit":"100","scikit_learn":"{\"n_estimators\": 100, \"objective\": \"reg:squarederror\", \"max_depth\": null, \"max_leaves\": null, \"max_bin\": null, \"grow_policy\": null, \"learning_rate\": null, \"verbosity\": null, \"booster\": null, \"tree_method\": null, \"gamma\": null, \"min_child_weight\": null, \"max_delta_step\": null, \"subsample\": null, \"sampling_method\": null, \"colsample_bytree\": null, \"colsample_bylevel\": null, \"colsample_bynode\": null, \"reg_alpha\": null, \"reg_lambda\": null, \"scale_pos_weight\": null, \"base_score\": null, \"missing\": NaN, \"num_parallel_tree\": null, \"random_state\": null, \"n_jobs\": null, \"monotone_constraints\": null, \"interaction_constraints\": null, \"importance_type\": null, \"gpu_id\": null, \"validate_parameters\": null, \"predictor\": null, \"enable_categorical\": false, \"feature_types\": null, \"max_cat_to_onehot\": null, \"max_cat_threshold\": null, \"eval_metric\": null, \"early_stopping_rounds\": null, \"callbacks\": null, \"_estimator_type\": \"regressor\"}"},"feature_names":["SALE TYPE","PROPERTY TYPE","STATE OR PROVINCE","BEDS","BATHS","STATUS","NEXT OPEN HOUSE START TIME","SOURCE","FAVORITE","INTERESTED","SQUARE FEET","LOT SIZE","YEAR BUILT","DAYS ON MARKET","$-SQUARE FEET","HOA-MONTH"],"feature_types":["int","int","int","int","int","int","int","int","int","int","float","float","float","float","float","float"],"gradient_booster":{"model":{"gbtree_model_param":{"num_parallel_tree":"1","num_trees":"100","size_leaf_vector":"0"},"tree_info":[0,0,0,0,0,0,0,0,0,0,0,0,0,0,0,0,0,0,0,0,0,0,0,0,0,0,0,0,0,0,0,0,0,0,0,0,0,0,0,0,0,0,0,0,0,0,0,0,0,0,0,0,0,0,0,0,0,0,0,0,0,0,0,0,0,0,0,0,0,0,0,0,0,0,0,0,0,0,0,0,0,0,0,0,0,0,0,0,0,0,0,0,0,0,0,0,0,0,0,0],"trees":[{"base_weights":[1.5451616E6,1.0499606E6,5.812082E6,7.398178E5,1.8662862E6,3.3270182E6,1.0964778E7,6.4688456E5,1.3362912E6,1.7027084E6,4.0987495E6,1.9030432E6,4.0569225E6,6.8725E6,1.4362E7,5.8178925E5,9.803355E5,3.1966634E5,1.4141814E6,1.3855836E6,2.6071245E6,4.7513875E5,8.3120444E5,7.314348E5,1.3415551E6,5.09333E5,1.4791995E6,1.0027852E6,1.774449E6,2.7212662E6,4.4749975E5,3.1816394E5,5.387776E5,2.79333E5,8.5289944E5,1.5123154E6,4.2499975E5,2.56333E5,1.0503456E6,1.0836166E6,2.1904995E6,6.7499975E5,2.8192138E6],"categories":[],"categories_nodes":[],"categories_segments":[],"categories_sizes":[],"default_left":[1,1,1,1,1,1,1,1,1,1,0,0,0,0,0,1,1,0,1,1,1,1,1,0,0,0,1,1,1,1,0,0,0,0,0,0,0,0,0,0,0,0,0],"id":0,"left_children":[1,3,5,7,9,11,13,15,17,19,-1,-1,-1,-1,-1,21,23,-1,25,27,29,31,33,-1,-1,-1,35,37,39,41,-1,-1,-1,-1,-1,-1,-1,-1,-1,-1,-1,-1,-1],"loss_changes":[5.876458E14,6.2673203E13,3.348586E14,9.390527E12,1.8218547E13,1.4106199E13,2.6418545E13,2.9460372E12,1.4483813E12,1.5317263E13,0E0,0E0,0E0,0E0,0E0,3.2759024E12,1.2664344E12,0E0,5.4088906E11,5.812307E12,2.7262892E12,8.1756E11,2.4067126E11,0E0,0E0,0E0,5.5482253E10,7.248051E11,4.524446E12,1.1034291E12,0E0,0E0,0E0,0E0,0E0,0E0,0E0,0E0,0E0,0E0,0E0,0E0,0E0],"parents":[2147483647,0,0,1,1,2,2,3,3,4,4,5,5,6,6,7,7,8,8,9,9,15,15,16,16,18,18,19,19,20,20,21,21,22,22,26,26,27,27,28,28,29,29],"right_children":[2,4,6,8,10,12,14,16,18,20,-1,-1,-1,-1,-1,22,24,-1,26,28,30,32,34,-1,-1,-1,36,38,40,42,-1,-1,-1,-1,-1,-1,-1,-1,-1,-1,-1,-1,-1],"split_conditions":[1.3513579E0,4.5E0,8.923929E-1,5.333413E-2,3.1271262E0,-5.8759964E-1,1.8210742E0,3.8870122E-2,-2.3299158E-1,1.484848E-2,1.2296249E6,5.70913E5,1.2170768E6,2.0617501E6,4.3086E6,3.5E0,-7.2008526E-1,9.589991E4,1.5E1,5.201511E-1,1.1152571E0,-8.333528E-1,-1.0976627E0,2.1943045E5,4.0246656E5,1.527999E5,5.086299E0,-5.9958327E-1,-7.32915E-1,-4.3673694E-1,1.3424994E5,9.544919E4,1.616333E5,8.379991E4,2.5586984E5,4.5369462E5,1.2749993E5,7.689991E4,3.151037E5,3.25085E5,6.571499E5,2.0249994E5,8.457642E5],"split_indices":[14,4,10,15,10,10,10,14,14,15,0,0,0,0,0,3,10,0,6,10,11,14,14,0,0,0,13,15,14,10,0,0,0,0,0,0,0,0,0,0,0,0,0],"split_type":[0,0,0,0,0,0,0,0,0,0,0,0,0,0,0,0,0,0,0,0,0,0,0,0,0,0,0,0,0,0,0,0,0,0,0,0,0,0,0,0,0,0,0],"sum_hessian":[2.8E2,2.52E2,2.8E1,1.84E2,6.8E1,2E1,8E0,1.61E2,2.3E1,6.5E1,3E0,8E0,1.2E1,5E0,3E0,1.37E2,2.4E1,2E0,2.1E1,5E1,1.5E1,9.8E1,3.9E1,1.6E1,8E0,2E0,1.9E1,2.7E1,2.3E1,1.4E1,1E0,3E1,6.8E1,2E0,3.7E1,1.8E1,1E0,2E0,2.5E1,1E1,1.3E1,1E0,1.3E1],"tree_param":{"num_deleted":"0","num_feature":"16","num_nodes":"43","size_leaf_vector":"0"}},{"base_weights":[1.1314112E6,7.580354E5,4.3497795E6,5.289456E5,1.3612754E6,2.0839284E6,7.868088E6,4.7404084E5,1.1195971E6,1.2306345E6,3.176531E6,1.2349312E6,2.3807785E6,5.253346E6,1.113055E7,4.240681E5,7.771669E5,1.065498E5,1.184347E6,1.0027655E6,1.9385381E6,5.2227334E5,3.088247E5,4.0832806E5,9.46659E5,2.730998E5,1.2334352E6,8.040927E5,1.4392189E6,2.0226659E6,3.8037478E5,4.2093725E5,6.5077406E5,1.2055006E5,3.4133253E5,7.5195956E5,1.2940928E6,3.4314778E5,8.6353444E5,8.87354E5,1.9431568E6,9.6417644E5,2.2236925E6],"categories":[],"categories_nodes":[],"categories_segments":[],"categories_sizes":[],"default_left":[1,1,1,1,1,1,1,1,1,1,0,0,0,0,0,1,1,0,1,1,1,1,1,0,1,0,0,1,1,1,0,0,0,0,0,0,0,0,0,0,0,0,0],"id":1,"left_children":[1,3,5,7,9,11,13,15,17,19,-1,-1,-1,-1,-1,21,23,-1,25,27,29,31,33,-1,35,-1,-1,37,39,41,-1,-1,-1,-1,-1,-1,-1,-1,-1,-1,-1,-1,-1],"loss_changes":[3.3436948E14,3.4243556E13,2.1479034E14,5.468739E12,1.2453971E13,1.8483794E12,3.536288E13,2.2607466E12,8.577289E11,8.702518E12,0E0,0E0,0E0,0E0,0E0,1.5250154E12,1.0513044E12,0E0,2.893902E11,3.3517312E12,1.1968992E12,7.547839E11,3.9340055E11,0E0,4.1572893E10,0E0,0E0,7.4485596E11,2.4473177E12,8.349475E11,0E0,0E0,0E0,0E0,0E0,0E0,0E0,0E0,0E0,0E0,0E0,0E0,0E0],"parents":[2147483647,0,0,1,1,2,2,3,3,4,4,5,5,6,6,7,7,8,8,9,9,15,15,16,16,18,18,19,19,20,20,21,21,22,22,24,24,27,27,28,28,29,29],"right_children":[2,4,6,8,10,12,14,16,18,20,-1,-1,-1,-1,-1,22,24,-1,26,28,30,32,34,-1,36,-1,-1,38,40,42,-1,-1,-1,-1,-1,-1,-1,-1,-1,-1,-1,-1,-1],"split_conditions":[1.3513579E0,4.5E0,5.5E0,2.8558666E-1,3.1271262E0,-6.790574E-1,1.7428651E0,1.3553205E-1,-6.3700825E-1,1.2963612E-1,9.529593E5,3.7047938E5,7.1423356E5,1.5760039E6,3.3391652E6,-2.6684932E-2,-8.662468E-1,3.196494E4,9E0,9.0094036E-1,1.1152571E0,2.5E0,-1.0410249E0,1.2249842E5,5.3426254E-1,8.1929945E4,3.700306E5,4E0,-5.826359E-1,-6.0357136E-1,1.1411244E5,1.2628118E5,1.9523222E5,3.616502E4,1.02399766E5,2.2558788E5,3.8822784E5,1.02944336E5,2.5906034E5,2.6620622E5,5.8294706E5,2.8925294E5,6.6710775E5],"split_indices":[14,4,4,15,10,10,10,14,14,15,0,0,0,0,0,11,10,0,6,10,11,4,14,0,14,0,0,3,14,11,0,0,0,0,0,0,0,0,0,0,0,0,0],"split_type":[0,0,0,0,0,0,0,0,0,0,0,0,0,0,0,0,0,0,0,0,0,0,0,0,0,0,0,0,0,0,0,0,0,0,0,0,0,0,0,0,0,0,0],"sum_hessian":[2.8E2,2.52E2,2.8E1,1.84E2,6.8E1,1.8E1,1E1,1.7E2,1.4E1,6.5E1,3E0,6E0,1.2E1,7E0,3E0,1.48E2,2.2E1,1E0,1.3E1,5.1E1,1.4E1,7.8E1,7E1,8E0,1.4E1,1E0,1.2E1,3.7E1,1.4E1,1.3E1,1E0,4.6E1,3.2E1,1.1E1,5.9E1,1.1E1,3E0,5E0,3.2E1,8E0,6E0,3E0,1E1],"tree_param":{"num_deleted":"0","num_feature":"16","num_nodes":"43","size_leaf_vector":"0"}},{"base_weights":[8.308305E5,7.283938E5,7.742471E6,5.311331E5,2.542516E6,3.744658E5,9.252503E5,1.2651915E6,4.2854255E6,3.204585E5,7.1666156E5,7.982623E5,1.6200512E6,6.239554E5,1.358031E6,2.7535647E5,5.3075894E5,9.68569E5,4.6754412E5,6.3046694E5,1.2053401E6,1.8199119E5,1.7596144E6,1.8917069E5,3.6811578E5,4.308307E5,9.976388E5,9.056733E4,4.8957562E5,7.030469E5,1.9783136E5,7.068951E5,1.6777288E6,3.2331856E5,1.8987365E6],"categories":[],"categories_nodes":[],"categories_segments":[],"categories_sizes":[],"default_left":[1,1,0,1,1,1,1,1,0,1,1,1,1,0,0,1,1,0,1,1,1,0,1,0,0,0,0,0,0,0,0,0,0,0,0],"id":2,"left_children":[1,3,-1,5,7,9,11,13,-1,15,17,19,21,-1,-1,23,25,-1,27,29,31,-1,33,-1,-1,-1,-1,-1,-1,-1,-1,-1,-1,-1,-1],"loss_changes":[1.9330992E14,9.8133275E13,0E0,1.5213336E13,5.4687147E13,3.1338959E12,4.9712065E12,1.6469774E11,0E0,1.3619629E12,1.05326E12,3.475027E12,1.6867666E12,0E0,0E0,9.9363586E11,8.298577E11,0E0,7.193546E10,1.3053471E12,2.816838E12,0E0,1.1844882E12,0E0,0E0,0E0,0E0,0E0,0E0,0E0,0E0,0E0,0E0,0E0,0E0],"parents":[2147483647,0,0,1,1,3,3,4,4,5,5,6,6,7,7,9,9,10,10,11,11,12,12,15,15,16,16,18,18,19,19,20,20,22,22],"right_children":[2,4,-1,6,8,10,12,14,-1,16,18,20,22,-1,-1,24,26,-1,28,30,32,-1,34,-1,-1,-1,-1,-1,-1,-1,-1,-1,-1,-1,-1],"split_conditions":[4.566946E0,1.3513579E0,2.3227415E6,3.5E0,2.778306E-1,5.333413E-2,9.937227E-1,-7.927386E-1,1.2856278E6,5.0591966E-3,-3.5235956E-1,9.0094036E-1,-5.8773637E-1,1.8718662E5,4.074093E5,1.5E0,-5.5811083E-1,2.9057072E5,-6.770323E-1,3.5E0,-5.826359E-1,5.459736E4,4E0,5.6751207E4,1.1043474E5,1.2924921E5,2.9929166E5,2.71702E4,1.4687269E5,2.1091408E5,5.934941E4,2.1206855E5,5.0331866E5,9.699557E4,5.69621E5],"split_indices":[10,14,0,4,10,15,15,10,0,14,12,10,11,0,0,4,10,0,14,7,14,0,3,0,0,0,0,0,0,0,0,0,0,0,0],"split_type":[0,0,0,0,0,0,0,0,0,0,0,0,0,0,0,0,0,0,0,0,0,0,0,0,0,0,0,0,0,0,0,0,0,0,0],"sum_hessian":[2.8E2,2.77E2,3E0,2.51E2,2.6E1,1.81E2,7E1,1.6E1,1E1,1.58E2,2.3E1,6.1E1,9E0,3E0,1.3E1,1.32E2,2.6E1,1E1,1.3E1,4.5E1,1.6E1,1E0,8E0,7E1,6.2E1,2.3E1,3E0,1E0,1.2E1,3.8E1,7E0,9E0,7E0,1E0,7E0],"tree_param":{"num_deleted":"0","num_feature":"16","num_nodes":"35","size_leaf_vector":"0"}},{"base_weights":[6.063862E5,5.2659306E5,6.0004145E6,3.549603E5,1.6704865E6,1.497337E6,7.002328E6,2.9747456E5,8.4433694E5,8.685876E5,2.8685712E6,2.3690689E5,6.8612806E5,7.0587156E5,2.0837532E6,4.060437E5,1.0079535E6,1.6949054E6,3.5369575E6,1.08997914E5,2.975376E5,5.3316625E5,1.1836205E6,8.1825344E5,3.7882616E5,8.89107E4,4.4408075E5,2.4618611E4,1.5690055E5,2.0199261E5,3.9442606E5,1.998144E5,6.103739E5,1.3473888E5,8.525519E5,7.698223E4,4.1094925E5,4.826166E5,1.2570078E5],"categories":[],"categories_nodes":[],"categories_segments":[],"categories_sizes":[],"default_left":[1,1,1,1,1,0,0,1,1,1,1,1,1,1,0,1,0,0,0,1,1,1,0,1,1,0,1,0,0,0,0,0,0,0,0,0,0,0,0],"id":3,"left_children":[1,3,5,7,9,-1,-1,11,13,15,17,19,21,23,-1,25,-1,-1,-1,27,29,31,-1,33,35,-1,37,-1,-1,-1,-1,-1,-1,-1,-1,-1,-1,-1,-1],"loss_changes":[1.1778447E14,5.3986674E13,7.5619107E12,6.5849503E12,3.2095133E13,0E0,0E0,4.992675E12,2.8195433E12,1.0733696E12,4.9876566E12,1.4488143E12,1.575757E12,5.721209E11,0E0,4.4956123E10,0E0,0E0,0E0,2.5078274E11,1.1145084E12,4.9573423E11,0E0,2.8366707E11,4.5933527E10,0E0,1.2948865E10,0E0,0E0,0E0,0E0,0E0,0E0,0E0,0E0,0E0,0E0,0E0,0E0],"parents":[2147483647,0,0,1,1,2,2,3,3,4,4,7,7,8,8,9,9,10,10,11,11,12,12,13,13,15,15,19,19,20,20,21,21,23,23,24,24,26,26],"right_children":[2,4,6,8,10,-1,-1,12,14,16,18,20,22,24,-1,26,-1,-1,-1,28,30,32,-1,34,36,-1,38,-1,-1,-1,-1,-1,-1,-1,-1,-1,-1,-1,-1],"split_conditions":[4.566946E0,6.966244E-1,5E0,2.0393015E-1,2.778306E-1,4.4920112E5,2.1006985E6,4.3467647E-1,1.4879965E0,-7.927386E-1,1.8671399E0,-6.3323236E-1,-4.0970165E-1,1.2769142E-1,6.25126E5,-1.0470254E0,3.0238606E5,5.0847162E5,1.0610872E6,-6.06404E-1,1.5E0,-1.0085526E0,3.5508616E5,-2.2201231E-1,-4.2861688E-1,2.6673213E4,2.5E0,7.3855835E3,4.7070164E4,6.0597785E4,1.1832782E5,5.9944324E4,1.8311217E5,4.0421664E4,2.5576558E5,2.3094668E4,1.2328478E5,1.4478498E5,3.7710234E4],"split_indices":[10,14,1,15,10,0,0,10,12,10,14,14,14,11,0,10,0,0,0,10,4,14,0,10,10,0,3,0,0,0,0,0,0,0,0,0,0,0,0],"split_type":[0,0,0,0,0,0,0,0,0,0,0,0,0,0,0,0,0,0,0,0,0,0,0,0,0,0,0,0,0,0,0,0,0,0,0,0,0,0,0],"sum_hessian":[2.8E2,2.77E2,3E0,2.42E2,3.5E1,1E0,2E0,2.18E2,2.4E1,2.2E1,1.3E1,1.9E2,2.8E1,2.3E1,1E0,6E0,1.6E1,6E0,7E0,6.2E1,1.28E2,2.3E1,5E0,1.6E1,7E0,1E0,5E0,2.3E1,3.9E1,6.6E1,6.2E1,5E0,1.8E1,1E0,1.5E1,1E0,6E0,4E0,1E0],"tree_param":{"num_deleted":"0","num_feature":"16","num_nodes":"39","size_leaf_vector":"0"}},{"base_weights":[4.477096E5,3.8293288E5,4.837765E6,2.5628792E5,1.2271492E6,1.2727365E6,5.6018625E6,2.1202911E5,6.3374356E5,7.9298975E5,2.647584E6,1.8321042E5,7.403088E5,5.1255034E5,1.7711902E6,4.953424E5,1.2350179E6,1.301984E5,2.7239728E5,1.2295051E6,5.684387E5,8.632946E5,4.2133478E5,2.765303E5,6.293394E5,9.659111E4,2.5277606E5,3.5847762E5,1.5298752E5,4.4519082E4,4.5865647E5,7.557409E4,2.922031E5],"categories":[],"categories_nodes":[],"categories_segments":[],"categories_sizes":[],"default_left":[1,1,1,1,1,0,0,1,1,1,0,1,1,1,0,1,0,1,1,0,0,0,1,1,0,0,0,0,0,0,0,0,0],"id":4,"left_children":[1,3,5,7,9,-1,-1,11,13,15,-1,17,19,21,-1,23,-1,25,27,-1,-1,-1,29,31,-1,-1,-1,-1,-1,-1,-1,-1,-1],"loss_changes":[7.80564E13,2.9408073E13,3.766418E12,3.925121E12,2.010152E13,0E0,0E0,3.1984965E12,2.5384463E12,3.203729E12,0E0,9.526806E11,2.2596289E11,4.041044E11,0E0,3.8305163E11,0E0,5.2347798E11,7.366278E11,0E0,0E0,0E0,2.7491225E11,6.2628823E9,0E0,0E0,0E0,0E0,0E0,0E0,0E0,0E0,0E0],"parents":[2147483647,0,0,1,1,2,2,3,3,4,4,7,7,8,8,9,9,11,11,12,12,13,13,15,15,17,17,18,18,22,22,23,23],"right_children":[2,4,6,8,10,-1,-1,12,14,16,-1,18,20,22,-1,24,-1,26,28,-1,-1,-1,30,32,-1,-1,-1,-1,-1,-1,-1,-1,-1],"split_conditions":[4.566946E0,6.966244E-1,5E0,2.0393015E-1,8.2358587E-1,3.8182097E5,1.6805589E6,1.3236122E0,1.4879965E0,-2.602319E-1,7.9427525E5,3.5E0,-6.8126005E-1,-8.781756E-1,5.313571E5,2.1035087E0,3.7050538E5,5.0591966E-3,3.5E0,3.6885156E5,1.7053161E5,2.5898839E5,-7.905396E-1,-1.0470254E0,1.8880181E5,2.8977334E4,7.583282E4,1.0754329E5,4.5896258E4,1.3355726E4,1.3759695E5,2.2672229E4,8.766093E4],"split_indices":[10,14,1,15,10,0,0,10,12,10,0,3,11,12,0,14,0,14,1,0,0,0,12,10,0,0,0,0,0,0,0,0,0],"split_type":[0,0,0,0,0,0,0,0,0,0,0,0,0,0,0,0,0,0,0,0,0,0,0,0,0,0,0,0,0,0,0,0,0],"sum_hessian":[2.8E2,2.77E2,3E0,2.42E2,3.5E1,1E0,2E0,2.18E2,2.4E1,2.8E1,7E0,2.08E2,1E1,2.3E1,1E0,1.8E1,1E1,1.32E2,7.6E1,1E0,9E0,3E0,2E1,8E0,1E1,1.05E2,2.7E1,4.3E1,3.3E1,2E0,1.8E1,1E0,7E0],"tree_param":{"num_deleted":"0","num_feature":"16","num_nodes":"33","size_leaf_vector":"0"}},{"base_weights":[3.321342E5,5.5991175E6,2.933267E5,2.161558E5,1.1885054E6,1.5969684E5,5.7293025E5,5.2455825E5,2.0892559E6,1.2840735E5,5.603905E5,3.384734E5,9.004389E5,3.984741E5,1.081826E6,2.1983808E6,6.08128E5,3.5109322E5,1.069734E5,3.9701497E5,1.5055118E6,2.0097497E5,4.577014E5,6.9939625E5,1.2281964E6,1.0998753E5,4.13349E5,6.7933375E4,4.2714362E5,8.571863E4,2.2916331E5,1.17343375E5,4.5715428E5,1.13679375E5,3.0045294E5,7.852951E5,2.085675E5],"categories":[],"categories_nodes":[],"categories_segments":[],"categories_sizes":[],"default_left":[1,0,1,1,1,1,1,1,1,1,1,1,1,1,0,0,0,1,1,1,0,1,0,1,0,0,0,0,0,0,0,0,0,0,0,0,0],"id":5,"left_children":[1,-1,3,5,7,9,11,13,15,17,19,21,23,25,-1,-1,-1,27,29,31,-1,33,-1,35,-1,-1,-1,-1,-1,-1,-1,-1,-1,-1,-1,-1,-1],"loss_changes":[5.5793596E13,0E0,1.9085981E13,5.1255706E12,1.2061178E13,2.7489804E12,2.3827568E12,5.525972E11,1.1775928E11,9.6478036E11,1.8728443E12,2.68674E11,6.351015E10,1.0322444E10,0E0,0E0,0E0,3.5860224E11,4.816002E11,1.986446E11,0E0,7.005258E10,0E0,2.9999078E11,0E0,0E0,0E0,0E0,0E0,0E0,0E0,0E0,0E0,0E0,0E0,0E0,0E0],"parents":[2147483647,0,0,2,2,3,3,4,4,5,5,6,6,7,7,8,8,9,9,10,10,11,11,12,12,13,13,17,17,18,18,19,19,21,21,23,23],"right_children":[2,-1,4,6,8,10,12,14,16,18,20,22,24,26,-1,-1,-1,28,30,32,-1,34,-1,36,-1,-1,-1,-1,-1,-1,-1,-1,-1,-1,-1,-1,-1],"split_conditions":[-2.693493E0,1.6797354E6,1.055222E0,5.3879356E-1,-2.3299156E-1,9.873641E-1,-2.602319E-1,1.55E1,1.1374525E0,-1.2537584E0,1.2250885E0,2.1035087E0,2.2613394E0,4E0,3.245478E5,6.5951425E5,1.824384E5,-1.6418607E0,5.0591966E-3,-1.0141997E-1,4.5165353E5,-5.5682874E-1,1.3731042E5,1.4857785E0,3.6845894E5,3.299626E4,1.240047E5,2.0380014E4,1.2814309E5,2.5715592E4,6.8749E4,3.5203016E4,1.371463E5,3.4103812E4,9.013588E4,2.3558855E5,6.2570254E4],"split_indices":[12,0,10,14,14,15,10,4,12,12,12,14,14,4,0,0,0,12,14,14,0,10,0,14,0,0,0,0,0,0,0,0,0,0,0,0,0],"split_type":[0,0,0,0,0,0,0,0,0,0,0,0,0,0,0,0,0,0,0,0,0,0,0,0,0,0,0,0,0,0,0,0,0,0,0,0,0],"sum_hessian":[2.8E2,1E0,2.79E2,2.58E2,2.1E1,2.24E2,3.4E1,1.3E1,8E0,2.09E2,1.5E1,2.1E1,1.3E1,1.2E1,1E0,7E0,1E0,1.7E1,1.92E2,1.4E1,1E0,1.1E1,1E1,1E1,3E0,1E0,1.1E1,4E0,1.3E1,1.65E2,2.7E1,3E0,1.1E1,7E0,4E0,8E0,2E0],"tree_param":{"num_deleted":"0","num_feature":"16","num_nodes":"37","size_leaf_vector":"0"}},{"base_weights":[2.4957006E5,4.75925E6,2.1646675E5,1.6245766E5,9.4983075E5,1.16903984E5,4.4518612E5,1.8557211E6,4.93747E5,9.262654E4,4.3127356E5,2.4882002E5,7.035107E5,9.118254E5,2.968324E5,-1.2884713E4,1.164868E5,2.8940047E5,1.279685E6,1.5103575E5,3.3287375E5,5.1668272E5,9.738301E5,-9.342695E4,1.3512292E4,2.4062284E5,9.085623E4,4.806325E4,3.457295E5,8.383851E4,2.283442E5,5.758831E5,1.6685392E5],"categories":[],"categories_nodes":[],"categories_segments":[],"categories_sizes":[],"default_left":[1,0,1,1,1,1,1,0,1,1,1,1,1,0,0,1,1,1,0,1,0,1,0,0,0,0,0,0,0,0,0,0,0],"id":6,"left_children":[1,-1,3,5,7,9,11,-1,13,15,17,19,21,-1,-1,23,25,27,-1,29,-1,31,-1,-1,-1,-1,-1,-1,-1,-1,-1,-1,-1],"loss_changes":[4.091897E13,0E0,1.0936024E13,3.322338E12,6.93382E12,1.6925367E12,1.6510951E12,0E0,8.819009E11,5.3521626E11,1.5555266E12,1.3054496E11,2.5438716E11,0E0,0E0,8.6305374E10,5.285683E11,1.872977E11,0E0,4.3194958E10,0E0,1.3172159E11,0E0,0E0,0E0,0E0,0E0,0E0,0E0,0E0,0E0,0E0,0E0],"parents":[2147483647,0,0,2,2,3,3,4,4,5,5,6,6,8,8,9,9,10,10,11,11,12,12,15,15,16,16,17,17,19,19,21,21],"right_children":[2,-1,4,6,8,10,12,-1,14,16,18,20,22,-1,-1,24,26,28,-1,30,-1,32,-1,-1,-1,-1,-1,-1,-1,-1,-1,-1,-1],"split_conditions":[-2.693493E0,1.427775E6,1.1800148E0,5.3879356E-1,-1.1285641E0,9.873641E-1,-2.602319E-1,5.567164E5,2.5E0,-9.096251E-1,1.2250885E0,2.1035087E0,2.2160292E0,2.7354762E5,8.904973E4,-1.1459937E0,-9.0321445E-1,-3.7299272E-1,3.839055E5,-5.5682874E-1,9.986213E4,1.4857785E0,2.9214906E5,-2.8028088E4,4.0536877E3,7.218686E4,2.725687E4,1.4418976E4,1.0371885E5,2.5151553E4,6.8503266E4,1.7276494E5,5.005618E4],"split_indices":[12,0,10,14,12,15,10,0,1,14,12,14,14,0,0,14,12,11,0,10,0,14,0,0,0,0,0,0,0,0,0,0,0],"split_type":[0,0,0,0,0,0,0,0,0,0,0,0,0,0,0,0,0,0,0,0,0,0,0,0,0,0,0,0,0,0,0,0,0],"sum_hessian":[2.8E2,1E0,2.79E2,2.61E2,1.8E1,2.26E2,3.5E1,5E0,1.3E1,2.11E2,1.5E1,2.1E1,1.4E1,3E0,1E1,3.9E1,1.72E2,1.4E1,1E0,1.1E1,1E1,1E1,4E0,9E0,3E1,2.8E1,1.44E2,3E0,1.1E1,7E0,4E0,8E0,2E0],"tree_param":{"num_deleted":"0","num_feature":"16","num_nodes":"33","size_leaf_vector":"0"}},{"base_weights":[1.8762817E5,4.045362E6,1.5940284E5,1.4386302E5,2.247507E6,8.821116E4,3.7411222E5,5.4182574E4,2.277343E5,1.931278E5,6.721294E5,3.954049E4,2.2810917E5,1.8243825E5,1.0877322E6,1.5283142E5,5.72012E5,9.09225E4,6.979338E5,2.5722178E4,2.1933805E5,3.9414312E5,1.46996E5,3.8672162E5,1.4538197E5,-3.4073062E4,1.7978628E5,2.5889725E5,7.343559E5],"categories":[],"categories_nodes":[],"categories_segments":[],"categories_sizes":[],"default_left":[1,0,1,1,0,1,1,1,1,1,1,1,1,1,0,1,0,0,1,0,0,0,0,0,0,0,0,0,0],"id":7,"left_children":[1,-1,3,5,-1,7,9,11,13,15,17,19,21,23,-1,25,-1,-1,27,-1,-1,-1,-1,-1,-1,-1,-1,-1,-1],"loss_changes":[2.9952083E13,0E0,8.762323E12,3.5420483E12,0E0,1.0606577E12,2.782763E12,4.570171E11,1.5155543E12,4.4694674E11,2.3649583E11,4.1672288E11,1.3060807E11,2.6928677E11,0E0,1.7237934E11,0E0,0E0,1.1369919E11,0E0,0E0,0E0,0E0,0E0,0E0,0E0,0E0,0E0,0E0],"parents":[2147483647,0,0,2,2,3,3,5,5,6,6,7,7,8,8,9,9,10,10,11,11,12,12,13,13,15,15,18,18],"right_children":[2,-1,4,6,-1,8,10,12,14,16,18,20,22,24,-1,26,-1,-1,28,-1,-1,-1,-1,-1,-1,-1,-1,-1,-1],"split_conditions":[-2.693493E0,1.2136086E6,4.1311436E0,2.3594806E-1,6.742521E5,4.748285E-3,-2.3299156E-1,7.457105E-1,1.6382296E0,1.45E1,1.15E1,7.5E0,-9.2825335E-1,-8.781756E-1,3.263197E5,-1.076518E0,1.7160361E5,2.7276752E4,4E0,7.716654E3,6.5801414E4,1.18242945E5,4.40988E4,1.1601649E5,4.3614594E4,-1.0221919E4,5.3935887E4,7.766918E4,2.2030677E5],"split_indices":[12,0,14,10,0,15,14,14,12,4,6,3,12,12,0,14,0,0,3,0,0,0,0,0,0,0,0,0,0],"split_type":[0,0,0,0,0,0,0,0,0,0,0,0,0,0,0,0,0,0,0,0,0,0,0,0,0,0,0,0,0],"sum_hessian":[2.8E2,1E0,2.79E2,2.78E2,1E0,2.25E2,5.3E1,1.82E2,4.3E1,3.4E1,1.9E1,1.69E2,1.3E1,4.2E1,1E0,3.2E1,2E0,1E0,1.8E1,1.58E2,1.1E1,3E0,1E1,5E0,3.7E1,4E0,2.8E1,2E0,1.6E1],"tree_param":{"num_deleted":"0","num_feature":"16","num_nodes":"29","size_leaf_vector":"0"}},{"base_weights":[1.4255056E5,3.438558E6,1.1849854E5,1.0522877E5,1.910381E6,6.494167E4,2.7188906E5,-3.1937514E4,9.780588E4,8.1527305E4,4.214609E5,-1.0212166E5,-1.8665617E4,4.151144E4,1.6452766E5,-1.2015675E5,9.493734E4,3.381765E5,6.467987E5,1.4366359E4,-1.1847845E5,-6.774795E4,-1.3830905E3,-8.292828E4,7.6740516E4,1.2416108E5,3.3730862E5,1.0842292E5,4.036875E2,2.639111E5,6.4352575E5],"categories":[],"categories_nodes":[],"categories_segments":[],"categories_sizes":[],"default_left":[1,0,1,1,0,1,1,1,1,1,1,1,1,1,1,0,1,1,0,0,0,0,0,0,0,0,0,0,0,0,0],"id":8,"left_children":[1,-1,3,5,-1,7,9,11,13,15,17,19,21,23,25,-1,27,29,-1,-1,-1,-1,-1,-1,-1,-1,-1,-1,-1,-1,-1],"loss_changes":[2.1868988E13,0E0,6.4567713E12,1.855622E12,0E0,7.2267543E11,1.5031683E12,5.2119486E10,6.279455E11,7.902211E10,3.4428106E11,1.885044E10,4.231964E10,4.1406638E11,4.9516184E11,0E0,3.055244E10,3.7441162E11,0E0,0E0,0E0,0E0,0E0,0E0,0E0,0E0,0E0,0E0,0E0,0E0,0E0],"parents":[2147483647,0,0,2,2,3,3,5,5,6,6,7,7,8,8,9,9,10,10,11,11,12,12,13,13,14,14,16,16,17,17],"right_children":[2,-1,4,6,-1,8,10,12,14,16,18,20,22,24,26,-1,28,30,-1,-1,-1,-1,-1,-1,-1,-1,-1,-1,-1,-1,-1],"split_conditions":[-2.693493E0,1.03156744E6,4.1311436E0,2.3594806E-1,5.731143E5,-6.3323236E-1,-6.1284274E-1,-7.529813E-1,2.5E0,-1.1437283E0,1.8671399E0,-3.2784116E-1,2.5E0,2.5E0,1.3753216E0,-3.6047027E4,1.5E0,2.7873645E0,1.9403961E5,4.309908E3,-3.554354E4,-2.0324387E4,-4.1492715E2,-2.4878486E4,2.3022156E4,3.7248324E4,1.0119259E5,3.2526877E4,1.21106255E2,7.917333E4,1.9305773E5],"split_indices":[12,0,14,10,0,14,14,12,4,14,14,15,3,7,12,0,5,10,0,0,0,0,0,0,0,0,0,0,0,0,0],"split_type":[0,0,0,0,0,0,0,0,0,0,0,0,0,0,0,0,0,0,0,0,0,0,0,0,0,0,0,0,0,0,0],"sum_hessian":[2.8E2,1E0,2.79E2,2.78E2,1E0,2.25E2,5.3E1,5.7E1,1.68E2,2.4E1,2.9E1,8E0,4.9E1,9.2E1,7.6E1,1E0,2.3E1,2.3E1,6E0,1E0,7E0,1.2E1,3.7E1,2E1,7.2E1,6.3E1,1.3E1,2E1,3E0,2E1,3E0],"tree_param":{"num_deleted":"0","num_feature":"16","num_nodes":"31","size_leaf_vector":"0"}},{"base_weights":[1.0744434E5,2.922774E6,8.695112E4,7.562245E4,1.623824E6,6.1977027E4,3.7406844E5,4.8711707E4,2.8247128E5,1.0863358E5,4.932067E5,3.645458E4,1.9839439E5,4.72972E5,1.7020081E5,1.2626384E5,1.905625E4,1.5568453E5,2.2849068E4,1.12307836E5,8.7397625E5,5.49128E4,2.28235E5],"categories":[],"categories_nodes":[],"categories_segments":[],"categories_sizes":[],"default_left":[1,0,1,1,0,1,1,1,1,1,0,1,1,0,1,0,0,0,0,0,0,0,0],"id":9,"left_children":[1,-1,3,5,-1,7,9,11,13,15,-1,17,19,-1,21,-1,-1,-1,-1,-1,-1,-1,-1],"loss_changes":[1.5958211E13,0E0,4.752202E12,1.1130224E12,0E0,7.7012055E11,3.259024E11,4.5877638E11,2.4031383E11,5.4902497E9,0E0,3.7927823E11,1.0068575E12,0E0,6.106412E10,0E0,0E0,0E0,0E0,0E0,0E0,0E0,0E0],"parents":[2147483647,0,0,2,2,3,3,5,5,6,6,7,7,8,8,9,9,11,11,12,12,14,14],"right_children":[2,-1,4,6,-1,8,10,12,14,16,-1,18,20,-1,22,-1,-1,-1,-1,-1,-1,-1,-1],"split_conditions":[-2.693493E0,8.7683225E5,4.1311436E0,2.6464767E0,4.8714722E5,1.3697684E0,2.5E0,9.873641E-1,-1.1786419E0,2.5E0,1.4796202E5,-1.2287197E0,1.650749E0,1.4189161E5,-6.3199556E-1,3.7879156E4,5.716875E3,4.670536E4,6.8547207E3,3.369235E4,2.6219288E5,1.6473842E4,6.84705E4],"split_indices":[12,0,14,14,0,10,3,15,12,4,0,12,12,0,11,0,0,0,0,0,0,0,0],"split_type":[0,0,0,0,0,0,0,0,0,0,0,0,0,0,0,0,0,0,0,0,0,0,0],"sum_hessian":[2.8E2,1E0,2.79E2,2.78E2,1E0,2.67E2,1.1E1,2.53E2,1.4E1,4E0,7E0,2.35E2,1.8E1,4E0,1E1,3E0,1E0,2.3E1,2.12E2,1.7E1,1E0,4E0,6E0],"tree_param":{"num_deleted":"0","num_feature":"16","num_nodes":"23","size_leaf_vector":"0"}},{"base_weights":[8.279757E4,2.484358E6,6.534786E4,5.5687812E4,1.3802505E6,3.0123172E4,1.6164931E5,2.1087162E4,2.456484E5,6.878321E4,2.838261E5,1.3582101E4,2.4537086E5,9.0634516E4,7.4287975E5,-1.07375125E5,1.05381984E5,2.272919E5,4.0612434E5,6.029183E4,-5.686676E3,3.6483566E5,1.246178E5,-4.0996E3,1.8639353E5,-2.3775625E3,-1.27899125E5,1.1508616E5,-1.0613417E4,3.2320766E5,1.5240006E5,1.0364225E5,4.458923E5],"categories":[],"categories_nodes":[],"categories_segments":[],"categories_sizes":[],"default_left":[1,0,1,1,0,1,1,1,1,1,1,1,1,1,0,1,1,1,1,0,0,0,0,0,0,0,0,0,0,0,0,0,0],"id":10,"left_children":[1,-1,3,5,-1,7,9,11,13,15,17,19,21,23,-1,25,27,29,31,-1,-1,-1,-1,-1,-1,-1,-1,-1,-1,-1,-1,-1,-1],"loss_changes":[1.1613388E13,0E0,3.479703E12,7.509048E11,0E0,4.3495237E11,5.9316594E11,3.636187E11,6.2636923E11,2.1762512E11,6.6713944E10,1.911512E11,5.551512E10,7.333731E10,0E0,1.262574E10,3.1613714E10,8.004272E10,2.59613E10,0E0,0E0,0E0,0E0,0E0,0E0,0E0,0E0,0E0,0E0,0E0,0E0,0E0,0E0],"parents":[2147483647,0,0,2,2,3,3,5,5,6,6,7,7,8,8,9,9,10,10,11,11,12,12,13,13,15,15,16,16,17,17,18,18],"right_children":[2,-1,4,6,-1,8,10,12,14,16,18,20,22,24,-1,26,28,30,32,-1,-1,-1,-1,-1,-1,-1,-1,-1,-1,-1,-1,-1,-1],"split_conditions":[-2.693493E0,7.4530744E5,4.1311436E0,2.6768702E-1,4.1407516E5,1.650749E0,-2.9442176E-1,9.5E0,5.893955E-1,-1.0465982E0,2.4765635E0,-6.0274816E-1,-1.0659671E0,-5.2588266E-1,2.2286394E5,-1.1269443E0,4.6262068E-1,3.876573E-1,-6.945773E-1,1.8087549E4,-1.7060028E3,1.094507E5,3.738534E4,-1.2298801E3,5.5918062E4,-7.132688E2,-3.836974E4,3.4525848E4,-3.1840251E3,9.69623E4,4.572002E4,3.1092676E4,1.337677E5],"split_indices":[12,0,14,14,0,12,10,4,15,10,14,12,12,11,0,10,15,15,11,0,0,0,0,0,0,0,0,0,0,0,0,0,0],"split_type":[0,0,0,0,0,0,0,0,0,0,0,0,0,0,0,0,0,0,0,0,0,0,0,0,0,0,0,0,0,0,0,0,0],"sum_hessian":[2.8E2,1E0,2.79E2,2.78E2,1E0,2.25E2,5.3E1,2.17E2,8E0,3.1E1,2.2E1,2.11E2,6E0,7E0,1E0,5E0,2.6E1,1.7E1,5E0,6.1E1,1.5E2,2E0,4E0,4E0,3E0,1E0,4E0,2.4E1,2E0,6E0,1.1E1,1E0,4E0],"tree_param":{"num_deleted":"0","num_feature":"16","num_nodes":"33","size_leaf_vector":"0"}},{"base_weights":[6.4719707E4,2.111704E6,4.986725E4,4.1635855E4,1.173213E6,3.1600596E4,2.161497E5,1.3338204E4,1.0796949E5,2.5840008E4,3.794407E5,-7.8600266E4,2.5302201E4,3.8232426E4,1.6854198E5,-2.3662947E4,1.16232586E5,-5.210275E4,4.48533E5,-1.1525368E5,-2.9287918E4,1.2240732E5,9.258927E3,5.717387E4,-7.5503625E4,1.0929067E5,2.5834012E5,-4.0825688E4,7.108354E3,5.0321684E5,6.0215E4],"categories":[],"categories_nodes":[],"categories_segments":[],"categories_sizes":[],"default_left":[1,0,1,1,0,1,1,1,1,1,1,1,1,1,1,1,0,0,1,0,0,0,0,0,0,0,0,0,0,0,0],"id":11,"left_children":[1,-1,3,5,-1,7,9,11,13,15,17,19,21,23,25,27,-1,-1,29,-1,-1,-1,-1,-1,-1,-1,-1,-1,-1,-1,-1],"loss_changes":[8.437868E12,0E0,2.5402283E12,4.817799E11,0E0,3.6814973E11,4.563332E11,2.3847836E11,2.0898775E11,3.8548E10,2.6190047E11,4.18111E10,2.9642247E11,5.817497E10,1.1542358E11,3.4589228E9,0E0,0E0,1.1834176E11,0E0,0E0,0E0,0E0,0E0,0E0,0E0,0E0,0E0,0E0,0E0,0E0],"parents":[2147483647,0,0,2,2,3,3,5,5,6,6,7,7,8,8,9,9,10,10,11,11,12,12,13,13,14,14,15,15,18,18],"right_children":[2,-1,4,6,-1,8,10,12,14,16,18,20,22,24,26,28,-1,-1,30,-1,-1,-1,-1,-1,-1,-1,-1,-1,-1,-1,-1],"split_conditions":[-2.693493E0,6.3351125E5,4.1311436E0,1.1737685E0,3.519639E5,1.6158515E-1,5.5E0,1.5E0,-6.1284274E-1,1.9158652E-1,-3.875537E-1,1.3589816E-1,-8.781756E-1,-3.8273036E-1,7.5E0,4E0,3.4869777E4,-1.5630825E4,8.5E0,-3.4576105E4,-8.786376E3,3.67222E4,2.7776782E3,1.7152162E4,-2.2651088E4,3.2787203E4,7.750204E4,-1.2247707E4,2.1325063E3,1.5096506E5,1.80645E4],"split_indices":[12,0,14,15,0,10,4,3,14,14,11,12,12,11,4,4,0,0,4,0,0,0,0,0,0,0,0,0,0,0,0],"split_type":[0,0,0,0,0,0,0,0,0,0,0,0,0,0,0,0,0,0,0,0,0,0,0,0,0,0,0,0,0,0,0],"sum_hessian":[2.8E2,1E0,2.79E2,2.78E2,1E0,2.64E2,1.4E1,2.14E2,5E1,7E0,7E0,2.4E1,1.9E2,2.4E1,2.6E1,5E0,2E0,1E0,6E0,1.3E1,1.1E1,2.6E1,1.64E2,2.1E1,3E0,1.7E1,9E0,3E0,2E0,5E0,1E0],"tree_param":{"num_deleted":"0","num_feature":"16","num_nodes":"31","size_leaf_vector":"0"}},{"base_weights":[4.9803992E4,1.794948E6,3.7160805E4,3.0145389E4,9.97231E5,-1.6791766E4,5.565165E4,9.082881E4,-4.3487016E4,3.9194105E4,1.8617516E5,-8.533274E3,2.7657744E5,-4.1992114E3,-8.903232E4,-2.1967834E4,5.811444E4,4.3483234E4,3.9477762E5,-2.2590675E5,2.5565205E4,5.779837E5,4.04182E4,-3.803318E4,4.678503E4,-1.0539363E5,2.4998744E5,-6.409529E4,1.0124975E4,3.531093E4,1.5165777E5,2.6768562E3,1.3462838E5,4.2515222E5,9.107775E4],"categories":[],"categories_nodes":[],"categories_segments":[],"categories_sizes":[],"default_left":[1,0,1,1,0,1,1,1,1,1,1,1,1,1,1,1,1,1,1,0,0,0,0,0,0,0,0,0,0,0,0,0,0,0,0],"id":12,"left_children":[1,-1,3,5,-1,7,9,11,13,15,17,19,21,23,25,27,29,31,33,-1,-1,-1,-1,-1,-1,-1,-1,-1,-1,-1,-1,-1,-1,-1,-1],"loss_changes":[6.133333E12,0E0,1.85582E12,3.3495083E11,0E0,2.8837272E11,3.8150845E11,3.7148757E11,1.4277614E11,1.8874376E11,5.781516E11,1.0954482E11,4.74898E11,7.767934E10,2.3157896E11,5.3376508E10,2.5915127E11,4.7990563E10,3.5076178E10,0E0,0E0,0E0,0E0,0E0,0E0,0E0,0E0,0E0,0E0,0E0,0E0,0E0,0E0,0E0,0E0],"parents":[2147483647,0,0,2,2,3,3,5,5,6,6,7,7,8,8,9,9,10,10,11,11,12,12,13,13,14,14,15,15,16,16,17,17,18,18],"right_children":[2,-1,4,6,-1,8,10,12,14,16,18,20,22,24,26,28,30,32,34,-1,-1,-1,-1,-1,-1,-1,-1,-1,-1,-1,-1,-1,-1,-1,-1],"split_conditions":[-2.693493E0,5.3848444E5,4.1311436E0,2.5E0,2.991693E5,1.5E0,6.5E0,7.5E0,-7.2723456E-2,-3.0020183E-1,-4.681849E-1,1.6E1,3.868518E-2,-7.8804255E-1,8.5E0,-5.0810826E-1,3.5E0,2.7873645E0,1.4780673E0,-6.777203E4,7.669562E3,1.7339511E5,1.212546E4,-1.1409954E4,1.403551E4,-3.1618092E4,7.4996234E4,-1.9228588E4,3.0374924E3,1.0593279E4,4.5497332E4,8.030569E2,4.0388516E4,1.2754567E5,2.7323326E4],"split_indices":[12,0,14,7,0,7,4,3,14,14,11,6,10,14,3,10,3,10,11,0,0,0,0,0,0,0,0,0,0,0,0,0,0,0,0],"split_type":[0,0,0,0,0,0,0,0,0,0,0,0,0,0,0,0,0,0,0,0,0,0,0,0,0,0,0,0,0,0,0,0,0,0,0],"sum_hessian":[2.8E2,1E0,2.79E2,2.78E2,1E0,9.8E1,1.8E2,1.9E1,7.9E1,1.61E2,1.9E1,1.3E1,6E0,4.3E1,3.6E1,3.8E1,1.23E2,1.2E1,7E0,1E0,1.2E1,2E0,4E0,2.6E1,1.7E1,3.5E1,1E0,1.6E1,2.2E1,1E2,2.3E1,9E0,3E0,6E0,1E0],"tree_param":{"num_deleted":"0","num_feature":"16","num_nodes":"35","size_leaf_vector":"0"}},{"base_weights":[3.9293535E4,1.525706E6,2.853597E4,2.2561932E4,8.476465E5,9.589236E3,7.404982E4,2.7095514E2,1.2303707E5,-7.888385E4,9.0590055E4,-5.2206066E4,1.1930931E4,6.920283E4,4.921925E5,-1.0488978E5,-1.7914666E4,4.224835E4,1.1351831E5,-4.6182686E3,-1.0482483E5,-7.260591E4,2.0524896E4,-2.373315E4,1.0215925E5,-2.924375E3,-2.3947625E4,5.436478E4,-8.18655E4,1.7012831E5,8.284213E4],"categories":[],"categories_nodes":[],"categories_segments":[],"categories_sizes":[],"default_left":[1,0,1,1,0,1,1,1,1,1,1,1,1,1,0,0,1,1,1,0,0,0,0,0,0,0,0,0,0,0,0],"id":13,"left_children":[1,-1,3,5,-1,7,9,11,13,15,17,19,21,23,-1,-1,25,27,29,-1,-1,-1,-1,-1,-1,-1,-1,-1,-1,-1,-1],"loss_changes":[4.449703E12,0E0,1.3510271E12,1.8564424E11,0E0,2.3676576E11,1.4880142E11,1.2789408E11,3.0378335E11,7.634297E9,5.173199E10,9.46683E10,1.2572286E11,5.1429958E10,0E0,0E0,2.0127571E8,3.1519308E10,4.4949897E10,0E0,0E0,0E0,0E0,0E0,0E0,0E0,0E0,0E0,0E0,0E0,0E0],"parents":[2147483647,0,0,2,2,3,3,5,5,6,6,7,7,8,8,9,9,10,10,11,11,12,12,13,13,16,16,17,17,18,18],"right_children":[2,-1,4,6,-1,8,10,12,14,16,18,20,22,24,-1,-1,26,28,30,-1,-1,-1,-1,-1,-1,-1,-1,-1,-1,-1,-1],"split_conditions":[-2.693493E0,4.577118E5,4.1311436E0,2.3143882E-1,2.5429395E5,1.4879965E0,-1.0465982E0,-5.898782E-1,5.893955E-1,5.508763E-1,-5.8759964E-1,-2.4566013E-2,-1.0410249E0,-5.910429E-1,1.4765775E5,-3.1466936E4,-1.1171147E0,-6.085409E-1,3.8943842E-2,-1.3854806E3,-3.144745E4,-2.1781773E4,6.157469E3,-7.1199453E3,3.0647775E4,-8.7731256E2,-7.1842876E3,1.6309435E4,-2.455965E4,5.1038496E4,2.485264E4],"split_indices":[12,0,14,14,0,12,10,15,15,14,10,10,14,11,0,0,10,10,15,0,0,0,0,0,0,0,0,0,0,0,0],"split_type":[0,0,0,0,0,0,0,0,0,0,0,0,0,0,0,0,0,0,0,0,0,0,0,0,0,0,0,0,0,0,0],"sum_hessian":[2.8E2,1E0,2.79E2,2.78E2,1E0,2.23E2,5.5E1,2.07E2,1.6E1,5E0,5E1,3.7E1,1.7E2,1.5E1,1E0,3E0,2E0,1.7E1,3.3E1,2E1,1.7E1,1.5E1,1.55E2,4E0,1.1E1,1E0,1E0,1.6E1,1E0,1E1,2.3E1],"tree_param":{"num_deleted":"0","num_feature":"16","num_nodes":"31","size_leaf_vector":"0"}},{"base_weights":[3.057609E4,1.29685E6,2.1422076E4,1.6333986E4,7.204995E5,-5.1168875E4,2.317942E4,-7.155847E4,2.8722834E4,-1.3111227E4,4.024678E4,-1.18026945E5,-4.966038E4,-1.2595672E4,7.42399E4,-3.0822572E4,2.4109016E4,-6.1979194E3,5.8131133E4,-4.4196312E4,-1.4389319E5,1.3270859E4,-6.520381E4,-3.2239167E3,-2.0355469E4,-1.1413787E5,-1.4558817E4,7.812745E4,1.2961907E3,1.4762356E5,-3.981244E4,5.0424008E4,2.0258508E5],"categories":[],"categories_nodes":[],"categories_segments":[],"categories_sizes":[],"default_left":[1,0,1,1,0,1,1,1,1,1,1,1,1,1,0,1,1,1,1,0,0,0,0,0,0,0,0,0,0,0,0,0,0],"id":14,"left_children":[1,-1,3,5,-1,7,9,11,13,15,17,19,21,23,-1,25,27,29,31,-1,-1,-1,-1,-1,-1,-1,-1,-1,-1,-1,-1,-1,-1],"loss_changes":[3.2294274E12,0E0,9.841825E11,1.3010818E11,0E0,4.4408304E10,1.5785162E11,1.5507718E10,1.2219283E10,5.4799184E10,1.4405986E11,5.0987745E9,1.651599E10,2.252674E8,0E0,7.421938E10,3.317119E10,2.592384E11,1.289504E11,0E0,0E0,0E0,0E0,0E0,0E0,0E0,0E0,0E0,0E0,0E0,0E0,0E0,0E0],"parents":[2147483647,0,0,2,2,3,3,5,5,6,6,7,7,8,8,9,9,10,10,11,11,12,12,13,13,15,15,16,16,17,17,18,18],"right_children":[2,-1,4,6,-1,8,10,12,14,16,18,20,22,24,-1,26,28,30,32,-1,-1,-1,-1,-1,-1,-1,-1,-1,-1,-1,-1,-1,-1],"split_conditions":[-2.693493E0,3.89055E5,4.1311436E0,1.5E0,2.1614986E5,5.463453E-1,-6.135979E-1,-2.6775956E-1,-9.76509E-1,1.594483E-1,2.5E0,-6.2890136E-1,-6.7637585E-2,1.2876856E0,2.227197E4,-7.529813E-1,5.5E0,1.5E0,1.650749E0,-1.3258895E4,-4.3167957E4,3.981258E3,-1.9561143E4,-9.6717505E2,-6.1066406E3,-3.4241363E4,-4.3676455E3,2.3438236E4,3.888572E2,4.428707E4,-1.1943732E4,1.5127203E4,6.0775527E4],"split_indices":[12,0,14,3,0,14,14,11,10,10,7,11,11,12,0,12,3,7,12,0,0,0,0,0,0,0,0,0,0,0,0,0,0],"split_type":[0,0,0,0,0,0,0,0,0,0,0,0,0,0,0,0,0,0,0,0,0,0,0,0,0,0,0,0,0,0,0,0,0],"sum_hessian":[2.8E2,1E0,2.79E2,2.78E2,1E0,2.5E1,2.53E2,2E1,5E0,8.1E1,1.72E2,5E0,1.5E1,3E0,2E0,5.5E1,2.6E1,4.8E1,1.24E2,2E0,3E0,3E0,1.2E1,2E0,1E0,8E0,4.7E1,7E0,1.9E1,8E0,4E1,1.19E2,5E0],"tree_param":{"num_deleted":"0","num_feature":"16","num_nodes":"33","size_leaf_vector":"0"}},{"base_weights":[2.3687459E4,1.102322E6,1.5898329E4,1.1565173E4,6.124245E5,9.360652E3,2.1126083E5,5.1367085E3,1.0221134E5,3.1126377E3,1.3693519E5,3.7902266E4,1.846636E5,8.411822E3,-9.1737984E4,1.8917142E5,-9.88675E3,8.077355E4,-2.5162406E4],"categories":[],"categories_nodes":[],"categories_segments":[],"categories_sizes":[],"default_left":[1,0,1,1,0,1,0,1,1,1,1,1,0,0,0,0,0,0,0],"id":15,"left_children":[1,-1,3,5,-1,7,-1,9,11,13,15,17,-1,-1,-1,-1,-1,-1,-1],"loss_changes":[2.3433317E12,0E0,7.166727E11,1.20847516E11,0E0,1.0811328E11,0E0,7.053445E10,5.6629977E10,1.3296361E11,3.254798E10,2.3661765E10,0E0,0E0,0E0,0E0,0E0,0E0,0E0],"parents":[2147483647,0,0,2,2,3,3,5,5,7,7,8,8,9,9,10,10,11,11],"right_children":[2,-1,4,6,-1,8,-1,10,12,14,16,18,-1,-1,-1,-1,-1,-1,-1],"split_conditions":[-2.693493E0,3.3069662E5,4.1311436E0,4.566946E0,1.8372736E5,2.6464767E0,6.337825E4,4.93731E0,1.09221995E-1,-1.2829557E-1,2.5431097E-1,1.5978007E0,5.5399082E4,2.5235469E3,-2.7521396E4,5.675143E4,-2.9660251E3,2.4232064E4,-7.548722E3],"split_indices":[12,0,14,10,0,14,0,13,15,13,11,11,0,0,0,0,0,0,0],"split_type":[0,0,0,0,0,0,0,0,0,0,0,0,0,0,0,0,0,0,0],"sum_hessian":[2.8E2,1E0,2.79E2,2.78E2,1E0,2.76E2,2E0,2.65E2,1.1E1,2.62E2,3E0,7E0,4E0,2.49E2,1.3E1,2E0,1E0,4E0,3E0],"tree_param":{"num_deleted":"0","num_feature":"16","num_nodes":"19","size_leaf_vector":"0"}},{"base_weights":[1.899644E4,9.36974E5,1.2371612E4,8.684335E3,5.20561E5,6.916619E3,1.6900867E5,-1.86663E4,1.6162793E4,-1.396596E5,-1.884393E3,2.0127656E5,4.5693833E3,-2.7989219E4,-2.7225025E5,6.839067E4,-2.3894523E4,7.977875E2,3.0141625E5,-3.2010051E3,6.5111992E4],"categories":[],"categories_nodes":[],"categories_segments":[],"categories_sizes":[],"default_left":[1,0,1,1,0,1,0,1,1,1,1,1,1,0,0,0,0,0,0,0,0],"id":16,"left_children":[1,-1,3,5,-1,7,-1,9,11,13,15,17,19,-1,-1,-1,-1,-1,-1,-1,-1],"loss_changes":[1.6972935E12,0E0,5.2015314E11,7.790182E10,0E0,6.5824424E10,0E0,1.499937E11,4.368847E11,1.2563795E11,1.0372053E11,2.4067008E11,9.1003265E10,0E0,0E0,0E0,0E0,0E0,0E0,0E0,0E0],"parents":[2147483647,0,0,2,2,3,3,5,5,7,7,8,8,9,9,10,10,11,11,12,12],"right_children":[2,-1,4,6,-1,8,-1,10,12,14,16,18,20,-1,-1,-1,-1,-1,-1,-1,-1],"split_conditions":[-2.693493E0,2.8109222E5,4.1311436E0,4.566946E0,1.5616831E5,-6.251701E-1,5.0702605E4,1.6E1,-5.918013E-1,1.35E1,-1.3163556E0,-1.980819E-1,9.873641E-1,-8.396766E3,-8.167508E4,2.0517203E4,-7.1683574E3,2.3933626E2,9.0424875E4,-9.603016E2,1.9533598E4],"split_indices":[12,0,14,10,0,11,0,6,11,6,12,14,15,0,0,0,0,0,0,0,0],"split_type":[0,0,0,0,0,0,0,0,0,0,0,0,0,0,0,0,0,0,0,0,0],"sum_hessian":[2.8E2,1E0,2.79E2,2.78E2,1E0,2.76E2,2E0,7.3E1,2.03E2,8E0,6.5E1,1.1E1,1.92E2,5E0,3E0,1.5E1,5E1,4E0,7E0,1.71E2,2.1E1],"tree_param":{"num_deleted":"0","num_feature":"16","num_nodes":"21","size_leaf_vector":"0"}},{"base_weights":[1.514974E4,7.96428E5,9.515075E3,6.377301E3,4.42477E5,-4.068085E4,1.116917E4,-5.5440113E4,1.7756709E4,7.7741265E3,1.0272599E5,-1.1038976E5,-4.0149074E4,-1.1757859E4,5.1190562E4,1.9598896E3,5.2972117E4,2.132993E4,3.7694725E5,-2.5958477E4,-1.0244923E5,-3.6212917E3,-1.8083781E4,-1.2587062E3,9.961718E4,1.26619625E5,1.718213E4,-8.17849E4,6.933235E4],"categories":[],"categories_nodes":[],"categories_segments":[],"categories_sizes":[],"default_left":[1,0,1,1,0,1,1,1,1,1,1,0,1,1,0,1,1,1,0,0,0,0,0,0,0,0,0,0,0],"id":17,"left_children":[1,-1,3,5,-1,7,9,11,13,15,17,-1,19,21,-1,23,25,27,-1,-1,-1,-1,-1,-1,-1,-1,-1,-1,-1],"loss_changes":[1.2294518E12,0E0,3.7756846E11,6.336789E10,0E0,2.3409308E10,7.815459E10,1.3212934E10,6.5226066E9,6.4542966E10,1.9284453E11,0E0,1.3253947E10,1.4039846E8,0E0,6.896132E10,7.162802E10,4.5268435E10,0E0,0E0,0E0,0E0,0E0,0E0,0E0,0E0,0E0,0E0,0E0],"parents":[2147483647,0,0,2,2,3,3,5,5,6,6,7,7,8,8,9,9,10,10,12,12,13,13,15,15,16,16,17,17],"right_children":[2,-1,4,6,-1,8,10,12,14,16,18,-1,20,22,-1,24,26,28,-1,-1,-1,-1,-1,-1,-1,-1,-1,-1,-1],"split_conditions":[-2.693493E0,2.389284E5,4.1311436E0,1.5E0,1.3274311E5,5.463453E-1,1.650749E0,-8.781756E-1,-9.76509E-1,7.3997915E-1,5.893955E-1,-3.311693E4,9.8536146E-1,1.2876856E0,1.5357169E4,2.5535908E0,2.2353417E-1,-3.4509572E-1,1.1308418E5,-7.7875435E3,-3.073477E4,-1.0863876E3,-5.425135E3,-3.7761188E2,2.9885154E4,3.798589E4,5.1546396E3,-2.453547E4,2.0799707E4],"split_indices":[12,0,14,3,0,14,12,12,10,11,15,0,11,12,0,14,12,10,0,0,0,0,0,0,0,0,0,0,0],"split_type":[0,0,0,0,0,0,0,0,0,0,0,0,0,0,0,0,0,0,0,0,0,0,0,0,0,0,0,0,0],"sum_hessian":[2.8E2,1E0,2.79E2,2.78E2,1E0,2.5E1,2.53E2,2E1,5E0,2.45E2,8E0,3E0,1.7E1,3E0,2E0,2.18E2,2.7E1,7E0,1E0,1.5E1,2E0,2E0,1E0,2.12E2,6E0,8E0,1.9E1,2E0,5E0],"tree_param":{"num_deleted":"0","num_feature":"16","num_nodes":"29","size_leaf_vector":"0"}},{"base_weights":[1.2351701E4,6.4177456E3,5.600923E5,3.735036E3,3.761055E5,1.631745E5,6.76964E5,5.385092E4,-1.4933772E2,-1.4509502E4,1.8287878E5,-2.097018E4,9.105199E3,-1.7747847E5,1.1678762E4,3.9957447E5,1.6285625E4,-7.4482603E3,-1.0511238E5,-6.2380207E4,1.3232386E4,4.1490145E4,-4.431748E4,3.9947793E4,-1.2805083E4,-1.7147623E4,1.2207298E5,-1.8203017E5,2.3595E4,-1.03230734E5,-1.7941396E4,-3.1135828E4,1.9992363E4],"categories":[],"categories_nodes":[],"categories_segments":[],"categories_sizes":[],"default_left":[1,1,1,1,0,0,0,1,1,1,1,1,1,0,1,0,1,1,1,1,1,0,0,0,0,0,0,0,0,0,0,0,0],"id":18,"left_children":[1,3,5,7,-1,-1,-1,9,11,13,15,17,19,-1,21,-1,23,25,27,29,31,-1,-1,-1,-1,-1,-1,-1,-1,-1,-1,-1,-1],"loss_changes":[9.097309E11,2.752976E11,2.870208E10,5.4125974E10,0E0,0E0,0E0,1.7906149E11,5.009694E10,6.1822968E10,2.4619283E11,9.023822E10,5.3931487E10,0E0,2.3539972E10,0E0,3.9532808E9,9.00324E10,1.1319377E11,1.6301388E10,5.191018E10,0E0,0E0,0E0,0E0,0E0,0E0,0E0,0E0,0E0,0E0,0E0,0E0],"parents":[2147483647,0,0,1,1,2,2,3,3,7,7,8,8,9,9,10,10,11,11,12,12,14,14,16,16,17,17,18,18,19,19,20,20],"right_children":[2,4,6,8,-1,-1,-1,10,12,14,16,18,20,-1,22,-1,24,26,28,30,32,-1,-1,-1,-1,-1,-1,-1,-1,-1,-1,-1,-1],"split_conditions":[5.5118675E0,4.1311436E0,5E0,1.5E0,1.1283166E5,4.895235E4,2.030892E5,7.5E0,2.5E0,1.6E1,3.868518E-2,7.5E0,-1.06368E0,-5.3243543E4,-4.4315827E-1,1.1987234E5,-6.4149046E-1,8.5E0,8.5E0,3.5E0,1.5E0,1.2447044E4,-1.3295245E4,1.1984338E4,-3.8415251E3,-5.144287E3,3.6621895E4,-5.4609055E4,7.0785005E3,-3.096922E4,-5.382419E3,-9.340749E3,5.997709E3],"split_indices":[10,14,1,7,0,0,0,3,7,6,10,4,14,0,11,0,11,3,4,7,3,0,0,0,0,0,0,0,0,0,0,0,0],"split_type":[0,0,0,0,0,0,0,0,0,0,0,0,0,0,0,0,0,0,0,0,0,0,0,0,0,0,0,0,0,0,0,0,0],"sum_hessian":[2.8E2,2.78E2,2E0,2.77E2,1E0,1E0,1E0,1.9E1,2.58E2,1.3E1,6E0,7.9E1,1.79E2,1E0,1.2E1,2E0,4E0,6.9E1,1E1,9E0,1.7E2,8E0,4E0,2E0,2E0,6.5E1,4E0,6E0,4E0,4E0,5E0,2.2E1,1.48E2],"tree_param":{"num_deleted":"0","num_feature":"16","num_nodes":"33","size_leaf_vector":"0"}},{"base_weights":[1.0009347E4,4.961978E3,4.7607816E5,2.679902E3,3.196895E5,1.3869825E5,5.75419E5,1.2482391E3,1.00436766E5,5.173761E3,-7.2304266E4,1.4107144E5,-1.0733625E4,-5.5038375E4,7.781538E3,-1.08859695E5,4.629925E4,-8.374349E3,-1.09360336E5,2.6805122E5,4.627176E3,-3.5708594E4,-1.3182778E5,1.0017871E5,-5.7669562E4],"categories":[],"categories_nodes":[],"categories_segments":[],"categories_sizes":[],"default_left":[1,1,1,1,0,0,0,1,1,1,1,0,0,1,1,1,1,0,0,0,0,0,0,0,0],"id":19,"left_children":[1,3,5,7,-1,-1,-1,9,11,13,15,-1,-1,17,19,21,23,-1,-1,-1,-1,-1,-1,-1,-1],"loss_changes":[6.5866806E11,1.9952999E11,2.0737229E10,3.878209E10,0E0,0E0,0E0,7.9775375E10,1.9583693E10,4.156747E10,6.573857E10,0E0,0E0,2.6967874E10,2.0564784E11,1.3774176E10,2.8184394E10,0E0,0E0,0E0,0E0,0E0,0E0,0E0,0E0],"parents":[2147483647,0,0,1,1,2,2,3,3,7,7,8,8,9,9,10,10,13,13,14,14,15,15,16,16],"right_children":[2,4,6,8,-1,-1,-1,10,12,14,16,-1,-1,18,20,22,24,-1,-1,-1,-1,-1,-1,-1,-1],"split_conditions":[5.5118675E0,4.1311436E0,5E0,4.93731E0,9.590685E4,4.1609477E4,1.726257E5,-1.2829557E-1,2.5431097E-1,-1.5542247E0,3.1117016E-1,4.2321434E4,-3.2200876E3,-6.5799284E-1,-1.416511E0,-1.0141997E-1,3.5E0,-2.5123047E3,-3.28081E4,8.041537E4,1.3881528E3,-1.0712578E4,-3.9548336E4,3.0053615E4,-1.730087E4],"split_indices":[10,14,1,13,0,0,0,13,11,12,12,0,0,11,12,14,4,0,0,0,0,0,0,0,0],"split_type":[0,0,0,0,0,0,0,0,0,0,0,0,0,0,0,0,0,0,0,0,0,0,0,0,0],"sum_hessian":[2.8E2,2.78E2,2E0,2.77E2,1E0,1E0,1E0,2.74E2,3E0,2.61E2,1.3E1,2E0,1E0,1E1,2.51E2,1E1,3E0,6E0,4E0,2E0,2.49E2,3E0,7E0,2E0,1E0],"tree_param":{"num_deleted":"0","num_feature":"16","num_nodes":"25","size_leaf_vector":"0"}},{"base_weights":[8.281345E3,3.9894585E3,4.0466634E5,2.0488738E3,2.71736E5,1.178935E5,4.89106E5,-2.0490713E4,7.5740005E3,1.6885416E3,-5.9388836E4,3.6249844E3,1.2947564E5,1.748121E4,-6.623555E4,-8.083436E4,4.1231147E3,3.3591508E4,-4.8078706E3,2.3981834E5,-1.3235969E4,-1.3348556E4,5.882387E4,-7.34765E4,-1.1394906E4,-4.792818E4,-1.0363624E5,2.4555387E4,-4.9019125E4,2.6131977E4,1.9209475E5,-4.412534E4,5.271832E3,1.16590625E4,3.119851E5,1.08829375E4,-2.490325E4],"categories":[],"categories_nodes":[],"categories_segments":[],"categories_sizes":[],"default_left":[1,1,1,1,0,0,0,1,1,1,1,1,1,1,1,1,1,1,1,1,1,0,0,0,0,0,0,0,0,0,0,0,0,0,0,0,0],"id":20,"left_children":[1,3,5,7,-1,-1,-1,9,11,13,15,17,19,21,23,25,27,29,31,33,35,-1,-1,-1,-1,-1,-1,-1,-1,-1,-1,-1,-1,-1,-1,-1,-1],"loss_changes":[4.7643387E11,1.4440741E11,1.4982578E10,3.4775667E10,0E0,0E0,0E0,4.755051E10,1.0736235E11,3.977517E10,2.7574231E10,5.5250838E10,1.1340452E11,3.9022748E10,1.9424317E9,6.287745E9,7.718584E9,5.173346E10,6.8001358E10,6.2224597E10,1.3966287E9,0E0,0E0,0E0,0E0,0E0,0E0,0E0,0E0,0E0,0E0,0E0,0E0,0E0,0E0,0E0,0E0],"parents":[2147483647,0,0,1,1,2,2,3,3,7,7,8,8,9,9,10,10,11,11,12,12,13,13,14,14,15,15,16,16,17,17,18,18,19,19,20,20],"right_children":[2,4,6,8,-1,-1,-1,10,12,14,16,18,20,22,24,26,28,30,32,34,36,-1,-1,-1,-1,-1,-1,-1,-1,-1,-1,-1,-1,-1,-1,-1,-1],"split_conditions":[5.5118675E0,4.1311436E0,5E0,-5.9289014E-1,8.1520805E4,3.536805E4,1.4673181E5,-5.334233E-3,1.650749E0,1.5380743E0,8.9958334E-1,-2.6090956E-1,2.5E0,-4.6482918E-1,5.1764876E-1,-1.8155617E-3,4E0,-2.8065437E-1,-4.4613916E-1,3.5E0,9.5E0,-4.004567E3,1.7647162E4,-2.2042951E4,-3.418472E3,-1.4378454E4,-3.1090873E4,7.366616E3,-1.4705738E4,7.8395933E3,5.7628426E4,-1.3237603E4,1.5815497E3,3.497719E3,9.359553E4,3.2648813E3,-7.470975E3],"split_indices":[10,14,1,15,0,0,0,10,12,12,12,15,1,14,14,12,4,15,10,3,6,0,0,0,0,0,0,0,0,0,0,0,0,0,0,0,0],"split_type":[0,0,0,0,0,0,0,0,0,0,0,0,0,0,0,0,0,0,0,0,0,0,0,0,0,0,0,0,0,0,0,0,0,0,0,0,0],"sum_hessian":[2.8E2,2.78E2,2E0,2.77E2,1E0,1E0,1E0,5.4E1,2.23E2,3.5E1,1.9E1,2.17E2,6E0,2.9E1,6E0,1.4E1,5E0,4.7E1,1.7E2,3E0,3E0,1.7E1,1.2E1,5E0,1E0,7E0,7E0,4E0,1E0,4.6E1,1E0,3.4E1,1.36E2,1E0,2E0,1E0,2E0],"tree_param":{"num_deleted":"0","num_feature":"16","num_nodes":"37","size_leaf_vector":"0"}},{"base_weights":[7.027165E3,3.378976E3,3.4396634E5,1.7294364E3,2.309755E5,1.002095E5,4.1574E5,4.1534453E4,-1.3509874E3,2.405386E3,1.9744938E5,-4.7869243E3,3.781758E4,-1.5234153E5,2.1598414E4,3.3292462E5,4.1316082E4,-9.122477E3,3.4432504E4,1.5199436E5,1.7799268E4,3.8923E3,1.4359506E5,-1.7709415E2,-3.237752E4,1.2458722E4,2.6991475E5,-3.6164785E3,9.901244E4],"categories":[],"categories_nodes":[],"categories_segments":[],"categories_sizes":[],"default_left":[1,1,1,1,0,0,0,1,1,1,1,1,1,0,1,0,0,1,1,0,1,0,0,0,0,0,0,0,0],"id":21,"left_children":[1,3,5,7,-1,-1,-1,9,11,13,15,17,19,-1,21,-1,-1,23,25,-1,27,-1,-1,-1,-1,-1,-1,-1,-1],"loss_changes":[3.4424793E11,1.0434538E11,1.0824876E10,3.4143453E10,0E0,0E0,0E0,1.21541165E11,3.5037434E10,5.3781385E10,7.085364E10,4.0953168E10,4.5292765E10,0E0,3.400247E10,0E0,0E0,4.492772E10,1.2082366E11,0E0,3.340365E10,0E0,0E0,0E0,0E0,0E0,0E0,0E0,0E0],"parents":[2147483647,0,0,1,1,2,2,3,3,7,7,8,8,9,9,10,10,11,11,12,12,14,14,17,17,18,18,20,20],"right_children":[2,4,6,8,-1,-1,-1,10,12,14,16,18,20,-1,22,-1,-1,24,26,-1,28,-1,-1,-1,-1,-1,-1,-1,-1],"split_conditions":[5.5118675E0,4.1311436E0,5E0,1.5E0,6.929266E4,3.0062852E4,1.2472201E5,7.5E0,1.4968146E0,1.6E1,8.5E0,1.475477E0,1.4E1,-4.570246E4,-1.980819E-1,9.987739E4,1.2394825E4,4.5E0,1.107841E0,4.559831E4,4E0,1.1676901E3,4.307852E4,-5.3128246E1,-9.713256E3,3.7376167E3,8.097443E4,-1.0849436E3,2.9703732E4],"split_indices":[10,14,1,7,0,0,0,4,11,6,4,12,6,0,14,0,0,4,15,0,4,0,0,0,0,0,0,0,0],"split_type":[0,0,0,0,0,0,0,0,0,0,0,0,0,0,0,0,0,0,0,0,0,0,0,0,0,0,0,0,0],"sum_hessian":[2.8E2,2.78E2,2E0,2.77E2,1E0,1E0,1E0,1.9E1,2.58E2,1.6E1,3E0,2.38E2,2E1,1E0,1.5E1,1E0,2E0,2.15E2,2.3E1,2E0,1.8E1,1.4E1,1E0,1.56E2,5.9E1,2.2E1,1E0,1.5E1,3E0],"tree_param":{"num_deleted":"0","num_feature":"16","num_nodes":"29","size_leaf_vector":"0"}},{"base_weights":[6.641638E3,3.5454707E3,2.9237134E5,2.1457854E3,1.96329E5,8.5178E4,3.53379E5,-4.7862125E1,5.0775625E4,-3.7690544E3,3.3168996E4,7.4841562E3,1.0988685E5,-7.069138E2,-7.443381E4,1.21064164E5,2.291134E3,3.01455E4,-2.2713562E4,1.7394336E3,-5.518977E4,-1.0584136E5,3.4130918E4,2.7002784E5,7.473125E3,-5.304178E4,4.821097E4,5.68125E4,-6.57E3,-6.0275E2,-2.9882916E4],"categories":[],"categories_nodes":[],"categories_segments":[],"categories_sizes":[],"default_left":[1,1,1,1,0,0,0,1,1,1,1,1,0,1,1,1,1,1,1,0,0,0,0,0,0,0,0,0,0,0,0],"id":22,"left_children":[1,3,5,7,-1,-1,-1,9,11,13,15,17,-1,19,21,23,25,27,29,-1,-1,-1,-1,-1,-1,-1,-1,-1,-1,-1,-1],"loss_changes":[2.475548E11,7.486304E10,7.82105E9,2.965856E10,0E0,0E0,0E0,3.3127903E10,2.9885729E10,5.209627E10,7.3001026E10,6.1592786E9,0E0,3.1017884E10,3.7709976E10,1.1642861E11,5.591564E10,5.268719E9,6.1606886E8,0E0,0E0,0E0,0E0,0E0,0E0,0E0,0E0,0E0,0E0,0E0,0E0],"parents":[2147483647,0,0,1,1,2,2,3,3,7,7,8,8,9,9,10,10,11,11,13,13,14,14,15,15,16,16,17,17,18,18],"right_children":[2,4,6,8,-1,-1,-1,10,12,14,16,18,-1,20,22,24,26,28,30,-1,-1,-1,-1,-1,-1,-1,-1,-1,-1,-1,-1],"split_conditions":[5.5118675E0,4.1311436E0,5E0,2.6464767E0,5.8898703E4,2.55534E4,1.060137E5,7.5E0,1.09221995E-1,7.5E0,1.5E0,1.5978007E0,3.296606E4,6.5E0,1.0911213E0,3.868518E-2,-6.261711E-1,4E0,2.9228697E0,5.218301E2,-1.6556932E4,-3.1752408E4,1.0239275E4,8.100836E4,2.2419375E3,-1.5912535E4,1.4463291E4,1.704375E4,-1.9710001E3,-1.8082501E2,-8.964875E3],"split_indices":[10,14,1,14,0,0,0,3,15,4,7,11,0,3,10,10,11,1,14,0,0,0,0,0,0,0,0,0,0,0,0],"split_type":[0,0,0,0,0,0,0,0,0,0,0,0,0,0,0,0,0,0,0,0,0,0,0,0,0,0,0,0,0,0,0],"sum_hessian":[2.8E2,2.78E2,2E0,2.77E2,1E0,1E0,1E0,2.66E2,1.1E1,2.4E2,2.6E1,7E0,4E0,2.31E2,9E0,6E0,2E1,4E0,3E0,2.22E2,9E0,7E0,2E0,2E0,4E0,9E0,1.1E1,2E0,2E0,1E0,2E0],"tree_param":{"num_deleted":"0","num_feature":"16","num_nodes":"31","size_leaf_vector":"0"}},{"base_weights":[5.622856E3,2.9909536E3,2.485155E5,1.8011405E3,1.668795E5,7.240125E4,3.00372E5,-3.1649717E4,4.65763E3,1.634732E4,-4.0088582E4,-1.7334127E4,9.662138E3,-1.5946719E4,3.2427572E4,-4.9052453E4,2.4069541E4,3.1011094E3,-4.868797E4,6.7144976E3,9.418449E4,-8.235991E4,-2.8311021E4,1.952523E4,-5.365318E4,-6.086883E4,1.2207461E4,1.5241891E4,-1.7254963E4,1.6964236E5,-4.8195E3],"categories":[],"categories_nodes":[],"categories_segments":[],"categories_sizes":[],"default_left":[1,1,1,1,0,0,0,1,1,1,1,1,1,0,0,1,0,1,1,1,1,0,0,0,0,0,0,0,0,0,0],"id":23,"left_children":[1,3,5,7,-1,-1,-1,9,11,13,15,17,19,-1,-1,21,-1,23,25,27,29,-1,-1,-1,-1,-1,-1,-1,-1,-1,-1],"loss_changes":[1.7889149E11,5.4103515E10,5.650694E9,2.6710874E10,0E0,0E0,0E0,9.566233E9,2.8452372E10,2.594299E9,1.2107665E10,3.0905696E10,5.1687313E10,0E0,0E0,9.412657E9,0E0,2.9011771E10,1.483647E10,4.195999E10,5.311201E10,0E0,0E0,0E0,0E0,0E0,0E0,0E0,0E0,0E0,0E0],"parents":[2147483647,0,0,1,1,2,2,3,3,7,7,8,8,9,9,10,10,11,11,12,12,15,15,17,17,18,18,19,19,20,20],"right_children":[2,4,6,8,-1,-1,-1,10,12,14,16,18,20,-1,-1,22,-1,24,26,28,30,-1,-1,-1,-1,-1,-1,-1,-1,-1,-1],"split_conditions":[5.5118675E0,4.1311436E0,5E0,-1.0485766E0,5.006385E4,2.1720375E4,9.01116E4,-7.789599E-1,-5.9289014E-1,-7.774369E-2,1.0757359E0,-5.334233E-3,1.650749E0,-4.7840156E3,9.728272E3,-2.0212641E-1,7.220863E3,1.5380743E0,1.1875303E0,2.388424E-2,2.5E0,-2.4707973E4,-8.493307E3,5.8575693E3,-1.6095954E4,-1.8260648E4,3.6622385E3,4.5725674E3,-5.1764893E3,5.089271E4,-1.4458501E3],"split_indices":[10,14,1,14,0,0,0,15,15,10,10,10,12,0,0,12,0,12,12,15,1,0,0,0,0,0,0,0,0,0,0],"split_type":[0,0,0,0,0,0,0,0,0,0,0,0,0,0,0,0,0,0,0,0,0,0,0,0,0,0,0,0,0,0,0],"sum_hessian":[2.8E2,2.78E2,2E0,2.77E2,1E0,1E0,1E0,2.1E1,2.56E2,3E0,1.8E1,4.7E1,2.09E2,1E0,2E0,1.6E1,2E0,2.9E1,1.8E1,2.03E2,6E0,5E0,1.1E1,2.3E1,6E0,1.5E1,3E0,1.5E2,5.3E1,3E0,3E0],"tree_param":{"num_deleted":"0","num_feature":"16","num_nodes":"31","size_leaf_vector":"0"}},{"base_weights":[4.522701E3,3.781281E2,1.1680283E5,-8.4298596E2,8.2403516E4,4.6712656E4,2.6477566E5,1.7113723E3,-4.749104E4,1.14911664E5,-7.5604688E3,6.9641125E4,1.902735E4,-4.296002E4,3.513002E3,-7.443879E4,3.8488047E4,1.635625E2,2.3702406E4,-8.039803E4,1.05576E4,2.1649545E5,8.907148E2,-1.1010854E5,-3.832629E4,1.0800734E5,-2.06875E4,-7.9052188E3,-1.5025577E5,4.7380832E4,-2.9784834E4,-1.666725E4,3.4141044E5,-3.3795935E3,2.4241594E4,-3.999575E4,-1.4351848E5,-4.2485152E4,-6.6865625E3,-3.0910312E3,-2.7940219E4],"categories":[],"categories_nodes":[],"categories_segments":[],"categories_sizes":[],"default_left":[1,1,1,1,1,1,0,1,1,0,0,0,1,1,1,1,1,0,0,1,1,1,1,1,1,0,1,0,0,0,0,0,0,0,0,0,0,0,0,0,0],"id":24,"left_children":[1,3,5,7,9,11,-1,13,15,-1,-1,-1,17,19,21,23,25,-1,-1,27,29,31,33,35,37,-1,39,-1,-1,-1,-1,-1,-1,-1,-1,-1,-1,-1,-1,-1,-1],"loss_changes":[1.3072008E11,2.7313625E10,9.1346035E10,3.2134195E10,1.2567036E10,3.7531668E9,0E0,2.0754133E10,3.530221E10,0E0,0E0,0E0,4.3706944E8,2.0884744E10,1.3775695E11,9.949303E9,1.8689772E10,0E0,0E0,2.91973E10,8.838924E9,9.306692E10,2.4512213E10,5.9721933E9,6.370171E8,0E0,2.9650266E8,0E0,0E0,0E0,0E0,0E0,0E0,0E0,0E0,0E0,0E0,0E0,0E0,0E0,0E0],"parents":[2147483647,0,0,1,1,2,2,3,3,4,4,5,5,7,7,8,8,12,12,13,13,14,14,15,15,16,16,19,19,20,20,21,21,22,22,23,23,24,24,26,26],"right_children":[2,4,6,8,10,12,-1,14,16,-1,-1,-1,18,20,22,24,26,-1,-1,28,30,32,34,36,38,-1,40,-1,-1,-1,-1,-1,-1,-1,-1,-1,-1,-1,-1,-1,-1],"split_conditions":[1.9386019E0,4.93731E0,2.232643E0,-1.2829557E-1,2.5431097E-1,-1.0534476E0,7.94327E4,-1.5542247E0,3.1117016E-1,3.44735E4,-2.2681406E3,2.0892338E4,1.05E1,5.463453E-1,-1.416511E0,-6.3957936E-1,2.5E0,4.9068752E1,7.110722E3,-4.0246984E-1,4.449334E-1,2.5E0,2.9321605E-1,4E0,9.448761E-2,3.2402205E4,3E0,-2.3715657E3,-4.507673E4,1.421425E4,-8.93545E3,-5.0001753E3,1.0242313E5,-1.0138781E3,7.2724785E3,-1.1998726E4,-4.3055547E4,-1.2745546E4,-2.0059689E3,-9.273094E2,-8.382066E3],"split_indices":[10,13,14,13,11,12,0,12,12,0,0,0,3,14,12,11,3,0,0,15,10,1,10,4,10,0,4,0,0,0,0,0,0,0,0,0,0,0,0,0,0],"split_type":[0,0,0,0,0,0,0,0,0,0,0,0,0,0,0,0,0,0,0,0,0,0,0,0,0,0,0,0,0,0,0,0,0,0,0,0,0,0,0,0,0],"sum_hessian":[2.8E2,2.71E2,9E0,2.68E2,3E0,7E0,2E0,2.55E2,1.3E1,2E0,1E0,3E0,4E0,9E0,2.46E2,1E1,3E0,1E0,3E0,5E0,4E0,2E0,2.44E2,4E0,6E0,1E0,2E0,3E0,2E0,2E0,2E0,1E0,1E0,2.07E2,3.7E1,2E0,2E0,5E0,1E0,1E0,1E0],"tree_param":{"num_deleted":"0","num_feature":"16","num_nodes":"41","size_leaf_vector":"0"}},{"base_weights":[3.715682E3,1.8305272E3,1.777965E5,-5.418494E2,5.0414684E4,5.109475E4,2.156E5,1.5068812E3,-4.068681E4,3.1712031E3,1.0500354E5,-9.17001E2,5.066691E4,-6.5808945E4,-9.752268E3,-1.14304795E4,3.13175E4,4.362525E4,1.24786375E5,3.985191E3,-2.9351477E4,-2.4527387E4,9.1329984E4,1.10244375E4,-8.0451914E4,1.1030531E4,-2.8097E4,1.851075E4,-2.1120875E4,4.610575E4,8.705E2,-2.63773E4,8.827882E3,4.003426E3,-8.205228E4,1.8092812E4,-3.970564E4,1.362325E4,1.1496169E5,-1.416725E4,-9.08754E4,2.496375E3,1.83165E4,7.83325E3,-4.2684832E4,-2.291625E3,-2.5255281E4],"categories":[],"categories_nodes":[],"categories_segments":[],"categories_sizes":[],"default_left":[1,1,1,1,1,0,0,1,1,1,1,1,1,1,1,1,1,0,0,1,1,1,1,0,1,1,1,0,1,0,0,0,0,0,0,0,0,0,0,0,0,0,0,0,0,0,0],"id":25,"left_children":[1,3,5,7,9,-1,-1,11,13,15,17,19,21,23,25,27,29,-1,-1,31,33,35,37,-1,39,41,43,-1,45,-1,-1,-1,-1,-1,-1,-1,-1,-1,-1,-1,-1,-1,-1,-1,-1,-1,-1],"loss_changes":[9.18901E10,3.2184832E10,3.3532805E9,2.2021048E10,3.3193595E10,0E0,0E0,3.043178E10,9.461058E9,3.6458404E9,1.8415821E9,3.412844E10,3.893166E10,8.762419E9,2.978709E9,2.1318172E9,1.3106383E9,0E0,0E0,3.096341E10,6.361038E10,3.9528873E9,1.3124592E10,0E0,2.8580454E9,2.0299357E8,2.4309391E9,0E0,3.3136333E8,0E0,0E0,0E0,0E0,0E0,0E0,0E0,0E0,0E0,0E0,0E0,0E0,0E0,0E0,0E0,0E0,0E0,0E0],"parents":[2147483647,0,0,1,1,2,2,3,3,4,4,7,7,8,8,9,9,10,10,11,11,12,12,13,13,14,14,15,15,16,16,19,19,20,20,21,21,22,22,24,24,25,25,26,26,28,28],"right_children":[2,4,6,8,10,-1,-1,12,14,16,18,20,22,24,26,28,30,-1,-1,32,34,36,38,-1,40,42,44,-1,46,-1,-1,-1,-1,-1,-1,-1,-1,-1,-1,-1,-1,-1,-1,-1,-1,-1,-1],"split_conditions":[5.5118675E0,2.6464767E0,5E0,1.4835129E0,1.09221995E-1,1.5328426E4,6.4680004E4,1.4968146E0,1.9728639E0,3.2717586E0,4E0,1.5323374E-1,-5.406835E-1,-7.0341766E-1,2.4793446E0,-4.9851662E-1,4E0,1.3087575E4,3.7435914E4,1.6E1,-3.9426547E-2,-4.2159545E-1,-4.646574E-1,3.3073313E3,1.55E1,5.5E0,2.5E0,5.553225E3,2.7990215E0,1.3831726E4,2.6115002E2,-7.9131904E3,2.6483647E3,1.2010278E3,-2.4615686E4,5.4278438E3,-1.1911692E4,4.086975E3,3.4488508E4,-4.2501753E3,-2.7262621E4,7.4891254E2,5.49495E3,2.349975E3,-1.280545E4,-6.8748755E2,-7.5765845E3],"split_indices":[10,14,1,14,15,0,0,11,14,14,3,11,15,10,11,15,1,0,0,6,15,10,14,0,6,3,4,0,14,0,0,0,0,0,0,0,0,0,0,0,0,0,0,0,0,0,0],"split_type":[0,0,0,0,0,0,0,0,0,0,0,0,0,0,0,0,0,0,0,0,0,0,0,0,0,0,0,0,0,0,0,0,0,0,0,0,0,0,0,0,0,0,0,0,0,0,0],"sum_hessian":[2.8E2,2.78E2,2E0,2.66E2,1.2E1,1E0,1E0,2.54E2,1.2E1,7E0,5E0,2.43E2,1.1E1,6E0,6E0,5E0,2E0,2E0,3E0,2.08E2,3.5E1,4E0,7E0,1E0,5E0,3E0,3E0,1E0,4E0,1E0,1E0,2.8E1,1.8E2,2.2E1,1.3E1,1E0,3E0,2E0,5E0,1E0,4E0,2E0,1E0,1E0,2E0,1E0,3E0],"tree_param":{"num_deleted":"0","num_feature":"16","num_nodes":"47","size_leaf_vector":"0"}},{"base_weights":[3.0027913E3,1.3992952E3,1.51127E5,-2.6471448E2,4.6187625E4,4.34305E4,1.8326E5,-1.3248203E3,7.056353E4,1.4618393E4,8.9886875E4,-1.6567988E4,4.1756353E3,9.016375E4,5.8814375E3,-1.573775E4,2.2300709E4,-2.331835E4,6.0447312E4,1.0585755E5,-2.9921516E3,3.6616E4,5.9890625E3,-5.166887E3,-5.7029043E4,-1.21785E4,7.740817E4,1.8032906E5,-1.10807295E4,-4.7673633E4,6.6210944E2,2.2467375E4,-6.9928335E3],"categories":[],"categories_nodes":[],"categories_segments":[],"categories_sizes":[],"default_left":[1,1,1,1,1,0,0,1,1,1,0,1,1,0,0,0,1,1,1,1,1,0,1,0,0,0,0,0,0,0,0,0,0],"id":26,"left_children":[1,3,5,7,9,-1,-1,11,13,15,-1,17,19,-1,-1,-1,21,23,25,27,29,-1,31,-1,-1,-1,-1,-1,-1,-1,-1,-1,-1],"loss_changes":[6.6530693E10,2.0805597E10,2.4227635E9,2.0366553E10,1.2481516E10,0E0,0E0,2.2455628E10,4.54084E9,1.9834013E9,0E0,3.8321086E10,1.438971E11,0E0,0E0,0E0,1.1817403E9,4.009064E10,8.3334943E9,1.152096E11,3.0237958E10,0E0,1.0127896E9,0E0,0E0,0E0,0E0,0E0,0E0,0E0,0E0,0E0,0E0],"parents":[2147483647,0,0,1,1,2,2,3,3,4,4,7,7,8,8,9,9,11,11,12,12,16,16,17,17,18,18,19,19,20,20,22,22],"right_children":[2,4,6,8,10,-1,-1,12,14,16,-1,18,20,-1,-1,-1,22,24,26,28,30,-1,32,-1,-1,-1,-1,-1,-1,-1,-1,-1,-1],"split_conditions":[5.5118675E0,2.8458421E0,5E0,4.93731E0,3.6021537E-1,1.302915E4,5.4978004E4,-6.265655E-1,2.5431097E-1,1.5E0,2.6966064E4,5.463453E-1,-5.918013E-1,2.7049127E4,1.7644313E3,-4.721325E3,-5.564014E-1,-6.4230955E-1,-6.967007E-1,9.833987E-2,-1.0284088E0,1.0984801E4,3.0285935E0,-1.5500663E3,-1.7108713E4,-3.65355E3,2.3222453E4,5.4098723E4,-3.324219E3,-1.4302091E4,1.9863284E2,6.740213E3,-2.09785E3],"split_indices":[10,14,1,13,15,0,0,11,11,4,0,14,11,0,0,0,10,11,11,12,12,0,14,0,0,0,0,0,0,0,0,0,0],"split_type":[0,0,0,0,0,0,0,0,0,0,0,0,0,0,0,0,0,0,0,0,0,0,0,0,0,0,0,0,0,0,0,0,0],"sum_hessian":[2.8E2,2.78E2,2E0,2.69E2,9E0,1E0,1E0,2.66E2,3E0,6E0,3E0,7E1,1.96E2,2E0,1E0,1E0,5E0,6.5E1,5E0,1.2E1,1.84E2,2E0,3E0,4.3E1,2.2E1,1E0,4E0,7E0,5E0,1.3E1,1.71E2,1E0,2E0],"tree_param":{"num_deleted":"0","num_feature":"16","num_nodes":"33","size_leaf_vector":"0"}},{"base_weights":[2.7150251E3,1.3532189E3,1.28458E5,2.3280845E3,-6.625081E4,3.6916E4,1.55771E5,-6.0712683E2,4.4433176E4,-7.881121E4,-1.42848125E4,6.113727E2,-1.0478954E5,2.3187627E4,2.0280375E5,-4.3413074E2,1.3413012E5,1.6433375E5,4.0951348E3,1.8794242E3,-3.7730543E4,-4.3346594E4,5.6955188E4],"categories":[],"categories_nodes":[],"categories_segments":[],"categories_sizes":[],"default_left":[1,1,1,1,1,0,0,1,1,0,0,1,0,1,0,1,0,0,1,0,0,0,0],"id":27,"left_children":[1,3,5,7,9,-1,-1,11,13,-1,-1,15,-1,17,-1,19,-1,-1,21,-1,-1,-1,-1],"loss_changes":[4.7943926E10,1.854169E10,1.7504174E9,3.4137082E10,1.4850499E9,0E0,0E0,3.2943139E10,5.586152E10,0E0,0E0,3.5933966E10,0E0,4.513916E10,0E0,2.216046E10,0E0,0E0,4.2593174E10,0E0,0E0,0E0,0E0],"parents":[2147483647,0,0,1,1,2,2,3,3,4,4,7,7,8,8,11,11,13,13,15,15,18,18],"right_children":[2,4,6,8,10,-1,-1,12,14,-1,-1,16,-1,18,-1,20,-1,-1,22,-1,-1,-1,-1],"split_conditions":[5.5118675E0,5.312482E0,5E0,1.0455946E0,6.9807515E0,1.1074801E4,4.67313E4,1.0245111E0,1.5255548E0,-2.3643363E4,-4.285444E3,9.873641E-1,-3.1436863E4,1.0737059E0,6.084113E4,4.0539417E-1,4.023904E4,4.930013E4,1.5007293E0,5.638273E2,-1.1319163E4,-1.3003979E4,1.7086557E4],"split_indices":[10,15,1,15,15,0,0,15,12,0,0,15,0,15,0,15,0,0,15,0,0,0,0],"split_type":[0,0,0,0,0,0,0,0,0,0,0,0,0,0,0,0,0,0,0,0,0,0,0],"sum_hessian":[2.8E2,2.78E2,2E0,2.75E2,3E0,1E0,1E0,2.58E2,1.7E1,2E0,1E0,2.56E2,2E0,1.6E1,1E0,2.55E2,1E0,1E0,1.5E1,2.41E2,1.4E1,8E0,7E0],"tree_param":{"num_deleted":"0","num_feature":"16","num_nodes":"23","size_leaf_vector":"0"}},{"base_weights":[2.4063787E3,2.1813896E2,6.1685863E4,-2.8002146E4,2.5689639E3,2.8659453E4,1.29194336E5,-5.6996316E4,-1.2604725E4,-2.1647156E4,5.2129727E3,-6.920625E2,3.2951395E4,-7.118233E4,1.4059875E4,1.6422973E4,-2.4653248E4,-2.6113215E4,4.2769125E4,-4.8335047E4,7.1277744E3,-6.801703E3,-8.269811E4,-2.4085312E3,2.173298E4,1.2323859E4,-2.9583346E4,-6.3831348E4,-1.2827846E4,4.0293958E3,-6.646143E4,1.8302903E5,3.8675322E3,-1.3315682E4,-3.8209176E4,-1.30110625E4,-7.1393195E4,-1.9008511E3,-7.047153E4,-1.2131269E5,-8.707625E3,-1.34345E4,2.5299505E5,-2.401898E4,1.0077549E4],"categories":[],"categories_nodes":[],"categories_segments":[],"categories_sizes":[],"default_left":[1,1,1,1,1,1,0,1,1,1,1,0,0,1,0,1,1,1,0,1,1,0,0,0,0,0,1,1,1,0,1,1,1,0,0,0,0,0,0,0,0,0,0,0,0],"id":28,"left_children":[1,3,5,7,9,11,-1,13,15,17,19,-1,-1,21,-1,23,25,27,-1,29,31,-1,-1,-1,-1,-1,33,35,37,-1,39,41,43,-1,-1,-1,-1,-1,-1,-1,-1,-1,-1,-1,-1],"loss_changes":[3.643722E10,1.8116676E10,1.859299E10,8.656721E9,1.6247812E10,1.0306038E9,0E0,8.0568443E9,5.650993E9,8.3090115E9,2.3722238E10,0E0,0E0,3.885871E9,0E0,5.523218E8,2.3698888E9,1.1207566E10,0E0,7.8612214E9,1.2603136E11,0E0,0E0,0E0,0E0,0E0,8.9444045E8,1.3768684E9,1.1833615E10,0E0,1.795087E10,5.838195E10,3.7994357E10,0E0,0E0,0E0,0E0,0E0,0E0,0E0,0E0,0E0,0E0,0E0,0E0],"parents":[2147483647,0,0,1,1,2,2,3,3,4,4,5,5,7,7,8,8,9,9,10,10,13,13,15,15,16,16,17,17,19,19,20,20,26,26,27,27,28,28,30,30,31,31,32,32],"right_children":[2,4,6,8,10,12,-1,14,16,18,20,-1,-1,22,-1,24,26,28,-1,30,32,-1,-1,-1,-1,-1,34,36,38,-1,40,42,44,-1,-1,-1,-1,-1,-1,-1,-1,-1,-1,-1,-1],"split_conditions":[1.9386019E0,-1.0485766E0,2.232643E0,-2.0212641E-1,1.5E0,8.5E0,3.87583E4,8E0,4.8262157E-2,4.5E0,-1.5542247E0,-2.0761876E2,9.885419E3,-8.123978E-1,4.217963E3,-7.705152E-1,-7.141435E-1,-6.0274816E-1,1.2830738E4,-4.305811E-1,-1.416511E0,-2.040511E3,-2.4809434E4,-7.225594E2,6.5198945E3,3.697158E3,2.1101473E-1,-5.267292E-1,9.8536146E-1,1.2088187E3,7.2096163E-1,1.55E1,-6.3072145E-1,-3.9947046E3,-1.1462753E4,-3.9033188E3,-2.1417959E4,-5.702554E2,-2.114146E4,-3.639381E4,-2.6122876E3,-4.03035E3,7.5898516E4,-7.2056943E3,3.0232646E3],"split_indices":[10,14,14,12,3,4,0,3,12,4,12,0,0,10,0,10,11,12,0,15,12,0,0,0,0,0,12,10,11,0,14,6,11,0,0,0,0,0,0,0,0,0,0,0,0],"split_type":[0,0,0,0,0,0,0,0,0,0,0,0,0,0,0,0,0,0,0,0,0,0,0,0,0,0,0,0,0,0,0,0,0,0,0,0,0,0,0,0,0,0,0,0,0],"sum_hessian":[2.8E2,2.71E2,9E0,2E1,2.51E2,7E0,2E0,6E0,1.4E1,2.4E1,2.27E2,1E0,6E0,5E0,1E0,4E0,1E1,2.3E1,1E0,7E0,2.2E2,1E0,4E0,1E0,3E0,1E0,9E0,5E0,1.8E1,2E0,5E0,3E0,2.17E2,4E0,5E0,1E0,4E0,1.6E1,2E0,2E0,3E0,1E0,2E0,3.9E1,1.78E2],"tree_param":{"num_deleted":"0","num_feature":"16","num_nodes":"45","size_leaf_vector":"0"}},{"base_weights":[1.7397347E3,7.5248016E2,9.29745E4,1.5668219E3,-5.562522E4,2.643575E4,1.13026E5,-6.7972186E2,3.3805047E4,-6.50645E4,-1.36536875E4,4.0062249E3,-2.0844111E4,1.5691048E4,1.708715E5,-4.0958003E3,2.885849E4,-6.0758125E4,2.2589004E3,1.38172E5,-5.997617E2,1.6112608E4,-1.5132181E4,-8.914549E4,4.9195676E4,4.61626E4,-9.4604234E4,-2.0003125E4,1.3287235E4,-2.5109994E4,5.834475E4],"categories":[],"categories_nodes":[],"categories_segments":[],"categories_sizes":[],"default_left":[1,1,1,1,1,0,0,1,1,0,0,1,1,1,0,1,1,1,1,0,1,0,0,0,0,0,0,0,0,0,0],"id":29,"left_children":[1,3,5,7,9,-1,-1,11,13,-1,-1,15,17,19,-1,21,23,25,27,-1,29,-1,-1,-1,-1,-1,-1,-1,-1,-1,-1],"loss_changes":[2.5240254E10,1.2896244E10,1.01467955E9,2.0012163E10,6.963538E8,0E0,0E0,2.4556222E10,4.2009633E10,0E0,0E0,4.2603827E10,4.5321806E10,3.4003204E10,0E0,3.592825E10,1.2917876E11,6.950648E10,8.122205E9,0E0,2.4580936E10,0E0,0E0,0E0,0E0,0E0,0E0,0E0,0E0,0E0,0E0],"parents":[2147483647,0,0,1,1,2,2,3,3,4,4,7,7,8,8,11,11,12,12,13,13,15,15,16,16,17,17,18,18,20,20],"right_children":[2,4,6,8,10,-1,-1,12,14,-1,-1,16,18,20,-1,22,24,26,28,-1,30,-1,-1,-1,-1,-1,-1,-1,-1,-1,-1],"split_conditions":[5.5118675E0,5.312482E0,5E0,1.0455946E0,6.9807515E0,7.930725E3,3.39078E4,5.5E0,1.5255548E0,-1.9519352E4,-4.0961064E3,3.5E0,2.8766018E-1,1.0737059E0,5.1261453E4,-2.3637317E-2,-4.029745E-1,1.5E0,-9.407728E-1,4.14516E4,3.0856686E0,4.8337827E3,-4.5396543E3,-2.6743648E4,1.4758703E4,1.3848781E4,-2.8381271E4,-6.0009375E3,3.9861707E3,-7.5329985E3,1.7503426E4],"split_indices":[10,15,1,15,15,0,0,4,12,0,0,3,10,15,0,14,10,7,12,0,15,0,0,0,0,0,0,0,0,0,0],"split_type":[0,0,0,0,0,0,0,0,0,0,0,0,0,0,0,0,0,0,0,0,0,0,0,0,0,0,0,0,0,0,0],"sum_hessian":[2.8E2,2.78E2,2E0,2.75E2,3E0,1E0,1E0,2.58E2,1.7E1,2E0,1E0,2.1E2,4.8E1,1.6E1,1E0,1.59E2,5.1E1,1.7E1,3.1E1,1E0,1.5E1,5.6E1,1.03E2,7E0,4.4E1,4E0,1.3E1,1E1,2.1E1,1.1E1,4E0],"tree_param":{"num_deleted":"0","num_feature":"16","num_nodes":"31","size_leaf_vector":"0"}},{"base_weights":[1.5475913E3,-1.2864824E4,6.667645E3,-4.3364785E4,-6.8511035E3,4.163002E3,6.876334E4,-5.1152543E4,-2.9506667E3,3.3457188E4,-1.248709E4,2.6457225E4,-1.367442E3,-2.369975E4,8.535804E4,-6.1996707E4,-1.9387125E4,4.5715625E3,-8.9975625E3,-9.233073E2,4.5071234E4,-1.6911768E4,4.9261656E4,1.4194166E4,1.3327622E5,4.3531E4,-6.9316113E3,1.3238619E5,1.6990375E4,-2.3225312E4,-3.9362812E3,-8.198336E3,6.813375E3,5.547822E4,-3.4818438E3,-3.0106714E3,-3.1231725E4,6.0096957E4,8.377875E3,4.242356E4,-9.334111E3,-1.8455736E4,9.496596E4,-5.6645168E4,-3.2647855E2,-2.1264293E4,1.20085625E4,-4.597608E4,-6.946148E3,1.3259927E4,6.687346E4,1.4454072E4,-2.8379756E4,1.658955E4,-4.9809875E4,-5.6910125E4,1.4004875E5,-2.0247197E4,-1.6987678E5,2.0361088E5,-3.5104492E3],"categories":[],"categories_nodes":[],"categories_segments":[],"categories_sizes":[],"default_left":[1,1,1,1,1,1,1,1,1,1,1,1,1,0,1,0,1,0,0,1,1,1,1,1,0,1,1,0,0,0,0,0,0,0,0,1,1,0,0,1,1,1,1,1,1,0,0,0,0,0,0,0,0,0,0,0,0,0,0,0,0],"id":30,"left_children":[1,3,5,7,9,11,13,15,17,19,21,23,25,-1,27,-1,29,-1,-1,31,33,35,37,39,-1,41,43,-1,-1,-1,-1,-1,-1,-1,-1,45,47,-1,-1,49,51,53,55,57,59,-1,-1,-1,-1,-1,-1,-1,-1,-1,-1,-1,-1,-1,-1,-1,-1],"loss_changes":[2.0821424E10,1.3275854E10,3.2063468E10,3.6258918E9,1.4729931E10,2.4818868E10,1.4298137E10,2.2427546E9,1.7759133E8,3.2359885E9,1.6133325E10,5.0505355E10,4.077299E10,0E0,2.0257145E10,0E0,1.4579174E8,0E0,0E0,2.247121E8,3.224913E9,1.0456317E10,1.2684667E9,2.4970977E10,0E0,5.914181E10,4.759438E10,0E0,0E0,0E0,0E0,0E0,0E0,0E0,0E0,7.931705E9,8.990595E9,0E0,0E0,1.1235076E10,9.92449E9,1.0715656E10,7.644017E10,6.6624283E10,8.447841E10,0E0,0E0,0E0,0E0,0E0,0E0,0E0,0E0,0E0,0E0,0E0,0E0,0E0,0E0,0E0,0E0],"parents":[2147483647,0,0,1,1,2,2,3,3,4,4,5,5,6,6,7,7,8,8,9,9,10,10,11,11,12,12,14,14,16,16,19,19,20,20,21,21,22,22,23,23,25,25,26,26,35,35,36,36,39,39,40,40,41,41,42,42,43,43,44,44],"right_children":[2,4,6,8,10,12,14,16,18,20,22,24,26,-1,28,-1,30,-1,-1,32,34,36,38,40,-1,42,44,-1,-1,-1,-1,-1,-1,-1,-1,46,48,-1,-1,50,52,54,56,58,60,-1,-1,-1,-1,-1,-1,-1,-1,-1,-1,-1,-1,-1,-1,-1,-1],"split_conditions":[-7.057289E-1,-6.27787E-1,8.5E0,4.6288309E-1,-3.64879E-1,-2.3637317E-2,1.5E0,-5.4381084E-1,9.5E0,-1.0440456E0,5.5E0,-8.72435E-2,-1.2662779E0,-7.1099253E3,1.25E1,-1.8599014E4,4E0,1.3714688E3,-2.6992688E3,2.5E0,5.5E0,-2.2744378E-1,5.5E0,4E0,3.9982867E4,-1.5792637E0,-6.307821E-1,3.971586E4,5.097113E3,-6.967594E3,-1.1808844E3,-2.459501E3,2.0440126E3,1.6643467E4,-1.0445532E3,-6.824764E-1,2.7361187E-1,1.8029088E4,2.5133625E3,-6.816217E-1,2.5E0,-6.5799284E-1,1.55E1,5.5E0,1.5E0,-6.379288E3,3.6025688E3,-1.3792824E4,-2.0838445E3,3.9779783E3,2.006204E4,4.3362217E3,-8.513927E3,4.976865E3,-1.4942963E4,-1.707304E4,4.2014625E4,-6.074159E3,-5.0963035E4,6.1083266E4,-1.0531348E3],"split_indices":[14,12,3,10,12,14,7,11,3,14,1,14,12,0,4,0,1,0,0,1,1,15,3,3,0,12,11,0,0,0,0,0,0,0,0,10,12,0,0,10,7,11,6,4,7,0,0,0,0,0,0,0,0,0,0,0,0,0,0,0,0],"split_type":[0,0,0,0,0,0,0,0,0,0,0,0,0,0,0,0,0,0,0,0,0,0,0,0,0,0,0,0,0,0,0,0,0,0,0,0,0,0,0,0,0,0,0,0,0,0,0,0,0,0,0,0,0,0,0,0,0,0,0,0,0],"sum_hessian":[2.8E2,7.3E1,2.07E2,1.1E1,6.2E1,2E2,7E0,9E0,2E0,7E0,5.5E1,3.9E1,1.61E2,1E0,6E0,6E0,3E0,1E0,1E0,2E0,5E0,5.2E1,3E0,3.6E1,3E0,1.7E1,1.44E2,3E0,3E0,2E0,1E0,1E0,1E0,4E0,1E0,2.7E1,2.5E1,2E0,1E0,1.6E1,2E1,8E0,9E0,1.6E1,1.28E2,1.2E1,1.5E1,1.5E1,1E1,8E0,8E0,9E0,1.1E1,4E0,4E0,2E0,7E0,1.3E1,3E0,1E0,1.27E2],"tree_param":{"num_deleted":"0","num_feature":"16","num_nodes":"61","size_leaf_vector":"0"}},{"base_weights":[1.4552513E3,-2.9267206E2,3.4811555E4,-1.968816E3,2.6229646E4,1.7457795E4,7.38315E4,-8.0681396E2,-7.410174E4,1.2210041E5,1.1698235E4,4.4647812E3,3.9079375E4,3.0210984E4,-2.3608171E3,-9.538559E4,-5.1250938E3,-3.671298E4,2.197019E4,-6.7222085E3,2.53505E4,-1.1982285E4,1.1759309E5,-3.5814524E3,3.860616E4,3.6931773E4,-2.0926312E4,1.124475E4,-1.256455E4,3.47005E4,3.32525E3,2.411935E4,-4.568746E4,8.102875E3,2.2303188E5,-7.2017144E3,1.1292258E4,1.0340479E5,-7.994253E3,1.5743433E4,5.4971426E4,7.561875E3,-3.2943E4,-1.04425E3,-1.51835625E4],"categories":[],"categories_nodes":[],"categories_segments":[],"categories_sizes":[],"default_left":[1,1,1,1,1,1,0,1,1,0,1,1,0,1,1,0,0,0,1,1,1,1,1,1,1,1,1,0,1,0,0,0,0,0,0,0,0,0,0,0,0,0,0,0,0],"id":31,"left_children":[1,3,5,7,9,11,-1,13,15,-1,17,19,-1,21,23,-1,-1,-1,25,27,29,31,33,35,37,39,41,-1,43,-1,-1,-1,-1,-1,-1,-1,-1,-1,-1,-1,-1,-1,-1,-1,-1],"loss_changes":[1.6393686E10,1.1965642E10,8.191063E9,2.1146325E10,2.086184E10,2.9157435E9,0E0,1.2121762E10,5.3834936E9,0E0,8.2657577E9,2.0395978E9,0E0,4.565228E10,1.2089636E10,0E0,0E0,0E0,9.11624E9,7.7109984E8,5.0242035E8,1.2053259E10,4.437086E10,1.2627611E10,2.1964145E10,2.9568625E9,1.6184454E9,0E0,1.3500365E8,0E0,0E0,0E0,0E0,0E0,0E0,0E0,0E0,0E0,0E0,0E0,0E0,0E0,0E0,0E0,0E0],"parents":[2147483647,0,0,1,1,2,2,3,3,4,4,5,5,7,7,8,8,10,10,11,11,13,13,14,14,18,18,19,19,20,20,21,21,22,22,23,23,24,24,25,25,26,26,28,28],"right_children":[2,4,6,8,10,12,-1,14,16,-1,18,20,-1,22,24,-1,-1,-1,26,28,30,32,34,36,38,40,42,-1,44,-1,-1,-1,-1,-1,-1,-1,-1,-1,-1,-1,-1,-1,-1,-1,-1],"split_conditions":[2.6464767E0,1.4968146E0,1.1595011E0,1.0319868E0,1.15E1,1.09221995E-1,2.2149451E4,-1.416511E0,2.5E0,3.6630125E4,-5.7013345E-1,3.2717586E0,1.17238125E4,-1.5542247E0,7.3997915E-1,-2.861568E4,-1.5375282E3,-1.1013895E4,1.387841E0,-4.9851662E-1,4E0,-2.3053904E0,2.5E0,8.9958334E-1,7.876966E-1,1.5911415E-1,2.5E0,3.373425E3,2.7990215E0,1.041015E4,9.97575E2,7.235805E3,-1.3706239E4,2.4308625E3,6.690956E4,-2.1605144E3,3.3876775E3,3.1021438E4,-2.398276E3,4.72303E3,1.6491428E4,2.2685625E3,-9.8829E3,-3.1327502E2,-4.555069E3],"split_indices":[14,11,10,11,6,15,0,12,3,0,15,14,0,12,11,0,0,0,12,15,1,12,1,12,11,14,4,0,14,0,0,0,0,0,0,0,0,0,0,0,0,0,0,0,0],"split_type":[0,0,0,0,0,0,0,0,0,0,0,0,0,0,0,0,0,0,0,0,0,0,0,0,0,0,0,0,0,0,0,0,0,0,0,0,0,0,0,0,0,0,0,0,0],"sum_hessian":[2.8E2,2.67E2,1.3E1,2.52E2,1.5E1,1E1,3E0,2.49E2,3E0,1E0,1.4E1,7E0,3E0,1.1E1,2.38E2,2E0,1E0,2E0,1.2E1,5E0,2E0,8E0,3E0,2.32E2,6E0,9E0,3E0,1E0,4E0,1E0,1E0,4E0,4E0,2E0,1E0,1.87E2,4.5E1,2E0,4E0,5E0,4E0,1E0,2E0,1E0,3E0],"tree_param":{"num_deleted":"0","num_feature":"16","num_nodes":"45","size_leaf_vector":"0"}},{"base_weights":[1.5367113E3,2.9299791E4,-2.8767849E1,3.4079895E3,9.965025E4,-1.3091311E4,3.1160515E3,-1.2759112E4,5.6162332E4,6.48225E3,1.8957712E5,4.923775E4,-1.6569229E4,1.154925E3,6.1504695E4,8.1242915E3,-3.5267375E4,-1.285E4,2.2573375E4,-2.7463785E4,-2.16564E2,1.6003987E4,-5.914244E3,2.3730979E4,1.440735E5,2.6830375E4,-7.9363438E3,-1.0270916E5,7.2703594E3,-2.463089E3,-3.806108E4,-9.442807E3,3.1195975E4,1.3482679E4,9.246584E4,-1.3514272E4,1.2074526E4,3.880575E3,6.14915E4,3.2517375E4,7.7281875E3,-1.2466125E4,2.8265E3,2.0336E4,-3.8635208E3,-4.3630062E4,6.9588037E3,-1.6104542E4,-5.0333984E4,-1.8226088E4,2.3659375E4,4.784523E4,4.1480625E3,-1.0266386E4,1.9390164E4,2.5259184E4,-1.9529205E4,5.5104258E4,2.17696E3,-1.5004417E4,2.1472041E4],"categories":[],"categories_nodes":[],"categories_segments":[],"categories_sizes":[],"default_left":[1,1,1,1,1,1,1,1,0,1,0,0,1,1,1,1,1,0,0,1,1,1,1,1,0,1,1,0,1,1,1,1,1,1,0,1,1,1,0,0,0,0,0,0,0,0,0,0,0,0,0,0,0,0,0,0,0,0,0,0,0],"id":32,"left_children":[1,3,5,7,9,11,13,15,-1,17,-1,-1,19,21,23,25,27,-1,-1,29,31,33,35,37,-1,39,41,-1,43,45,47,49,51,53,-1,55,57,59,-1,-1,-1,-1,-1,-1,-1,-1,-1,-1,-1,-1,-1,-1,-1,-1,-1,-1,-1,-1,-1,-1,-1],"loss_changes":[1.2213811E10,2.6982898E10,1.1008976E10,1.0951201E10,3.2284344E10,1.2088149E10,2.466259E10,4.987014E9,0E0,1.2233007E9,0E0,0E0,8.901804E9,2.2138462E10,1.8413515E10,2.0155245E9,1.5090838E10,0E0,0E0,7.8544445E9,6.380792E9,1.1862624E10,1.9713448E10,4.258747E9,0E0,7.460198E7,2.3024883E8,0E0,6.604536E8,4.1823212E9,4.8482755E9,5.373895E9,2.0531722E9,9.598983E9,0E0,2.4048484E10,1.8193293E10,1.983249E9,0E0,0E0,0E0,0E0,0E0,0E0,0E0,0E0,0E0,0E0,0E0,0E0,0E0,0E0,0E0,0E0,0E0,0E0,0E0,0E0,0E0,0E0,0E0],"parents":[2147483647,0,0,1,1,2,2,3,3,4,4,5,5,6,6,7,7,9,9,12,12,13,13,14,14,15,15,16,16,19,19,20,20,21,21,22,22,23,23,25,25,26,26,28,28,29,29,30,30,31,31,32,32,33,33,35,35,36,36,37,37],"right_children":[2,4,6,8,10,12,14,16,-1,18,-1,-1,20,22,24,26,28,-1,-1,30,32,34,36,38,-1,40,42,-1,44,46,48,50,52,54,-1,56,58,60,-1,-1,-1,-1,-1,-1,-1,-1,-1,-1,-1,-1,-1,-1,-1,-1,-1,-1,-1,-1,-1,-1,-1],"split_conditions":[-1.416511E0,-1.5542247E0,-5.9289014E-1,7E0,2.5E0,4.5E0,1.650749E0,-6.5799284E-1,1.6848701E4,1.55E1,5.687314E4,1.4771325E4,2.5E0,-3.9426547E-2,-3.422934E-1,4E0,-6.5677947E-1,-3.8550002E3,6.7720127E3,-1.8155617E-3,5.0591966E-3,1.0470574E0,2.9321605E-1,2.393848E-2,4.322205E4,1.5E0,8.5E0,-3.0812748E4,-6.4406896E-1,-8.0305904E-1,1.5E0,1.1875303E0,3.862867E-1,-8.7413204E-1,2.7739754E4,-8.781756E-1,4.3467647E-1,7.5E0,1.8447451E4,9.755213E3,2.3184563E3,-3.7398376E3,8.4795E2,6.1008003E3,-1.1590563E3,-1.308902E4,2.087641E3,-4.831363E3,-1.5100196E4,-5.4678267E3,7.097813E3,1.4353569E4,1.2444188E3,-3.0799158E3,5.8170493E3,7.5777554E3,-5.8587617E3,1.6531277E4,6.53088E2,-4.501325E3,6.441613E3],"split_indices":[12,12,15,3,1,6,12,11,0,6,0,0,3,15,11,1,11,0,0,12,14,13,10,14,0,3,4,0,11,12,3,12,12,14,0,12,10,4,0,0,0,0,0,0,0,0,0,0,0,0,0,0,0,0,0,0,0,0,0,0,0],"split_type":[0,0,0,0,0,0,0,0,0,0,0,0,0,0,0,0,0,0,0,0,0,0,0,0,0,0,0,0,0,0,0,0,0,0,0,0,0,0,0,0,0,0,0,0,0,0,0,0,0,0,0,0,0,0,0,0,0,0,0,0,0],"sum_hessian":[2.8E2,1.4E1,2.66E2,1.1E1,3E0,5.1E1,2.15E2,9E0,2E0,2E0,1E0,2E0,4.9E1,2.09E2,6E0,5E0,4E0,1E0,1E0,2.9E1,2E1,6.7E1,1.42E2,5E0,1E0,2E0,3E0,1E0,3E0,9E0,2E1,1.6E1,4E0,6.6E1,1E0,1E2,4.2E1,4E0,1E0,1E0,1E0,2E0,1E0,1E0,2E0,1E0,8E0,8E0,1.2E1,1.3E1,3E0,2E0,2E0,1.3E1,5.3E1,1.3E1,8.7E1,7E0,3.5E1,2E0,2E0],"tree_param":{"num_deleted":"0","num_feature":"16","num_nodes":"61","size_leaf_vector":"0"}},{"base_weights":[1.6949434E3,9.732863E2,5.1426375E4,-2.0902639E4,2.2125498E3,-1.0657357E4,-5.8331312E4,7.8587445E2,4.776793E4,-1.3848199E4,1.3816375E4,4.7883804E3,-8.990719E3,1.9602635E4,1.224625E5,-2.2846422E4,-6.493285E3,-8.730278E4,5.7740615E3,-1.7846844E4,2.762357E4,5.4471562E3,5.226775E4,-4.6499062E3,-2.6233074E4,-1.0841406E3,-1.51471455E4,9.249756E4,3.8038489E3,-7.8671387E3,-5.07882E4,6.680597E4,1.2260808E4,1.7173375E4,-1.20035205E4],"categories":[],"categories_nodes":[],"categories_segments":[],"categories_sizes":[],"default_left":[1,1,0,1,1,1,0,1,1,1,0,1,1,1,0,1,1,0,1,1,1,1,0,0,0,0,0,0,0,0,0,0,0,0,0],"id":33,"left_children":[1,3,-1,5,7,9,-1,11,13,15,-1,17,19,21,-1,23,25,-1,27,29,31,33,-1,-1,-1,-1,-1,-1,-1,-1,-1,-1,-1,-1,-1],"loss_changes":[1.0034767E10,7.5828383E9,0E0,5.130352E9,1.7120544E10,1.2065253E9,0E0,1.0099685E10,1.442977E10,6.4582554E8,0E0,1.711546E10,2.4812548E10,2.9520212E9,0E0,1.8614528E8,3.5805824E8,0E0,3.0745352E10,1.9653888E10,8.2101545E9,1.4339237E9,0E0,0E0,0E0,0E0,0E0,0E0,0E0,0E0,0E0,0E0,0E0,0E0,0E0],"parents":[2147483647,0,0,1,1,3,3,4,4,5,5,7,7,8,8,9,9,11,11,12,12,13,13,15,15,16,16,18,18,19,19,20,20,21,21],"right_children":[2,4,-1,6,8,10,-1,12,14,16,-1,18,20,22,-1,24,26,-1,28,30,32,34,-1,-1,-1,-1,-1,-1,-1,-1,-1,-1,-1,-1,-1],"split_conditions":[4.566946E0,-9.064199E-1,1.5427913E4,-9.2180526E-1,1.650749E0,-9.303527E-1,-1.7499395E4,4.5E0,-3.422934E-1,-1.084207E0,4.1449126E3,-2.117599E0,-1.2906657E-1,3.8870122E-2,3.673875E4,-1.134637E0,1.5E0,-2.6190836E4,-1.416511E0,-5.257006E-1,-1.3881692E-2,1.5E1,1.5680325E4,-1.3949719E3,-7.8699224E3,-3.252422E2,-4.544144E3,2.774927E4,1.1411547E3,-2.3601416E3,-1.523646E4,2.0041791E4,3.6782424E3,5.1520127E3,-3.6010564E3],"split_indices":[10,10,0,10,12,10,0,4,11,10,0,12,11,14,0,10,3,0,12,11,10,6,0,0,0,0,0,0,0,0,0,0,0,0,0],"split_type":[0,0,0,0,0,0,0,0,0,0,0,0,0,0,0,0,0,0,0,0,0,0,0,0,0,0,0,0,0,0,0,0,0,0,0],"sum_hessian":[2.8E2,2.77E2,3E0,1.4E1,2.63E2,1.2E1,2E0,2.56E2,7E0,1.1E1,1E0,1.82E2,7.4E1,6E0,1E0,4E0,7E0,1E0,1.81E2,6E1,1.4E1,5E0,1E0,1E0,3E0,5E0,2E0,3E0,1.78E2,4.7E1,1.3E1,3E0,1.1E1,3E0,2E0],"tree_param":{"num_deleted":"0","num_feature":"16","num_nodes":"35","size_leaf_vector":"0"}},{"base_weights":[1.3670092E3,-1.05247574E2,2.2884164E4,2.2020084E4,-1.7171937E3,-1.028525E4,2.544032E4,2.3437427E3,1.7825894E5,8.7429517E2,-5.739589E4,1.9663262E4,4.58455E4,-9.195184E4,1.3984207E4,-8.0632715E2,4.3539652E4,-1.29796625E5,-1.4021039E4,2.0555996E4,3.5825E3,4.031046E3,8.164081E4,1.2175475E3,-3.1974229E4,3.5681458E3,9.2612E4,-3.1617553E4,2.5845666E4,2.2521154E4,1.00128125E4,1.3236281E4,-2.4592422E4,-1.1921993E3,4.2282594E4,-5.7632723E4,1.1842552E4,1.7181938E4,-1.5772958E4,2.6687E4,1.05691336E5,-7.0542085E3,-4.213567E4],"categories":[],"categories_nodes":[],"categories_segments":[],"categories_sizes":[],"default_left":[1,1,1,1,1,0,1,1,0,1,1,1,0,0,1,1,1,0,1,1,0,1,0,1,1,1,1,1,0,0,0,0,0,0,0,0,0,0,0,0,0,0,0],"id":34,"left_children":[1,3,5,7,9,-1,11,13,-1,15,17,19,-1,-1,21,23,25,-1,27,29,-1,31,-1,33,35,37,39,41,-1,-1,-1,-1,-1,-1,-1,-1,-1,-1,-1,-1,-1,-1,-1],"loss_changes":[8.904145E9,9.453331E9,1.7878129E9,5.4917968E10,3.5689992E10,0E0,1.1025193E9,1.9945828E10,0E0,1.7029039E10,3.2724197E10,1.4169549E8,0E0,0E0,1.0445255E10,1.4484232E10,1.7323006E10,0E0,6.4292977E9,6.456627E7,0E0,4.2777987E9,0E0,2.1424986E10,1.6422337E10,1.8508445E9,6.2843494E8,1.2529265E9,0E0,0E0,0E0,0E0,0E0,0E0,0E0,0E0,0E0,0E0,0E0,0E0,0E0,0E0,0E0],"parents":[2147483647,0,0,1,1,2,2,3,3,4,4,6,6,7,7,9,9,10,10,11,11,14,14,15,15,16,16,18,18,19,19,21,21,23,23,24,24,25,25,26,26,27,27],"right_children":[2,4,6,8,10,-1,12,14,-1,16,18,20,-1,-1,22,24,26,-1,28,30,-1,32,-1,34,36,38,40,42,-1,-1,-1,-1,-1,-1,-1,-1,-1,-1,-1,-1,-1,-1,-1],"split_conditions":[8.5E0,1.5E0,2.5E0,7.5E0,7.5E0,-3.0855752E3,5.5118675E0,1.6E1,5.3477684E4,6.5E0,9.253417E-2,2.5754907E0,1.375365E4,-2.7585555E4,-1.980819E-1,6.5E0,-4.399956E-1,-3.893899E4,1.1595011E0,1.05E1,1.07475E3,9.3128383E-1,2.4492244E4,5.5E0,8.5E0,5.5E0,5.5E0,-6.165245E-1,7.7537E3,6.7563467E3,3.0038438E3,3.9708845E3,-7.377727E3,-3.5765982E2,1.2684778E4,-1.7289818E4,3.5527656E3,5.1545815E3,-4.7318877E3,8.0061E3,3.1707402E4,-2.1162627E3,-1.2640702E4],"split_indices":[4,7,1,4,4,0,10,6,0,4,10,14,0,0,14,3,12,0,10,3,0,10,0,3,3,1,3,11,0,0,0,0,0,0,0,0,0,0,0,0,0,0,0],"split_type":[0,0,0,0,0,0,0,0,0,0,0,0,0,0,0,0,0,0,0,0,0,0,0,0,0,0,0,0,0,0,0,0,0,0,0,0,0,0,0,0,0,0,0],"sum_hessian":[2.8E2,2.63E2,1.7E1,1.7E1,2.46E2,1E0,1.6E1,1.6E1,1E0,2.36E2,1E1,1.4E1,2E0,1E0,1.5E1,2.28E2,8E0,3E0,7E0,1.3E1,1E0,1.4E1,1E0,2.15E2,1.3E1,5E0,3E0,5E0,2E0,1E1,3E0,1.1E1,3E0,2.04E2,1.1E1,8E0,5E0,3E0,2E0,1E0,2E0,2E0,3E0],"tree_param":{"num_deleted":"0","num_feature":"16","num_nodes":"43","size_leaf_vector":"0"}},{"base_weights":[1.1749353E3,2.447416E3,-1.8729908E4,1.2823766E4,-2.1089714E3,1.405765E4,-5.7373117E4,3.8275974E3,6.4232766E4,-1.5530128E4,2.574539E3,-2.3848234E4,3.3709918E4,-2.3139012E4,-8.582247E4,-6.903069E3,2.0170135E4,-1.14118545E4,1.198949E5,-3.6803005E3,-8.44105E4,-1.7553351E3,3.1537885E4,-3.994375E3,-2.9134729E4,5.2312414E4,-8.530875E3,-3.5684375E3,-2.7139547E4,-1.0215271E5,-1.8415875E4,1.3614861E4,-2.9046371E4,-7.3648994E3,4.4524824E4,7.3833125E3,-3.2668125E4,-4.745128E4,1.5569448E5,5.5295203E4,-1.7055264E4,-1.35533545E4,-1.1004269E5,6.6019126E3,-1.8843809E4,1.4196108E5,8.862418E3,2.628839E4,7.820425E4,8.296506E2,1.4744475E5,-6.5167953E4,-1.804786E3,-3.8328426E4,9.8972394E2,5.995017E4,-1.2882422E4,-5.0925E2,1.0183917E4,1.8439538E5,6.095E3,-4.0265812E4,7.469904E4,-3.6844055E4,8.746676E3,-3.7735625E3,-1.6556469E4,1.5840617E4,-5.6431157E3,-7.7111695E4,-1.0227608E4,-2.2955688E4,6.571854E4],"categories":[],"categories_nodes":[],"categories_segments":[],"categories_sizes":[],"default_left":[1,1,1,1,1,1,1,1,1,1,1,1,1,1,1,1,1,1,1,1,1,1,1,0,0,1,0,0,0,0,0,1,1,1,1,1,0,0,1,1,1,1,0,1,1,0,1,0,0,0,0,0,0,0,0,0,0,0,0,0,0,0,0,0,0,0,0,0,0,0,0,0,0],"id":35,"left_children":[1,3,5,7,9,11,13,15,17,19,21,23,25,27,29,31,33,35,37,39,41,43,45,-1,-1,47,-1,-1,-1,-1,-1,49,51,53,55,57,-1,-1,59,61,63,65,-1,67,69,-1,71,-1,-1,-1,-1,-1,-1,-1,-1,-1,-1,-1,-1,-1,-1,-1,-1,-1,-1,-1,-1,-1,-1,-1,-1,-1,-1],"loss_changes":[7.163157E9,1.2555892E10,2.234581E10,3.7215347E10,1.1668736E10,8.253289E9,5.805658E9,1.2414879E10,5.1894727E10,3.886793E10,1.7361617E10,3.034542E8,5.946759E9,2.946181E8,2.5218335E9,1.9931857E10,1.9104924E10,2.63829E9,4.9324343E10,3.4072474E10,1.1222114E10,1.7404731E10,4.3812037E10,0E0,0E0,1.3131837E9,0E0,0E0,0E0,0E0,0E0,3.923167E10,2.0546578E10,3.6595748E9,1.4055205E10,9.360192E7,0E0,0E0,2.4637964E10,1.784182E10,1.8192884E10,2.563264E7,0E0,9.365902E9,1.9293243E10,0E0,3.045348E10,0E0,0E0,0E0,0E0,0E0,0E0,0E0,0E0,0E0,0E0,0E0,0E0,0E0,0E0,0E0,0E0,0E0,0E0,0E0,0E0,0E0,0E0,0E0,0E0,0E0,0E0],"parents":[2147483647,0,0,1,1,2,2,3,3,4,4,5,5,6,6,7,7,8,8,9,9,10,10,11,11,12,12,13,13,14,14,15,15,16,16,17,17,18,18,19,19,20,20,21,21,22,22,25,25,31,31,32,32,33,33,34,34,35,35,38,38,39,39,40,40,41,41,43,43,44,44,46,46],"right_children":[2,4,6,8,10,12,14,16,18,20,22,24,26,28,30,32,34,36,38,40,42,44,46,-1,-1,48,-1,-1,-1,-1,-1,50,52,54,56,58,-1,-1,60,62,64,66,-1,68,70,-1,72,-1,-1,-1,-1,-1,-1,-1,-1,-1,-1,-1,-1,-1,-1,-1,-1,-1,-1,-1,-1,-1,-1,-1,-1,-1,-1],"split_conditions":[-1.2829557E-1,-5.895261E-1,2.5E0,-6.251701E-1,-3.1790382E-1,-3.994579E-1,4E0,4E0,-1.89775E-1,-3.7739134E-1,9.873641E-1,-3.8826036E-1,2.6015267E-1,2E0,2.7573485E-2,-6.4230955E-1,-6.7868155E-1,1.5E0,-4.13574E-1,1.5E0,1.5E0,-1.3881692E-2,1.0737059E0,-1.1983125E3,-8.740419E3,5.2400047E-1,-2.5592627E3,-1.0705312E3,-8.1418643E3,-3.0645814E4,-5.5247627E3,-6.444937E-1,-6.307821E-1,1.5E0,4.3636447E-1,5.5E0,-9.8004375E3,-1.4235385E4,7.002585E-1,1.5E0,2.9321605E-1,1.5E0,-3.301281E4,-3.1914005E-1,8.5E0,4.2588324E4,5.5E0,7.8865176E3,2.3461275E4,2.4889519E2,4.4233426E4,-1.9550387E4,-5.4143585E2,-1.1498528E4,2.969172E2,1.7985053E4,-3.8647268E3,-1.5277501E2,3.0551753E3,5.5318613E4,1.8285001E3,-1.2079744E4,2.2409713E4,-1.1053217E4,2.624003E3,-1.1320688E3,-4.966941E3,4.7521855E3,-1.6929348E3,-2.313351E4,-3.0682827E3,-6.8867065E3,1.9715562E4],"split_indices":[13,11,1,11,11,15,4,1,14,11,15,10,15,4,10,11,11,5,15,4,4,10,15,0,0,12,0,0,0,0,0,11,11,4,12,3,0,0,10,3,10,3,0,15,6,0,3,0,0,0,0,0,0,0,0,0,0,0,0,0,0,0,0,0,0,0,0,0,0,0,0,0,0],"split_type":[0,0,0,0,0,0,0,0,0,0,0,0,0,0,0,0,0,0,0,0,0,0,0,0,0,0,0,0,0,0,0,0,0,0,0,0,0,0,0,0,0,0,0,0,0,0,0,0,0,0,0,0,0,0,0,0,0,0,0,0,0,0,0,0,0,0,0,0,0,0,0,0,0],"sum_hessian":[2.8E2,2.64E2,1.6E1,8E1,1.84E2,9E0,7E0,6.9E1,1.1E1,4.7E1,1.37E2,3E0,6E0,4E0,3E0,4.2E1,2.7E1,5E0,6E0,4.1E1,6E0,1.2E2,1.7E1,1E0,2E0,4E0,2E0,1E0,3E0,2E0,1E0,2.2E1,2E1,1.3E1,1.4E1,3E0,2E0,1E0,5E0,7E0,3.4E1,2E0,4E0,8.1E1,3.9E1,2E0,1.5E1,3E0,1E0,2.1E1,1E0,8E0,1.2E1,2E0,1.1E1,1.1E1,3E0,1E0,2E0,4E0,1E0,1E0,6E0,1.9E1,1.5E1,1E0,1E0,4.6E1,3.5E1,4E0,3.5E1,1E1,5E0],"tree_param":{"num_deleted":"0","num_feature":"16","num_nodes":"73","size_leaf_vector":"0"}},{"base_weights":[9.358087E2,-1.0355626E4,3.2480012E3,2.4649824E3,-2.129864E4,2.1867053E3,3.735193E4,-5.597492E3,4.216111E4,2.4484969E4,-2.4109383E4,1.0648333E4,-1.1086332E3,6.0296594E4,5.0692812E3,7.463768E3,-3.0920371E4,1.1385719E4,-2.7690945E4,7.6326196E3,6.9423625E4,-4.8665656E4,9.9204474E2,8.1117336E4,-1.0828125E3,-9.5168125E3,1.3103583E4,4.4723438E2,3.304198E4,1.6843541E3,-4.4299133E4,3.4062344E3,1.3672344E4,-9.082554E3,-3.3724344E4,-3.3067336E3,2.2906598E4,1.1854019E5,-1.440475E4,-6.579048E4,2.7041625E4,3.662984E4,-1.6455916E3,1.35834375E4,-3.53835E3,9.787969E3,3.9775E4,-3.3952188E3,5.92175E3,-2.0878824E4,1.3605417E4,-2.3422467E4,-5.3764363E4,1.1991195E4,-1.5533308E4,1.0074511E5,8.373527E3,-7.1267188E3,-7.609788E4,1.2532806E5,1.5227213E4,5.235333E4,-3.113743E3],"categories":[],"categories_nodes":[],"categories_segments":[],"categories_sizes":[],"default_left":[1,1,1,1,1,1,1,1,0,0,1,1,1,1,1,1,1,1,1,1,1,1,1,0,0,0,0,1,1,1,0,0,0,1,1,1,1,0,0,1,0,1,1,0,0,0,0,0,0,0,0,0,0,0,0,0,0,0,0,0,0,0,0],"id":36,"left_children":[1,3,5,7,9,11,13,15,-1,-1,17,19,21,23,25,27,29,31,33,35,37,39,41,-1,-1,-1,-1,43,45,47,-1,-1,-1,49,51,53,55,-1,-1,57,-1,59,61,-1,-1,-1,-1,-1,-1,-1,-1,-1,-1,-1,-1,-1,-1,-1,-1,-1,-1,-1,-1],"loss_changes":[7.3699753E9,6.7867136E9,8.3878026E9,7.5971236E9,3.9361526E9,6.3693404E9,4.8793416E9,6.845757E9,0E0,0E0,3.4934784E9,1.081408E10,1.6532107E10,5.199694E9,5.934607E8,2.497808E9,3.1280911E9,8.16704E6,2.2759506E9,1.0435168E10,1.4059628E10,1.0854396E10,1.5006205E10,0E0,0E0,0E0,0E0,6.763284E8,8.03927E7,8.467812E7,0E0,0E0,0E0,2.1574991E9,2.2503547E9,7.1067894E9,2.8568457E10,0E0,0E0,3.085699E9,0E0,1.8973729E10,1.1975523E10,0E0,0E0,0E0,0E0,0E0,0E0,0E0,0E0,0E0,0E0,0E0,0E0,0E0,0E0,0E0,0E0,0E0,0E0,0E0,0E0],"parents":[2147483647,0,0,1,1,2,2,3,3,4,4,5,5,6,6,7,7,10,10,11,11,12,12,13,13,14,14,15,15,16,16,17,17,18,18,19,19,20,20,21,21,22,22,27,27,28,28,29,29,33,33,34,34,35,35,36,36,39,39,41,41,42,42],"right_children":[2,4,6,8,10,12,14,16,-1,-1,18,20,22,24,26,28,30,32,34,36,38,40,42,-1,-1,-1,-1,44,46,48,-1,-1,-1,50,52,54,56,-1,-1,58,-1,60,62,-1,-1,-1,-1,-1,-1,-1,-1,-1,-1,-1,-1,-1,-1,-1,-1,-1,-1,-1,-1],"split_conditions":[-6.323798E-1,-1.8697667E-1,1.650749E0,-2.4904269E-1,-2.77243E-1,-2.1974666E-1,1.6757879E0,-6.288407E-1,1.2648333E4,7.3454907E3,-1.054618E0,4E0,-1.9933254E-1,2.5E0,2.5E0,-6.305394E-1,-8.485687E-1,3.5E0,1.5E0,-4.248919E-1,-3.5040763E-1,2.9757314E0,-1.416511E0,2.4335201E4,-3.2484375E2,-2.855044E3,3.931075E3,-9.469581E-1,3.5E0,-7.833364E-1,-1.328974E4,1.02187036E3,4.101703E3,3.8793796E-1,2.5E0,-5.3030914E-1,1.35E1,3.556206E4,-4.3214253E3,-9.692837E-1,8.112488E3,4.5E0,-1.3842481E-1,4.0750315E3,-1.0615051E3,2.9363906E3,1.19325E4,-1.0185657E3,1.776525E3,-6.2636475E3,4.0816252E3,-7.02674E3,-1.612931E4,3.5973586E3,-4.6599927E3,3.0223533E4,2.5120583E3,-2.1380156E3,-2.2829365E4,3.759842E4,4.568164E3,1.5705999E4,-9.341229E2],"split_indices":[15,11,12,11,12,15,12,11,0,0,14,3,15,1,1,11,15,3,3,15,10,14,12,0,0,0,0,15,3,10,0,0,0,11,7,15,6,0,0,14,0,4,15,0,0,0,0,0,0,0,0,0,0,0,0,0,0,0,0,0,0,0,0],"split_type":[0,0,0,0,0,0,0,0,0,0,0,0,0,0,0,0,0,0,0,0,0,0,0,0,0,0,0,0,0,0,0,0,0,0,0,0,0,0,0,0,0,0,0,0,0,0,0,0,0,0,0,0,0,0,0,0,0,0,0,0,0,0,0],"sum_hessian":[2.8E2,4.7E1,2.33E2,2.2E1,2.5E1,2.27E2,6E0,1.9E1,3E0,1E0,2.4E1,6.3E1,1.64E2,3E0,3E0,1.3E1,6E0,2E0,2.2E1,6.1E1,2E0,6E0,1.58E2,2E0,1E0,1E0,2E0,1.1E1,2E0,2E0,4E0,1E0,1E0,6E0,1.6E1,3.6E1,2.5E1,1E0,1E0,5E0,1E0,1E1,1.48E2,2E0,9E0,1E0,1E0,1E0,1E0,4E0,2E0,1.2E1,4E0,1.6E1,2E1,3E0,2.2E1,1E0,4E0,1E0,9E0,3E0,1.45E2],"tree_param":{"num_deleted":"0","num_feature":"16","num_nodes":"63","size_leaf_vector":"0"}},{"base_weights":[1.1291278E3,1.7922951E4,-1.5715309E2,-5.7429263E3,6.2694285E4,-2.4941624E3,8.105676E3,-6.791681E4,4.2640503E3,1.2937679E5,1.0145925E4,-7.617318E2,-2.8022236E4,2.9335756E4,-4.7366875E3,-1.26191875E4,1.059094E4,-8.928875E3,1.7146844E4,-3.9151917E3,1.3099612E4,1.488993E3,-7.5538E4,8.0810156E3,7.3727195E4,-1.5929122E4,1.4788679E4,-2.0901188E4,-2.8914583E3,2.199262E4,-5.2092627E3,-1.6894379E3,-2.861095E4,-5.6528105E3,2.676338E4,-3.6406395E4,1.751716E4,-1.0293325E5,-2.2963416E4,-5.0521155E2,3.3966E4,3.43705E4,9.465209E4,2.26892E4,-2.4787246E4,-1.0131833E4,1.9786416E4,5.2166094E3,2.43045E4,-1.07135625E4,2.0314584E3,3.2817542E3,-1.6970352E4,-6.429692E4,-1.1475466E4,5.583148E3,-2.5309932E4,8.743099E3,5.4953453E4,-4.7394875E4,-7.2147188E3,3.712965E4,-2.1009375E4,7.577653E3,-1.4953325E4,3.4690832E4,3.1245E3,-1.9428203E3,-3.6938645E4,-4.1820625E3,2.8240584E4],"categories":[],"categories_nodes":[],"categories_segments":[],"categories_sizes":[],"default_left":[1,1,1,1,1,1,1,0,1,0,1,1,1,1,1,1,1,0,0,1,1,1,1,1,1,1,1,0,0,1,1,1,1,1,1,1,1,0,0,1,0,0,0,1,1,0,1,0,0,0,0,0,0,0,0,0,0,0,0,0,0,0,0,0,0,0,0,0,0,0,0],"id":37,"left_children":[1,3,5,7,9,11,13,-1,15,-1,17,19,21,23,25,27,29,-1,-1,31,33,35,37,39,41,43,45,-1,-1,47,49,51,53,55,57,59,61,-1,-1,63,-1,-1,-1,65,67,-1,69,-1,-1,-1,-1,-1,-1,-1,-1,-1,-1,-1,-1,-1,-1,-1,-1,-1,-1,-1,-1,-1,-1,-1,-1],"loss_changes":[6.0728596E9,2.1551106E10,5.079517E9,9.000018E9,2.321575E10,9.044906E9,1.5952332E10,0E0,1.5222881E9,0E0,8.208076E8,8.487547E9,1.8341708E10,2.0161837E10,8.3214167E9,2.6182534E8,1.9160536E9,0E0,0E0,8.636398E9,9.375523E9,6.10428E9,4.8377713E9,3.57323E9,2.5115034E9,8.772465E9,1.9441196E9,0E0,0E0,1.0591795E8,2.2103968E8,1.1146488E10,7.211616E9,3.6751747E9,1.0187391E10,6.2037606E8,6.06928E9,0E0,0E0,1.6314788E9,0E0,0E0,0E0,1.0656504E9,5.480068E9,0E0,2.5497062E9,0E0,0E0,0E0,0E0,0E0,0E0,0E0,0E0,0E0,0E0,0E0,0E0,0E0,0E0,0E0,0E0,0E0,0E0,0E0,0E0,0E0,0E0,0E0,0E0],"parents":[2147483647,0,0,1,1,2,2,3,3,4,4,5,5,6,6,8,8,10,10,11,11,12,12,13,13,14,14,15,15,16,16,19,19,20,20,21,21,22,22,23,23,24,24,25,25,26,26,29,29,30,30,31,31,32,32,33,33,34,34,35,35,36,36,39,39,43,43,44,44,46,46],"right_children":[2,4,6,8,10,12,14,-1,16,-1,18,20,22,24,26,28,30,-1,-1,32,34,36,38,40,42,44,46,-1,-1,48,50,52,54,56,58,60,62,-1,-1,64,-1,-1,-1,66,68,-1,70,-1,-1,-1,-1,-1,-1,-1,-1,-1,-1,-1,-1,-1,-1,-1,-1,-1,-1,-1,-1,-1,-1,-1,-1],"split_conditions":[1.5E0,7.5E0,2.3143882E-1,1.6E1,3.868518E-2,4.868735E-2,7.691208E-1,-2.0375045E4,-1.5783313E-1,3.881304E4,5.5E0,4.7392273E-1,5.2999474E-2,-3.6792994E-1,2.6464767E0,4E0,-7.6689774E-1,-2.6786626E3,5.144053E3,-1.2829557E-1,-4.1347754E-1,-8.388949E-1,4E0,9.678883E-1,-2.0569354E-1,-5.538821E-1,1.5E0,-6.2703564E3,-8.674375E2,-8.1325257E-1,4E0,9.833987E-2,-6.5899396E-1,-8.220252E-1,-4.098323E-1,-8.850512E-1,-4.847957E-1,-3.0879977E4,-6.889025E3,1.7110123E-1,1.0189801E4,1.031115E4,2.8395629E4,5.5E0,-6.696552E-1,-3.03955E3,-6.2996304E-1,1.5649829E3,7.29135E3,-3.2140688E3,6.0943756E2,9.845263E2,-5.0911055E3,-1.9289078E4,-3.44264E3,1.6749445E3,-7.59298E3,2.6229297E3,1.6486037E4,-1.4218463E4,-2.1644158E3,1.1138895E4,-6.302813E3,2.273296E3,-4.4859976E3,1.040725E4,9.3735004E2,-5.828461E2,-1.1081594E4,-1.2546188E3,8.472176E3],"split_indices":[7,3,14,6,10,14,14,0,12,0,4,12,15,10,14,1,14,0,0,13,14,10,3,11,11,11,4,0,0,10,3,12,11,14,15,10,15,0,0,11,0,0,0,4,10,0,11,0,0,0,0,0,0,0,0,0,0,0,0,0,0,0,0,0,0,0,0,0,0,0,0],"split_type":[0,0,0,0,0,0,0,0,0,0,0,0,0,0,0,0,0,0,0,0,0,0,0,0,0,0,0,0,0,0,0,0,0,0,0,0,0,0,0,0,0,0,0,0,0,0,0,0,0,0,0,0,0,0,0,0,0,0,0,0,0,0,0,0,0,0,0,0,0,0,0],"sum_hessian":[2.8E2,1.9E1,2.61E2,1.3E1,6E0,2.04E2,5.7E1,1E0,1.2E1,2E0,4E0,1.92E2,1.2E1,2.1E1,3.6E1,3E0,9E0,1E0,3E0,1.57E2,3.5E1,8E0,4E0,1.5E1,6E0,2.3E1,1.3E1,1E0,2E0,5E0,4E0,1.45E2,1.2E1,1.5E1,2E1,2E0,6E0,2E0,2E0,1.2E1,3E0,3E0,3E0,4E0,1.9E1,2E0,1.1E1,1E0,4E0,2E0,2E0,1.1E2,3.5E1,3E0,9E0,1E1,5E0,1.3E1,7E0,1E0,1E0,4E0,2E0,8E0,4E0,2E0,2E0,7E0,1.2E1,3E0,8E0],"tree_param":{"num_deleted":"0","num_feature":"16","num_nodes":"71","size_leaf_vector":"0"}},{"base_weights":[8.1742914E2,1.2806473E3,-3.1580594E4,-7.646602E3,3.1301162E3,-3.9412125E4,-4.043E3,-1.01283105E3,-1.96839E4,-1.6148675E4,4.5436836E3,-1.9624982E4,8.339282E3,-3.1139512E4,6.507974E3,-2.4438953E3,-3.3419977E4,-1.8540021E4,5.8727607E3,-2.216775E4,2.9013438E3,-3.396637E3,2.276205E4,-2.4725833E3,-3.662564E4,1.2986756E4,-1.2942969E4,-6.7418696E3,3.2024531E3,-3.95737E4,1.7511719E3,-6.073776E4,-4.0266968E3,3.2991977E4,4.165011E3,-1.4167741E4,-3.0625828E4,2.2753645E3,-1.2926912E4,2.6185076E4,-4.0225938E3,-7.21275E3,3.503875E3,-5.4311055E4,-2.1287453E4,-6.5171875E2,2.2296312E4,-1.3378773E4,4.354625E3,-4.6260234E3,6.316078E3,-4.371382E4,-9.436547E3,-1.730637E4,7.7108125E3,8.18172E4,-1.6477852E3,-3.3994234E4,5.7752197E3],"categories":[],"categories_nodes":[],"categories_segments":[],"categories_sizes":[],"default_left":[1,1,1,1,1,0,0,1,1,1,1,1,1,1,1,1,1,1,1,1,0,1,1,1,1,1,0,1,1,1,0,0,1,1,1,0,0,0,0,0,0,0,0,0,0,0,0,0,0,0,0,0,0,0,0,0,0,0,0],"id":38,"left_children":[1,3,5,7,9,-1,-1,11,13,15,17,19,21,23,25,27,29,31,33,35,-1,37,39,41,43,45,-1,47,49,51,-1,-1,53,55,57,-1,-1,-1,-1,-1,-1,-1,-1,-1,-1,-1,-1,-1,-1,-1,-1,-1,-1,-1,-1,-1,-1,-1,-1],"loss_changes":[4.2575101E9,4.6139013E9,7.033032E8,3.8129917E9,6.368556E9,0E0,0E0,5.733673E9,5.303402E9,3.7055158E9,6.735765E9,6.943872E8,3.801132E9,1.7966848E9,9.2419776E8,2.6426912E8,1.5843338E9,7.1045816E9,9.356716E9,2.4274842E8,0E0,7.3213805E8,1.0221773E9,1.102608E8,1.556478E9,6.4937165E8,0E0,5.0013776E8,1.5109302E8,3.3612083E8,0E0,0E0,1.6921489E9,2.0430348E10,1.2116525E10,0E0,0E0,0E0,0E0,0E0,0E0,0E0,0E0,0E0,0E0,0E0,0E0,0E0,0E0,0E0,0E0,0E0,0E0,0E0,0E0,0E0,0E0,0E0,0E0],"parents":[2147483647,0,0,1,1,2,2,3,3,4,4,7,7,8,8,9,9,10,10,11,11,12,12,13,13,14,14,15,15,16,16,17,17,18,18,19,19,21,21,22,22,23,23,24,24,25,25,27,27,28,28,29,29,32,32,33,33,34,34],"right_children":[2,4,6,8,10,-1,-1,12,14,16,18,20,22,24,26,28,30,32,34,36,-1,38,40,42,44,46,-1,48,50,52,-1,-1,54,56,58,-1,-1,-1,-1,-1,-1,-1,-1,-1,-1,-1,-1,-1,-1,-1,-1,-1,-1,-1,-1,-1,-1,-1,-1],"split_conditions":[5.312482E0,-6.323798E-1,6.9807515E0,-5.334233E-3,-1.0576386E0,-1.1823638E4,-1.2129E3,-8.3932227E-1,8.9958334E-1,2.5E0,8.5E0,5.1764876E-1,-4.0819132E-1,-6.4149046E-1,4E0,-4.515828E-2,1.9834838E0,-4.6839744E-1,1.35E1,1.6131908E0,8.7040314E2,-8.3108723E-1,1.758891E0,-6.5699184E-1,-5.189328E-2,-2.904384E-1,-3.8828909E3,8E0,-1.2237763E0,1.5E0,5.2535156E2,-1.822133E4,7.2431135E-1,2.5E0,1.6E1,-4.2503228E3,-9.187749E3,6.826094E2,-3.8780737E3,7.855523E3,-1.2067782E3,-2.1638252E3,1.0511626E3,-1.6293317E4,-6.3862363E3,-1.9551564E2,6.688894E3,-4.013632E3,1.3063876E3,-1.3878071E3,1.8948235E3,-1.3114146E4,-2.830964E3,-5.191911E3,2.313244E3,2.4545162E4,-4.9433557E2,-1.01982705E4,1.732566E3],"split_indices":[15,15,15,10,14,0,0,10,12,7,6,14,14,11,4,12,11,15,6,12,0,14,13,11,12,11,0,3,14,5,0,0,12,3,6,0,0,0,0,0,0,0,0,0,0,0,0,0,0,0,0,0,0,0,0,0,0,0,0],"split_type":[0,0,0,0,0,0,0,0,0,0,0,0,0,0,0,0,0,0,0,0,0,0,0,0,0,0,0,0,0,0,0,0,0,0,0,0,0,0,0,0,0,0,0,0,0,0,0,0,0,0,0,0,0,0,0,0,0,0,0],"sum_hessian":[2.8E2,2.77E2,3E0,4.7E1,2.3E2,2E0,1E0,3.1E1,1.6E1,1.5E1,2.15E2,1E1,2.1E1,1.1E1,5E0,9E0,6E0,1.1E1,2.04E2,9E0,1E0,1.2E1,9E0,2E0,9E0,4E0,1E0,5E0,4E0,5E0,1E0,2E0,9E0,1.1E1,1.93E2,6E0,3E0,8E0,4E0,8E0,1E0,1E0,1E0,3E0,6E0,2E0,2E0,3E0,2E0,1E0,3E0,4E0,1E0,4E0,5E0,4E0,7E0,7E0,1.86E2],"tree_param":{"num_deleted":"0","num_feature":"16","num_nodes":"59","size_leaf_vector":"0"}},{"base_weights":[3.356562E2,1.2798037E4,-6.169518E2,-5.896473E3,4.835877E4,-1.0849159E4,9.5648773E2,-5.2630156E4,1.746899E3,1.02346375E5,6.29445E3,-7.397849E3,-6.4096844E4,4.3203605E4,-3.7993713E2,-1.048075E4,6.4632686E3,-8.45575E3,1.20959375E4,6.551923E1,-2.8136709E4,8.118925E3,8.7276875E4,1.3618636E3,-1.8040219E4,-1.57591875E4,-3.4682083E3,1.54000205E4,-5.5534873E3,1.3900833E4,3.340625E3,5.035141E3,-2.8526188E4,-7.480396E4,-4.1169287E3,3.2912083E3,1.0240333E4,1.0517031E5,2.5745E4,2.0461714E2,3.3735535E4,-4.5843688E4,8.875682E3,3.567836E3,1.705289E4,-9.7258955E3,4.7008334E2,-2.8377975E2,4.0589207E4,-3.8204082E4,2.5375E2,-1.2054156E4,4.8495312E3,1.4105004E3,-2.8460688E4,5.749178E4,1.5454062E3,-9.176603E4,-1.305325E4,-6.2990415E3,1.2947736E4],"categories":[],"categories_nodes":[],"categories_segments":[],"categories_sizes":[],"default_left":[1,1,1,1,1,1,1,0,1,0,1,1,0,1,1,1,1,0,1,1,1,1,1,1,1,0,0,1,1,0,0,1,1,0,1,0,0,0,0,1,1,1,1,0,0,0,0,0,0,0,0,0,0,0,0,0,0,0,0,0,0],"id":39,"left_children":[1,3,5,7,9,11,13,-1,15,-1,17,19,-1,21,23,25,27,-1,29,31,33,35,37,39,41,-1,-1,43,45,-1,-1,47,49,-1,51,-1,-1,-1,-1,53,55,57,59,-1,-1,-1,-1,-1,-1,-1,-1,-1,-1,-1,-1,-1,-1,-1,-1,-1,-1],"loss_changes":[3.343861E9,1.3580955E10,4.2285143E9,5.0927805E9,1.525245E10,5.9579203E9,1.2889318E10,0E0,8.174514E8,0E0,5.3014576E8,5.264423E9,0E0,1.0115481E10,6.8534426E9,9.34049E7,1.1594314E9,0E0,1.6772224E7,3.8379727E9,9.78047E9,1.7504736E7,5.9544166E8,7.598354E9,1.5374002E10,0E0,0E0,5.650048E7,1.30236E8,0E0,0E0,4.3610317E9,1.1238118E9,0E0,5.5663885E8,0E0,0E0,0E0,0E0,6.849845E9,5.2641674E9,1.3860291E10,7.6127366E8,0E0,0E0,0E0,0E0,0E0,0E0,0E0,0E0,0E0,0E0,0E0,0E0,0E0,0E0,0E0,0E0,0E0,0E0],"parents":[2147483647,0,0,1,1,2,2,3,3,4,4,5,5,6,6,8,8,10,10,11,11,13,13,14,14,15,15,16,16,18,18,19,19,20,20,21,21,22,22,23,23,24,24,27,27,28,28,31,31,32,32,34,34,39,39,40,40,41,41,42,42],"right_children":[2,4,6,8,10,12,14,-1,16,-1,18,20,-1,22,24,26,28,-1,30,32,34,36,38,40,42,-1,-1,44,46,-1,-1,48,50,-1,52,-1,-1,-1,-1,54,56,58,60,-1,-1,-1,-1,-1,-1,-1,-1,-1,-1,-1,-1,-1,-1,-1,-1,-1,-1],"split_conditions":[1.5E0,7.5E0,-6.568705E-1,1.6E1,3.868518E-2,-6.5799284E-1,-1.416511E0,-1.5789048E4,-1.5783313E-1,3.0703914E4,5.5E0,5.5E0,-1.9229055E4,2.5E0,7.5E0,4E0,-7.6689774E-1,-2.536725E3,1.05E1,5.4109234E-1,5.5E0,2.5E0,4.5E0,6.5E0,8.5E0,-4.7277563E3,-1.0404625E3,-8.1325257E-1,4E0,4.17025E3,1.00218756E3,2.081688E-1,6.5E0,-2.244119E4,6.5E0,9.873625E2,3.0721E3,3.1551096E4,7.7235005E3,7.5E0,1.1612105E0,9.253417E-2,-6.2820363E-1,1.0703508E3,5.115867E3,-2.9177688E3,1.4102501E2,-8.513393E1,1.2176763E4,-1.1461225E4,7.6125E1,-3.616247E3,1.4548594E3,4.2315012E2,-8.538207E3,1.7247535E4,4.636219E2,-2.752981E4,-3.915975E3,-1.8897125E3,3.884321E3],"split_indices":[7,3,11,6,10,11,12,0,12,0,4,1,0,1,4,1,14,0,3,10,3,3,1,4,4,0,0,10,3,0,0,10,4,0,3,0,0,0,0,3,10,10,11,0,0,0,0,0,0,0,0,0,0,0,0,0,0,0,0,0,0],"split_type":[0,0,0,0,0,0,0,0,0,0,0,0,0,0,0,0,0,0,0,0,0,0,0,0,0,0,0,0,0,0,0,0,0,0,0,0,0,0,0,0,0,0,0,0,0,0,0,0,0,0,0,0,0,0,0,0,0,0,0,0,0],"sum_hessian":[2.8E2,1.9E1,2.61E2,1.3E1,6E0,3.4E1,2.27E2,1E0,1.2E1,2E0,4E0,3.3E1,1E0,6E0,2.21E2,3E0,9E0,1E0,3E0,2.5E1,8E0,4E0,2E0,2.02E2,1.9E1,1E0,2E0,5E0,4E0,2E0,1E0,2.2E1,3E0,2E0,6E0,2E0,2E0,1E0,1E0,1.96E2,6E0,9E0,1E1,1E0,4E0,2E0,2E0,2E1,2E0,2E0,1E0,3E0,3E0,1.89E2,7E0,3E0,3E0,3E0,6E0,2E0,8E0],"tree_param":{"num_deleted":"0","num_feature":"16","num_nodes":"61","size_leaf_vector":"0"}},{"base_weights":[2.1910464E2,-9.406156E2,8.963081E3,1.139063E3,-1.5079031E4,-1.6498346E3,1.9048758E4,-7.10651E2,2.4536117E4,-2.4262914E4,2.1186678E4,-5.9535127E3,2.04185E4,-3.356E3,2.6200684E4,-1.7130317E3,3.2486354E4,-2.0704602E3,6.922549E4,-1.3900274E4,-7.778236E4,-9.32145E3,6.4971332E4,-1.7331062E4,-1.6648698E3,-1.33953125E4,2.5026562E3,4.0501062E4,1.22003125E4,1.62286E4,-4.39956E3,5.2231574E4,-3.3119875E4,-3.1679512E4,1.9374643E4,1.4910844E5,-7.9930938E3,-3.2115006E4,5.4728125E3,-9.051265E4,-1.979575E4,-1.8085938E4,1.286825E4,2.6921519E3,-6.4705835E3,5.20875E2,2.989625E3,1.1728375E4,4.3909926E4,1.43095E4,3.9151667E3,4.2148364E3,1.06929164E5,2.2797166E3,-1.5532507E4,9.906E3,6.033647E4,-5.665567E4,3.4112562E4,3.4070387E4,-3.4399906E4,6.9929688E3,-1.53194375E4,2.3929334E4,-4.5716805E4,8.8703125E4,-1.01575E4,-7.6185835E3,-2.4744E4,5.8880156E3,-1.17675E3,-8.4011E3,1.591E3],"categories":[],"categories_nodes":[],"categories_segments":[],"categories_sizes":[],"default_left":[1,1,1,1,1,1,1,1,1,1,1,1,0,1,1,1,1,1,1,1,1,1,0,0,1,0,1,1,1,1,1,1,0,1,1,0,1,1,1,0,0,1,0,1,1,0,0,0,0,0,0,0,0,0,0,0,0,0,0,0,0,0,0,0,0,0,0,0,0,0,0,0,0],"id":40,"left_children":[1,3,5,7,9,11,13,15,17,19,21,23,-1,25,27,29,31,33,35,37,39,41,-1,-1,43,-1,45,47,49,51,53,55,-1,57,59,-1,61,63,65,-1,-1,67,-1,69,71,-1,-1,-1,-1,-1,-1,-1,-1,-1,-1,-1,-1,-1,-1,-1,-1,-1,-1,-1,-1,-1,-1,-1,-1,-1,-1,-1,-1],"loss_changes":[2.8579302E9,7.338612E9,3.563695E9,9.452009E9,1.117197E10,1.7361368E9,2.8119619E9,6.8106854E9,1.916783E10,1.3338477E10,9.956143E9,7.030597E8,0E0,3.276083E8,2.1086116E9,9.615136E9,9.50236E9,7.59844E9,3.8202528E10,8.2918973E9,1.1609764E9,1.205141E9,0E0,0E0,2.6868294E8,0E0,2.303042E6,7.35017E7,8.377523E7,2.7880342E10,1.2899696E10,1.1175291E9,0E0,1.0148837E10,6.7038167E9,0E0,5.463005E8,1.0241621E10,1.6511992E10,0E0,0E0,9.025498E7,0E0,9.3480104E7,1.0674429E8,0E0,0E0,0E0,0E0,0E0,0E0,0E0,0E0,0E0,0E0,0E0,0E0,0E0,0E0,0E0,0E0,0E0,0E0,0E0,0E0,0E0,0E0,0E0,0E0,0E0,0E0,0E0,0E0],"parents":[2147483647,0,0,1,1,2,2,3,3,4,4,5,5,6,6,7,7,8,8,9,9,10,10,11,11,13,13,14,14,15,15,16,16,17,17,18,18,19,19,20,20,21,21,24,24,26,26,27,27,28,28,29,29,30,30,31,31,33,33,34,34,36,36,37,37,38,38,41,41,43,43,44,44],"right_children":[2,4,6,8,10,12,14,16,18,20,22,24,-1,26,28,30,32,34,36,38,40,42,-1,-1,44,-1,46,48,50,52,54,56,-1,58,60,-1,62,64,66,-1,-1,68,-1,70,72,-1,-1,-1,-1,-1,-1,-1,-1,-1,-1,-1,-1,-1,-1,-1,-1,-1,-1,-1,-1,-1,-1,-1,-1,-1,-1,-1,-1],"split_conditions":[7.248627E-1,5.5E0,-7.529813E-1,5.5E0,-3.875537E-1,5.5118675E0,-9.4964916E-1,3.5433036E-1,-8.945157E-2,-5.3213173E-1,5.5E0,9.697474E-1,6.1255503E3,8.5E0,1.0723169E0,-8.781756E-1,6.077625E-1,-6.299024E-1,-5.819423E-1,7E0,6.0947204E-1,5.286985E-1,1.94914E4,-5.199319E3,-1.1285641E0,-4.018594E3,1.5565305E0,1.5E0,9.3714166E-1,3.210604E-1,-3.9426547E-2,4E0,-9.935963E3,7.5E0,9.5E0,4.473253E4,1.5E0,-1.3163556E0,1.5E0,-2.7153795E4,-5.938725E3,-6.903301E-2,3.860475E3,4.5E0,1.2E1,1.5626251E2,8.968875E2,3.5185127E3,1.3172979E4,4.29285E3,1.17455E3,1.2644509E3,3.207875E4,6.83915E2,-4.6597524E3,2.9718E3,1.8100941E4,-1.6996703E4,1.023377E4,1.0221116E4,-1.0319973E4,2.0978906E3,-4.5958315E3,7.1788003E3,-1.3715042E4,2.661094E4,-3.04725E3,-2.2855752E3,-7.4232E3,1.7664048E3,-3.5302502E2,-2.52033E3,4.7730002E2],"split_indices":[10,4,12,3,11,10,14,10,12,11,3,10,0,3,10,12,10,11,11,4,10,10,0,0,12,0,10,7,12,15,15,3,0,3,3,0,7,12,7,0,0,11,0,1,3,0,0,0,0,0,0,0,0,0,0,0,0,0,0,0,0,0,0,0,0,0,0,0,0,0,0,0,0],"split_type":[0,0,0,0,0,0,0,0,0,0,0,0,0,0,0,0,0,0,0,0,0,0,0,0,0,0,0,0,0,0,0,0,0,0,0,0,0,0,0,0,0,0,0,0,0,0,0,0,0,0,0,0,0,0,0,0,0,0,0,0,0,0,0,0,0,0,0,0,0,0,0,0,0],"sum_hessian":[2.8E2,2.48E2,3.2E1,2.17E2,3.1E1,1.6E1,1.6E1,2.02E2,1.5E1,2.5E1,6E0,1.4E1,2E0,4E0,1.2E1,1.97E2,5E0,1E1,5E0,2.2E1,3E0,4E0,2E0,3E0,1.1E1,1E0,3E0,5E0,7E0,2.5E1,1.72E2,4E0,1E0,4E0,6E0,2E0,3E0,1.1E1,1.1E1,2E0,1E0,3E0,1E0,6E0,5E0,1E0,2E0,1E0,4E0,5E0,2E0,2.3E1,2E0,1.08E2,6.4E1,1E0,3E0,3E0,1E0,5E0,1E0,1E0,2E0,2E0,9E0,1E0,1E1,2E0,1E0,3E0,3E0,4E0,1E0],"tree_param":{"num_deleted":"0","num_feature":"16","num_nodes":"73","size_leaf_vector":"0"}},{"base_weights":[4.8412918E2,-7.0447124E3,2.026438E3,-1.9732305E3,-1.6176637E4,1.4771852E3,3.323918E4,-1.5886426E4,5.0730596E3,