{"learner":{"attributes":{"best_iteration":"99","best_ntree_limit":"100","scikit_learn":"{\"n_estimators\": 100, \"objective\": \"reg:squarederror\", \"max_depth\": null, \"max_leaves\": null, \"max_bin\": null, \"grow_policy\": null, \"learning_rate\": null, \"verbosity\": null, \"booster\": null, \"tree_method\": null, \"gamma\": null, \"min_child_weight\": null, \"max_delta_step\": null, \"subsample\": null, \"sampling_method\": null, \"colsample_bytree\": null, \"colsample_bylevel\": null, \"colsample_bynode\": null, \"reg_alpha\": null, \"reg_lambda\": null, \"scale_pos_weight\": null, \"base_score\": null, \"missing\": NaN, \"num_parallel_tree\": null, \"random_state\": null, \"n_jobs\": null, \"monotone_constraints\": null, \"interaction_constraints\": null, \"importance_type\": null, \"gpu_id\": null, \"validate_parameters\": null, \"predictor\": null, \"enable_categorical\": false, \"feature_types\": null, \"max_cat_to_onehot\": null, \"max_cat_threshold\": null, \"eval_metric\": null, \"early_stopping_rounds\": null, \"callbacks\": null, \"_estimator_type\": \"regressor\"}"},"feature_names":["SALE TYPE","PROPERTY TYPE","STATE OR PROVINCE","BEDS","BATHS","STATUS","NEXT OPEN HOUSE START TIME","SOURCE","FAVORITE","INTERESTED","PRICE","SQUARE FEET","LOT SIZE","YEAR BUILT","$-SQUARE FEET","HOA-MONTH"],"feature_types":["int","int","int","int","int","int","int","int","int","int","float","float","float","float","float","float"],"gradient_booster":{"model":{"gbtree_model_param":{"num_parallel_tree":"1","num_trees":"100","size_leaf_vector":"0"},"tree_info":[0,0,0,0,0,0,0,0,0,0,0,0,0,0,0,0,0,0,0,0,0,0,0,0,0,0,0,0,0,0,0,0,0,0,0,0,0,0,0,0,0,0,0,0,0,0,0,0,0,0,0,0,0,0,0,0,0,0,0,0,0,0,0,0,0,0,0,0,0,0,0,0,0,0,0,0,0,0,0,0,0,0,0,0,0,0,0,0,0,0,0,0,0,0,0,0,0,0,0,0],"trees":[{"base_weights":[7.1530247E0,7.075E1,6.6732144E0,5.2938776E0,1.5875E1,4.918033E-1,6.8486485E0,1.4425E2,8.085714E0,6.975E1,6.1277175E0,2.4636364E1,4.8E-1,4.875E1,5.628415E0,7.5555553E0,6.7666664E1,8.256198E0,4.920635E-1,3.225E1,4.375E-1],"categories":[],"categories_nodes":[],"categories_segments":[],"categories_sizes":[],"default_left":[1,0,1,1,1,0,1,0,1,0,1,1,0,0,1,1,0,0,0,0,0],"id":0,"left_children":[1,-1,3,5,7,-1,9,-1,11,-1,13,15,-1,-1,17,19,-1,-1,-1,-1,-1],"loss_changes":[8.1024473E3,0E0,3.4698203E3,1.825833E3,3.483182E4,0E0,7.9618887E3,0E0,4.393957E3,0E0,3.641391E3,7.573656E3,0E0,0E0,2.4659287E3,1.5678784E3,0E0,0E0,0E0,0E0,0E0],"parents":[2147483647,0,0,2,2,3,3,4,4,6,6,8,8,10,10,11,11,14,14,15,15],"right_children":[2,-1,4,6,8,-1,10,-1,12,-1,14,16,-1,-1,18,20,-1,-1,-1,-1,-1],"split_conditions":[1.5E0,2.1225E1,6.214779E-1,-7.96641E-1,6.402561E-1,1.4754099E-1,-5.644425E-1,4.3275E1,-4.2575288E-1,2.0925001E1,-7.937161E-1,3.0078435E-1,1.4400001E-1,1.4625001E1,-1.6564646E-1,-5.2402947E-2,2.03E1,2.4768596E0,1.4761905E-1,9.675E0,1.3125001E-1],"split_indices":[1,0,12,14,12,0,10,0,10,0,14,13,0,0,12,13,0,0,0,0,0],"split_type":[0,0,0,0,0,0,0,0,0,0,0,0,0,0,0,0,0,0,0,0,0],"sum_hessian":[2.8E2,1E0,2.79E2,2.44E2,3.5E1,6E1,1.84E2,1E0,3.4E1,1E0,1.83E2,1E1,2.4E1,1E0,1.82E2,8E0,2E0,1.2E2,6.2E1,1E0,7E0],"tree_param":{"num_deleted":"0","num_feature":"16","num_nodes":"21","size_leaf_vector":"0"}},{"base_weights":[5.4806843E0,6.01375E1,5.0707045E0,3.441817E0,1.2146561E1,5.526034E0,-1.0878247E0,5.8605995E1,1.0595623E0,4.811309E0,5.851157E1,-1.5951668E0,3.3639047E-1,-1.8394336E-1,9.782995E1,2.21252E1,-5.0766873E-1,4.2857676E0,3.0185333E1,3.132969E-1,-1.9338844E0,-9.884298E-1,2.6428568E-1,1.7619047E-1,1.1732546E2,1.762295E-1,3.301157E1,-1.8533058E0,3.3994138E-1,1.7191042E1,3.646425E0,4.51E1,1.78E-1,1.78E-1,1.4656783E2],"categories":[],"categories_nodes":[],"categories_segments":[],"categories_sizes":[],"default_left":[1,0,1,1,1,1,1,1,1,1,0,1,0,1,1,1,1,1,1,0,0,0,0,0,1,0,0,0,0,0,0,0,0,0,0],"id":1,"left_children":[1,-1,3,5,7,9,11,13,15,17,-1,19,-1,21,23,25,27,29,31,-1,-1,-1,-1,-1,33,-1,-1,-1,-1,-1,-1,-1,-1,-1,-1],"loss_changes":[5.9917607E3,0E0,3.1854106E3,2.1679438E3,2.6722879E4,5.6640874E3,5.328379E1,2.307773E4,1.4308652E3,1.9509082E3,0E0,3.5513107E1,0E0,2.0641987E0,1.1402191E4,7.1101624E2,4.7393612E1,1.2079512E3,1.3346204E3,0E0,0E0,0E0,0E0,0E0,1.710225E4,0E0,0E0,0E0,0E0,0E0,0E0,0E0,0E0,0E0,0E0],"parents":[2147483647,0,0,2,2,3,3,4,4,5,5,6,6,7,7,8,8,9,9,11,11,13,13,14,14,15,15,16,16,17,17,18,18,24,24],"right_children":[2,-1,4,6,8,10,12,14,16,18,-1,20,-1,22,24,26,28,30,32,-1,-1,-1,-1,-1,34,-1,-1,-1,-1,-1,-1,-1,-1,-1,-1],"split_conditions":[1.5E0,1.804125E1,3.1385064E-2,-2.2341241E-1,1.20488934E-1,-2.3258626E-1,-2.1009576E-1,-5.7985693E-2,-1.8094546E-1,4.849183E0,1.7553473E1,-7.77629E-1,1.00917146E-1,2.5E0,-4.3409055E-1,2.5E0,-1.6229929E-1,-5.65256E-1,4E0,9.398908E-2,-5.801653E-1,-2.9652894E-1,7.928571E-2,5.2857142E-2,1.5E1,5.2868854E-2,9.903471E0,-5.5599177E-1,1.0198242E-1,5.157313E0,1.0939275E0,1.353E1,5.3400002E-2,5.3400002E-2,4.397035E1],"split_indices":[1,0,15,10,15,10,12,11,14,12,0,14,0,3,10,3,12,10,3,0,0,0,0,0,6,0,0,0,0,0,0,0,0,0,0],"split_type":[0,0,0,0,0,0,0,0,0,0,0,0,0,0,0,0,0,0,0,0,0,0,0,0,0,0,0,0,0,0,0,0,0,0,0],"sum_hessian":[2.8E2,1E0,2.79E2,2.28E2,5.1E1,1.56E2,7.2E1,9E0,4.2E1,1.55E2,1E0,5.3E1,1.9E1,4E0,5E0,2E0,4E1,1.53E2,2E0,8E0,4.5E1,1E0,3E0,1E0,4E0,1E0,1E0,1.5E1,2.5E1,6E0,1.47E2,1E0,1E0,1E0,3E0],"tree_param":{"num_deleted":"0","num_feature":"16","num_nodes":"35","size_leaf_vector":"0"}},{"base_weights":[4.222265E0,5.1116875E1,3.8722236E0,2.7971168E0,1.1081361E1,4.0289392E0,-1.1545421E0,1.0062733E2,5.6478386E0,7.533129E-1,7.627344E0,-2.6869385E0,-8.9658606E-1,1.7857355E1,4.9737968E-2,1.5699712E1,-2.0872654E-1,1.0662828E1,-1.3797641E-1,-1.1711305E-1,-1.1534075E0,5.406092E0,4.925869E1,-3.8555464E-1,2.4043813E-1,-3.843883E0,5.6708843E1,1.1586432E1,-1.2909397E0,7.8337684E0,5.1140285E1,-2.402427E0,4.8698697E-2,-6.1789036E-1,2.2975105E-1,-1.3598809E0,2.0884298E-1,2.6865536E1,-6.345303E-1,-6.149395E-1,2.0173335E-1],"categories":[],"categories_nodes":[],"categories_segments":[],"categories_sizes":[],"default_left":[1,0,1,1,1,1,1,0,1,1,1,0,1,1,1,1,1,1,1,1,1,1,0,1,0,0,0,0,0,0,0,0,0,0,0,0,0,0,0,0,0],"id":2,"left_children":[1,-1,3,5,7,9,11,-1,13,15,17,-1,19,21,23,25,27,29,31,33,35,37,-1,39,-1,-1,-1,-1,-1,-1,-1,-1,-1,-1,-1,-1,-1,-1,-1,-1,-1],"loss_changes":[4.41469E3,0E0,2.13917E3,1.1972482E3,1.6947477E4,2.198429E3,2.0913094E1,0E0,2.391365E3,1.4268004E3,2.0993354E3,0E0,1.0274559E1,4.0345525E3,2.1679611E0,5.026777E3,1.2148557E3,6.9282207E3,1.1107624E1,2.5737844E0,1.1253475E1,1.1837026E3,0E0,1.2017739E0,0E0,0E0,0E0,0E0,0E0,0E0,0E0,0E0,0E0,0E0,0E0,0E0,0E0,0E0,0E0,0E0,0E0],"parents":[2147483647,0,0,2,2,3,3,4,4,5,5,6,6,8,8,9,9,10,10,12,12,13,13,14,14,15,15,16,16,17,17,18,18,19,19,20,20,21,21,23,23],"right_children":[2,-1,4,6,8,10,12,-1,14,16,18,-1,20,22,24,26,28,30,32,34,36,38,-1,40,-1,-1,-1,-1,-1,-1,-1,-1,-1,-1,-1,-1,-1,-1,-1,-1,-1],"split_conditions":[1.5E0,1.5335063E1,6.214779E-1,5.5E0,6.402561E-1,-1.9118975E-1,-3.0841577E-1,3.01882E1,-4.2575288E-1,-5.644425E-1,-1.60881E-1,-8.060816E-1,-7.7616656E-1,3.0078435E-1,-2.1121097E-1,-5.7339025E-1,-9.805539E-1,-2.382347E-1,-5.660696E-1,-2.0006943E-1,-1.5452704E-1,-5.2402947E-2,1.4777608E1,3.1145537E0,7.213144E-2,-1.153165E0,1.7012653E1,3.47593E0,-3.8728192E-1,2.3501306E0,1.5342086E1,-7.207281E-1,1.460961E-2,-1.853671E-1,6.892532E-2,-4.079643E-1,6.265289E-2,8.059661E0,-1.903591E-1,-1.8448186E-1,6.052001E-2],"split_indices":[1,0,12,4,12,15,10,0,10,10,12,0,14,13,10,10,15,12,10,10,12,13,0,12,0,0,0,0,0,0,0,0,0,0,0,0,0,0,0,0,0],"split_type":[0,0,0,0,0,0,0,0,0,0,0,0,0,0,0,0,0,0,0,0,0,0,0,0,0,0,0,0,0,0,0,0,0,0,0,0,0,0,0,0,0],"sum_hessian":[2.8E2,1E0,2.79E2,2.44E2,3.5E1,1.86E2,5.8E1,1E0,3.4E1,9.8E1,8.8E1,7E0,5.1E1,1E1,2.4E1,5E0,9.3E1,6.3E1,2.5E1,1.3E1,3.8E1,8E0,2E0,7E0,1.7E1,4E0,1E0,7E0,8.6E1,6E1,3E0,1E0,2.4E1,5E0,8E0,3.3E1,5E0,1E0,7E0,5E0,2E0],"tree_param":{"num_deleted":"0","num_feature":"16","num_nodes":"41","size_leaf_vector":"0"}},{"base_weights":[3.3213673E0,4.344934E1,3.0228767E0,2.0994773E0,9.223155E0,-1.4552804E0,3.260238E0,8.5533226E1,4.5990605E0,-1.8543355E0,-1.0788908E-1,4.8202515E1,2.7540164E0,1.4558958E1,3.274335E-2,-2.782479E0,-9.9766266E-1,-4.478133E-1,1.684841E-1,3.971547E1,2.3350167E0,4.6586313E0,3.940695E1,-2.8538346E-1,1.7231397E-1,-3.115147E0,-3.4515935E-1,2.1307386E1,1.9004362E0,2.2835705E1,-4.679661E-1,-4.6120465E-1,1.6138668E-1],"categories":[],"categories_nodes":[],"categories_segments":[],"categories_sizes":[],"default_left":[1,0,1,1,1,1,1,0,1,1,1,0,1,1,1,0,1,0,0,0,1,1,0,1,0,0,0,0,0,0,0,0,0],"id":3,"left_children":[1,-1,3,5,7,9,11,-1,13,15,17,-1,19,21,23,-1,25,-1,-1,-1,27,29,-1,31,-1,-1,-1,-1,-1,-1,-1,-1,-1],"loss_changes":[3.2344236E3,0E0,1.5837302E3,1.0156692E3,1.2309766E4,3.2598618E1,4.0761392E3,0E0,1.5913252E3,3.4594467E1,1.4846386E0,0E0,2.7568408E3,2.5224539E3,1.1592046E0,0E0,3.4848083E1,0E0,0E0,0E0,1.4683457E3,8.493652E2,0E0,7.028456E-1,0E0,0E0,0E0,0E0,0E0,0E0,0E0,0E0,0E0],"parents":[2147483647,0,0,2,2,3,3,4,4,5,5,6,6,8,8,9,9,10,10,12,12,13,13,14,14,16,16,20,20,21,21,23,23],"right_children":[2,-1,4,6,8,10,12,-1,14,16,18,-1,20,22,24,-1,26,-1,-1,-1,28,30,-1,32,-1,-1,-1,-1,-1,-1,-1,-1,-1],"split_conditions":[1.5E0,1.3034802E1,6.214779E-1,-7.96641E-1,6.402561E-1,4E0,-5.644425E-1,2.565997E1,-4.2575288E-1,-3.487481E-1,-2.0006943E-1,1.4460755E1,-7.937161E-1,3.0078435E-1,-2.1121097E-1,-8.3474374E-1,-5.660696E-1,-1.34344E-1,5.0545234E-2,1.1914641E1,-9.7944474E-1,-5.2402947E-2,1.1822086E1,3.1145537E0,5.1694196E-2,-9.3454415E-1,-1.0354781E-1,6.392216E0,5.701309E-1,6.850712E0,-1.4038984E-1,-1.383614E-1,4.8416007E-2],"split_indices":[1,0,12,14,12,4,10,0,10,12,10,0,14,13,10,0,10,0,0,0,15,13,0,12,0,0,0,0,0,0,0,0,0],"split_type":[0,0,0,0,0,0,0,0,0,0,0,0,0,0,0,0,0,0,0,0,0,0,0,0,0,0,0,0,0,0,0,0,0],"sum_hessian":[2.8E2,1E0,2.79E2,2.44E2,3.5E1,6E1,1.84E2,1E0,3.4E1,4.6E1,1.4E1,1E0,1.83E2,1E1,2.4E1,2.1E1,2.5E1,6E0,8E0,1E0,1.82E2,8E0,2E0,7E0,1.7E1,5E0,2E1,3E0,1.79E2,1E0,7E0,5E0,2E0],"tree_param":{"num_deleted":"0","num_feature":"16","num_nodes":"33","size_leaf_vector":"0"}},{"base_weights":[2.640153E0,3.6931942E1,2.3857825E0,1.3396219E0,6.947032E0,2.5639548E0,-1.3118837E0,3.740525E1,-2.9783353E-1,2.0060217E0,4.4800762E1,-1.7922804E0,5.0781827E-2,-1.1071056E0,6.326467E1,1.7862646E1,-1.6193849E0,-2.0973928E0,3.2994986E0,-2.9371526E0,-1.1382568E0,9.6124075E-2,-2.3819892E-1,-2.300296E0,-2.3373395E-1,-1.426084E-1,7.597465E1,1.9426417E-1,2.6599705E1,-3.8475204E0,-1.8594044E-1,-2.5242007E0,-6.499105E-1,6.950448E1,2.1494184E0,-1.4040383E0,-3.924505E0,1.2355503E-1,-1.5031872E0,6.099097E-2,1.1813146E-1,9.683201E-2,9.49199E1,-5.206212E0,-1.3568867E0,-3.2644373E-1,1.1572615E-1],"categories":[],"categories_nodes":[],"categories_segments":[],"categories_sizes":[],"default_left":[1,0,1,1,1,1,1,1,1,1,0,1,1,1,1,1,1,1,1,1,1,1,0,0,0,0,1,0,0,1,1,0,0,0,0,0,0,0,0,0,0,0,0,0,0,0,0],"id":4,"left_children":[1,-1,3,5,7,9,11,13,15,17,-1,19,21,23,25,27,29,31,33,35,37,39,-1,-1,-1,-1,41,-1,-1,43,45,-1,-1,-1,-1,-1,-1,-1,-1,-1,-1,-1,-1,-1,-1,-1,-1],"loss_changes":[2.3630007E3,0E0,1.3267975E3,7.467723E2,1.1485758E4,3.6098833E3,4.787828E1,1.0029114E4,1.0609268E3,8.3491705E2,0E0,3.709053E1,2.8495738E-1,4.672836E0,4.8462656E3,4.579417E2,1.3023483E2,2.183577E1,8.911389E3,2.325061E1,1.6762772E1,6.712422E-3,0E0,0E0,0E0,0E0,7.1784297E3,0E0,0E0,4.7079834E1,1.139792E0,0E0,0E0,0E0,0E0,0E0,0E0,0E0,0E0,0E0,0E0,0E0,0E0,0E0,0E0,0E0,0E0],"parents":[2147483647,0,0,2,2,3,3,4,4,5,5,6,6,7,7,8,8,9,9,11,11,12,12,13,13,14,14,15,15,16,16,17,17,18,18,19,19,20,20,21,21,26,26,29,29,30,30],"right_children":[2,-1,4,6,8,10,12,14,16,18,-1,20,22,24,26,28,30,32,34,36,38,40,-1,-1,-1,-1,42,-1,-1,44,46,-1,-1,-1,-1,-1,-1,-1,-1,-1,-1,-1,-1,-1,-1,-1,-1],"split_conditions":[1.5E0,1.1079583E1,3.1385064E-2,-2.2341241E-1,1.20488934E-1,-2.3258626E-1,-2.1009576E-1,-5.7985693E-2,-1.8094546E-1,-7.012266E-1,1.3440229E1,5.5E0,-1.0615286E-1,2.5E0,-4.3409055E-1,2.5E0,-1.6229929E-1,1.3005051E-1,-6.929314E-1,2.5E0,-7.7616656E-1,6.6119015E-1,-7.145968E-2,-6.9008887E-1,-7.0120186E-2,-4.2782523E-2,1.5E1,5.8279254E-2,7.979912E0,5.5E0,6.401143E-1,-7.5726026E-1,-1.9497316E-1,2.0851345E1,6.448255E-1,-4.212115E-1,-1.1773516E0,3.7066508E-2,-4.5095617E-1,1.8297292E-2,3.543944E-2,2.9049603E-2,2.8475971E1,-1.5618637E0,-4.0706605E-1,-9.793312E-2,3.4717847E-2],"split_indices":[1,0,15,10,15,10,12,11,14,11,0,4,15,3,10,3,12,12,11,1,14,12,0,0,0,0,6,0,0,4,12,0,0,0,0,0,0,0,0,0,0,0,0,0,0,0,0],"split_type":[0,0,0,0,0,0,0,0,0,0,0,0,0,0,0,0,0,0,0,0,0,0,0,0,0,0,0,0,0,0,0,0,0,0,0,0,0,0,0,0,0,0,0,0,0,0,0],"sum_hessian":[2.8E2,1E0,2.79E2,2.28E2,5.1E1,1.56E2,7.2E1,9E0,4.2E1,1.55E2,1E0,5.3E1,1.9E1,4E0,5E0,2E0,4E1,3.7E1,1.18E2,1.8E1,3.5E1,1.7E1,2E0,1E0,3E0,1E0,4E0,1E0,1E0,1.5E1,2.5E1,2.8E1,9E0,1E0,1.17E2,8E0,1E1,8E0,2.7E1,8E0,9E0,1E0,3E0,9E0,6E0,1.7E1,8E0],"tree_param":{"num_deleted":"0","num_feature":"16","num_nodes":"47","size_leaf_vector":"0"}},{"base_weights":[2.121209E0,3.139215E1,1.9045551E0,1.1983564E0,6.657725E0,1.01525135E1,9.310867E-1,5.8465256E1,3.5070739E0,-1.70531E0,4.0649727E1,-7.853274E-1,2.502739E0,1.1366176E1,-9.121382E-2,4.9803853E0,-2.2808902E0,2.102253E1,8.8463E-1,3.5267658E0,3.1095678E1,-4.8831224E-1,9.034179E-2,3.8553745E1,1.7581896E-1,-3.6122723E0,-1.0902839E0,3.130012E1,-2.2188869E0,3.8080647E1,2.3005034E-1,1.9087936E1,-8.0437255E-1,-5.815875E-1,8.230722E-2],"categories":[],"categories_nodes":[],"categories_segments":[],"categories_sizes":[],"default_left":[1,0,1,1,1,1,1,0,1,0,0,1,1,1,1,1,1,1,1,1,0,1,0,0,0,0,0,0,0,0,0,0,0,0,0],"id":5,"left_children":[1,-1,3,5,7,9,11,-1,13,-1,-1,15,17,19,21,23,25,27,29,31,-1,33,-1,-1,-1,-1,-1,-1,-1,-1,-1,-1,-1,-1,-1],"loss_changes":[1.7222195E3,0E0,9.318927E2,5.7687494E2,5.671146E3,2.6007344E3,6.4669336E2,0E0,9.908125E2,0E0,0E0,1.003003E3,3.7272827E3,1.5916772E3,1.8465011E0,3.8645518E3,1.418956E2,2.4581094E3,2.8155793E3,6.2193207E2,0E0,4.736662E-1,0E0,0E0,0E0,0E0,0E0,0E0,0E0,0E0,0E0,0E0,0E0,0E0,0E0],"parents":[2147483647,0,0,2,2,3,3,4,4,5,5,6,6,8,8,11,11,12,12,13,13,14,14,15,15,16,16,17,17,18,18,19,19,21,21],"right_children":[2,-1,4,6,8,10,12,-1,14,-1,-1,16,18,20,22,24,26,28,30,32,-1,34,-1,-1,-1,-1,-1,-1,-1,-1,-1,-1,-1,-1,-1],"split_conditions":[1.5E0,9.417645E0,6.214779E-1,-5.65256E-1,6.402561E-1,-5.713569E-1,-3.0414525E-1,1.7539577E1,-4.2575288E-1,-5.1159304E-1,1.2194919E1,-6.6378534E-1,-2.959093E-1,3.0078435E-1,-2.1121097E-1,-6.269653E-1,-1.770779E-1,6.8661225E-1,-9.6835303E-1,-5.2402947E-2,9.328704E0,-5.9197705E-2,2.710254E-2,1.1566124E1,5.2745692E-2,-1.0836817E0,-3.2708517E-1,9.390037E0,-6.656661E-1,1.1424194E1,6.901511E-2,5.7263813E0,-2.4131177E-1,-1.7447625E-1,2.4692167E-2],"split_indices":[1,0,12,10,12,10,10,0,10,0,0,13,10,13,10,11,12,13,15,13,0,15,0,0,0,0,0,0,0,0,0,0,0,0,0],"split_type":[0,0,0,0,0,0,0,0,0,0,0,0,0,0,0,0,0,0,0,0,0,0,0,0,0,0,0,0,0,0,0,0,0,0,0],"sum_hessian":[2.8E2,1E0,2.79E2,2.44E2,3.5E1,6E0,2.38E2,1E0,3.4E1,5E0,1E0,1.14E2,1.24E2,1E1,2.4E1,2.3E1,9.1E1,9E0,1.15E2,8E0,2E0,7E0,1.7E1,2E0,2.1E1,4.2E1,4.9E1,6E0,3E0,1E0,1.14E2,1E0,7E0,6E0,1E0],"tree_param":{"num_deleted":"0","num_feature":"16","num_nodes":"35","size_leaf_vector":"0"}},{"base_weights":[1.782915E0,2.6683327E1,1.5986873E0,2.5482378E0,-1.1798507E0,1.5666562E-1,5.8348694E0,-2.234025E0,1.3175468E0,2.2857711E0,-1.8735406E0,3.4027357E0,1.3933987E1,-4.637855E0,-1.3754658E0,1.296921E1,-1.2047793E0,6.397128E-1,2.5170658E1,-3.3909137E0,-5.6275886E-1,3.455227E1,2.4365327E0,2.9986414E1,7.334999E-1,-5.0980124E0,-1.4046597E0,-2.8401725E0,-8.4138125E-1,-1.8681998E0,2.8740719E1,-1.6686014E0,-6.204792E-1,2.1065128E1,-4.860319E-1,5.3295742E1,-1.9696175E0,-1.2691814E0,-4.8139496E0,-4.762674E0,-2.991533E-1,1.2237507E1,-8.144882E-1,-8.424262E-1,4.5541237E1,-2.5454164E0,1.1418721E1,-5.3123713E0,-1.4772131E0,2.7431497E-2,-1.0162411E0,-2.1466703E0,-9.921104E-1,2.1945199E-2,-7.838285E-1],"categories":[],"categories_nodes":[],"categories_segments":[],"categories_sizes":[],"default_left":[1,0,1,1,1,1,1,1,1,1,1,1,1,1,1,1,1,1,1,1,1,0,1,1,1,1,0,0,1,0,0,1,1,0,0,0,0,0,0,0,0,0,0,0,0,0,0,0,0,0,0,0,0,0,0],"id":6,"left_children":[1,-1,3,5,7,9,11,13,15,17,19,21,23,25,27,29,31,33,35,37,39,-1,41,43,45,47,-1,-1,49,-1,-1,51,53,-1,-1,-1,-1,-1,-1,-1,-1,-1,-1,-1,-1,-1,-1,-1,-1,-1,-1,-1,-1,-1,-1],"loss_changes":[1.2463855E3,0E0,7.41748E2,1.6418712E3,1.924973E2,5.316303E2,1.6860222E3,9.887616E1,6.621895E2,2.2440894E3,1.2339525E2,1.9924895E3,4.2160015E3,1.2180176E1,2.811914E1,9.8972675E2,4.113882E0,1.320885E3,3.1582622E3,8.144995E1,3.7324463E1,0E0,2.176663E3,4.3542E3,4.4949677E2,6.901245E-1,0E0,0E0,4.5854893E0,0E0,0E0,1.1043625E0,1.066597E0,0E0,0E0,0E0,0E0,0E0,0E0,0E0,0E0,0E0,0E0,0E0,0E0,0E0,0E0,0E0,0E0,0E0,0E0,0E0,0E0,0E0,0E0],"parents":[2147483647,0,0,2,2,3,3,4,4,5,5,6,6,7,7,8,8,9,9,10,10,11,11,12,12,13,13,14,14,15,15,16,16,17,17,18,18,19,19,20,20,22,22,23,23,24,24,25,25,28,28,31,31,32,32],"right_children":[2,-1,4,6,8,10,12,14,16,18,20,22,24,26,28,30,32,34,36,38,40,-1,42,44,46,48,-1,-1,50,-1,-1,52,54,-1,-1,-1,-1,-1,-1,-1,-1,-1,-1,-1,-1,-1,-1,-1,-1,-1,-1,-1,-1,-1,-1],"split_conditions":[1.5E0,8.004998E0,5.5E0,-5.0085556E-2,-7.218259E-2,1.5E0,3.0078435E-1,-2.7852222E-1,-1.382016E-2,4E0,-1.6706476E-1,-5.644425E-1,6.7375124E-1,-4.7574207E-1,5.5E0,-1.9670017E-2,3.961028E-1,-9.7944474E-1,2.5E0,-1.2100868E-1,-9.476484E-1,1.0365681E1,-5.993605E-1,-3.2429096E-1,6.457875E-1,9E0,-4.2139795E-1,-8.520518E-1,-8.587955E-1,-5.6046E-1,8.622216E0,-2.449683E-1,7.5E0,6.3195386E0,-1.4580958E-1,1.5988723E1,-5.908853E-1,-3.8075444E-1,-1.4441849E0,-1.4288023E0,-8.974599E-2,3.6712523E0,-2.4434645E-1,-2.5272787E-1,1.3662372E1,-7.6362497E-1,3.4256165E0,-1.5937115E0,-4.4316396E-1,8.229449E-3,-3.0487233E-1,-6.440011E-1,-2.976331E-1,6.58356E-3,-2.3514856E-1],"split_indices":[1,0,3,11,13,4,13,10,13,3,12,10,13,12,4,11,11,15,7,15,15,0,12,15,12,3,0,0,14,0,0,10,4,0,0,0,0,0,0,0,0,0,0,0,0,0,0,0,0,0,0,0,0,0,0],"split_type":[0,0,0,0,0,0,0,0,0,0,0,0,0,0,0,0,0,0,0,0,0,0,0,0,0,0,0,0,0,0,0,0,0,0,0,0,0,0,0,0,0,0,0,0,0,0,0,0,0,0,0,0,0,0,0],"sum_hessian":[2.8E2,1E0,2.79E2,2.08E2,7.1E1,1.21E2,8.7E1,5E1,2.1E1,5.9E1,6.2E1,6.8E1,1.9E1,1.2E1,3.8E1,3E0,1.8E1,5.6E1,3E0,2.8E1,3.4E1,1E0,6.7E1,8E0,1.1E1,1E1,2E0,9E0,2.9E1,2E0,1E0,9E0,9E0,2E0,5.4E1,1E0,2E0,1.2E1,1.6E1,1E0,3.3E1,1.6E1,5.1E1,3E0,5E0,9E0,2E0,9E0,1E0,5E0,2.4E1,4E0,5E0,2E0,7E0],"tree_param":{"num_deleted":"0","num_feature":"16","num_nodes":"55","size_leaf_vector":"0"}},{"base_weights":[1.459364E0,5.8257735E-1,5.220209E0,-2.667461E0,1.2227798E0,2.3450727E1,9.582681E-1,-5.2670164E0,-1.7986788E0,1.8334634E0,-1.7751648E0,-4.9260703E-1,3.9495052E1,2.2680828E1,-7.436881E-2,-7.2082963E0,-2.2723336E0,-2.3068314E0,-7.1124893E-1,1.537704E0,2.4429611E1,-4.2920127E0,-7.9809296E-1,-9.0032625E-1,-1.6559565E-1,1.6449866E-1,4.7328262E1,1.5399324E1,-1.2047764E0,-2.7801454E0,-1.2054312E-1,-3.8290405E-1,-2.9226134E0,1.2344182E-2,-7.8484267E-1,6.9806685E0,8.7988514E-1,-9.798987E-1,-5.7847533E0,-1.4559838E0,-4.6135855E-1,1.9213435E-1,5.9064262E1,4.015719E-1,2.2697414E1,-4.397264E0,-6.392291E-1,-6.238962E-1,6.605345E-2,-4.170534E0,-2.0896845E0,3.024329E1,1.8627661E0,7.399145E0,5.403617E-1,-1.2512755E0,-8.288413E-2,-6.983005E-1,-6.662384E0,-5.770584E-1,-1.6527826E0,2.16317E-2,-7.046563E-1,-6.5135777E-1,-7.9260507E0,-2.240477E0,-1.0171262E-1],"categories":[],"categories_nodes":[],"categories_segments":[],"categories_sizes":[],"default_left":[1,1,1,1,1,1,1,1,1,1,1,1,1,0,1,0,1,1,1,1,0,1,1,0,0,0,1,1,1,0,0,1,1,0,0,1,1,1,1,1,1,0,0,0,0,1,1,0,0,0,0,0,0,0,0,0,0,0,0,0,0,0,0,0,0,0,0],"id":7,"left_children":[1,3,5,7,9,11,13,15,17,19,21,23,25,-1,27,-1,29,31,33,35,-1,37,39,-1,-1,-1,41,43,45,-1,-1,47,49,-1,-1,51,53,55,57,59,61,-1,-1,-1,-1,63,65,-1,-1,-1,-1,-1,-1,-1,-1,-1,-1,-1,-1,-1,-1,-1,-1,-1,-1,-1,-1],"loss_changes":[9.2354474E2,4.79738E2,4.0954897E3,7.634732E1,3.547675E2,3.861002E3,9.886735E2,3.5942E1,1.4936676E1,1.0317185E3,7.772624E1,5.175539E-1,1.8407207E3,0E0,7.706907E2,0E0,5.128395E0,2.2575325E1,5.9545946E-1,5.631549E2,0E0,3.8828674E1,4.8666315E0,0E0,0E0,0E0,2.7546006E3,3.1925018E2,7.1214745E1,0E0,0E0,6.903818E-1,6.876343E0,0E0,0E0,1.967613E3,3.1252386E2,8.7000513E-1,2.213182E1,4.3001938E-1,2.130431E0,0E0,0E0,0E0,0E0,7.414832E1,3.0757214E1,0E0,0E0,0E0,0E0,0E0,0E0,0E0,0E0,0E0,0E0,0E0,0E0,0E0,0E0,0E0,0E0,0E0,0E0,0E0,0E0],"parents":[2147483647,0,0,1,1,2,2,3,3,4,4,5,5,6,6,7,7,8,8,9,9,10,10,11,11,12,12,14,14,16,16,17,17,18,18,19,19,21,21,22,22,26,26,27,27,28,28,31,31,32,32,35,35,36,36,37,37,38,38,39,39,40,40,45,45,46,46],"right_children":[2,4,6,8,10,12,14,16,18,20,22,24,26,-1,28,-1,30,32,34,36,-1,38,40,-1,-1,-1,42,44,46,-1,-1,48,50,-1,-1,52,54,56,58,60,62,-1,-1,-1,-1,64,66,-1,-1,-1,-1,-1,-1,-1,-1,-1,-1,-1,-1,-1,-1,-1,-1,-1,-1,-1,-1],"split_conditions":[3.1385064E-2,-8.824211E-1,1.20488934E-1,2.5E0,-9.174365E-3,-5.7985693E-2,1.5E0,-5.9499216E-1,6.5E0,-1.9670017E-2,-2.838502E-1,2.5E0,-4.3409055E-1,6.804249E0,-1.8094546E-1,-2.162489E0,2E0,-3.0858964E-1,-8.653766E-1,-6.6378534E-1,7.3288836E0,-9.757923E-1,-1.441234E-1,-2.7009788E-1,-4.96787E-2,4.93496E-2,1.5E1,2.5E0,1.7446887E-1,-8.340437E-1,-3.616294E-2,-5.365087E-1,4.5E0,3.7032545E-3,-2.3545282E-1,-5.8785963E-1,-5.65256E-1,5.5E0,-3.3261526E-1,4E0,-7.7616656E-1,5.7640307E-2,1.771928E1,1.20471574E-1,6.8092246E0,-7.923946E-1,-4.57361E-1,-1.8716887E-1,1.9816035E-2,-1.2511603E0,-6.269054E-1,9.072988E0,5.5882984E-1,2.2197437E0,1.6210851E-1,-3.753827E-1,-2.4865242E-2,-2.0949015E-1,-1.9987153E0,-1.7311752E-1,-4.958348E-1,6.4895106E-3,-2.113969E-1,-1.9540735E-1,-2.3778152E0,-6.7214316E-1,-3.0513788E-2],"split_indices":[15,13,15,3,11,11,1,12,4,11,10,3,10,0,14,0,4,11,14,13,0,14,10,0,0,0,6,3,15,0,0,11,3,0,0,11,10,1,10,1,14,0,0,0,0,13,12,0,0,0,0,0,0,0,0,0,0,0,0,0,0,0,0,0,0,0,0],"split_type":[0,0,0,0,0,0,0,0,0,0,0,0,0,0,0,0,0,0,0,0,0,0,0,0,0,0,0,0,0,0,0,0,0,0,0,0,0,0,0,0,0,0,0,0,0,0,0,0,0,0,0,0,0,0,0,0,0,0,0,0,0,0,0,0,0,0,0],"sum_hessian":[2.8E2,2.28E2,5.2E1,3.7E1,1.91E2,9E0,4.3E1,8E0,2.9E1,1.59E2,3.2E1,4E0,5E0,1E0,4.2E1,4E0,4E0,1.9E1,1E1,1.58E2,1E0,8E0,2.4E1,1E0,3E0,1E0,4E0,2E0,4E1,3E0,1E0,5E0,1.4E1,1E0,9E0,1.6E1,1.42E2,3E0,5E0,7E0,1.7E1,1E0,3E0,1E0,1E0,5E0,3.5E1,3E0,2E0,4E0,1E1,2E0,1.4E1,6E0,1.36E2,2E0,1E0,1E0,4E0,2E0,5E0,6E0,1.1E1,3E0,2E0,8E0,2.7E1],"tree_param":{"num_deleted":"0","num_feature":"16","num_nodes":"67","size_leaf_vector":"0"}},{"base_weights":[1.1586186E0,1.9278702E1,1.0250515E0,5.616928E-1,4.149991E0,-2.7786167E0,9.036902E-1,3.400464E1,2.3254397E0,-5.709024E0,-1.4085302E0,-9.384859E-1,1.824895E0,7.733886E0,-1.4729409E-1,-1.9152112E0,-6.843507E0,-1.8160591E0,-3.5871747E-1,-1.7409375E0,9.514454E-1,4.0764885E1,1.2863486E0,3.0950358E0,1.9072474E1,-1.9322052E0,7.5857565E-3,-1.0960069E0,-2.1738095E0,1.2756032E-1,-4.8148507E-1,-1.1251059E0,-3.0947292E0,9.424471E0,-7.9073185E-1,2.9127726E1,8.9880365E-1,1.6216597E1,-5.722338E-1,-1.6588293E-1,2.670302E-1],"categories":[],"categories_nodes":[],"categories_segments":[],"categories_sizes":[],"default_left":[1,0,1,1,1,1,1,0,1,1,1,1,1,1,1,0,0,1,1,1,1,0,1,1,0,0,1,0,0,0,0,0,0,0,0,0,0,0,0,0,0],"id":8,"left_children":[1,-1,3,5,7,9,11,-1,13,15,17,19,21,23,25,-1,-1,27,29,31,33,-1,35,37,-1,-1,39,-1,-1,-1,-1,-1,-1,-1,-1,-1,-1,-1,-1,-1,-1],"loss_changes":[6.6032776E2,0E0,4.030999E2,2.823934E2,1.8818921E3,8.4301636E1,3.8014844E2,0E0,4.6921683E2,1.7021347E1,6.621643E0,1.1539978E2,3.0722402E3,5.1954816E2,6.925826E0,0E0,0E0,7.086754E-1,4.1961342E-1,4.070462E1,3.4696698E2,0E0,1.5707079E3,4.423624E2,0E0,0E0,1.1244274E0,0E0,0E0,0E0,0E0,0E0,0E0,0E0,0E0,0E0,0E0,0E0,0E0,0E0,0E0],"parents":[2147483647,0,0,2,2,3,3,4,4,5,5,6,6,8,8,9,9,10,10,11,11,12,12,13,13,14,14,17,17,18,18,19,19,20,20,22,22,23,23,26,26],"right_children":[2,-1,4,6,8,10,12,-1,14,16,18,20,22,24,26,-1,-1,28,30,32,34,-1,36,38,-1,-1,40,-1,-1,-1,-1,-1,-1,-1,-1,-1,-1,-1,-1,-1,-1],"split_conditions":[1.5E0,5.783611E0,6.214779E-1,1.5E0,6.402561E-1,-3.212332E-1,-6.862253E-1,1.0201392E1,-4.2575288E-1,-4.8777685E-1,1.9028842E-1,4E0,-6.759881E-1,3.0078435E-1,2.5E0,-5.745634E-1,-2.0530522E0,8.214855E-2,-5.0144243E-1,-4.2087233E-1,4.0596515E-2,1.2229466E1,-9.742686E-1,-5.2402947E-2,5.721742E0,-5.796616E-1,-5.2912373E-2,-3.2880208E-1,-6.521429E-1,3.8268097E-2,-1.4444552E-1,-3.3753178E-1,-9.284188E-1,2.8273413E0,-2.3721956E-1,8.738318E0,2.696411E-1,4.8649793E0,-1.7167014E-1,-4.9764883E-2,8.010907E-2],"split_indices":[1,0,12,3,12,12,14,0,10,10,12,4,14,13,7,0,0,13,10,10,11,0,15,13,0,0,15,0,0,0,0,0,0,0,0,0,0,0,0,0,0],"split_type":[0,0,0,0,0,0,0,0,0,0,0,0,0,0,0,0,0,0,0,0,0,0,0,0,0,0,0,0,0,0,0,0,0,0,0,0,0,0,0,0,0],"sum_hessian":[2.8E2,1E0,2.79E2,2.44E2,3.5E1,2.2E1,2.22E2,1E0,3.4E1,6E0,1.6E1,7.4E1,1.48E2,1E1,2.4E1,2E0,4E0,1.1E1,5E0,5.2E1,2.2E1,1E0,1.47E2,8E0,2E0,1E0,2.3E1,5E0,6E0,1E0,4E0,3.7E1,1.5E1,3E0,1.9E1,1E0,1.46E2,1E0,7E0,1.4E1,9E0],"tree_param":{"num_deleted":"0","num_feature":"16","num_nodes":"41","size_leaf_vector":"0"}},{"base_weights":[9.700992E-1,3.3098242E-1,3.7132623E0,-1.9811331E0,7.8686476E-1,1.6949259E1,6.2068874E-1,-3.0154707E0,-1.0918208E0,-4.527851E0,9.826505E-1,-6.2449306E-1,2.8769176E1,1.6386898E1,-1.2705797E-1,-5.411745E0,-1.8618674E0,-6.089971E-1,-1.5192811E0,-6.3631144E0,-1.5606256E0,2.4758568E1,7.203019E-1,-9.0009785E-1,-3.3056742E-1,5.0033033E-3,3.452101E1,1.3112055E1,-1.0926745E0,-4.6212304E-1,-2.6789422E0,1.2910235E-1,-6.878336E-1,-2.8165984E-1,-1.6148772E0,2.1762931E0,-3.8535464E-1,1.2325966E-1,4.3089634E1,5.1010203E-1,1.915798E1,-3.7000673E0,-6.27757E-1,-1.4668162E-1,-5.8317333E-1,-1.0920441E-1,-7.347761E-1,-1.7920377E0,-6.0415715E-1,1.5072756E1,9.269481E-1,-2.2834396E0,1.1079011E0,-6.596501E-1,-6.5206013E0,-1.4475883E0,-1.0143543E-1],"categories":[],"categories_nodes":[],"categories_segments":[],"categories_sizes":[],"default_left":[1,1,1,1,1,1,1,1,1,1,1,1,1,0,1,0,1,1,1,0,0,0,1,0,0,0,1,1,1,1,0,0,1,0,1,1,1,0,0,0,0,1,1,0,0,0,0,0,0,0,0,0,0,0,0,0,0],"id":9,"left_children":[1,3,5,7,9,11,13,15,17,19,21,23,25,-1,27,-1,29,31,33,-1,-1,-1,35,-1,-1,-1,37,39,41,43,-1,-1,45,-1,47,49,51,-1,-1,-1,-1,53,55,-1,-1,-1,-1,-1,-1,-1,-1,-1,-1,-1,-1,-1,-1],"loss_changes":[4.9142062E2,2.4293694E2,2.1589443E3,3.1661911E1,2.0423407E2,2.0951694E3,5.2080383E2,3.6918E1,3.6152992E0,2.8189041E1,1.142356E3,1.074934E-1,9.925078E2,0E0,5.640352E2,0E0,1.3630047E1,7.870712E-1,8.465843E-1,0E0,0E0,0E0,2.986565E2,0E0,0E0,0E0,1.4683955E3,2.1879889E2,4.737838E1,1.4356482E-1,0E0,0E0,2.1854448E-1,0E0,7.079239E-1,1.2749989E3,3.029684E2,0E0,0E0,0E0,0E0,4.7152283E1,1.5386981E1,0E0,0E0,0E0,0E0,0E0,0E0,0E0,0E0,0E0,0E0,0E0,0E0,0E0,0E0],"parents":[2147483647,0,0,1,1,2,2,3,3,4,4,5,5,6,6,7,7,8,8,9,9,10,10,11,11,12,12,14,14,16,16,17,17,18,18,22,22,26,26,27,27,28,28,29,29,32,32,34,34,35,35,36,36,41,41,42,42],"right_children":[2,4,6,8,10,12,14,16,18,20,22,24,26,-1,28,-1,30,32,34,-1,-1,-1,36,-1,-1,-1,38,40,42,44,-1,-1,46,-1,48,50,52,-1,-1,-1,-1,54,56,-1,-1,-1,-1,-1,-1,-1,-1,-1,-1,-1,-1,-1,-1],"split_conditions":[3.1385064E-2,-8.824211E-1,1.20488934E-1,4.5E0,-9.91276E-1,-5.7985693E-2,1.5E0,-1.435441E0,-1.3196926E0,3.5E0,-9.805539E-1,2.5E0,-4.3409055E-1,4.9160695E0,-1.8094546E-1,-1.6235236E0,-3.8245595E-1,-8.653766E-1,-1.048184E0,-1.9089344E0,-4.681877E-1,7.427571E0,-4.0360728E-1,-2.7002937E-1,-9.917023E-2,1.500991E-3,1.5E1,2.5E0,1.7446887E-1,2E0,-8.036827E-1,3.8730707E-2,-2.2287314E-1,-8.449796E-2,6.5E0,-6.6378534E-1,-7.218259E-2,3.6977902E-2,1.292689E1,1.5303062E-1,5.747394E0,-7.923946E-1,-2.0388365E-1,-4.400449E-2,-1.74952E-1,-3.2761324E-2,-2.2043283E-1,-5.3761137E-1,-1.8124714E-1,4.5218267E0,2.7808443E-1,-6.850319E-1,3.3237034E-1,-1.9789504E-1,-1.9561805E0,-4.3427652E-1,-3.043063E-2],"split_indices":[15,13,15,3,15,11,1,13,13,1,15,3,10,0,14,0,11,14,14,0,0,0,10,0,0,0,6,3,15,4,0,0,11,0,4,13,13,0,0,0,0,13,12,0,0,0,0,0,0,0,0,0,0,0,0,0,0],"split_type":[0,0,0,0,0,0,0,0,0,0,0,0,0,0,0,0,0,0,0,0,0,0,0,0,0,0,0,0,0,0,0,0,0,0,0,0,0,0,0,0,0,0,0,0,0,0,0,0,0,0,0,0,0,0,0,0,0],"sum_hessian":[2.8E2,2.28E2,5.2E1,3.7E1,1.91E2,9E0,4.3E1,1.6E1,2.1E1,6E0,1.85E2,4E0,5E0,1E0,4.2E1,4E0,1.2E1,1.1E1,1E1,3E0,3E0,1E0,1.84E2,1E0,3E0,1E0,4E0,2E0,4E1,5E0,7E0,1E0,1E1,1E0,9E0,7.9E1,1.05E2,1E0,3E0,1E0,1E0,5E0,3.5E1,2E0,3E0,1E0,9E0,7E0,2E0,6E0,7.3E1,4.6E1,5.9E1,3E0,2E0,1.3E1,2.2E1],"tree_param":{"num_deleted":"0","num_feature":"16","num_nodes":"57","size_leaf_vector":"0"}},{"base_weights":[7.738296E-1,1.3928864E1,6.771014E-1,-4.4105053E-1,1.5559149E0,-2.6798067E0,2.7056774E-1,2.7985699E1,1.2070978E0,-3.2627602E0,-6.688401E-1,2.6592794E1,-8.768179E-1,2.45701E0,-8.337122E-1,-1.4786125E0,-4.775011E0,-7.259751E-1,-1.3444752E-1,3.5622677E1,-2.4842739E-1,-2.8235056E0,-1.8700154E-1,-1.0158516E0,5.0177813E0,-2.647247E0,-4.6176985E-1,-3.184818E0,-2.2740746E-1,-5.2079697E0,-1.5353163E0,-7.1084905E-1,1.4571702E0,-2.1534483E0,4.9797673E0,8.69813E0,-1.5303291E0,-3.414486E0,-1.1971112E0,-8.663562E-1,-7.005029E-2],"categories":[],"categories_nodes":[],"categories_segments":[],"categories_sizes":[],"default_left":[1,0,1,1,1,1,1,0,1,1,1,1,1,1,1,1,0,0,0,0,0,1,1,1,1,1,1,0,0,0,0,0,0,0,0,0,0,0,0,0,0],"id":10,"left_children":[1,-1,3,5,7,9,11,-1,13,15,17,19,21,23,25,27,-1,-1,-1,-1,-1,29,31,33,35,37,39,-1,-1,-1,-1,-1,-1,-1,-1,-1,-1,-1,-1,-1,-1],"loss_changes":[3.481308E2,0E0,2.758274E2,1.982744E2,1.4136271E3,3.2986725E1,2.892483E3,0E0,3.9997852E2,5.4995407E1,1.4665484E-1,9.7834204E2,1.2301484E2,8.677381E2,3.9249413E1,2.4893503E1,0E0,0E0,0E0,0E0,0E0,6.5723526E1,6.0465202E1,2.9718872E2,1.3628734E3,7.038475E0,8.022015E0,0E0,0E0,0E0,0E0,0E0,0E0,0E0,0E0,0E0,0E0,0E0,0E0,0E0,0E0],"parents":[2147483647,0,0,2,2,3,3,4,4,5,5,6,6,8,8,9,9,10,10,11,11,12,12,13,13,14,14,15,15,21,21,22,22,23,23,24,24,25,25,26,26],"right_children":[2,-1,4,6,8,10,12,-1,14,16,18,20,22,24,26,28,-1,-1,-1,-1,-1,30,32,34,36,38,40,-1,-1,-1,-1,-1,-1,-1,-1,-1,-1,-1,-1,-1,-1],"split_conditions":[1.5E0,4.1786594E0,-3.3100255E-2,-5.7266825E-1,-5.644425E-1,-2.2544599E-1,-5.2972233E-1,8.39571E0,5.5E0,-7.988347E-1,4E0,3.5E0,-4.9391955E-2,-1.9377783E-1,-2.9174045E-1,-4.932675E-1,-1.4325033E0,-2.1779254E-1,-4.0334255E-2,1.0686804E1,-7.452822E-2,-4.322886E-1,8.820184E-1,2.5E0,1.0419264E-1,-5.935172E-1,7.160585E-1,-9.5544547E-1,-6.822224E-2,-1.5623909E0,-4.6059492E-1,-2.1325472E-1,4.371511E-1,-6.4603454E-1,1.4939302E0,2.609439E0,-4.5909876E-1,-1.0243459E0,-3.591334E-1,-2.5990686E-1,-2.1015089E-2],"split_indices":[1,0,11,12,10,10,12,0,4,14,3,4,12,15,10,10,0,0,0,0,0,13,12,4,11,12,11,0,0,0,0,0,0,0,0,0,0,0,0,0,0],"split_type":[0,0,0,0,0,0,0,0,0,0,0,0,0,0,0,0,0,0,0,0,0,0,0,0,0,0,0,0,0,0,0,0,0,0,0,0,0,0,0,0,0],"sum_hessian":[2.8E2,1E0,2.79E2,1.23E2,1.56E2,2.9E1,9.4E1,1E0,1.55E2,2.2E1,7E0,3E0,9.1E1,9.6E1,5.9E1,1.1E1,1.1E1,6E0,1E0,2E0,1E0,2.3E1,6.8E1,4.1E1,5.5E1,9E0,5E1,4E0,7E0,7E0,1.6E1,5.2E1,1.6E1,3.5E1,6E0,3.5E1,2E1,5E0,4E0,2.4E1,2.6E1],"tree_param":{"num_deleted":"0","num_feature":"16","num_nodes":"41","size_leaf_vector":"0"}},{"base_weights":[6.128803E-1,1.1839535E1,5.3050107E-1,2.3829228E-1,2.504408E0,4.5035505E0,1.12371355E-1,2.113578E1,1.3682036E0,-2.6751385E0,2.3787842E1,-9.661353E-1,8.059827E-1,5.6752496E0,-5.8162475E-1,-2.4690013E0,-4.4451675E-1,1.9633612E1,5.407328E-1,2.2442029E0,1.407664E1,-3.056379E-1,-2.503649E0,-5.8845363E0,-1.7008518E0,-9.1723716E-1,2.913917E0,5.4504795E0,2.1424772E-1,1.3426489E1,-8.318941E-1,3.4119162E-1,-5.540008E-1],"categories":[],"categories_nodes":[],"categories_segments":[],"categories_sizes":[],"default_left":[1,0,1,1,1,1,1,0,1,0,0,1,1,1,1,1,1,0,1,1,0,1,0,0,0,0,0,0,0,0,0,0,0],"id":11,"left_children":[1,-1,3,5,7,9,11,-1,13,-1,-1,15,17,19,21,23,25,-1,27,29,-1,31,-1,-1,-1,-1,-1,-1,-1,-1,-1,-1,-1],"loss_changes":[2.5360007E2,0E0,1.6090523E2,1.3107982E2,7.3316766E2,1.0326873E3,1.795661E2,0E0,2.972309E2,0E0,0E0,7.259123E1,7.185115E2,2.8549036E2,1.2496128E1,5.295868E1,1.1539237E2,0E0,2.3126128E2,3.2074957E2,0E0,3.8839345E0,0E0,0E0,0E0,0E0,0E0,0E0,0E0,0E0,0E0,0E0,0E0],"parents":[2147483647,0,0,2,2,3,3,4,4,5,5,6,6,8,8,11,11,12,12,13,13,14,14,15,15,16,16,18,18,19,19,21,21],"right_children":[2,-1,4,6,8,10,12,-1,14,-1,-1,16,18,20,22,24,26,-1,28,30,-1,32,-1,-1,-1,-1,-1,-1,-1,-1,-1,-1,-1],"split_conditions":[1.5E0,3.5518606E0,6.214779E-1,-5.65256E-1,6.402561E-1,-5.713569E-1,-1.9118975E-1,6.3407345E0,-4.2575288E-1,-8.0254155E-1,7.136353E0,-4.708714E-1,-1.5976307E-1,3.0078435E-1,4.1343064E0,-7.2690207E-1,4.603431E-1,5.890084E0,-6.8147624E-1,-5.2402947E-2,4.2229924E0,-2.7795744E-1,-7.5109476E-1,-1.765361E0,-5.102556E-1,-2.7517116E-1,8.7417513E-1,1.6351439E0,6.427432E-2,4.027947E0,-2.4956824E-1,1.0235749E-1,-1.6620025E-1],"split_indices":[1,0,12,10,12,10,15,0,10,0,0,13,15,13,12,11,14,0,11,13,0,13,0,0,0,0,0,0,0,0,0,0,0],"split_type":[0,0,0,0,0,0,0,0,0,0,0,0,0,0,0,0,0,0,0,0,0,0,0,0,0,0,0,0,0,0,0,0,0],"sum_hessian":[2.8E2,1E0,2.79E2,2.44E2,3.5E1,6E0,2.38E2,1E0,3.4E1,5E0,1E0,9.3E1,1.45E2,1E1,2.4E1,2.3E1,7E1,1E0,1.44E2,8E0,2E0,2.2E1,2E0,3E0,2E1,6.2E1,8E0,8E0,1.36E2,1E0,7E0,6E0,1.6E1],"tree_param":{"num_deleted":"0","num_feature":"16","num_nodes":"33","size_leaf_vector":"0"}},{"base_weights":[5.3337824E-1,1.0063606E1,4.6340027E-1,6.9953364E-1,-1.7751654E0,1.2098624E0,-7.7246124E-1,-3.460337E-1,-2.4705074E0,4.47172E-1,4.2287855E0,-2.8913245E0,5.9004873E-1,-1.5552448E0,7.193145E-1,-3.4829082E0,-3.820331E-1,-1.3621733E0,1.1734474E0,2.622826E1,2.925333E0,-4.9019322E0,-1.0900835E0,1.7848455E1,-2.876228E-1,-1.9245894E0,-3.89331E-2,1.1506073E0,-7.1857476E-1,-3.8545485E0,-1.0831382E0,-1.2737007E0,2.2937408E-1,-2.0687377E0,8.9837885E0,-1.22525105E-2,3.301941E0,8.696022E0,-5.627911E-1,-1.2246494E0,-5.514924E0,-1.3262339E-1,-1.2271832E0,-2.4909346E0,-1.672575E-1,-6.2354255E0,-2.479901E0,-1.0369837E-1,-1.521009E0,-3.6453104E-1,-1.54602E0,4.0221012E-1,-1.9919991E-2],"categories":[],"categories_nodes":[],"categories_segments":[],"categories_sizes":[],"default_left":[1,0,1,1,1,1,1,1,1,1,1,1,1,1,1,1,1,1,1,0,1,1,1,0,1,0,0,0,0,1,1,1,1,0,0,0,0,0,0,0,0,0,0,0,0,0,0,0,0,0,0,0,0],"id":12,"left_children":[1,-1,3,5,7,9,11,13,15,17,19,21,23,25,27,29,31,33,35,-1,37,39,41,-1,43,-1,-1,-1,-1,45,47,49,51,-1,-1,-1,-1,-1,-1,-1,-1,-1,-1,-1,-1,-1,-1,-1,-1,-1,-1,-1,-1],"loss_changes":[1.8273712E2,0E0,1.492498E2,1.9173969E2,2.5975967E1,4.332822E2,1.922462E2,1.4001018E1,3.672814E1,2.0133905E2,1.0129337E3,8.881781E1,6.261693E2,2.725278E0,4.5477047E0,6.5272064E0,4.108358E0,3.4022906E2,2.751297E2,0E0,7.496625E2,2.0295868E1,1.8062611E0,0E0,1.0191463E1,0E0,0E0,0E0,0E0,1.7265427E1,1.1288779E0,1.791811E-1,2.2344702E-1,0E0,0E0,0E0,0E0,0E0,0E0,0E0,0E0,0E0,0E0,0E0,0E0,0E0,0E0,0E0,0E0,0E0,0E0,0E0,0E0],"parents":[2147483647,0,0,2,2,3,3,4,4,5,5,6,6,7,7,8,8,9,9,10,10,11,11,12,12,13,13,14,14,15,15,16,16,17,17,18,18,20,20,21,21,22,22,24,24,29,29,30,30,31,31,32,32],"right_children":[2,-1,4,6,8,10,12,14,16,18,20,22,24,26,28,30,32,34,36,-1,38,40,42,-1,44,-1,-1,-1,-1,46,48,50,52,-1,-1,-1,-1,-1,-1,-1,-1,-1,-1,-1,-1,-1,-1,-1,-1,-1,-1,-1,-1],"split_conditions":[1.5E0,3.019082E0,3.5E0,5.5E0,-1.979116E-1,4.5E0,-1.9670017E-2,-9.9719155E-1,5.5E0,-3.2940117E-1,-6.008948E-1,5.5E0,-3.019083E-1,-4.6459413E-1,4E0,2.7602068E-1,-7.5381184E-1,1.2500007E0,-1.2000179E-1,7.8684783E0,-5.984812E-1,-3.3100255E-2,-7.5381184E-1,5.354537E0,-2.9763782E-1,-5.7737684E-1,-1.167993E-2,3.451822E-1,-2.1557243E-1,-8.9096963E-1,5.5E0,8E0,4.5E0,-6.206213E-1,2.6951365E0,-3.6757533E-3,9.905823E-1,2.6088066E0,-1.6883734E-1,-3.6739483E-1,-1.6544772E0,-3.9787017E-2,-3.6815497E-1,-7.472804E-1,-5.0177254E-2,-1.8706278E0,-7.4397033E-1,-3.1109514E-2,-4.563027E-1,-1.0935932E-1,-4.6380603E-1,1.2066304E-1,-5.9759975E-3],"split_indices":[1,0,7,3,15,3,11,15,3,13,11,4,10,10,4,11,13,15,11,0,12,11,13,0,10,0,0,0,0,14,1,3,4,0,0,0,0,0,0,0,0,0,0,0,0,0,0,0,0,0,0,0,0],"split_type":[0,0,0,0,0,0,0,0,0,0,0,0,0,0,0,0,0,0,0,0,0,0,0,0,0,0,0,0,0,0,0,0,0,0,0,0,0,0,0,0,0,0,0,0,0,0,0,0,0,0,0,0,0],"sum_hessian":[2.8E2,1E0,2.79E2,2.53E2,2.6E1,1.88E2,6.5E1,9E0,1.7E1,1.51E2,3.7E1,2.5E1,4E1,4E0,5E0,1.1E1,6E0,4.3E1,1.08E2,1E0,3.6E1,1.1E1,1.4E1,1E0,3.9E1,3E0,1E0,4E0,1E0,9E0,2E0,2E0,4E0,4.1E1,2E0,7E1,3.8E1,1.3E1,2.3E1,2E0,9E0,2E0,1.2E1,1E0,3.8E1,2E0,7E0,1E0,1E0,1E0,1E0,2E0,2E0],"tree_param":{"num_deleted":"0","num_feature":"16","num_nodes":"53","size_leaf_vector":"0"}},{"base_weights":[4.249529E-1,8.8720754E-2,1.8697116E0,4.0065637E0,-3.465872E-2,2.4358978E1,9.687838E-1,-1.9004664E0,1.9724373E1,-2.3204222E-1,1.5379003E0,6.3729553E0,-1.5863276E-1,-8.050062E-1,4.9982148E-1,4.318777E0,-6.039361E-1,-1.1781856E0,1.2649506E1,9.406515E0,-8.380806E-1,1.4610764E0,-1.4070396E0,9.0838785E0,-2.3905927E-1,1.744865E0,1.0600922E1,-2.0019118E-1,-1.6641867E0,-2.0983915E0,1.3474889E-1,2.1990778E1,-9.082694E-1,5.0991476E-1,1.3599857E1,8.554066E0,-1.2757931E0,1.3442967E1,-2.3923042E-1,-7.3079854E-1,-2.7126205E0,2.5551593E0,2.4128098E1,1.5266129E1,-6.1895204E-1,1.1414354E1,-8.906155E-1,4.654345E-1,-4.7378135E-1,2.1400768E-1,-1.1884332E-2,-1.3505198E0,-1.1884332E-2,-2.5920482E0,-1.329827E-1],"categories":[],"categories_nodes":[],"categories_segments":[],"categories_sizes":[],"default_left":[1,1,1,1,1,0,1,0,0,1,1,1,1,1,1,1,1,1,1,1,1,1,1,1,1,1,0,1,0,0,1,0,1,0,0,0,1,0,0,0,0,0,0,0,0,0,0,0,0,0,0,0,0,0,0],"id":13,"left_children":[1,3,5,7,9,-1,11,-1,-1,13,15,17,19,21,23,25,27,29,31,33,35,37,39,41,43,45,-1,47,-1,-1,49,-1,51,-1,-1,-1,53,-1,-1,-1,-1,-1,-1,-1,-1,-1,-1,-1,-1,-1,-1,-1,-1,-1,-1],"loss_changes":[1.363367E2,1.10833206E2,1.0502452E3,6.8740454E2,6.957544E1,0E0,3.178341E2,0E0,0E0,8.3849335E1,1.5151286E2,4.4145947E2,2.938402E2,1.5485263E2,5.603199E2,1.5936937E2,6.087906E0,6.323608E0,6.53208E2,1.0498471E2,1.8357774E2,4.9216537E2,7.659459E1,6.258853E2,4.9245438E2,2.3951958E2,0E0,2.4058177E0,0E0,0E0,3.740925E-2,0E0,1.1732299E0,0E0,0E0,0E0,6.1328728E1,0E0,0E0,0E0,0E0,0E0,0E0,0E0,0E0,0E0,0E0,0E0,0E0,0E0,0E0,0E0,0E0,0E0,0E0],"parents":[2147483647,0,0,1,1,2,2,3,3,4,4,6,6,9,9,10,10,11,11,12,12,13,13,14,14,15,15,16,16,17,17,18,18,19,19,20,20,21,21,22,22,23,23,24,24,25,25,27,27,30,30,32,32,36,36],"right_children":[2,4,6,8,10,-1,12,-1,-1,14,16,18,20,22,24,26,28,30,32,34,36,38,40,42,44,46,-1,48,-1,-1,50,-1,52,-1,-1,-1,54,-1,-1,-1,-1,-1,-1,-1,-1,-1,-1,-1,-1,-1,-1,-1,-1,-1,-1],"split_conditions":[3.1385064E-2,-5.65256E-1,3.9149303E-2,-5.713569E-1,6.6578543E-1,7.307694E0,1.20488934E-1,-5.7013994E-1,5.917312E0,-3.0414525E-1,-4.2575288E-1,2.4934062E-1,-1.8094546E-1,-6.6378534E-1,-2.958076E-1,3.0078435E-1,-1.9623815E-1,2.5E0,1.5E0,2.5E0,1.5E0,-6.269653E-1,-1.6604841E-1,-2.9987472E-1,-9.6835303E-1,-5.2402947E-2,3.1802766E0,1.3147397E0,-4.9925604E-1,-6.295175E-1,4E0,6.597234E0,3.5E0,1.5297443E-1,4.0799575E0,2.5662198E0,5.2189195E-1,4.0328903E0,-7.176913E-2,-2.1923958E-1,-8.137862E-1,7.6654786E-1,7.2384295E0,4.5798388E0,-1.8568562E-1,3.4243064E0,-2.6718467E-1,1.3963035E-1,-1.4213441E-1,6.420231E-2,-3.5652996E-3,-4.0515596E-1,-3.5652996E-3,-7.776145E-1,-3.989481E-2],"split_indices":[15,10,15,10,12,0,15,0,0,10,10,13,14,13,10,13,11,3,4,3,1,11,15,10,15,13,0,12,0,0,3,0,3,0,0,0,10,0,0,0,0,0,0,0,0,0,0,0,0,0,0,0,0,0,0],"split_type":[0,0,0,0,0,0,0,0,0,0,0,0,0,0,0,0,0,0,0,0,0,0,0,0,0,0,0,0,0,0,0,0,0,0,0,0,0,0,0,0,0,0,0,0,0,0,0,0,0,0,0,0,0,0,0],"sum_hessian":[2.8E2,2.28E2,5.2E1,6E0,2.22E2,1E0,5.1E1,5E0,1E0,1.98E2,2.4E1,8E0,4.3E1,1.11E2,8.7E1,1E1,1.4E1,4E0,4E0,2E0,4.1E1,2.3E1,8.8E1,6E0,8.1E1,8E0,2E0,1.1E1,3E0,2E0,2E0,2E0,2E0,1E0,1E0,1E0,4E1,2E0,2.1E1,5.9E1,2.9E1,5E0,1E0,1E0,8E1,1E0,7E0,3E0,8E0,1E0,1E0,1E0,1E0,1.8E1,2.2E1],"tree_param":{"num_deleted":"0","num_feature":"16","num_nodes":"55","size_leaf_vector":"0"}},{"base_weights":[4.5910054E-1,6.9180954E-1,-1.0026274E0,-1.219845E0,9.166316E-1,-3.8933554E0,-8.240989E-1,2.835125E-1,-2.5286882E0,3.987882E0,6.2027967E-1,-1.2555894E0,-4.1500714E-1,-1.4940445E0,9.661841E-1,-4.2892747E0,-6.720887E-1,8.537565E-2,1.2429083E1,-1.0336983E0,1.0273532E0,-1.6268067E0,-4.3984666E-1,-6.244713E-1,-1.6781503E-1,-1.7722206E0,-3.297581E-1,2.0382491E-1,3.9137082E0,-4.87425E0,-3.8971192E-1,-1.6667783E0,-2.9187897E-1,-3.9555867E0,8.150225E0,-1.5049378E0,1.9772327E1,-3.2073665E0,-3.900511E-1,1.2976208E1,8.7157154E-1,1.20115906E-1,-1.7965375E0,2.0937681E-2,-6.2834793E-1,1.1602792E-1,-7.10124E-1,-3.0344084E-2,-4.0080315E-1,5.2677387E-1,-3.3155477E-1,-4.092051E-1,2.0603886E-1,-7.229911E0,-1.5194604E0,2.0508883E1,-6.666008E-2,2.7163115E1,-1.2000148E0,-8.5222286E-1,-4.242901E0,5.303951E0,-9.464496E-1,1.32362E0,-7.222513E-1,-1.1292815E0,-2.6819153E0,-4.812646E-2,7.953298E-2,-1.0424929E0,-3.14796E-1,-7.233405E-2,6.375054E-2],"categories":[],"categories_nodes":[],"categories_segments":[],"categories_sizes":[],"default_left":[1,1,1,1,1,0,1,1,1,1,1,1,1,1,1,1,1,1,1,1,1,1,1,1,1,0,0,1,0,0,0,0,1,1,1,0,1,1,1,0,1,0,1,1,0,0,1,1,0,0,0,0,0,0,0,0,0,0,0,0,0,0,0,0,0,0,0,0,0,0,0,0,0],"id":14,"left_children":[1,3,5,7,9,-1,11,13,15,17,19,21,23,25,27,29,31,33,35,37,39,41,43,45,47,-1,-1,49,-1,-1,-1,-1,51,53,55,-1,57,59,61,-1,63,-1,65,67,-1,-1,69,71,-1,-1,-1,-1,-1,-1,-1,-1,-1,-1,-1,-1,-1,-1,-1,-1,-1,-1,-1,-1,-1,-1,-1,-1,-1],"loss_changes":[9.627782E1,1.055552E2,1.6918507E1,5.187605E1,1.959437E2,0E0,6.186651E0,1.721886E1,4.287908E1,6.2483386E2,1.3572011E2,4.735176E0,9.825399E-1,7.111025E-1,2.1673008E1,1.4068497E1,2.539028E0,4.8849542E2,6.436817E2,5.4711983E1,2.8837766E2,3.7738686E0,6.2116516E-1,7.800784E-1,3.4015805E-1,0E0,0E0,1.7307572E0,0E0,0E0,0E0,0E0,4.9324358E-1,6.878111E1,5.0911545E2,0E0,6.526045E2,1.8333595E1,1.064002E2,0E0,1.162336E2,0E0,3.4698753E0,1.5968142E-2,0E0,0E0,9.857745E-1,3.621958E-2,0E0,0E0,0E0,0E0,0E0,0E0,0E0,0E0,0E0,0E0,0E0,0E0,0E0,0E0,0E0,0E0,0E0,0E0,0E0,0E0,0E0,0E0,0E0,0E0,0E0],"parents":[2147483647,0,0,1,1,2,2,3,3,4,4,6,6,7,7,8,8,9,9,10,10,11,11,12,12,13,13,14,14,15,15,16,16,17,17,18,18,19,19,20,20,21,21,22,22,23,23,24,24,27,27,32,32,33,33,34,34,36,36,37,37,38,38,40,40,42,42,43,43,46,46,47,47],"right_children":[2,4,6,8,10,-1,12,14,16,18,20,22,24,26,28,30,32,34,36,38,40,42,44,46,48,-1,-1,50,-1,-1,-1,-1,52,54,56,-1,58,60,62,-1,64,-1,66,68,-1,-1,70,72,-1,-1,-1,-1,-1,-1,-1,-1,-1,-1,-1,-1,-1,-1,-1,-1,-1,-1,-1,-1,-1,-1,-1,-1,-1],"split_conditions":[1.4325461E0,-6.320096E-1,-4.6459413E-1,4E0,-6.1751467E-1,-1.1680067E0,-8.472276E-2,2.5E0,5.5E0,-6.222801E-1,-5.7266825E-1,1.7669302E0,-8.736365E-2,4E0,5.5E0,3.5E0,4.5E0,2.5E0,3.5E0,-3.9016536E-1,-5.6983167E-1,-6.642884E-1,-4.0541717E-1,1.4839897E0,1.4673994E0,-5.316662E-1,-9.892744E-2,-8.85851E-1,1.1741126E0,-1.462275E0,-1.1691358E-1,-5.000335E-1,9.5E0,-3.185836E-1,-1.1685321E-1,-4.5148134E-1,5.5E0,-4.4934234E-1,-3.4888384E-1,3.8928626E0,1.2971023E-3,3.6034774E-2,-6.7120606E-1,-4.2270255E-1,-1.8850438E-1,3.480838E-2,1.4879699E0,1.9995385E-1,-1.2024095E-1,1.5803216E-1,-9.9466436E-2,-1.2276154E-1,6.181166E-2,-2.1689734E0,-4.5583814E-1,6.152665E0,-1.9998023E-2,8.148934E0,-3.6000445E-1,-2.5566688E-1,-1.2728703E0,1.5911853E0,-2.839349E-1,3.97086E-1,-2.166754E-1,-3.3878446E-1,-8.045746E-1,-1.4437938E-2,2.3859896E-2,-3.1274787E-1,-9.4438806E-2,-2.1700216E-2,1.9125164E-2],"split_indices":[13,12,10,3,12,0,10,3,3,12,12,13,15,1,1,7,4,7,3,10,12,14,10,13,15,0,0,14,0,0,0,0,4,10,10,0,1,10,10,0,14,0,11,10,0,0,12,11,0,0,0,0,0,0,0,0,0,0,0,0,0,0,0,0,0,0,0,0,0,0,0,0,0],"split_type":[0,0,0,0,0,0,0,0,0,0,0,0,0,0,0,0,0,0,0,0,0,0,0,0,0,0,0,0,0,0,0,0,0,0,0,0,0,0,0,0,0,0,0,0,0,0,0,0,0,0,0,0,0,0,0,0,0,0,0,0,0,0,0,0,0,0,0,0,0,0,0,0,0],"sum_hessian":[2.8E2,2.42E2,3.8E1,2.5E1,2.17E2,1E0,3.7E1,1.2E1,1.3E1,1.8E1,1.99E2,1.7E1,2E1,3E0,9E0,6E0,7E0,1.3E1,5E0,3.9E1,1.6E2,1.1E1,6E0,1E1,1E1,2E0,1E0,8E0,1E0,5E0,1E0,1E0,6E0,9E0,4E0,2E0,3E0,8E0,3.1E1,1E0,1.59E2,1E0,1E1,2E0,4E0,1E0,9E0,7E0,3E0,5E0,3E0,5E0,1E0,3E0,6E0,1E0,3E0,2E0,1E0,3E0,5E0,2E0,2.9E1,1.24E2,3.5E1,7E0,3E0,1E0,1E0,4E0,5E0,5E0,2E0],"tree_param":{"num_deleted":"0","num_feature":"16","num_nodes":"73","size_leaf_vector":"0"}},{"base_weights":[3.5770342E-1,7.0724106E0,3.084637E-1,-1.4529222E0,4.7926912E-1,-6.439101E-1,-1.9493363E0,5.3016195E0,3.8168567E-1,2.999322E-1,-1.4804341E0,-2.369781E0,-2.0066775E-1,-1.6565619E0,1.6567173E1,1.7191726E-1,1.7216151E0,-3.6569347E0,-9.2796624E-1,1.7797014E-2,-4.2803103E-1,6.5648603E-1,-9.137647E-1,6.718197E0,-3.458822E-1,-6.782017E-1,-4.117041E0,-1.3793617E0,-4.7153568E-1,-4.0907502E-2,6.760302E-2,3.2740372E-1,5.8488603E0,-2.0867765E-1,-1.9135791E0,2.0840006E0,1.3148491E1,-1.4819052E0,1.782326E-1],"categories":[],"categories_nodes":[],"categories_segments":[],"categories_sizes":[],"default_left":[1,0,1,1,1,1,1,1,1,0,0,1,1,0,0,1,1,1,1,1,0,1,1,1,1,0,0,0,0,0,0,0,0,0,0,0,0,0,0],"id":15,"left_children":[1,-1,3,5,7,9,11,13,15,-1,-1,17,19,-1,-1,21,23,25,27,29,-1,31,33,35,37,-1,-1,-1,-1,-1,-1,-1,-1,-1,-1,-1,-1,-1,-1],"loss_changes":[9.072551E1,0E0,8.4935524E1,8.784927E0,1.184453E2,9.129044E0,1.0552738E1,4.193834E2,7.05349E1,0E0,0E0,1.8876541E1,2.0630114E-1,0E0,0E0,1.1581306E2,3.5355792E2,5.431015E0,7.9179716E-1,1.1536983E-2,0E0,2.5781027E2,4.75377E1,2.7059103E2,1.5149286E1,0E0,0E0,0E0,0E0,0E0,0E0,0E0,0E0,0E0,0E0,0E0,0E0,0E0,0E0],"parents":[2147483647,0,0,2,2,3,3,4,4,5,5,6,6,7,7,8,8,11,11,12,12,15,15,16,16,17,17,18,18,19,19,21,21,22,22,23,23,24,24],"right_children":[2,-1,4,6,8,10,12,14,16,-1,-1,18,20,-1,-1,22,24,26,28,30,-1,32,34,36,38,-1,-1,-1,-1,-1,-1,-1,-1,-1,-1,-1,-1,-1,-1],"split_conditions":[1.5E0,2.1217232E0,1.5E0,-4.8492986E-1,-5.65256E-1,-1.382016E-2,1.7669302E0,-5.713569E-1,6.214779E-1,8.997966E-2,-4.4413024E-1,-5.280098E-1,-4.0541717E-1,-4.9696857E-1,4.970152E0,-1.4093979E-1,-4.1558504E-1,2.5E0,-3.8304788E-1,-4.2270255E-1,-1.2840931E-1,-1.7370236E-1,-5.7985693E-2,3.0078435E-1,2.9815065E-2,-2.0346051E-1,-1.2351124E0,-4.1380855E-1,-1.4146072E-1,-1.2272251E-2,2.0280907E-2,9.822112E-2,1.7546581E0,-6.2603295E-2,-5.7407373E-1,6.252002E-1,3.9445474E0,-4.4457158E-1,5.346978E-2],"split_indices":[1,0,3,10,10,13,13,10,12,0,0,15,10,0,0,12,10,7,10,10,0,12,11,13,14,0,0,0,0,0,0,0,0,0,0,0,0,0,0],"split_type":[0,0,0,0,0,0,0,0,0,0,0,0,0,0,0,0,0,0,0,0,0,0,0,0,0,0,0,0,0,0,0,0,0,0,0,0,0,0,0],"sum_hessian":[2.8E2,1E0,2.79E2,2.4E1,2.55E2,1E1,1.4E1,4E0,2.51E2,5E0,5E0,1.1E1,3E0,3E0,1E0,2.18E2,3.3E1,5E0,6E0,2E0,1E0,1.51E2,6.7E1,9E0,2.4E1,1E0,4E0,2E0,4E0,1E0,1E0,1.43E2,8E0,4E1,2.7E1,6E0,3E0,7E0,1.7E1],"tree_param":{"num_deleted":"0","num_feature":"16","num_nodes":"39","size_leaf_vector":"0"}},{"base_weights":[2.8427625E-1,3.5912097E-2,1.3520331E0,2.8579757E0,-5.28339E-2,1.658155E1,7.402818E-1,-1.3597271E0,1.4082096E1,1.0729673E-1,-1.2192376E0,4.4053235E0,-2.6210364E-2,-2.630349E-1,1.4802597E0,-7.1206766E-1,-2.5665705E0,-9.046522E-1,8.834234E0,7.718941E0,-5.788114E-1,-1.3965404E0,3.171461E-1,-2.1827388E0,4.0584083E0,-1.8781813E0,-3.2720673E-1,-4.3810287E0,-9.6458143E-1,-1.6038889E0,9.613524E-2,1.5428166E1,-7.044431E-1,2.661862E-1,1.1312225E1,6.011551E0,-8.8617516E-1,-2.5400224E0,-5.667547E-1,7.55312E0,2.7432796E-2,-4.186908E0,2.8664213E-1,1.2612314E1,-7.088604E-1,-2.3891413E0,-7.4116105E-1,7.143092E-2,-2.2113261E0,-1.4206787E0,-1.8695705E-1,3.2154587E-1,-1.7734301E-1,-1.0887147E0,3.2050073E-2,-2.4350119E0,7.111004E-3],"categories":[],"categories_nodes":[],"categories_segments":[],"categories_sizes":[],"default_left":[1,1,1,1,1,0,1,0,0,1,1,1,1,1,1,1,1,1,1,1,1,1,1,1,1,1,1,0,1,0,1,0,1,0,0,0,1,0,0,0,0,0,0,0,0,0,0,0,0,0,0,0,0,0,0,0,0],"id":16,"left_children":[1,3,5,7,9,-1,11,-1,-1,13,15,17,19,21,23,25,27,29,31,33,35,37,39,41,43,45,47,-1,49,-1,51,-1,53,-1,-1,-1,55,-1,-1,-1,-1,-1,-1,-1,-1,-1,-1,-1,-1,-1,-1,-1,-1,-1,-1,-1,-1],"loss_changes":[7.447054E1,5.7503323E1,4.8150885E2,3.5052783E2,4.178208E1,0E0,1.461952E2,0E0,0E0,1.0055432E2,1.6622246E1,2.1964856E2,1.9278688E2,1.030345E2,4.054961E2,8.810072E0,1.6121342E1,3.6531267E0,3.2535522E2,7.732846E1,9.04041E1,4.8849213E1,2.1781401E2,9.028317E1,1.0284097E3,1.134119E0,1.2926333E1,0E0,1.5077558E0,0E0,2.4195863E-1,0E0,8.8393366E-1,0E0,0E0,0E0,5.6743046E1,0E0,0E0,0E0,0E0,0E0,0E0,0E0,0E0,0E0,0E0,0E0,0E0,0E0,0E0,0E0,0E0,0E0,0E0,0E0,0E0],"parents":[2147483647,0,0,1,1,2,2,3,3,4,4,6,6,9,9,10,10,11,11,12,12,13,13,14,14,15,15,16,16,17,17,18,18,19,19,20,20,21,21,22,22,23,23,24,24,25,25,26,26,28,28,30,30,32,32,36,36],"right_children":[2,4,6,8,10,-1,12,-1,-1,14,16,18,20,22,24,26,28,30,32,34,36,38,40,42,44,46,48,-1,50,-1,52,-1,54,-1,-1,-1,56,-1,-1,-1,-1,-1,-1,-1,-1,-1,-1,-1,-1,-1,-1,-1,-1,-1,-1,-1,-1],"split_conditions":[3.1385064E-2,-5.65256E-1,3.9149303E-2,-5.713569E-1,3.5E0,4.9744654E0,1.20488934E-1,-4.0791816E-1,4.224629E0,4E0,5.5E0,2.4934062E-1,-1.8094546E-1,-4.1942766E-1,-6.206633E-1,-4.9659324E-1,2E0,2.5E0,1.5E0,2.5E0,1.5E0,-2.9763782E-1,-6.2035125E-1,5.5E0,-2.9601097E-1,-4.826917E-1,-7.703167E-1,-1.3143086E0,5.5E0,-4.811667E-1,4E0,4.62845E0,3.5E0,7.985587E-2,3.3936677E0,1.8034654E0,1.8320699E-1,-7.6200676E-1,-1.7002642E-1,2.2659361E0,8.229839E-3,-1.2560724E0,8.599264E-2,3.7836945E0,-2.1265812E-1,-7.167424E-1,-2.2234832E-1,2.1429278E-2,-6.6339785E-1,-4.2620364E-1,-5.6087118E-2,9.646376E-2,-5.3202905E-2,-3.2661444E-1,9.615023E-3,-7.3050356E-1,2.1333012E-3],"split_indices":[15,10,15,10,7,0,15,0,0,1,1,13,14,13,12,13,4,3,4,3,1,10,12,1,10,12,14,0,3,0,3,0,3,0,0,0,14,0,0,0,0,0,0,0,0,0,0,0,0,0,0,0,0,0,0,0,0],"split_type":[0,0,0,0,0,0,0,0,0,0,0,0,0,0,0,0,0,0,0,0,0,0,0,0,0,0,0,0,0,0,0,0,0,0,0,0,0,0,0,0,0,0,0,0,0,0,0,0,0,0,0,0,0,0,0,0,0],"sum_hessian":[2.8E2,2.28E2,5.2E1,6E0,2.22E2,1E0,5.1E1,5E0,1E0,1.96E2,2.6E1,8E0,4.3E1,1.55E2,4.1E1,2E1,6E0,4E0,4E0,2E0,4.1E1,5.2E1,1.03E2,1.7E1,2.4E1,4E0,1.6E1,2E0,4E0,2E0,2E0,2E0,2E0,1E0,1E0,1E0,4E1,2.1E1,3.1E1,3E0,1E2,9E0,8E0,8E0,1.6E1,2E0,2E0,1.4E1,2E0,2E0,2E0,1E0,1E0,1E0,1E0,1.4E1,2.6E1],"tree_param":{"num_deleted":"0","num_feature":"16","num_nodes":"57","size_leaf_vector":"0"}},{"base_weights":[2.6155126E-1,4.39108E-1,-9.5901865E-1,6.080368E-1,-1.0136757E0,-1.5049751E0,-3.9132208E-1,5.436515E0,5.3911686E-1,-5.5991346E-1,-1.9646517E0,-3.4272596E-1,-2.0575392E0,-5.2494484E-1,-8.726241E-2,1.0976551E1,-2.8217788E0,-1.0825994E0,7.5368136E-1,-1.7078508E-1,-1.6153159E0,-9.6140677E-1,-4.493683E0,9.640892E-3,-4.856009E-1,-1.0973932E0,-2.5865872E0,-5.632169E-1,-3.2839656E-2,2.5273204E-1,-1.8605016E-1,-3.8723373E0,-2.3397915E-1,7.1486297E0,4.7607028E-1,-1.1080065E0,4.0862623E-1,-1.4956562E-1,-1.2562301E0,-3.888631E-2,5.3347647E-2,-5.903939E-1,-3.321439E-2,-2.7656393E0,-7.561376E-1,-7.190747E-1,-2.8751338E-1,-7.366295E-2,-3.739931E-1,-3.7420976E-1,-4.497121E0,6.9525915E-1,-7.4825966E-1,2.9875548E0,1.8138077E1,1.196978E1,3.499225E-1,-1.506293E0,4.4171318E-1,-4.2659944E-1,8.275229E-1,5.6343675E-3,-2.299828E-1,-1.3935437E0,-3.5348803E-1,-9.174764E-2,-6.620884E-4],"categories":[],"categories_nodes":[],"categories_segments":[],"categories_sizes":[],"default_left":[1,1,1,1,1,1,1,1,1,1,1,1,1,1,1,0,0,1,1,1,0,1,0,1,1,0,1,1,0,0,1,1,1,1,1,1,1,1,1,0,0,0,0,0,0,0,0,1,0,0,0,0,0,0,0,0,0,0,0,0,0,0,0,0,0,0,0],"id":17,"left_children":[1,3,5,7,9,11,13,15,17,19,21,23,25,27,29,-1,-1,31,33,35,-1,37,-1,39,41,-1,43,45,-1,-1,47,49,51,53,55,57,59,61,63,-1,-1,-1,-1,-1,-1,-1,-1,65,-1,-1,-1,-1,-1,-1,-1,-1,-1,-1,-1,-1,-1,-1,-1,-1,-1,-1,-1],"loss_changes":[6.1319557E1,6.0988945E1,1.0568825E1,7.061313E1,1.0119406E1,1.0854736E1,7.261486E-1,1.6822714E2,7.7019775E1,7.527181E0,1.5977642E1,3.5709232E-1,3.2570572E0,2.263453E-1,2.8213185E-1,0E0,0E0,6.0647087E1,3.4100656E2,8.59831E0,0E0,1.4875593E0,0E0,8.437392E-3,2.1742523E-1,0E0,2.0301819E-1,3.0890298E-1,0E0,0E0,9.918484E-2,1.1430565E1,1.0555906E1,3.1163483E2,2.6694394E2,4.368744E0,3.8517532E0,3.8738042E-2,1.271925E-1,0E0,0E0,0E0,0E0,0E0,0E0,0E0,0E0,6.5402444E-3,0E0,0E0,0E0,0E0,0E0,0E0,0E0,0E0,0E0,0E0,0E0,0E0,0E0,0E0,0E0,0E0,0E0,0E0,0E0],"parents":[2147483647,0,0,1,1,2,2,3,3,4,4,5,5,6,6,7,7,8,8,9,9,10,10,11,11,12,12,13,13,14,14,17,17,18,18,19,19,21,21,23,23,24,24,26,26,27,27,30,30,31,31,32,32,33,33,34,34,35,35,36,36,37,37,38,38,47,47],"right_children":[2,4,6,8,10,12,14,16,18,20,22,24,26,28,30,-1,-1,32,34,36,-1,38,-1,40,42,-1,44,46,-1,-1,48,50,52,54,56,58,60,62,64,-1,-1,-1,-1,-1,-1,-1,-1,66,-1,-1,-1,-1,-1,-1,-1,-1,-1,-1,-1,-1,-1,-1,-1,-1,-1,-1,-1],"split_conditions":[1.4582679E0,3.5E0,-4.518463E-1,-9.6835303E-1,-3.405464E-1,-8.442191E-1,1.01566136E-1,1.5E0,-7.154468E-1,-7.703167E-1,-4.0814623E-1,-1.0456727E0,1.6383209E0,9E0,4.4442236E-1,3.2929654E0,-8.4653366E-1,-5.223151E-1,-6.242002E-1,-4.932675E-1,-4.845948E-1,1.2E1,-1.348105E0,-4.2270255E-1,-8.916199E-1,-3.2921797E-1,4E0,1.4879699E0,-9.851897E-3,7.581961E-2,5.5E0,-5.020121E-1,1.1901697E-2,3.5E0,-5.644425E-1,-2.6741198E-1,-1.0027375E0,6E0,1.15E1,-1.1665893E-2,1.6004294E-2,-1.7711818E-1,-9.964317E-3,-8.296918E-1,-2.2684129E-1,-2.1572243E-1,-8.6254016E-2,4E0,-1.12197936E-1,-1.12262934E-1,-1.3491364E0,2.0857775E-1,-2.244779E-1,8.9626646E-1,5.4414234E0,3.590934E0,1.0497676E-1,-4.5188794E-1,1.3251396E-1,-1.2797984E-1,2.4825688E-1,1.6903103E-3,-6.899484E-2,-4.1806313E-1,-1.06046416E-1,-2.7524294E-2,-1.9862653E-4],"split_indices":[13,7,15,15,10,11,15,4,11,14,12,11,13,3,14,0,0,13,11,10,0,6,0,10,11,0,3,12,0,0,3,10,13,1,10,12,15,4,4,0,0,0,0,0,0,0,0,3,0,0,0,0,0,0,0,0,0,0,0,0,0,0,0,0,0,0,0],"split_type":[0,0,0,0,0,0,0,0,0,0,0,0,0,0,0,0,0,0,0,0,0,0,0,0,0,0,0,0,0,0,0,0,0,0,0,0,0,0,0,0,0,0,0,0,0,0,0,0,0,0,0,0,0,0,0,0,0,0,0,0,0,0,0,0,0,0,0],"sum_hessian":[2.8E2,2.45E2,3.5E1,2.2E2,2.5E1,1.7E1,1.8E1,2E0,2.18E2,1.8E1,7E0,6E0,1.1E1,1.2E1,6E0,1E0,1E0,2.5E1,1.93E2,1.4E1,4E0,6E0,1E0,2E0,4E0,5E0,6E0,1.1E1,1E0,1E0,5E0,5E0,2E1,7E0,1.86E2,5E0,9E0,2E0,4E0,1E0,1E0,3E0,1E0,5E0,1E0,6E0,5E0,4E0,1E0,1E0,4E0,7E0,1.3E1,6E0,1E0,1E0,1.85E2,4E0,1E0,3E0,6E0,1E0,1E0,3E0,1E0,3E0,1E0],"tree_param":{"num_deleted":"0","num_feature":"16","num_nodes":"67","size_leaf_vector":"0"}},{"base_weights":[2.059865E-1,-7.0915283E-3,1.1227578E0,2.1152818E0,-7.368131E-2,1.4041824E1,6.0427916E-1,-9.2360884E-1,1.0174313E1,5.472076E-1,-2.8516027E-1,3.2919025E0,-3.480253E-2,5.8414694E-2,7.0091095E0,-1.340702E0,1.2720025E-1,-3.7029803E-1,7.028163E0,6.491115E0,-5.114598E-1,3.0253723E0,-3.7548357E-1,1.5417366E1,-9.327646E-1,-7.28051E-1,-3.2795553E0,-6.097168E-1,1.0528142E0,-1.1164366E0,7.4798614E-1,1.2272548E1,-5.5894285E-1,1.7376989E-1,9.562902E0,5.0573273E0,-7.771127E-1,6.1666375E-1,8.7388115E0,-9.3276113E-1,1.0445305E0,-1.1055391E0,-2.9360783E-1,1.8626194E-1,-1.2310647E0,-1.8658215E0,-4.6028714E0,-2.6938667E0,3.0964632E-2,3.6910481E0,-6.0764825E-1,-1.3530955E0,-2.0322996E-1,9.0115356E-1,2.2082561E-1,-8.131685E-1,-2.5245786E-2,-3.3415835E0,-3.1528592E-1],"categories":[],"categories_nodes":[],"categories_segments":[],"categories_sizes":[],"default_left":[1,1,1,1,1,0,1,0,0,1,1,1,1,1,1,1,1,1,1,1,1,1,1,0,1,1,1,1,1,1,1,0,1,0,0,0,1,0,0,0,0,0,0,0,0,0,0,0,0,0,0,0,0,0,0,0,0,0,0],"id":18,"left_children":[1,3,5,7,9,-1,11,-1,-1,13,15,17,19,21,23,25,27,29,31,33,35,37,39,-1,41,43,45,47,49,51,53,-1,55,-1,-1,-1,57,-1,-1,-1,-1,-1,-1,-1,-1,-1,-1,-1,-1,-1,-1,-1,-1,-1,-1,-1,-1,-1,-1],"loss_changes":[5.4899574E1,3.2520054E1,3.4652264E2,1.8083067E2,2.9437042E1,0E0,8.943034E1,0E0,0E0,1.7962688E2,7.285959E1,1.3943187E2,1.3707687E2,7.065329E1,2.8149002E2,5.3440804E1,8.317611E1,5.841449E0,2.0580817E2,5.6554886E1,6.4584045E1,9.094517E1,3.8958706E1,0E0,6.695032E-3,1.7246046E1,1.199086E1,9.0882195E1,2.3880006E2,5.894847E-1,4.3233752E-2,0E0,3.8650936E-1,0E0,0E0,0E0,4.632009E1,0E0,0E0,0E0,0E0,0E0,0E0,0E0,0E0,0E0,0E0,0E0,0E0,0E0,0E0,0E0,0E0,0E0,0E0,0E0,0E0,0E0,0E0],"parents":[2147483647,0,0,1,1,2,2,3,3,4,4,6,6,9,9,10,10,11,11,12,12,13,13,14,14,15,15,16,16,17,17,18,18,19,19,20,20,21,21,22,22,24,24,25,25,26,26,27,27,28,28,29,29,30,30,32,32,36,36],"right_children":[2,4,6,8,10,-1,12,-1,-1,14,16,18,20,22,24,26,28,30,32,34,36,38,40,-1,42,44,46,48,50,52,54,-1,56,-1,-1,-1,58,-1,-1,-1,-1,-1,-1,-1,-1,-1,-1,-1,-1,-1,-1,-1,-1,-1,-1,-1,-1,-1,-1],"split_conditions":[3.1385064E-2,-5.65256E-1,3.9149303E-2,-5.713569E-1,-6.0761E-1,4.2125473E0,1.371266E-1,-2.7708265E-1,3.052294E0,4E0,1.5E0,2.4934062E-1,-1.1131229E-1,-9.6043646E-1,2E0,-2.59589E-1,2.5E0,-2.2656445E-1,1.5E0,2.5E0,1.5E0,-5.1543367E-1,-2.3358026E-1,4.62521E0,-3.830684E-1,-5.932166E-2,-3.966297E-1,-6.2117386E-1,-2.6367715E-1,3.5E0,1.5E0,3.6817644E0,3.5E0,5.213097E-2,2.8688707E0,1.5171982E0,-7.923211E-2,1.8499914E-1,2.6216435E0,-2.7982834E-1,3.1335917E-1,-3.3166173E-1,-8.808235E-2,5.5878583E-2,-3.693194E-1,-5.5974644E-1,-1.3808615E0,-8.0816007E-1,9.2893895E-3,1.1073145E0,-1.8229449E-1,-4.0592867E-1,-6.096899E-2,2.7034608E-1,6.624769E-2,-2.4395056E-1,-7.573736E-3,-1.0024751E0,-9.4585784E-2],"split_indices":[15,10,15,10,11,0,15,0,0,3,4,13,14,14,4,15,7,10,4,3,1,10,10,0,10,13,12,12,10,3,4,0,3,0,0,0,10,0,0,0,0,0,0,0,0,0,0,0,0,0,0,0,0,0,0,0,0,0,0],"split_type":[0,0,0,0,0,0,0,0,0,0,0,0,0,0,0,0,0,0,0,0,0,0,0,0,0,0,0,0,0,0,0,0,0,0,0,0,0,0,0,0,0,0,0,0,0,0,0,0,0,0,0,0,0,0,0,0,0,0,0],"sum_hessian":[2.8E2,2.28E2,5.2E1,6E0,2.22E2,1E0,5.1E1,5E0,1E0,5.6E1,1.66E2,9E0,4.2E1,5.3E1,3E0,4.6E1,1.2E2,5E0,4E0,2E0,4E1,6E0,4.7E1,1E0,2E0,3.6E1,1E1,6.7E1,5.3E1,3E0,2E0,2E0,2E0,1E0,1E0,1E0,3.9E1,5E0,1E0,3.4E1,1.3E1,1E0,1E0,1.3E1,2.3E1,6E0,4E0,1.5E1,5.2E1,2E1,3.3E1,2E0,1E0,1E0,1E0,1E0,1E0,5E0,3.4E1],"tree_param":{"num_deleted":"0","num_feature":"16","num_nodes":"59","size_leaf_vector":"0"}},{"base_weights":[2.1019256E-1,3.390496E-1,-1.0145756E0,5.000642E-1,-6.8732977E-1,-2.3102362E-3,-1.2445309E0,-5.089807E-2,9.394561E-1,-1.3197908E0,-3.815537E-1,-9.9924266E-1,7.459667E-1,-1.506965E0,-2.9354554E-1,1.6994348E0,-6.0296506E-1,3.2671943E-1,2.8280492E0,-7.417972E-1,-2.6138413E0,-5.295871E-1,1.7548315E-1,-1.3029642E0,-1.9589978E-1,-1.0598172E0,-2.6952415E0,1.0611334E-1,-5.199033E-1,9.670037E0,-3.7818754E-1,-1.1716827E0,1.4397423E0,3.405937E0,-2.5471786E-1,6.25991E0,-1.6454501E-1,-8.462044E-1,4.67301E-2,-6.230048E-1,-1.6504526E-4,2.6636702E-1,-1.3946807E-1,2.8295666E-1,-1.1848733E0,-3.0942268E0,-7.4914265E-1,-1.9310993E0,1.8047827E1,1.9348383E0,-7.426814E-1,-2.8415926E0,-1.3011406E-1,1.2591278E1,-4.41835E-2,1.1750958E1,-6.968853E-1,1.877416E0,-7.756321E-1,-3.9777055E-1,8.111802E0,-6.403887E-1,1.5322326E-1,-1.6437864E-1,-9.201254E-1,-4.8255754E-1,-9.58819E-1,-1.4688095E0,-1.7881459E-1],"categories":[],"categories_nodes":[],"categories_segments":[],"categories_sizes":[],"default_left":[1,1,1,1,1,1,1,1,1,1,1,1,0,1,1,1,1,1,1,1,0,1,1,0,0,1,1,0,0,1,1,1,1,1,1,1,1,1,0,1,0,0,0,0,1,0,0,0,0,0,0,0,0,0,0,0,0,0,0,0,0,0,0,0,0,0,0,0,0],"id":19,"left_children":[1,3,5,7,9,11,13,15,17,19,21,23,-1,25,27,29,31,33,35,37,-1,39,41,-1,-1,43,45,-1,-1,47,49,51,53,55,57,59,61,63,-1,65,-1,-1,-1,-1,67,-1,-1,-1,-1,-1,-1,-1,-1,-1,-1,-1,-1,-1,-1,-1,-1,-1,-1,-1,-1,-1,-1,-1,-1],"loss_changes":[4.4691414E1,4.2485542E1,6.2820683E0,5.3549343E1,6.265129E0,5.2212906E0,5.0482025E0,9.668849E1,1.4141287E2,6.288542E0,2.1544347E0,4.7672725E-1,0E0,6.176235E0,5.97964E-1,4.0109467E2,8.9977936E1,1.691625E2,3.09135E2,7.804947E-1,0E0,9.8904467E-1,2.0889358E-1,0E0,0E0,2.68618E0,7.878418E-1,0E0,0E0,5.208116E2,1.8298645E1,1.039898E2,2.8187323E2,5.217612E2,9.030889E1,1.7583691E2,2.6686587E0,2.5196075E-1,0E0,3.391056E-1,0E0,0E0,0E0,0E0,3.4508896E0,0E0,0E0,0E0,0E0,0E0,0E0,0E0,0E0,0E0,0E0,0E0,0E0,0E0,0E0,0E0,0E0,0E0,0E0,0E0,0E0,0E0,0E0,0E0,0E0],"parents":[2147483647,0,0,1,1,2,2,3,3,4,4,5,5,6,6,7,7,8,8,9,9,10,10,11,11,13,13,14,14,15,15,16,16,17,17,18,18,19,19,21,21,22,22,25,25,26,26,29,29,30,30,31,31,32,32,33,33,34,34,35,35,36,36,37,37,39,39,44,44],"right_children":[2,4,6,8,10,12,14,16,18,20,22,24,-1,26,28,30,32,34,36,38,-1,40,42,-1,-1,44,46,-1,-1,48,50,52,54,56,58,60,62,64,-1,66,-1,-1,-1,-1,68,-1,-1,-1,-1,-1,-1,-1,-1,-1,-1,-1,-1,-1,-1,-1,-1,-1,-1,-1,-1,-1,-1,-1,-1],"split_conditions":[3.5E0,1.4582679E0,-6.7813253E-1,2.5E0,-3.431884E-1,-9.968219E-1,-2.9174048E-1,-6.6378534E-1,3.0078435E-1,-4.074371E-1,1.7154865E0,3.5E0,2.2379E-1,-3.405464E-1,-8.60258E-1,-4.0360728E-1,-1.9670017E-2,-6.2137246E-1,-2.020599E-1,-4.5282248E-1,-7.8415245E-1,1.01566136E-1,4.8812985E-1,-3.908893E-1,-5.8769938E-2,-7.1307683E-1,6E0,3.1834003E-2,-1.5597099E-1,-7.154745E-1,-3.4074956E-1,-1.3295779E-1,-2.978412E-1,8.540183E-2,-5.0786555E-2,1.5E0,-1.09850116E-1,2.5E0,1.4019031E-2,-5.163633E-1,-4.951358E-5,7.991011E-2,-4.1840423E-2,8.4887E-2,-3.8426802E-1,-9.282681E-1,-2.247428E-1,-5.793298E-1,5.414348E0,5.804515E-1,-2.2280443E-1,-8.524778E-1,-3.903422E-2,3.7773836E0,-1.325505E-2,3.5252876E0,-2.090656E-1,5.6322485E-1,-2.3268963E-1,-1.1933117E-1,2.4335408E0,-1.9211663E-1,4.596698E-2,-4.9313594E-2,-2.7603763E-1,-1.4476727E-1,-2.876457E-1,-4.4064286E-1,-5.3644378E-2],"split_indices":[7,13,12,7,12,15,10,13,13,12,13,1,0,10,14,10,11,12,10,12,0,15,14,0,0,11,4,0,0,14,10,12,10,11,14,3,15,3,0,11,0,0,0,0,10,0,0,0,0,0,0,0,0,0,0,0,0,0,0,0,0,0,0,0,0,0,0,0,0],"split_type":[0,0,0,0,0,0,0,0,0,0,0,0,0,0,0,0,0,0,0,0,0,0,0,0,0,0,0,0,0,0,0,0,0,0,0,0,0,0,0,0,0,0,0,0,0,0,0,0,0,0,0,0,0,0,0,0,0,0,0,0,0,0,0,0,0,0,0,0,0],"sum_hessian":[2.8E2,2.54E2,2.6E1,2.2E2,3.4E1,5E0,2.1E1,9.8E1,1.22E2,1E1,2.4E1,2E0,3E0,1.6E1,5E0,2.3E1,7.5E1,9.3E1,2.9E1,8E0,2E0,1.9E1,5E0,1E0,1E0,1.3E1,3E0,2E0,3E0,4E0,1.9E1,5.9E1,1.6E1,1.4E1,7.9E1,1.3E1,1.6E1,7E0,1E0,1.6E1,3E0,4E0,1E0,1E0,1.2E1,2E0,1E0,2E0,2E0,2E0,1.7E1,2.2E1,3.7E1,1E0,1.5E1,4E0,1E1,1.5E1,6.4E1,3E0,1E1,6E0,1E1,1E0,6E0,1.3E1,3E0,9E0,3E0],"tree_param":{"num_deleted":"0","num_feature":"16","num_nodes":"69","size_leaf_vector":"0"}},{"base_weights":[1.844224E-1,-2.0690322E-1,5.4768175E-1,2.2819075E-1,-1.1861181E0,2.8645527E0,1.9949242E-1,-3.026857E-1,1.9032252E0,-2.1138387E0,-6.467635E-1,-2.2172272E0,5.3805456E0,7.9566154E0,7.57622E-2,4.0531817E-1,-1.4550247E0,9.285663E0,7.5796145E-1,-4.676973E0,-1.3597432E0,3.0076122E-2,-1.8680825E0,-3.2931304E0,3.1502035E-1,1.6389513E1,1.8889598E0,4.415077E0,6.282894E-3,-9.9626005E-1,8.742787E-1,-2.3822477E0,-7.149247E-1,-1.2577571E0,4.190724E0,-1.5525488E0,-1.9954206E-1,-7.0384663E-1,2.2258291E0,7.6223034E-1,-2.2450318E0,-3.6860347E0,-8.6075675E-1,6.257589E-1,-1.5322834E-1,-6.028609E-1,8.734769E0,-3.1387213E-1,6.315559E-1,-5.3491235E-1,-1.7852274E0,5.5907893E0,4.1901177E-1,-3.1079154E0,-7.447294E-1,1.2869611E-1,-1.1867812E0,-2.3671333E-1,-2.5796964E0,-9.188204E-1,7.440214E0,-7.026515E-1,-1.9378256E0,-3.9708292E-1,9.776983E-2,-8.3045915E-2,-1.6212068E0,5.05906E0,2.5275636E-1,-2.2733945E-1,-2.7890382E0,1.3904625E0,-1.8312664E0,1.3383219E1,-2.8106606E-1,2.9601565E-1,-5.2186674E-1,1.0172905E1,1.6216889E-1],"categories":[],"categories_nodes":[],"categories_segments":[],"categories_sizes":[],"default_left":[1,1,1,1,1,1,1,1,1,1,1,1,1,0,1,1,1,0,1,0,1,1,1,1,1,0,1,0,1,1,1,1,1,1,1,1,1,1,1,0,1,0,0,0,0,1,1,1,1,0,0,0,0,0,0,0,0,0,0,0,0,0,0,0,0,0,0,0,0,0,0,0,0,0,0,0,0,0,0],"id":20,"left_children":[1,3,5,7,9,11,13,15,17,19,21,23,25,-1,27,29,31,-1,33,-1,35,37,39,41,43,-1,45,-1,47,49,51,53,55,57,59,61,63,65,67,-1,69,-1,-1,-1,-1,71,73,75,77,-1,-1,-1,-1,-1,-1,-1,-1,-1,-1,-1,-1,-1,-1,-1,-1,-1,-1,-1,-1,-1,-1,-1,-1,-1,-1,-1,-1,-1,-1],"loss_changes":[4.0058224E1,5.8213528E1,1.1720816E2,8.505353E1,1.96484E1,2.5485864E2,1.22250374E2,6.0147564E1,1.8742305E2,2.2633247E1,2.3202023E1,2.0108578E1,4.6874472E2,0E0,3.8261818E1,3.1106113E1,1.7511524E1,0E0,1.5058005E2,0E0,2.5982113E0,3.218539E1,1.1626175E1,1.6056709E0,5.3239274E-1,0E0,1.9290965E2,0E0,2.5421448E1,3.41292E0,7.28119E1,1.1944977E1,6.9198885E0,1.8285965E1,1.3966353E2,2.2402878E0,2.1501648E-1,8.407832E0,2.6672146E1,0E0,9.2446785E0,0E0,0E0,0E0,0E0,2.458379E1,1.2949054E2,1.0810162E1,1.9092944E2,0E0,0E0,0E0,0E0,0E0,0E0,0E0,0E0,0E0,0E0,0E0,0E0,0E0,0E0,0E0,0E0,0E0,0E0,0E0,0E0,0E0,0E0,0E0,0E0,0E0,0E0,0E0,0E0,0E0,0E0],"parents":[2147483647,0,0,1,1,2,2,3,3,4,4,5,5,6,6,7,7,8,8,9,9,10,10,11,11,12,12,14,14,15,15,16,16,18,18,20,20,21,21,22,22,23,23,24,24,26,26,28,28,29,29,30,30,31,31,32,32,33,33,34,34,35,35,36,36,37,37,38,38,40,40,45,45,46,46,47,47,48,48],"right_children":[2,4,6,8,10,12,14,16,18,20,22,24,26,-1,28,30,32,-1,34,-1,36,38,40,42,44,-1,46,-1,48,50,52,54,56,58,60,62,64,66,68,-1,70,-1,-1,-1,-1,72,74,76,78,-1,-1,-1,-1,-1,-1,-1,-1,-1,-1,-1,-1,-1,-1,-1,-1,-1,-1,-1,-1,-1,-1,-1,-1,-1,-1,-1,-1,-1,-1],"split_conditions":[-3.0414525E-1,-4.0360728E-1,-2.8157258E-1,-4.442584E-1,-3.7084642E-1,-1.10765375E-1,-9.6835303E-1,-4.8492986E-1,-4.410047E-1,-6.2165606E-1,-3.3444548E-1,-2.350749E-1,1.8503599E-1,2.3869848E0,1.5E0,-1.0233222E0,-4.0910557E-2,2.785699E0,-1.7372274E-1,-1.4030919E0,4E0,4.5E0,-6.296836E-1,-2.8791732E-1,3.5E0,4.916854E0,-2.8258938E-1,1.3245232E0,3.1385064E-2,-5.203134E-1,-5.644425E-1,3.5E0,1.464532E-1,-1.8275286E-1,-1.1509307E-1,-7.420809E-1,-3.8426802E-1,-9.9934325E-2,-3.4888384E-1,2.286691E-1,2.5E0,-1.1058104E0,-2.5822705E-1,1.8772767E-1,-4.5968503E-2,6.8661225E-1,2.5E0,-6.035963E-1,3.9149303E-2,-1.604737E-1,-5.3556824E-1,1.6772369E0,1.2570354E-1,-9.3237466E-1,-2.2341883E-1,3.8608834E-2,-3.5603437E-1,-7.1014E-2,-7.73909E-1,-2.7564612E-1,2.2320642E0,-2.1079546E-1,-5.813477E-1,-1.1912488E-1,2.9330948E-2,-2.4913775E-2,-4.8636204E-1,1.5177181E0,7.582691E-2,-6.820184E-2,-8.3671147E-1,4.171388E-1,-5.4937994E-1,4.014966E0,-8.431982E-2,8.88047E-2,-1.5656003E-1,3.0518715E0,4.865067E-2],"split_indices":[10,10,10,10,10,13,15,10,10,12,10,12,13,0,1,14,12,0,11,0,1,1,12,10,3,0,10,0,15,11,10,7,13,15,15,15,10,15,10,0,1,0,0,0,0,13,1,14,15,0,0,0,0,0,0,0,0,0,0,0,0,0,0,0,0,0,0,0,0,0,0,0,0,0,0,0,0,0,0],"split_type":[0,0,0,0,0,0,0,0,0,0,0,0,0,0,0,0,0,0,0,0,0,0,0,0,0,0,0,0,0,0,0,0,0,0,0,0,0,0,0,0,0,0,0,0,0,0,0,0,0,0,0,0,0,0,0,0,0,0,0,0,0,0,0,0,0,0,0,0,0,0,0,0,0,0,0,0,0,0,0],"sum_hessian":[2.8E2,1.35E2,1.45E2,9.4E1,4.1E1,1.8E1,1.27E2,7.2E1,2.2E1,1.4E1,2.7E1,6E0,1.2E1,1E0,1.26E2,4.5E1,2.7E1,2E0,2E1,2E0,1.2E1,1.8E1,9E0,4E0,2E0,2E0,1E1,1E0,1.25E2,1.1E1,3.4E1,1.1E1,1.6E1,1.3E1,7E0,1E1,2E0,1.4E1,4E0,1E0,8E0,3E0,1E0,1E0,1E0,8E0,2E0,8.3E1,4.2E1,8E0,3E0,2E0,3.2E1,7E0,4E0,6E0,1E1,8E0,5E0,3E0,4E0,4E0,6E0,1E0,1E0,9E0,5E0,1E0,3E0,2E0,6E0,3E0,5E0,1E0,1E0,2.1E1,6.2E1,1E0,4.1E1],"tree_param":{"num_deleted":"0","num_feature":"16","num_nodes":"79","size_leaf_vector":"0"}},{"base_weights":[1.8564065E-1,-1.3268606E-1,4.8089266E-1,1.9690074E-1,-8.7502086E-1,2.399554E0,1.923344E-1,4.631131E-2,4.7995396E0,-1.5099214E0,-3.35932E-1,-1.7266703E0,4.4367857E0,6.7631226E0,8.734298E-2,-7.149779E-2,3.6044168E0,-2.9444666E0,1.0143776E1,-3.7415783E0,-1.0272807E0,2.3751044E0,-8.3632314E-1,-2.5779989E0,2.677673E-1,8.239864E0,-1.3734498E0,3.7528152E0,2.846768E-2,5.3659934E-1,-6.274306E-1,-5.367118E-2,5.4602966E0,-1.1737226E0,4.735579E-2,3.0000505E-1,4.3002014E0,1.8226308E-1,-1.3586351E0,-2.8566768E0,-7.316432E-1,5.3189504E-1,-1.3024408E-1,1.2163435E1,-2.3538988E0,-1.8605765E0,-6.647423E-1,8.42933E-2,-2.2884805E0,2.0867574E0,-2.5636634E-1,-8.306618E-1,1.3167967E-1,-3.1228834E-1,-1.3630571E0,-1.3150096E-2,8.418378E-2,4.806385E-1,-3.0630946E-2,5.1938945E-1,-2.8471065E-1,-1.7713498E0,1.1598925E-1,-6.1465144E-2,1.4620708E1,-3.2919421E0,-2.3890615E-1,-1.2950435E-1,1.1390867E0],"categories":[],"categories_nodes":[],"categories_segments":[],"categories_sizes":[],"default_left":[1,1,1,1,1,1,1,1,1,1,1,1,1,0,1,1,1,0,0,0,1,1,1,1,1,1,1,0,1,1,1,0,0,1,1,1,0,1,1,0,0,0,0,1,1,0,0,1,0,0,0,0,0,0,0,0,0,0,0,0,0,0,0,0,0,0,0,0,0],"id":21,"left_children":[1,3,5,7,9,11,13,15,17,19,21,23,25,-1,27,29,31,-1,-1,-1,33,35,37,39,41,43,45,-1,47,49,51,-1,-1,53,55,57,-1,59,61,-1,-1,-1,-1,63,65,-1,-1,67,-1,-1,-1,-1,-1,-1,-1,-1,-1,-1,-1,-1,-1,-1,-1,-1,-1,-1,-1,-1,-1],"loss_changes":[2.6474041E1,3.3446564E1,8.037074E1,6.562306E1,1.3868019E1,1.6737631E2,8.771347E1,3.924119E1,1.5402539E2,1.6621029E1,3.454424E1,1.2575756E1,2.985752E2,0E0,2.7300499E1,3.1100245E1,2.0659973E1,0E0,0E0,0E0,2.7309017E0,1.4688986E1,1.1420044E1,4.8262405E-1,3.846537E-1,3.611546E2,8.345785E-1,0E0,1.6490383E1,5.4620743E1,7.514574E0,0E0,0E0,2.0208225E0,7.7919564E-3,1.9389418E-1,0E0,1.4073089E0,8.725845E0,0E0,0E0,0E0,0E0,1.8113812E2,5.1653996E0,0E0,0E0,2.811105E1,0E0,0E0,0E0,0E0,0E0,0E0,0E0,0E0,0E0,0E0,0E0,0E0,0E0,0E0,0E0,0E0,0E0,0E0,0E0,0E0,0E0],"parents":[2147483647,0,0,1,1,2,2,3,3,4,4,5,5,6,6,7,7,8,8,9,9,10,10,11,11,12,12,14,14,15,15,16,16,20,20,21,21,22,22,23,23,24,24,25,25,26,26,28,28,29,29,30,30,33,33,34,34,35,35,37,37,38,38,43,43,44,44,47,47],"right_children":[2,4,6,8,10,12,14,16,18,20,22,24,26,-1,28,30,32,-1,-1,-1,34,36,38,40,42,44,46,-1,48,50,52,-1,-1,54,56,58,-1,60,62,-1,-1,-1,-1,64,66,-1,-1,68,-1,-1,-1,-1,-1,-1,-1,-1,-1,-1,-1,-1,-1,-1,-1,-1,-1,-1,-1,-1,-1],"split_conditions":[-3.0414525E-1,-4.0360728E-1,-2.8157258E-1,-4.0460372E-1,-3.6088192E-1,-1.10765375E-1,-9.6835303E-1,7.390351E-2,-2.507491E-1,-6.2165606E-1,-3.486805E-1,-2.350749E-1,7.25195E-1,2.0289369E0,1.5E0,6.928763E-2,-4.7272843E-1,-8.8334E-1,3.043133E0,-1.1224736E0,1.6383209E0,3.5E0,4E0,-2.8791732E-1,3.5E0,-6.297921E-2,2.5E0,1.1258446E0,5.891906E0,-5.8531725E-1,9.566917E-1,-1.6101355E-2,1.6380891E0,-6.759881E-1,1.5E0,1.5E0,1.2900605E0,-3.655407E-1,4.5E0,-8.570031E-1,-2.1949297E-1,1.5956852E-1,-3.9073225E-2,1.5E0,2.5E0,-5.58173E-1,-1.994227E-1,1.1135719E0,-6.865442E-1,6.260272E-1,-7.690991E-2,-2.4919854E-1,3.9503902E-2,-9.3686506E-2,-4.0891716E-1,-3.945029E-3,2.5255136E-2,1.4419156E-1,-9.189284E-3,1.5581684E-1,-8.5413195E-2,-5.31405E-1,3.4796778E-2,-1.8439544E-2,4.386213E0,-9.875827E-1,-7.167184E-2,-3.8851306E-2,3.4172603E-1],"split_indices":[10,10,10,10,10,13,15,15,11,12,10,12,13,0,1,13,10,0,0,0,13,1,3,10,3,12,3,0,15,15,13,0,0,14,3,3,0,12,4,0,0,0,0,7,1,0,0,15,0,0,0,0,0,0,0,0,0,0,0,0,0,0,0,0,0,0,0,0,0],"split_type":[0,0,0,0,0,0,0,0,0,0,0,0,0,0,0,0,0,0,0,0,0,0,0,0,0,0,0,0,0,0,0,0,0,0,0,0,0,0,0,0,0,0,0,0,0,0,0,0,0,0,0,0,0,0,0,0,0,0,0,0,0,0,0,0,0,0,0,0,0],"sum_hessian":[2.8E2,1.35E2,1.45E2,9.4E1,4.1E1,1.8E1,1.27E2,9.2E1,2E0,1.8E1,2.3E1,6E0,1.2E1,1E0,1.26E2,9E1,2E0,1E0,1E0,2E0,1.6E1,3E0,2E1,4E0,2E0,7E0,5E0,1E0,1.25E2,4.3E1,4.7E1,1E0,1E0,1.4E1,2E0,2E0,1E0,7E0,1.3E1,3E0,1E0,1E0,1E0,5E0,2E0,2E0,3E0,1.23E2,2E0,1.4E1,2.9E1,3.7E1,1E1,3E0,1.1E1,1E0,1E0,1E0,1E0,4E0,3E0,1E1,3E0,1E0,4E0,1E0,1E0,1.03E2,2E1],"tree_param":{"num_deleted":"0","num_feature":"16","num_nodes":"69","size_leaf_vector":"0"}},{"base_weights":[1.5799944E-1,5.7144594E-1,-6.523916E-3,-8.634333E-1,9.4365686E-1,4.402407E-1,-2.4161415E-1,-3.0208293E-1,-2.1502576E0,9.043194E0,6.7155004E-1,1.0883087E0,-5.707294E-1,2.3355494E0,-3.190529E-1,-9.213694E-1,3.6035824E-1,5.9223477E-2,2.8104627E0,6.7695266E-1,9.182631E0,-1.2150016E0,-1.4530031E-1,-7.183698E-1,5.7486534E0,-9.124573E-1,-8.208467E-2,-3.3690506E-1,-1.5883534E0,7.6605755E-1,-4.3592668E-1,-1.3326837E0,3.9726856E-1,6.145289E0,-4.5881817E-1,-4.798269E-1,1.3373793E0,-1.7518855E0,-6.579414E-1,1.3371275E-1,-2.9594958E-1,3.020189E-1,-1.3795736E0,-3.3880985E-1,-2.4274244E0,1.6743588E0,-2.877594E-1,-4.1529977E-1,-1.1663139E-2,-3.3370643E0,3.0600685E-3,2.6407902E0,-6.278631E-2,2.0761783E0,1.0878711E1,-1.140866E0,5.0844616E-1,-1.0732443E0,-1.1252404E-1,7.5160484E0,8.1065947E-1,-6.655884E-2,-1.4242651E0,-6.397426E-2,1.7732297E-1,-5.229796E-1,-1.1706211E-1,1.5244994E-1,-1.1118886E0,-3.0560105E0,5.794708E-2,-1.6163309E-1,6.012218E0,-8.647619E-1,1.9715245E-1],"categories":[],"categories_nodes":[],"categories_segments":[],"categories_sizes":[],"default_left":[1,1,1,1,1,1,1,1,0,0,1,1,1,1,1,1,1,1,1,1,0,1,1,1,0,1,1,1,0,0,0,1,1,1,1,1,1,0,1,1,1,0,0,1,1,1,1,0,0,0,0,0,0,0,0,0,0,0,0,0,0,0,0,0,0,0,0,0,0,0,0,0,0,0,0],"id":22,"left_children":[1,3,5,7,9,11,13,15,-1,-1,17,19,21,23,25,27,29,31,33,35,-1,37,39,41,-1,43,45,47,-1,-1,-1,49,51,53,55,57,59,-1,61,63,65,-1,-1,67,69,71,73,-1,-1,-1,-1,-1,-1,-1,-1,-1,-1,-1,-1,-1,-1,-1,-1,-1,-1,-1,-1,-1,-1,-1,-1,-1,-1,-1,-1],"loss_changes":[1.9117798E1,4.3541004E1,2.1322426E1,1.163055E1,1.3497919E2,4.6483543E1,2.728829E1,5.665154E0,0E0,0E0,8.2345474E1,1.3695865E2,7.498041E0,4.5823032E1,1.820544E1,2.193674E0,2.5953107E0,2.4055801E1,1.5545435E2,3.272837E1,0E0,2.1372051E0,7.961682E-1,2.440712E0,0E0,3.1332672E1,3.443988E1,1.2264252E-1,0E0,0E0,0E0,2.6783602E1,4.248367E1,1.1223956E2,5.857833E0,3.3666568E0,8.17766E1,0E0,3.077536E0,7.169232E-2,4.261328E-1,0E0,0E0,1.0803417E1,1.5799782E1,8.06145E1,2.3953094E1,0E0,0E0,0E0,0E0,0E0,0E0,0E0,0E0,0E0,0E0,0E0,0E0,0E0,0E0,0E0,0E0,0E0,0E0,0E0,0E0,0E0,0E0,0E0,0E0,0E0,0E0,0E0,0E0],"parents":[2147483647,0,0,1,1,2,2,3,3,4,4,5,5,6,6,7,7,10,10,11,11,12,12,13,13,14,14,15,15,16,16,17,17,18,18,19,19,21,21,22,22,23,23,25,25,26,26,27,27,31,31,32,32,33,33,34,34,35,35,36,36,38,38,39,39,40,40,43,43,44,44,45,45,46,46],"right_children":[2,4,6,8,10,12,14,16,-1,-1,18,20,22,24,26,28,30,32,34,36,-1,38,40,42,-1,44,46,48,-1,-1,-1,50,52,54,56,58,60,-1,62,64,66,-1,-1,68,70,72,74,-1,-1,-1,-1,-1,-1,-1,-1,-1,-1,-1,-1,-1,-1,-1,-1,-1,-1,-1,-1,-1,-1,-1,-1,-1,-1,-1,-1],"split_conditions":[-6.2520254E-1,2.5E0,2.5E0,-8.566992E-1,-6.589608E-1,6.0944664E-1,-7.861531E-1,-1.255388E0,-6.450773E-1,2.7129583E0,2.7990738E-2,5.7086384E-1,6.986637E-2,2.5E0,2.5E0,-6.0835254E-1,-9.853085E-1,-6.342505E-1,2.9819876E-1,-6.5667427E-1,2.7547894E0,1.2267711E0,4.3255636E-1,3.5E0,1.7245961E0,-3.8020086E-1,-6.217412E-1,4E0,-4.7650602E-1,2.2981727E-1,-1.3077801E-1,5.5E0,-3.486805E-1,2.110798E-3,-5.833839E-2,-5.4593706E-1,-6.352302E-1,-5.255657E-1,-3.4910583E-1,-3.0137712E-1,2.0489684E-1,9.0605676E-2,-4.138721E-1,-8.0322206E-1,-1.9656925E-1,-6.312078E-2,4E0,-1.24589935E-1,-3.498942E-3,-1.0011194E0,9.1802055E-4,7.922371E-1,-1.8835895E-2,6.228535E-1,3.2636135E0,-3.4225982E-1,1.5253386E-1,-3.2197332E-1,-3.3757214E-2,2.2548146E0,2.4319784E-1,-1.9967653E-2,-4.2727956E-1,-1.9192278E-2,5.3196892E-2,-1.568939E-1,-3.5118632E-2,4.5734983E-2,-3.335666E-1,-9.168032E-1,1.7384125E-2,-4.848993E-2,1.8036655E0,-2.594286E-1,5.9145737E-2],"split_indices":[13,3,3,13,11,13,11,13,0,0,15,13,14,7,4,12,13,12,10,15,0,13,14,1,0,10,12,1,0,0,0,3,10,10,12,10,15,0,11,12,12,0,0,14,10,11,4,0,0,0,0,0,0,0,0,0,0,0,0,0,0,0,0,0,0,0,0,0,0,0,0,0,0,0,0],"split_type":[0,0,0,0,0,0,0,0,0,0,0,0,0,0,0,0,0,0,0,0,0,0,0,0,0,0,0,0,0,0,0,0,0,0,0,0,0,0,0,0,0,0,0,0,0,0,0,0,0,0,0,0,0,0,0,0,0,0,0,0,0,0,0,0,0,0,0,0,0,0,0,0,0,0,0],"sum_hessian":[2.8E2,7.9E1,2.01E2,1.6E1,6.3E1,6.9E1,1.32E2,1.2E1,4E0,1E0,6.2E1,4.2E1,2.7E1,3E0,1.29E2,6E0,6E0,4.9E1,1.3E1,4.1E1,1E0,1E1,1.7E1,2E0,1E0,3.6E1,9.3E1,4E0,2E0,4E0,2E0,9E0,4E1,6E0,7E0,1.5E1,2.6E1,4E0,6E0,6E0,1.1E1,1E0,1E0,2.7E1,9E0,9E0,8.4E1,3E0,1E0,3E0,6E0,6E0,3.4E1,4E0,2E0,4E0,3E0,5E0,1E1,1E0,2.5E1,4E0,2E0,1E0,5E0,4E0,7E0,1.7E1,1E1,7E0,2E0,7E0,2E0,3.8E1,4.6E1],"tree_param":{"num_deleted":"0","num_feature":"16","num_nodes":"75","size_leaf_vector":"0"}},{"base_weights":[1.4820641E-1,2.8784714E0,1.2817521E-1,-1.2170151E0,1.620736E-1,-1.7984619E0,-3.313146E-1,4.8863564E0,1.2686978E-1,4.692638E-2,-4.7303703E-1,6.7265016E-1,3.0286679E-2,2.7816182E-1,8.226091E0,3.8060758E-1,-1.8107308E-1,-7.107121E-2,3.439027E0,2.4659476E-1,6.019861E0,6.3886414E0,-2.7044106E-1],"categories":[],"categories_nodes":[],"categories_segments":[],"categories_sizes":[],"default_left":[1,0,1,1,1,0,1,0,1,0,0,1,1,1,0,1,1,0,0,0,0,0,0],"id":23,"left_children":[1,-1,3,5,7,-1,9,-1,11,-1,-1,13,15,17,-1,19,21,-1,-1,-1,-1,-1,-1],"loss_changes":[1.4999079E1,0E0,1.2965183E1,3.009057E0,4.4949757E1,0E0,2.3661888E-1,0E0,1.437032E1,0E0,0E0,1.19881325E2,1.732111E1,4.439956E1,0E0,6.501997E1,8.744757E1,0E0,0E0,0E0,0E0,0E0,0E0],"parents":[2147483647,0,0,2,2,3,3,4,4,6,6,8,8,11,11,12,12,13,13,15,15,16,16],"right_children":[2,-1,4,6,8,-1,10,-1,12,-1,-1,14,16,18,-1,20,22,-1,-1,-1,-1,-1,-1],"split_conditions":[1.5E0,8.635414E-1,-9.91276E-1,3.5E0,-9.805539E-1,-5.395386E-1,-4.6683106E-1,1.465907E0,-6.176281E-1,1.4077914E-2,-1.4191112E-1,-6.188195E-1,-5.0786555E-2,2.7990738E-2,2.4678276E0,1.2906705E0,-5.644425E-1,-2.1321364E-2,1.0317081E0,7.397843E-2,1.8059584E0,1.9165925E0,-8.113232E-2],"split_indices":[1,0,15,1,15,0,10,0,12,0,0,12,14,15,0,15,10,0,0,0,0,0,0],"split_type":[0,0,0,0,0,0,0,0,0,0,0,0,0,0,0,0,0,0,0,0,0,0,0],"sum_hessian":[2.8E2,1E0,2.79E2,6E0,2.73E2,3E0,3E0,1E0,2.72E2,1E0,2E0,4E1,2.32E2,3.9E1,1E0,8.7E1,1.45E2,3.6E1,3E0,8.6E1,1E0,1E0,1.44E2],"tree_param":{"num_deleted":"0","num_feature":"16","num_nodes":"23","size_leaf_vector":"0"}},{"base_weights":[1.3525943E-1,-5.695262E-1,2.1241982E-1,-7.8949225E-1,6.0021603E-1,5.4303436E0,1.7033182E-1,-1.7852277E0,-6.1782414E-1,4.3784685E0,1.19356744E-1,-5.090755E-1,-1.4507725E0,6.611925E0,-4.4222236E-2,-4.3013382E-1,2.5818592E-1,-9.0429324E-1,-3.2905164E-1,-2.0374833E-1,-1.2348312E0,6.5193505E0,1.6249907E-1,-1.0172089E-1,-1.2801492E0,2.2920164E-1,-4.755102E-1,-5.1561356E-1,5.07624E-1,-1.9406364E0,2.6227237E-4,4.153404E0,1.21366195E-1],"categories":[],"categories_nodes":[],"categories_segments":[],"categories_sizes":[],"default_left":[1,1,1,1,0,0,1,0,1,1,1,1,0,0,0,1,1,1,1,1,1,0,1,0,0,0,0,0,0,0,0,0,0],"id":24,"left_children":[1,3,5,7,-1,-1,9,-1,11,13,15,17,-1,-1,-1,19,21,23,25,27,29,-1,31,-1,-1,-1,-1,-1,-1,-1,-1,-1,-1],"loss_changes":[1.5402189E1,7.6783657E0,5.48565E1,2.999508E0,0E0,0E0,5.3748444E1,0E0,1.2542505E0,2.992606E1,1.9258669E1,1.1965628E0,0E0,0E0,0E0,9.039167E0,1.1936194E2,1.6796918E0,1.4171636E0,9.357681E0,9.589598E0,0E0,3.2163242E1,0E0,0E0,0E0,0E0,0E0,0E0,0E0,0E0,0E0,0E0],"parents":[2147483647,0,0,1,1,2,2,3,3,6,6,8,8,9,9,10,10,11,11,15,15,16,16,17,17,18,18,19,19,20,20,22,22],"right_children":[2,4,6,8,-1,-1,10,-1,12,14,16,18,-1,-1,-1,20,22,24,26,28,30,-1,32,-1,-1,-1,-1,-1,-1,-1,-1,-1,-1],"split_conditions":[-9.8749197E-1,-2.7160808E-1,-5.644425E-1,-6.2520254E-1,1.8006481E-1,1.6291032E0,-9.77986E-1,-5.355683E-1,1.9537375E0,2.5E0,-4.442584E-1,-5.660696E-1,-4.3523178E-1,1.9835776E0,-1.3266671E-2,-2.481275E-1,-4.410047E-1,-5.8437175E-1,-9.592315E-4,-4.917767E-1,2.2361878E-1,1.9558052E0,-9.805539E-1,-3.0516269E-2,-3.840448E-1,6.87605E-2,-1.4265306E-1,-1.5468407E-1,1.522872E-1,-5.8219093E-1,7.868171E-5,1.2460213E0,3.640986E-2],"split_indices":[14,10,10,13,0,0,14,0,12,1,10,10,0,0,0,15,10,10,13,15,13,0,15,0,0,0,0,0,0,0,0,0,0],"split_type":[0,0,0,0,0,0,0,0,0,0,0,0,0,0,0,0,0,0,0,0,0,0,0,0,0,0,0,0,0,0,0,0,0],"sum_hessian":[2.8E2,2.7E1,2.53E2,2.3E1,4E0,1E0,2.52E2,2E0,2.1E1,2E0,2.5E2,2E1,1E0,1E0,1E0,5E1,2E2,5E0,1.5E1,4E1,1E1,2E0,1.98E2,2E0,3E0,3E0,1.2E1,2.8E1,1.2E1,6E0,4E0,1E0,1.97E2],"tree_param":{"num_deleted":"0","num_feature":"16","num_nodes":"33","size_leaf_vector":"0"}},{"base_weights":[1.1238252E-1,2.4284973E0,9.5437475E-2,2.0369339E-1,-2.1432509E-1,1.00051135E-1,3.6763072E0,-5.1761585E-1,9.475826E-2,-8.161006E-1,1.7748931E-1,-9.71543E-2,5.5873265E0,1.1855311E-1,-7.5762486E-1,3.5303955E0,-9.874265E-2,-1.2932109E0,-1.792865E-2,1.6833082E0,-1.764342E-3,5.9572697E-2,-2.0530415E-1,7.362583E0,1.3077861E-1,-5.936955E-1,3.4279674E-1,-1.384021E0,-3.6753666E-1,-4.9403262E-1,3.184136E-2,-2.1875288E0,3.8612723E-2,3.528158E-1,-1.1211977E0,1.037801E0,6.9739723E0,4.4845492E-1,-3.4879E-1,-2.7931723E-1,5.604461E-1,-1.0724201E-1,-1.6898106E0,-5.24615E-1,1.1513977E0,-9.80483E-2,-6.756834E-1,-4.702899E-2,2.3489586E-1],"categories":[],"categories_nodes":[],"categories_segments":[],"categories_sizes":[],"default_left":[1,0,1,1,1,1,1,1,1,1,1,1,1,1,1,0,1,1,1,1,1,0,0,0,0,0,1,1,1,1,1,0,0,0,0,0,0,0,0,0,0,0,0,0,0,0,0,0,0],"id":25,"left_children":[1,-1,3,5,7,9,11,13,15,17,19,21,23,25,27,-1,29,31,33,35,37,-1,-1,-1,-1,-1,39,41,43,45,47,-1,-1,-1,-1,-1,-1,-1,-1,-1,-1,-1,-1,-1,-1,-1,-1,-1,-1],"loss_changes":[1.0796543E1,0E0,9.433072E0,7.4493355E1,6.8922234E0,1.4546708E1,4.380979E1,5.739211E0,2.4946161E1,6.069871E0,5.0748596E1,6.308053E-2,3.7784225E1,1.9604065E0,6.088765E0,0E0,1.8739985E0,1.1995203E1,3.2587924E0,6.1065636E1,2.6560574E1,0E0,0E0,0E0,0E0,0E0,1.3751663E0,3.7230377E0,4.898691E0,5.811281E-1,4.5946637E-1,0E0,0E0,0E0,0E0,0E0,0E0,0E0,0E0,0E0,0E0,0E0,0E0,0E0,0E0,0E0,0E0,0E0,0E0],"parents":[2147483647,0,0,2,2,3,3,4,4,5,5,6,6,7,7,8,8,9,9,10,10,11,11,12,12,13,13,14,14,16,16,17,17,18,18,19,19,20,20,26,26,27,27,28,28,29,29,30,30],"right_children":[2,-1,4,6,8,10,12,14,16,18,20,22,24,26,28,-1,30,32,34,36,38,-1,-1,-1,-1,-1,40,42,44,46,48,-1,-1,-1,-1,-1,-1,-1,-1,-1,-1,-1,-1,-1,-1,-1,-1,-1,-1],"split_conditions":[1.5E0,7.2854924E-1,6.9947314E-1,5.065592E-1,6.986637E-2,-6.3512987E-1,-1.3619708E-1,-6.163233E-1,-9.7944474E-1,-7.0236814E-1,-6.1751467E-1,1.5E0,4E0,2.5E0,9.6955264E-1,1.0591187E0,-2.9842705E-1,6.5E0,5.5E0,-6.188195E-1,-5.0786555E-2,1.787181E-2,-6.1591245E-2,2.208775E0,3.9233584E-2,-1.7810866E-1,-1.0297275E0,-8.9389455E-1,3.6060828E-1,2.0567143E-1,1.127247E-1,-6.562587E-1,1.1583817E-2,1.0584474E-1,-3.3635932E-1,3.1134033E-1,2.0921917E0,1.3453647E-1,-1.04637004E-1,-8.3795175E-2,1.6813383E-1,-3.2172605E-2,-5.069432E-1,-1.573845E-1,3.4541932E-1,-2.9414492E-2,-2.0270503E-1,-1.4108697E-2,7.046876E-2],"split_indices":[1,0,13,13,14,12,11,12,15,13,12,3,3,1,13,0,12,4,1,12,14,0,0,0,0,0,15,14,12,10,15,0,0,0,0,0,0,0,0,0,0,0,0,0,0,0,0,0,0],"split_type":[0,0,0,0,0,0,0,0,0,0,0,0,0,0,0,0,0,0,0,0,0,0,0,0,0,0,0,0,0,0,0,0,0,0,0,0,0,0,0,0,0,0,0,0,0,0,0,0,0],"sum_hessian":[2.8E2,1E0,2.79E2,2.07E2,7.2E1,2.02E2,5E0,3.6E1,3.6E1,1.5E1,1.87E2,2E0,3E0,1E1,2.6E1,1E0,3.5E1,9E0,6E0,1.9E1,1.68E2,1E0,1E0,2E0,1E0,2E0,8E0,9E0,1.7E1,8E0,2.7E1,5E0,4E0,5E0,1E0,1.8E1,1E0,7.3E1,9.5E1,2E0,6E0,2E0,7E0,1.6E1,1E0,3E0,5E0,2E1,7E0],"tree_param":{"num_deleted":"0","num_feature":"16","num_nodes":"49","size_leaf_vector":"0"}},{"base_weights":[9.621079E-2,-5.207214E-1,1.6384028E-1,-6.852428E-1,3.7312558E-1,4.668106E0,1.2758584E-1,-9.04523E-1,-3.4386396E-1,1.4256127E-1,4.7931468E-1,3.6208081E0,8.5325874E-2,-1.1420803E0,-3.9743316E-1,8.1922494E-2,-4.475857E-1,5.552868E0,-1.2165582E-1,4.1022792E-1,-5.545755E-2,-5.6551147E-1,-1.4902332E0,-7.839084E-2,-4.4556347E-1,-1.5458009E-1,-6.510742E-1,1.9821348E0,1.9614868E-1,-8.335594E-1,5.5340506E-2,-7.221763E-1,3.0574024E-2,-3.2973573E-1,7.210223E-2,-9.338322E-1,-1.5129133E-1,5.787633E-1,6.604553E0,-1.822599E-1,1.181637E0,-1.4119828E0,9.442334E-1,1.0353748E0,-3.414052E-2],"categories":[],"categories_nodes":[],"categories_segments":[],"categories_sizes":[],"default_left":[1,1,1,1,1,0,1,1,1,0,0,1,1,1,1,0,1,0,0,1,1,1,0,0,0,1,1,1,1,1,1,0,0,0,0,0,0,0,0,0,0,0,0,0,0],"id":26,"left_children":[1,3,5,7,9,-1,11,13,15,-1,-1,17,19,21,23,-1,25,-1,-1,27,29,31,-1,-1,-1,33,35,37,39,41,43,-1,-1,-1,-1,-1,-1,-1,-1,-1,-1,-1,-1,-1,-1],"loss_changes":[1.18094225E1,4.3732758E0,4.0882515E1,1.4855509E0,5.4085433E-2,0E0,3.703979E1,1.2325792E0,5.224637E-1,0E0,0E0,2.236753E1,1.1503696E1,9.638643E-1,5.7205617E-2,0E0,4.3596637E-1,0E0,0E0,2.518617E1,1.5219473E1,4.8900795E-1,0E0,0E0,0E0,2.2229807E-1,5.653074E-1,5.4560257E1,2.5573738E1,2.3956215E1,1.3627992E1,0E0,0E0,0E0,0E0,0E0,0E0,0E0,0E0,0E0,0E0,0E0,0E0,0E0,0E0],"parents":[2147483647,0,0,1,1,2,2,3,3,4,4,6,6,7,7,8,8,11,11,12,12,13,13,14,14,16,16,19,19,20,20,21,21,25,25,26,26,27,27,28,28,29,29,30,30],"right_children":[2,4,6,8,10,-1,12,14,16,-1,-1,18,20,22,24,-1,26,-1,-1,28,30,32,-1,-1,-1,34,36,38,40,42,44,-1,-1,-1,-1,-1,-1,-1,-1,-1,-1,-1,-1,-1,-1],"split_conditions":[-9.8749197E-1,-2.7160808E-1,-5.644425E-1,-1.0430654E0,1E1,1.4004319E0,-9.77986E-1,1.3359226E-1,-9.592315E-4,4.276838E-2,1.4379442E-1,2.5E0,-6.2520254E-1,-3.72725E-1,-6.7387766E-1,2.457675E-2,-1.0123538E0,1.6658604E0,-3.6496747E-2,-5.029331E-1,-5.094542E-1,-1.0796269E0,-4.4706997E-1,-2.3517253E-2,-1.3366905E-1,1.9789691E-1,2.5E0,3.5E0,2.7990738E-2,-9.640539E-2,-6.217412E-1,-2.166529E-1,9.172208E-3,-9.8920725E-2,2.1630669E-2,-2.8014967E-1,-4.53874E-2,1.73629E-1,1.981366E0,-5.4677974E-2,3.544911E-1,-4.2359486E-1,2.8327003E-1,3.1061244E-1,-1.0242157E-2],"split_indices":[14,10,10,14,3,0,14,13,13,0,0,1,13,15,12,0,14,0,0,11,13,14,0,0,0,13,4,1,15,12,12,0,0,0,0,0,0,0,0,0,0,0,0,0,0],"split_type":[0,0,0,0,0,0,0,0,0,0,0,0,0,0,0,0,0,0,0,0,0,0,0,0,0,0,0,0,0,0,0,0,0,0,0,0,0,0,0,0,0,0,0,0,0],"sum_hessian":[2.8E2,2.7E1,2.53E2,2.3E1,4E0,1E0,2.52E2,1.3E1,1E1,2E0,2E0,2E0,2.5E2,8E0,5E0,2E0,8E0,1E0,1E0,7.5E1,1.75E2,4E0,4E0,1E0,4E0,4E0,4E0,8E0,6.7E1,2.1E1,1.54E2,3E0,1E0,2E0,2E0,2E0,2E0,7E0,1E0,4.9E1,1.8E1,1.6E1,5E0,1.2E1,1.42E2],"tree_param":{"num_deleted":"0","num_feature":"16","num_nodes":"45","size_leaf_vector":"0"}},{"base_weights":[8.386432E-2,1.0208299E-1,-1.6384267E0,1.6145904E-1,-4.580735E-1,-5.0236773E-1,2.1444309E-1,-2.686427E-1,-9.609268E-1,8.6245835E-1,-7.1366835E-1,1.6442893E0,1.0247127E-1,-3.793159E-1,1.6137475E-1,-7.8163445E-2,-1.2983994E0,-1.2561909E0,5.3693324E-2,3.3361825E-1,4.723176E0,-1.397698E0,1.5129152E-1,-5.817778E-1,-7.8824036E-2,3.4153903E-1,-2.7964115E-1,-1.8466091E-1,6.7415744E-2,-1.5135865E0,-2.188254E-1,-1.3633701E0,-1.4578915E-1,5.969108E-1,-1.09182134E-1,-1.1433766E0,3.9427009E0,-2.0992918E-1,8.081889E0,6.738218E-1,-1.855255E0,6.800899E-2,8.363208E-1,-7.382389E-1,-1.6252658E-1,3.4822172E-1,-2.7920958E-1,4.2322725E-2,4.271702E-1],"categories":[],"categories_nodes":[],"categories_segments":[],"categories_sizes":[],"default_left":[1,1,0,1,1,1,1,1,1,0,1,1,1,1,1,1,1,1,1,1,1,1,1,1,1,1,0,0,0,0,0,0,0,0,0,0,0,0,0,0,0,0,0,0,0,0,0,0,0],"id":27,"left_children":[1,3,-1,5,7,9,11,13,15,-1,17,19,21,23,25,27,29,31,33,35,37,39,41,43,45,47,-1,-1,-1,-1,-1,-1,-1,-1,-1,-1,-1,-1,-1,-1,-1,-1,-1,-1,-1,-1,-1,-1,-1],"loss_changes":[8.98443E0,9.353467E0,0E0,9.006303E0,2.3137631E0,6.0948935E0,3.7455585E1,1.0606315E0,1.9838719E0,0E0,7.1447344E0,6.7026184E1,1.6250723E1,9.8839045E-1,4.9278492E-1,5.8960505E-2,8.3034134E-1,9.9135494E-1,7.7298635E-1,7.380575E1,8.454106E1,7.88498E0,1.209498E1,5.359814E-1,7.8181726E-1,8.440995E-2,0E0,0E0,0E0,0E0,0E0,0E0,0E0,0E0,0E0,0E0,0E0,0E0,0E0,0E0,0E0,0E0,0E0,0E0,0E0,0E0,0E0,0E0,0E0],"parents":[2147483647,0,0,1,1,3,3,4,4,5,5,6,6,7,7,8,8,10,10,11,11,12,12,13,13,14,14,15,15,16,16,17,17,18,18,19,19,20,20,21,21,22,22,23,23,24,24,25,25],"right_children":[2,4,-1,6,8,10,12,14,16,-1,18,20,22,24,26,28,30,32,34,36,38,40,42,44,46,48,-1,-1,-1,-1,-1,-1,-1,-1,-1,-1,-1,-1,-1,-1,-1,-1,-1,-1,-1,-1,-1,-1,-1],"split_conditions":[5.891906E0,3.5E0,-4.91528E-1,-6.274427E-1,5.5E0,1.5E0,-6.1751467E-1,-4.2283976E-1,-2.0673409E-1,2.587375E-1,5.5E0,-6.222801E-1,-6.06764E-1,8.0236053E-1,2.1716464E-1,4.5E0,5.5E0,1.5081747E0,1.6E1,2.5E0,3.5E0,-6.5145576E-1,4E0,-5.145182E-1,-4.790325E-1,3.5E0,-8.3892345E-2,-5.5398274E-2,2.0224724E-2,-4.5407596E-1,-6.5647624E-2,-4.0901104E-1,-4.3736745E-2,1.7907324E-1,-3.275464E-2,-3.43013E-1,1.1828103E0,-6.297876E-2,2.4245667E0,2.0214655E-1,-5.5657655E-1,2.0402698E-2,2.5089625E-1,-2.2147167E-1,-4.8757974E-2,1.0446652E-1,-8.376288E-2,1.2696818E-2,1.2815106E-1],"split_indices":[15,7,0,12,1,7,12,12,13,0,3,12,12,13,11,3,3,10,6,7,3,11,1,12,10,1,0,0,0,0,0,0,0,0,0,0,0,0,0,0,0,0,0,0,0,0,0,0,0],"split_type":[0,0,0,0,0,0,0,0,0,0,0,0,0,0,0,0,0,0,0,0,0,0,0,0,0,0,0,0,0,0,0,0,0,0,0,0,0,0,0,0,0,0,0,0,0,0,0,0,0],"sum_hessian":[2.8E2,2.78E2,2E0,2.52E2,2.6E1,1.8E1,2.34E2,2E1,6E0,2E0,1.6E1,1.6E1,2.18E2,1.6E1,4E0,2E0,4E0,9E0,7E0,1.2E1,4E0,6E0,2.12E2,9E0,7E0,3E0,1E0,1E0,1E0,3E0,1E0,8E0,1E0,1E0,6E0,9E0,3E0,2E0,2E0,1E0,5E0,1.9E2,2.2E1,6E0,3E0,2E0,5E0,1E0,2E0],"tree_param":{"num_deleted":"0","num_feature":"16","num_nodes":"49","size_leaf_vector":"0"}},{"base_weights":[6.522308E-2,1.8767776E0,5.2050468E-2,1.2163198E-1,-2.4826339E-1,6.638295E-2,2.572462E0,-5.4070854E-1,2.6130652E-1,3.699089E-2,1.3463571E0,4.9553375E0,7.379088E-1,5.8021724E-1,-6.6790193E-1,5.857403E-1,-3.794372E-3,9.617105E-2,-1.3611408E0,-7.3903453E-1,4.8439617E0,1.0510955E0,2.8314808E-1,9.399196E-1,-2.4944484E-1,-1.0998613E0,-2.47473E-1,6.6174096E-1,-1.1132538E-2,-1.301947E-1,7.568012E-2,4.506395E-2,1.5864414E0,-3.6169183E0,-1.9993035E-1,-1.1719888E0,2.7991417E-1,-1.9278227E0,-7.32219E-1,1.6743666E-1,-6.3488567E-1,1.5710025E-1,-4.5920014E-3],"categories":[],"categories_nodes":[],"categories_segments":[],"categories_sizes":[],"default_left":[1,0,1,1,1,1,1,1,1,1,1,0,1,1,1,1,1,1,1,1,0,0,0,0,0,1,1,0,0,0,1,0,0,0,0,0,0,0,0,0,0,0,0],"id":28,"left_children":[1,-1,3,5,7,9,11,13,15,17,19,-1,21,23,25,27,29,31,33,35,-1,-1,-1,-1,-1,37,39,-1,-1,-1,41,-1,-1,-1,-1,-1,-1,-1,-1,-1,-1,-1,-1],"loss_changes":[6.6077905E0,0E0,5.8811593E0,3.0701796E1,8.039416E0,8.377319E0,1.8200974E1,5.235056E0,1.7223763E0,1.8334068E1,4.0049232E1,0E0,2.7208447E-1,1.4281837E0,5.357668E0,4.1563153E-1,1.3040036E-1,1.607515E1,2.2851757E1,2.092689E0,0E0,0E0,0E0,0E0,0E0,3.154316E0,2.8389044E0,0E0,0E0,0E0,5.300754E-2,0E0,0E0,0E0,0E0,0E0,0E0,0E0,0E0,0E0,0E0,0E0,0E0],"parents":[2147483647,0,0,2,2,3,3,4,4,5,5,6,6,7,7,8,8,9,9,10,10,12,12,13,13,14,14,15,15,16,16,17,17,18,18,19,19,25,25,26,26,30,30],"right_children":[2,-1,4,6,8,10,12,14,16,18,20,-1,22,24,26,28,30,32,34,36,-1,-1,-1,-1,-1,38,40,-1,-1,-1,42,-1,-1,-1,-1,-1,-1,-1,-1,-1,-1,-1,-1],"split_conditions":[1.5E0,5.6303334E-1,2.0567143E-1,1.2432831E-1,-4.194292E-2,1.2906705E0,1.4466403E-1,-4.3631783E-1,3.1364527E-1,1.430422E-1,4.195107E-2,1.4866014E0,2E0,4E0,5.5E0,4.5361643E0,4.100455E-1,7.612187E-2,3.2088023E-1,7.938656E-2,1.4531885E0,3.1532866E-1,8.494443E-2,2.819759E-1,-7.483345E-2,3.6835724E-1,1.3638699E0,1.985223E-1,-3.3397616E-3,-3.905841E-2,2.5238738E0,1.3519186E-2,4.7593245E-1,-1.0850755E0,-5.9979107E-2,-3.5159665E-1,8.397426E-2,-5.7834685E-1,-2.196657E-1,5.0231E-2,-1.904657E-1,4.7130074E-2,-1.3776005E-3],"split_indices":[1,0,10,10,12,15,10,15,13,15,11,0,4,4,3,10,10,15,15,10,0,0,0,0,0,10,11,0,0,0,14,0,0,0,0,0,0,0,0,0,0,0,0],"split_type":[0,0,0,0,0,0,0,0,0,0,0,0,0,0,0,0,0,0,0,0,0,0,0,0,0,0,0,0,0,0,0,0,0,0,0,0,0,0,0,0,0,0,0],"sum_hessian":[2.8E2,1E0,2.79E2,2.27E2,5.2E1,2.23E2,4E0,3.3E1,1.9E1,2.19E2,4E0,1E0,3E0,3E0,3E1,8E0,1.1E1,2.11E2,8E0,3E0,1E0,1E0,2E0,2E0,1E0,1.4E1,1.6E1,7E0,1E0,4E0,7E0,2.05E2,6E0,2E0,6E0,2E0,1E0,3E0,1.1E1,8E0,8E0,3E0,4E0],"tree_param":{"num_deleted":"0","num_feature":"16","num_nodes":"43","size_leaf_vector":"0"}},{"base_weights":[5.4377303E-2,-3.784429E-1,1.03774175E-1,-1.2800615E0,-1.8298148E-1,2.9889946E0,8.04638E-2,-1.6056073E-1,-1.5197964E0,-6.9421554E-1,-2.0462196E-2,2.4091706E0,5.219746E-2,-3.245157E-2,-8.20078E-1,3.8901743E-1,-1.8288991E-1,-3.3717167E-1,3.9509277E0,1.5099579E-1,-2.6318055E-1,-2.0017004E-1,-9.2501247E-1,3.902337E-2,4.5121157E-1,-6.607406E-1,-8.365502E-3,8.070065E-2,4.529258E0,-3.9796206E-1,-1.2286923E-2,9.3198165E-2,-1.2546219E-1,1.4371917E0,-3.6031153E-2,6.7113705E0,8.251655E-2,-2.29141E-2,-5.0971264E-1,9.6684647E-1,-1.0495263E-1],"categories":[],"categories_nodes":[],"categories_segments":[],"categories_sizes":[],"default_left":[1,1,1,1,1,0,1,0,0,1,1,1,1,0,1,1,1,0,0,1,1,0,0,0,0,0,1,1,1,1,1,0,0,0,0,0,0,0,0,0,0],"id":29,"left_children":[1,3,5,7,9,-1,11,-1,-1,13,15,17,19,-1,21,23,25,-1,-1,27,29,-1,-1,-1,-1,-1,31,33,35,37,39,-1,-1,-1,-1,-1,-1,-1,-1,-1,-1],"loss_changes":[6.0470424E0,4.8764896E0,1.6775154E1,1.0978975E0,2.0629296E0,0E0,1.6461899E1,0E0,0E0,4.7313476E-1,1.4013642E0,1.4034719E1,7.829444E0,0E0,1.4008856E-1,1.1299771E-1,1.2454219E0,0E0,0E0,5.841867E1,2.0240593E0,0E0,0E0,0E0,0E0,0E0,1.5440607E-1,2.9979109E1,2.8556065E1,1.6228819E0,2.097579E0,0E0,0E0,0E0,0E0,0E0,0E0,0E0,0E0,0E0,0E0],"parents":[2147483647,0,0,1,1,2,2,3,3,4,4,6,6,9,9,10,10,11,11,12,12,14,14,15,15,16,16,19,19,20,20,26,26,27,27,28,28,29,29,30,30],"right_children":[2,4,6,8,10,-1,12,-1,-1,14,16,18,20,-1,22,24,26,-1,-1,28,30,-1,-1,-1,-1,-1,32,34,36,38,40,-1,-1,-1,-1,-1,-1,-1,-1,-1,-1],"split_conditions":[-7.893132E-1,-4.322886E-1,-7.861531E-1,-5.020121E-1,-5.449609E-1,8.966984E-1,-5.644425E-1,-4.816822E-2,-4.5593894E-1,-5.88032E-1,2.6220155E-1,1.5E0,6.9947314E-1,-9.735472E-3,1.5E0,-5.4270613E-1,-1.9343672E-2,-1.011515E-1,1.1852784E0,5.7086384E-1,4.2910572E-2,-6.0051013E-2,-2.7750376E-1,1.1707012E-2,1.3536347E-1,-1.9822219E-1,-3.4107494E-1,-6.1156E-1,4E0,-8.119968E-1,-4.1782194E-1,2.7959451E-2,-3.7638657E-2,4.3115753E-1,-1.0809346E-2,2.0134113E0,2.4754966E-2,-6.87423E-3,-1.529138E-1,2.9005396E-1,-3.1485792E-2],"split_indices":[11,13,11,10,10,0,10,0,0,10,13,7,13,0,7,10,14,0,0,13,12,0,0,0,0,0,10,11,3,14,10,0,0,0,0,0,0,0,0,0,0],"split_type":[0,0,0,0,0,0,0,0,0,0,0,0,0,0,0,0,0,0,0,0,0,0,0,0,0,0,0,0,0,0,0,0,0,0,0,0,0,0,0,0,0],"sum_hessian":[2.8E2,2.8E1,2.52E2,4E0,2.4E1,1E0,2.51E2,1E0,3E0,5E0,1.9E1,2E0,2.49E2,1E0,4E0,5E0,1.4E1,1E0,1E0,1.9E2,5.9E1,1E0,3E0,1E0,4E0,3E0,1.1E1,1.88E2,2E0,3.8E1,2.1E1,6E0,5E0,1.4E1,1.74E2,1E0,1E0,9E0,2.9E1,1E0,2E1],"tree_param":{"num_deleted":"0","num_feature":"16","num_nodes":"41","size_leaf_vector":"0"}},{"base_weights":[5.096763E-2,-3.7802044E-1,9.8056994E-2,-5.160112E-1,3.5993907E-1,2.9483676E0,6.373561E-2,-6.768128E-1,-2.644444E-1,1.2487973E-1,6.500882E-1,4.4874E0,-6.484848E-2,3.3582916E0,3.723024E-2,-4.6546003E-1,-9.6415585E-1,-5.001835E-2,-5.11752E-1,-3.3639535E-1,1.3184553E-1,-6.252965E-1,-6.938125E-2,-2.0013243E-1,-1.1051285E0,-1.1570933E-1,7.613939E-2,-3.989738E-1,1.3962631E0,4.0586014E0,7.198568E-2,-7.9766023E-1,-2.9660857E-1,3.1734366E-2,-1.8636405E-1,-1.5574415E-1,-3.7104726E-2,4.5667222E-1,-4.8330545E-1,8.218193E-1,5.266083E0,2.5406456E0,4.668615E-2],"categories":[],"categories_nodes":[],"categories_segments":[],"categories_sizes":[],"default_left":[1,1,1,1,1,1,1,1,1,0,0,0,0,0,1,1,1,1,0,1,1,1,1,0,0,1,0,1,0,1,1,0,0,0,0,0,0,0,0,0,0,0,0],"id":30,"left_children":[1,3,5,7,9,11,13,15,17,-1,-1,-1,-1,-1,19,21,23,25,-1,27,29,31,33,-1,-1,35,-1,37,-1,39,41,-1,-1,-1,-1,-1,-1,-1,-1,-1,-1,-1,-1],"loss_changes":[5.713486E0,3.0370164E0,2.4660042E1,7.9187727E-1,2.5982845E-1,1.4203314E1,2.1880472E1,4.0145445E-1,5.5772394E-1,0E0,0E0,0E0,0E0,0E0,8.917377E0,5.8969426E-1,3.1735992E-1,6.6822015E-2,0E0,6.086852E0,4.6953907E1,1.5998435E-1,5.3229295E-2,0E0,0E0,9.955764E-3,0E0,3.8286142E0,0E0,7.397293E0,1.2310116E1,0E0,0E0,0E0,0E0,0E0,0E0,0E0,0E0,0E0,0E0,0E0,0E0],"parents":[2147483647,0,0,1,1,2,2,3,3,4,4,5,5,6,6,7,7,8,8,14,14,15,15,16,16,17,17,19,19,20,20,21,21,22,22,25,25,27,27,29,29,30,30],"right_children":[2,4,6,8,10,12,14,16,18,-1,-1,-1,-1,-1,20,22,24,26,-1,28,30,32,34,-1,-1,36,-1,38,-1,40,42,-1,-1,-1,-1,-1,-1,-1,-1,-1,-1,-1,-1],"split_conditions":[-9.8749197E-1,-2.7160808E-1,-9.77986E-1,1.2073134E-1,1.15E1,2.5E0,-5.644425E-1,-5.083159E-1,4E0,3.7463922E-2,1.9502647E-1,1.34622E0,-1.9454546E-2,1.0074875E0,-4.442584E-1,-5.447169E-1,2.5E0,-1.0218598E0,-1.535256E-1,4.849183E0,-4.410047E-1,-5.8014107E-1,3.5E0,-6.0039733E-2,-3.3153856E-1,2.879234E-1,2.2841819E-2,-8.824211E-1,4.1887894E-1,3.5E0,-9.805539E-1,-2.3929808E-1,-8.8982575E-2,9.52031E-3,-5.590922E-2,-4.6723247E-2,-1.1131418E-2,1.3700168E-1,-1.4499164E-1,2.465458E-1,1.5798249E0,7.6219374E-1,1.4005845E-2],"split_indices":[14,10,14,13,3,1,10,10,3,0,0,0,0,0,10,10,7,14,0,12,10,15,7,0,0,13,0,13,0,1,15,0,0,0,0,0,0,0,0,0,0,0,0],"split_type":[0,0,0,0,0,0,0,0,0,0,0,0,0,0,0,0,0,0,0,0,0,0,0,0,0,0,0,0,0,0,0,0,0,0,0,0,0,0,0,0,0,0,0],"sum_hessian":[2.8E2,2.7E1,2.53E2,2.3E1,4E0,2E0,2.51E2,1.3E1,1E1,3E0,1E0,1E0,1E0,1E0,2.5E2,9E0,4E0,6E0,4E0,5E1,2E2,6E0,3E0,1E0,3E0,4E0,2E0,4.9E1,1E0,2E0,1.98E2,3E0,3E0,2E0,1E0,2E0,2E0,4E0,4.5E1,1E0,1E0,1E0,1.97E2],"tree_param":{"num_deleted":"0","num_feature":"16","num_nodes":"43","size_leaf_vector":"0"}},{"base_weights":[5.2137855E-2,1.5936584E0,4.0940784E-2,2.8571978E-1,-2.2907296E-2,-4.054541E-1,6.601653E-1,-1.594087E0,5.7637324E-3,-7.265996E-2,-1.4558634E0,-3.1280395E-1,1.649598E0,2.2742237E-1,-1.1759399E-1,2.2493532E-1,-4.3557158E-1,3.4340727E-1,-1.9915328E0,-1.0446999E0,3.8099268E-1,4.3981996E0,4.2689703E-2,-1.9118616E-1,5.4795295E-1,-2.88301E-1,2.567811E-1,-1.0840915E-1,4.6523318E-1,-4.9331433E-1,-1.5686214E-2,-2.0749919E-1,-1.8404007E0,8.362428E-1,-1.3775624E-1,-2.345289E0,5.912996E0,9.2112315E-1,-2.0076394E-1,7.301914E-2,-3.5062653E-1,2.6127896E0,3.911515E-1,-1.6050431E-1,-1.3968612E0,4.1157684E0,7.553666E-2],"categories":[],"categories_nodes":[],"categories_segments":[],"categories_sizes":[],"default_left":[1,0,1,1,1,1,1,0,1,1,1,1,1,1,1,1,1,0,0,1,1,1,1,1,1,1,1,0,0,0,0,0,0,0,0,0,0,0,0,0,0,0,0,0,0,0,0],"id":31,"left_children":[1,-1,3,5,7,9,11,-1,13,15,17,19,21,23,25,27,29,-1,-1,31,33,35,37,39,41,43,45,-1,-1,-1,-1,-1,-1,-1,-1,-1,-1,-1,-1,-1,-1,-1,-1,-1,-1,-1,-1],"loss_changes":[4.784958E0,0E0,4.382572E0,1.5278472E1,1.0054745E1,7.2351885E0,3.709813E1,0E0,6.04227E0,1.9339888E0,5.5029793E0,1.0553761E1,8.37305E1,1.0704731E1,9.14903E0,8.514551E-1,1.8622446E-1,0E0,0E0,6.279731E0,2.7129633E0,8.537277E1,2.9650798E0,1.4999769E0,1.3547629E1,1.3659486E1,3.116301E1,0E0,0E0,0E0,0E0,0E0,0E0,0E0,0E0,0E0,0E0,0E0,0E0,0E0,0E0,0E0,0E0,0E0,0E0,0E0,0E0],"parents":[2147483647,0,0,2,2,3,3,4,4,5,5,6,6,8,8,9,9,10,10,11,11,12,12,13,13,14,14,15,15,16,16,19,19,20,20,21,21,22,22,23,23,24,24,25,25,26,26],"right_children":[2,-1,4,6,8,10,12,-1,14,16,18,20,22,24,26,28,30,-1,-1,32,34,36,38,40,42,44,46,-1,-1,-1,-1,-1,-1,-1,-1,-1,-1,-1,-1,-1,-1,-1,-1,-1,-1,-1,-1],"split_conditions":[1.5E0,4.7809756E-1,-5.9782875E-1,4.5E0,-5.9723306E-1,-6.1751467E-1,-4.4053206E-1,-4.7822613E-1,2.5E0,-6.4190936E-1,-6.5145576E-1,5.5E0,5.5E0,-6.850313E-1,3.2817744E-2,-9.348434E-1,1.5081747E0,1.0302219E-1,-5.9745985E-1,-7.6592934E-1,2E0,2.5E0,-3.7837753E-1,-6.9512576E-1,-6.166951E-1,2.5772385E-2,6.311798E-2,-3.2522745E-2,1.3956995E-1,-1.4799431E-1,-4.7058645E-3,-6.224976E-2,-5.521202E-1,2.5087285E-1,-4.1326873E-2,-7.035867E-1,1.7738988E0,2.7633697E-1,-6.0229186E-2,2.1905743E-2,-1.0518796E-1,7.838369E-1,1.1734545E-1,-4.8151296E-2,-4.1905838E-1,1.2347306E0,2.2660999E-2],"split_indices":[1,0,12,3,12,12,14,0,3,12,11,3,3,11,10,14,10,0,0,14,7,4,14,15,11,15,10,0,0,0,0,0,0,0,0,0,0,0,0,0,0,0,0,0,0,0,0],"split_type":[0,0,0,0,0,0,0,0,0,0,0,0,0,0,0,0,0,0,0,0,0,0,0,0,0,0,0,0,0,0,0,0,0,0,0,0,0,0,0,0,0,0,0,0,0,0,0],"sum_hessian":[2.8E2,1E0,2.79E2,5.7E1,2.22E2,2E1,3.7E1,3E0,2.19E2,1.6E1,4E0,1.9E1,1.8E1,7.8E1,1.41E2,9E0,7E0,1E0,3E0,9E0,1E1,6E0,1.2E1,3.4E1,4.4E1,9.7E1,4.4E1,4E0,5E0,6E0,1E0,5E0,4E0,5E0,5E0,1E0,5E0,2E0,1E1,1.3E1,2.1E1,2E0,4.2E1,8.8E1,9E0,1E0,4.3E1],"tree_param":{"num_deleted":"0","num_feature":"16","num_nodes":"47","size_leaf_vector":"0"}},{"base_weights":[4.3434102E-2,-9.4540924E-2,1.7166129E-1,-3.789524E-2,-1.9543747E0,3.8039474E0,9.479657E-2,-9.529305E-2,1.8370074E0,5.794407E0,-8.848566E-2,8.5782E-1,-7.283077E-3,5.1382935E-1,-2.2413121E-1,-4.1134402E-1,4.291031E0,-1.0156119E0,1.9720203E0,2.1836243E0,-4.172821E-2,1.6424935E0,-3.2906145E-1,-2.1951409E-2,-7.256117E-1,1.535654E-1,-1.9308861E0,-4.5760664E-1,4.072977E0,1.3546066E0,-6.3561074E-2,-9.2988724E-1,4.4008517E0,-7.4659795E-2,-6.5582037E-1,7.5582343E-1,-1.4744511E-1,1.1422038E-1,-9.753219E-1,1.8085709E0,-1.00096E0,6.557216E-2,-1.5367503E0,2.8431028E-2,8.108047E0,-3.6301088E-2,-1.1691202E0],"categories":[],"categories_nodes":[],"categories_segments":[],"categories_sizes":[],"default_left":[1,1,1,1,0,1,1,1,1,0,0,1,1,1,1,0,0,1,1,0,1,1,1,1,1,1,0,1,1,0,1,0,0,0,0,0,0,0,0,0,0,0,0,0,0,0,0],"id":32,"left_children":[1,3,5,7,-1,9,11,13,15,-1,-1,17,19,21,23,-1,-1,25,27,-1,29,31,33,35,37,39,-1,41,43,-1,45,-1,-1,-1,-1,-1,-1,-1,-1,-1,-1,-1,-1,-1,-1,-1,-1],"loss_changes":[4.9877234E0,1.425375E1,4.040182E1,1.448789E1,0E0,2.3755913E1,1.1222286E1,1.0317331E1,2.3835117E1,0E0,0E0,3.7488235E1,9.750779E0,2.2421316E1,1.0934109E1,0E0,0E0,7.787342E0,5.8013775E1,0E0,3.9578218E0,7.504777E1,1.1148287E0,7.7246985E0,6.6125546E0,9.453292E0,0E0,3.4882789E0,9.768962E1,0E0,3.7548885E0,0E0,0E0,0E0,0E0,0E0,0E0,0E0,0E0,0E0,0E0,0E0,0E0,0E0,0E0,0E0,0E0],"parents":[2147483647,0,0,1,1,2,2,3,3,5,5,6,6,7,7,8,8,11,11,12,12,13,13,14,14,17,17,18,18,20,20,21,21,22,22,23,23,24,24,25,25,27,27,28,28,30,30],"right_children":[2,4,6,8,-1,10,12,14,16,-1,-1,18,20,22,24,-1,-1,26,28,-1,30,32,34,36,38,40,-1,42,44,-1,46,-1,-1,-1,-1,-1,-1,-1,-1,-1,-1,-1,-1,-1,-1,-1,-1],"split_conditions":[-3.0414525E-1,-3.104493E-1,-3.019083E-1,7.390351E-2,-5.863124E-1,5.5E0,-2.8157258E-1,-6.6378534E-1,4.588564E-1,1.7383221E0,-2.6545698E-2,-2.9987472E-1,-9.6835303E-1,2.5E0,-1.16505176E-1,-1.23403214E-1,1.2873093E0,2.5E0,2.5E0,6.550873E-1,1.5E0,-6.2117386E-1,-3.723553E-1,-9.7904444E-2,1.5E0,1.5E0,-5.792659E-1,-2.626769E-1,-3.4199572E-1,4.06382E-1,5.891906E0,-2.789662E-1,1.3202555E0,-2.239794E-2,-1.9674613E-1,2.2674704E-1,-4.4233534E-2,3.4266114E-2,-2.9259658E-1,5.425713E-1,-3.0028802E-1,1.9671649E-2,-4.6102512E-1,8.529309E-3,2.432414E0,-1.0890326E-2,-3.5073608E-1],"split_indices":[10,10,10,15,0,1,10,13,12,0,0,10,15,7,15,0,0,3,7,0,1,12,15,13,7,4,0,14,11,0,15,0,0,0,0,0,0,0,0,0,0,0,0,0,0,0,0],"split_type":[0,0,0,0,0,0,0,0,0,0,0,0,0,0,0,0,0,0,0,0,0,0,0,0,0,0,0,0,0,0,0,0,0,0,0,0,0,0,0,0,0,0,0,0,0,0,0],"sum_hessian":[2.8E2,1.35E2,1.45E2,1.32E2,3E0,2E0,1.43E2,1.29E2,3E0,1E0,1E0,1.6E1,1.27E2,2.2E1,1.07E2,2E0,1E0,6E0,1E1,1E0,1.26E2,9E0,1.3E1,7.7E1,3E1,3E0,3E0,5E0,5E0,1E0,1.25E2,5E0,4E0,8E0,5E0,1E1,6.7E1,7E0,2.3E1,1E0,2E0,4E0,1E0,3E0,2E0,1.23E2,2E0],"tree_param":{"num_deleted":"0","num_feature":"16","num_nodes":"47","size_leaf_vector":"0"}},{"base_weights":[4.9614362E-2,-5.6443933E-2,1.4806856E-1,-1.2164011E-2,-1.5146405E0,3.2333562E0,8.2763486E-2,-6.096405E-2,1.5768783E0,-4.5405978E-1,-1.716814E0,4.925247E0,-7.5212836E-2,6.562068E-1,-1.5019358E-2,3.9542618E-1,-1.5759379E-1,-3.2907522E-1,3.6473694E0,5.3068733E0,1.5832978E-1,1.8560791E0,-4.5321614E-2,-2.5907836E0,6.489259E-1,2.2033095E-2,-4.635103E-1,-4.1188037E-1,-8.173245E-2,-1.8375114E-1,3.3289337E0,-3.420766E-1,1.5580097E-1,1.9689239E0,-2.4599616E-1,7.8244156E-1,-9.051952E-2,-9.828985E-1,-2.5761765E-1,1.5922095E-1,-5.083481E-1,-7.3025316E-1,-1.1000252E-2,3.503849E0,6.193936E-2],"categories":[],"categories_nodes":[],"categories_segments":[],"categories_sizes":[],"default_left":[1,1,1,1,1,1,1,1,1,0,0,0,0,1,1,1,1,1,0,0,1,0,1,0,1,1,1,0,0,1,0,1,1,0,0,0,0,0,0,0,0,0,0,0,0],"id":33,"left_children":[1,3,5,7,9,11,13,15,17,-1,-1,-1,-1,19,21,23,25,27,-1,-1,29,-1,31,-1,33,35,37,-1,-1,39,-1,41,43,-1,-1,-1,-1,-1,-1,-1,-1,-1,-1,-1,-1],"loss_changes":[2.9425273E0,8.762937E0,2.91492E1,1.0409661E1,7.814884E-2,1.7163658E1,8.084356E0,5.795429E0,1.6985298E1,0E0,0E0,0E0,0E0,4.778442E1,7.114735E0,1.9092302E1,5.9449024E0,2.7779758E-2,0E0,0E0,2.2303759E1,0E0,7.3944435E0,0E0,2.6472847E1,5.9762573E0,4.024317E0,0E0,0E0,2.196166E0,0E0,6.4177723E0,2.3037708E1,0E0,0E0,0E0,0E0,0E0,0E0,0E0,0E0,0E0,0E0,0E0,0E0],